tree
version=v4
num_class=1
num_tree_per_iteration=1
label_index=0
max_feature_idx=27
objective=regression
feature_names=population pop_working pop_adult pop_elderly households single_households young_single working_ratio elderly_ratio single_ratio young_single_ratio genre_diversity genre_hhi other_genre_count commercial_density_rank neighbor_avg_restaurants neighbor_avg_population saturation_index nearest_station_distance nearest_station_passengers station_accessibility land_price google_avg_rating reviews_per_shop google_density genre_encoded price_x_saturation pop_x_station_dist
feature_infos=[7:1945] [0:1198] [0:1354] [0:598] [6:1174] [0:956] [0:292] [0:0.86163522012578619] [0:0.52000000000000002] [0:0.94852941176470584] [0:0.65413533834586468] [1:8] [0:0.75510204081632648] [0:5.0937502008067623] [0.082736674622116105:1] [0:4.3788967416649536] [0:1341.25] [0:2389.3805309734512] [0.0085516736225260005:1.4674121224981451] [0:287964] [0:14.691432201769311] [0:16.374674055728203] [0:5] [0:12406] [0:336.25730994152048] -1:4:5:8:7:0:3:1:6 [0:25771.670639884258] [0.42838332904688159:1386.6026182906808]
tree_sizes=2605 2784 2783 2778 2766 2802 2786 2813 2795 2786 2793 2799 2796 2813 2808 2803 2800 2790 2817 2821 2831 2821 2824 2824 2846 2825 2799 2843 2834 2838 2842 2820 2815 2817 2834 2830 2834 2788 2854 2831 2852 2851 2843 2866 2838 2826 2833 2842 2852 2859 2841 2845 2847 2853 2874 2843 2837 2844 2828 2854 2851 2836 2855 2868 2884 2853 2867 2854 2853 2881 2842 2853 2868 2854 2846 2867 2856 2858 2874 2873 2858 2881 2855 2838 2868 2864 2848 2863 2865 2869 2838 2864 2835 2837 2888 2880 2849 2842 2870 2872 2865 2874 2850 2859 2875 2826 2873 2873 2864 2858 2887 2870 2881 2862 2865 2885 2859 2859 2889 2892 2867 2865 2878 2876 2875 2880 2856 2880 2869 2891 2865 2858 2886 2876 2865 2863 2873 2877 2871 2868 2885 2881 2891 2877 2890 2860 2894 2889 2881 2878 2866 2898 2882 2869 2851 2892 2894 2889 2883 2884 2865 2879 2882 2885 2876 2881 2862 2868 2873 2872 2889 2884 2880 2878 2902 2883 2861 2888 2886 2881 2867 2893 2872 2880 2891 2871 2878 2885 2900 2890 2881 2865 2894 2879 2875 2879 2858 2878 2883 2894 2893 2902 2900 2888 2903 2890 2906 2902 2879 2903 2884 2880 2883 2882 2906 2892 2889 2897 2908 2888 2873 2922 2916 2916 2892 2901 2883 2887 2874 2901 2888 2908 2910 2888 2912 2897 2882 2903 2907 2896 2908 2878 2886 2895 2891 2901 2876 2892 2902 2902 2874 2888 2898 2882 2893 2887 2884 2896 2907 2885 2894 2924 2892 2882 2909 2904 2878 2907 2914 2899 2893 2920 2910 2882 2891 2890 2893 2881 2913 2891 2904 2915 2915 2898 2920 2914 2910 2915 2893 2902 2918 2881 2908 2902 2896 2904 2899 2927 2884 2918

Tree=0
num_leaves=31
num_cat=2
split_feature=15 25 17 13 15 25 24 17 24 22 13 12 24 13 17 12 9 15 13 12 13 16 27 22 24 17 20 12 27 18
split_gain=90.8755 51.0933 41.2154 12.5804 11.8625 12.03 5.7066 5.56077 3.10119 2.89414 3.75931 2.40271 2.12689 2.12128 1.17282 0.947976 0.943359 0.807627 0.720377 0.988194 2.09509 0.714595 0.618344 0.538081 0.36805 0.365228 0.140848 0.108731 0.1178 0.141392
threshold=2.7121996025095583 0 134.07672905880793 4.2555875595453383 1.6699933253086297 1 38.624957481217145 394.89247311827967 23.636270525193556 3.6083333333333338 3.2384861814448418 0.30617541134100706 12.453377377656812 1.8688348091416842 124.66545799879135 0.51000000000000012 0.74018975036939116 2.3211426592885105 0.89587973461402759 0.37389053254437871 1.2424533248940004 769.81250000000011 54.940705268847871 4.1708333333333343 16.528936909321025 20.938861884621797 11.313815854012374 0.49111111111111116 546.70658981581425 0.18690120122771151
decision_type=2 1 2 2 2 1 2 2 2 2 2 2 2 2 2 2 2 2 2 2 2 2 2 2 2 2 2 2 2 2
left_child=4 2 8 9 13 6 12 -4 -2 22 14 -12 -6 15 16 18 -11 24 27 25 -21 -19 -3 -14 -7 -20 -26 28 29 -1
right_child=1 3 7 -5 5 17 -8 -9 -10 10 11 -13 23 -15 -16 -17 -18 21 19 20 -22 -23 -24 -25 26 -27 -28 -29 -30 -31
leaf_value=1.0648394526820779 1.0917897478419427 1.0757127864631986 1.1476961322035788 1.1160152325565251 1.072706147669519 1.0600165199550637 1.111058135845802 1.1796253489765176 1.1143646029689251 1.0739069681189037 1.1039493582522024 1.0821947787103927 1.0848425801743673 1.08006366495488 1.0691965932421357 1.0724867012959935 1.0878220245529158 1.0664331718123643 1.0603544075647517 1.0835608998242736 1.0634744246936021 1.0775168129502746 1.0642401150761631 1.0951639140419633 1.0699027527365026 1.0667813426903818 1.0646465353729972 1.0600165199550637 1.0649007980366541 1.0604935377569762
leaf_weight=24 32 23 30 29 25 26 28 25 29 21 30 22 23 21 28 29 29 26 60 21 34 33 24 28 26 35 25 91 32 85
leaf_count=24 32 23 30 29 25 26 28 25 29 21 30 22 23 21 28 29 29 26 60 21 34 33 24 28 26 35 25 91 32 85
internal_value=1.07933 1.10182 1.12674 1.0852 1.06951 1.07843 1.09067 1.16221 1.10252 1.08049 1.08433 1.09475 1.08465 1.06456 1.07739 1.06377 1.08198 1.06899 1.06311 1.06581 1.07114 1.07263 1.06985 1.09051 1.06486 1.06272 1.06733 1.06136 1.06223 1.06145
internal_weight=0 322 116 206 672 240 104 55 61 177 130 52 76 432 78 411 50 136 382 150 55 59 47 51 77 95 51 232 141 109
internal_count=994 322 116 206 672 240 104 55 61 177 130 52 76 432 78 411 50 136 382 150 55 59 47 51 77 95 51 232 141 109
cat_boundaries=0 1 2
cat_threshold=48 48
is_linear=0
shrinkage=1


Tree=1
num_leaves=31
num_cat=2
split_feature=15 25 17 13 15 25 23 17 11 18 23 22 13 12 17 23 12 12 9 15 13 12 12 13 26 11 17 11 7 7
split_gain=82.0151 46.1117 37.1969 11.3538 10.7059 10.8571 5.28147 5.0186 3.40426 3.23287 2.92666 2.63601 3.55149 2.08281 1.18463 1.1681 0.902629 0.852999 0.75107 0.601737 0.473037 0.992546 0.290825 0.224298 0.178235 0.137121 0.106737 0.0981301 0.0769156 0.176954
threshold=2.7121996025095583 0 134.07672905880793 4.2555875595453383 1.6699933253086297 1 74.333333333333357 394.89247311827967 4.5000000000000009 0.38213081153218748 154.66666666666671 3.3166666666666669 3.2384861814448418 0.30617541134100706 119.62156001583193 50.500000000000007 0.51000000000000012 0.36639053254437876 0.74018975036939116 2.3393264813739481 0.89587973461402759 0.4379752066115703 0.37389053254437871 2.249904835165133 792.49679925206976 3.5000000000000004 25.742115027829314 1.5000000000000002 0.58683817906208191 0.62729105064398605
decision_type=2 1 2 2 2 1 2 2 2 2 2 2 2 2 2 2 2 2 2 2 2 2 2 2 2 2 2 2 2 2
left_child=4 2 10 11 8 6 -6 -4 16 17 -2 -3 14 -14 18 -7 20 -8 -13 23 27 22 25 -17 -21 -22 -27 28 -1 -30
right_child=1 3 7 -5 5 15 9 -9 -10 -11 -12 12 13 -15 -16 19 -18 -19 -20 24 21 -23 -24 -25 -26 26 -28 -29 29 -31
leaf_value=-0.017971250529147009 0.0074549605604261162 -0.01394146439433098 0.064952165689319372 0.034855310785873186 -0.0027316255426297013 -0.017240464403717359 0.021537138061345711 0.095284921586513527 0.0061213480494916447 0.0038163332943804565 0.030262441046607608 -0.0051245245550359999 0.021058941253132242 0.0028188666457246089 -0.0095343726356268716 -0.01421248896692235 -0.0064967946085179671 0.035335742369560261 0.0072043976249794167 0.00039181857414188843 -0.018386069178581238 -0.0033817415147842397 -0.011417281448743061 -0.0075794721692800521 -0.0062034716363996269 -0.011990160734525749 -0.017031357543809075 -0.018343466520309448 -0.012334762838098312 -0.016914424246572187
leaf_weight=44 22 25 30 29 39 44 24 25 20 20 39 21 34 29 38 26 29 21 30 21 50 21 38 25 20 21 21 91 31 66
leaf_count=44 22 25 30 29 39 44 24 25 20 20 39 21 34 29 38 26 29 21 30 21 50 21 38 25 20 21 21 91 31 66
internal_value=0 0.0213701 0.0450391 0.00558439 -0.00931998 -0.000852908 0.0107784 0.0787398 -0.0140239 0.0205426 0.0220368 0.0011041 0.0035787 0.0126627 -0.00285156 -0.00981804 -0.0150018 0.0279765 0.00212778 -0.00733536 -0.0156458 -0.0134677 -0.015097 -0.010961 -0.0028254 -0.0166169 -0.0145108 -0.0170634 -0.0162373 -0.0154508
internal_weight=0 322 116 206 672 240 104 55 432 65 61 177 152 63 89 136 412 45 51 92 383 151 130 51 41 92 42 232 141 97
internal_count=994 322 116 206 672 240 104 55 432 65 61 177 152 63 89 136 412 45 51 92 383 151 130 51 41 92 42 232 141 97
cat_boundaries=0 1 2
cat_threshold=48 48
is_linear=0
shrinkage=0.05


Tree=2
num_leaves=31
num_cat=2
split_feature=15 25 17 13 15 25 24 17 11 24 13 23 16 23 11 17 15 26 16 13 5 24 13 17 13 20 18 7 2 1
split_gain=74.0186 41.6158 33.5702 10.2468 9.66208 9.79851 4.89649 4.52928 3.07234 2.75092 2.3265 2.12804 1.82422 1.05556 0.774401 0.72879 0.645525 0.541102 0.429789 0.288703 0.283468 0.346096 0.328249 0.89257 0.218249 0.14332 0.136532 0.12112 0.0816621 0.0835279
threshold=2.7121996025095583 0 134.07672905880793 4.2555875595453383 1.6699933253086297 1 38.624957481217145 394.89247311827967 4.5000000000000009 23.636270525193556 3.2384861814448418 68.166666666666671 387.42708333333343 37.500000000000007 3.5000000000000004 119.62156001583193 2.3393264813739481 989.43392681763589 785.56250000000011 2.740319461670996 483.50000000000006 36.053359491986036 1.4978661367769956 19.467886199403711 2.249904835165133 10.383531260616436 0.15302557464569028 0.62957941659037153 602.00000000000011 600.50000000000011
decision_type=2 1 2 2 2 1 2 2 2 2 2 2 2 2 2 2 2 2 2 2 2 2 2 2 2 2 2 2 2 2
left_child=4 2 9 10 8 6 11 -4 20 -2 15 -6 -12 -7 -13 17 24 -3 -18 -17 21 26 23 25 -15 27 -1 -23 -28 -30
right_child=1 3 7 -5 5 13 -8 -9 -10 -11 12 14 -14 16 -16 19 18 -19 -20 -21 -22 22 -24 -25 -26 -27 28 -29 29 -31
leaf_value=-0.012495452767858904 0.010826890966563953 -0.0040324431189612767 0.061704556159675121 0.033112544174595131 -0.0057214396912604569 -0.017218368626325517 0.029098092398739291 0.090520677208900446 0.0058152805734425789 0.03208867556832988 0.01540361607912928 0.0054496984202414755 -8.9251912983232421e-05 -0.013913545063857375 0.018473931655864275 -0.013305439813993873 -0.0079775985995573662 0.0058695667761970655 0.0019159083619065907 -0.0050051415508443661 -0.0096538923921123641 -0.012772033232505677 -0.018135885113761539 -0.0020853508618615922 -0.0076048232328433264 -0.010678469362082305 -0.017310944933663398 -0.017508022542353032 -0.014266375313171105 -0.016696621139999479
leaf_weight=30 32 37 30 29 30 37 28 25 20 29 38 25 38 29 21 20 21 22 23 22 31 27 21 21 26 27 85 27 79 64
leaf_count=30 32 37 30 29 30 37 28 25 20 29 38 25 38 29 21 20 21 22 23 22 31 27 21 21 26 27 85 27 79 64
internal_value=0 0.0203016 0.0427872 0.00530517 -0.00885398 -0.000810263 0.0102395 0.0748028 -0.0133227 0.020935 0.00104889 0.00463884 0.00765718 -0.00932713 0.0113955 -0.00392368 -0.00732002 -0.000340168 -0.00280599 -0.00895766 -0.0142517 -0.0146258 -0.0124433 -0.0112713 -0.0109312 -0.0136528 -0.0156664 -0.01514 -0.0160836 -0.015354
internal_weight=0 322 116 206 672 240 104 55 432 61 177 76 76 136 46 101 99 59 44 42 412 381 123 102 55 81 258 54 228 143
internal_count=994 322 116 206 672 240 104 55 432 61 177 76 76 136 46 101 99 59 44 42 412 381 123 102 55 81 258 54 228 143
cat_boundaries=0 1 2
cat_threshold=48 48
is_linear=0
shrinkage=0.05


Tree=3
num_leaves=31
num_cat=2
split_feature=17 13 22 25 22 22 19 23 25 20 24 21 24 5 20 17 16 13 22 22 23 16 17 23 8 24 16 3 19 20
split_gain=63.6582 18.0104 14.029 12.4766 8.90123 10.4037 7.21812 6.136 5.74272 4.43309 3.51223 3.0326 2.29228 1.65031 1.49326 0.935465 0.935302 0.714951 0.421075 0.355029 0.533097 0.557658 0.301549 0.282056 0.280761 0.201613 0.162906 0.0556664 0.0621724 0.0899271
threshold=190.50735786783136 2.0126758453675748 3.4708333333333337 0 4.0928571428571443 3.8258333333333341 150070.50000000003 74.333333333333357 1 11.569112963274693 22.442906371065568 12.700753345784955 41.545843689588516 465.50000000000006 13.176657958163915 21.476548761855344 546.93750000000011 2.4414009612931857 3.9468750000000008 4.29 8.3333333333333339 428.43750000000006 21.924408028041949 94.200000000000017 0.20034614466459777 26.860076532820809 730.08854166666686 162.50000000000003 11132.500000000002 8.6928192308483165
decision_type=2 2 2 1 2 2 2 2 1 2 2 2 2 2 2 2 2 2 2 2 2 2 2 2 2 2 2 2 2 2
left_child=1 8 -2 7 5 14 -7 -3 9 13 -11 16 -13 15 -4 19 -9 24 -19 20 -1 -22 27 -24 -5 -25 -20 28 29 -10
right_child=2 3 4 17 -6 6 -8 11 22 10 -12 12 -14 -15 -16 -17 -18 18 26 -21 21 -23 23 25 -26 -27 -28 -29 -30 -31
leaf_value=-0.014719014034113465 -0.0064037559591233742 -0.0060413475905079402 0.011245026318356395 0.0029284322401508692 0.012897139207485156 0.038556488516191263 0.070879961013223136 0.020576098853988308 -0.015822476068777697 -0.0016907814497244544 0.024624914862215519 0.019768192246556283 0.039155925265513362 0.0020862584512026327 0.030566401171963666 -0.00064428053796291348 0.0066170668578706682 -0.014256436837002121 -0.0039536378082210338 -0.015125422650016845 -0.011066476022824645 -0.0020820590006487985 -0.015687081976128475 -0.0064386321049507552 -0.0054495259164832541 -0.013214771354216196 -0.0099559106270316992 -0.016611693966842724 -0.016016368113571045 -0.011137768225744367
leaf_weight=34 25 24 20 20 37 39 31 21 21 32 21 31 30 37 20 25 28 29 26 40 39 31 35 23 20 21 20 128 66 20
leaf_count=34 25 24 20 20 37 39 31 21 21 32 21 31 30 37 20 25 28 29 26 40 39 31 35 23 20 21 20 128 66 20
internal_value=0 -0.00522682 0.0282227 0.00600042 0.0341116 0.0412474 0.0528712 0.0156936 -0.0101057 -0.00400557 0.00873619 0.0218624 0.0293031 -0.00747823 0.0209057 -0.00957223 0.0125995 -0.00612617 -0.00953799 -0.0111222 -0.00958253 -0.00708766 -0.0145465 -0.0123373 -0.00126055 -0.0096727 -0.00656332 -0.0159081 -0.0150664 -0.0135373
internal_weight=0 822 172 249 147 110 70 134 573 259 53 110 61 206 40 169 49 115 75 144 104 70 314 79 40 44 46 235 107 41
internal_count=994 822 172 249 147 110 70 134 573 259 53 110 61 206 40 169 49 115 75 144 104 70 314 79 40 44 46 235 107 41
cat_boundaries=0 1 2
cat_threshold=304 48
is_linear=0
shrinkage=0.05


Tree=4
num_leaves=31
num_cat=0
split_feature=15 22 22 11 15 22 23 12 13 23 23 12 11 22 20 16 7 27 12 16 17 8 0 13 12 12 27 8 11 10
split_gain=60.903 16.6246 15.4596 10.7243 7.94459 6.09977 4.97377 4.83896 4.25254 2.52944 3.2098 2.5291 2.47714 1.44526 1.00018 1.39641 0.89413 0.829518 0.772923 0.631894 0.635872 0.574257 0.491516 0.367351 0.821931 0.232726 0.207291 0.120555 0.0851287 0.104003
threshold=2.7121996025095583 3.5083333333333342 4.1535714285714294 6.5000000000000009 1.6699933253086297 3.8550000000000004 22.500000000000004 0.42543928690498389 4.0942056540395164 716.00000000000011 154.66666666666671 0.51000000000000012 4.5000000000000009 4.29 11.540792645133378 839.25000000000011 0.53619564669723396 45.445723626226133 0.51000000000000012 792.87500000000011 52.848808341608745 0.19303061891277964 792.50000000000011 0.89587973461402759 0.4379752066115703 0.37389053254437871 436.15938847579076 0.26837452938287781 1.5000000000000002 0.086167562007086515
decision_type=2 2 2 2 2 2 2 2 2 2 2 2 2 2 2 2 2 2 2 2 2 2 2 2 2 2 2 2 2 2
left_child=4 17 3 7 12 -5 -6 9 -7 10 -3 14 18 -4 19 21 -12 -2 23 22 26 -16 -8 28 25 27 -21 -25 29 -1
right_child=1 2 13 5 6 8 11 -9 -10 -11 16 -13 -14 -15 15 -17 -18 -19 -20 20 -22 -23 -24 24 -26 -27 -28 -29 -30 -31
leaf_value=-0.012246334862034277 0.00029731795657426122 0.0037228057294019633 0.0090141119231702763 0.022929751077026595 -0.016835225522518159 0.038887658326088322 -0.0018074539955705406 0.039112344896420841 0.065981362567593654 0.0014314782922156156 0.019036219076120429 0.019346667226636784 0.005098317821975798 -0.0062616451612363261 0.0047936785429941887 0.015977025737187692 0.032488162755034869 -0.012235105105285202 -0.0050501058456198927 0.0080973058706149455 -0.0060851053292439745 -0.0059434731118381025 -0.012376667482947763 -0.015393098226437966 -0.0024186199309215659 -0.0097878242205632366 0.00089851018041372296 -0.011005017822608352 -0.015957782147349893 -0.015049985243769532
leaf_weight=53 23 21 32 24 40 28 22 28 30 24 21 20 20 30 33 21 30 31 29 20 22 20 22 72 21 38 20 20 91 88
leaf_count=53 23 21 32 24 40 28 22 28 30 24 21 20 20 30 33 21 30 31 29 20 22 20 22 72 21 38 20 20 91 88
internal_value=0 0.0184126 0.0235123 0.0301005 -0.00803404 0.0441294 -0.000740179 0.0208233 0.0529016 0.015489 0.0201748 0.00247883 -0.0120862 0.00162262 0.000604627 0.0050654 0.0269491 -0.00689722 -0.0129204 -0.0025095 0.000742645 0.000741923 -0.00709206 -0.0135163 -0.0115969 -0.0130795 0.00449791 -0.0144392 -0.0147656 -0.0139961
internal_weight=0 322 268 206 672 82 240 124 58 96 72 200 432 62 180 74 51 54 412 106 62 53 44 383 151 130 40 92 232 141
internal_count=994 322 268 206 672 82 240 124 58 96 72 200 432 62 180 74 51 54 412 106 62 53 44 383 151 130 40 92 232 141
is_linear=0
shrinkage=0.05


Tree=5
num_leaves=31
num_cat=1
split_feature=15 25 11 13 26 13 22 23 15 23 12 13 13 26 9 12 13 12 6 9 24 15 20 24 15 24 20 6 16 5
split_gain=60.726 41.2239 26.1242 7.35302 7.30196 6.51566 3.41061 2.88644 2.61449 2.23047 2.17895 1.8606 3.05495 1.45978 1.09003 0.748352 0.631021 1.18276 0.522859 0.558207 0.538736 0.41744 0.610503 0.244105 0.180452 0.0720202 0.0699225 0.0650397 0.0404632 0.100588
threshold=2.7121996025095583 0 6.5000000000000009 2.6735537653587347 420.94092800052067 3.9796379800581989 3.8550000000000004 283.10000000000008 1.6699933253086297 36.500000000000007 0.31441326530612246 3.1984648276080736 3.7726948748059121 946.09212525332339 0.65089640107621427 0.51000000000000012 0.89587973461402759 0.427706860601129 24.500000000000004 0.68078093306288034 27.045412154526407 2.2245322356625152 11.270091939034074 36.624568756385784 0.59411222367889849 38.624957481217145 10.948104211897634 75.500000000000014 337.18750000000006 218.50000000000003
decision_type=2 1 2 2 2 2 2 2 2 2 2 2 2 2 2 2 2 2 2 2 2 2 2 2 2 2 2 2 2 2
left_child=4 2 3 10 8 11 -7 13 15 26 -2 18 -13 -6 -11 16 25 23 19 -3 -20 -16 -23 27 -25 28 -10 -18 -1 -30
right_child=1 5 -4 -5 7 6 -8 -9 9 14 -12 12 -14 -15 21 -17 17 -19 20 -21 -22 22 -24 24 -26 -27 -28 -29 29 -31
leaf_value=-0.015298494332014245 0.0098809418667640016 -0.0026807545493780214 0.078371811124521337 0.04928688440057967 0.0078177787231929283 0.0035866649728268384 0.030242704059928655 0.01849752952034275 -0.012161865495145321 0.0068504789684084248 0.030253411144284266 0.016511931554123293 -0.0056972468799601009 -0.0096364578343927868 -0.0077857181764183899 -0.0039340677843601622 -0.01470827645622194 0.00066984883001582193 -0.0062644968626382599 -0.013166456601272029 0.0042760382956740532 0.0058670693053863949 -0.0054882139368946188 -0.013045604376211054 -0.0072425844399510208 -0.012288412832936576 -0.016204215521397797 -0.011763456485544643 -0.011815444605523036 -0.015035838795019619
leaf_weight=94 35 22 37 27 23 20 30 30 20 32 21 32 30 25 39 27 50 22 27 30 22 20 29 21 37 43 23 30 38 67
leaf_count=94 35 22 37 27 23 20 30 30 20 32 21 32 30 25 39 27 50 22 27 30 22 20 29 21 37 43 23 30 38 67
internal_value=0 0.0180754 0.0400897 0.0278542 -0.00804916 0.00362081 0.0195803 0.00633107 -0.00994385 -0.00455324 0.0175206 -0.0010526 0.00576555 -0.00127297 -0.00105204 -0.011992 -0.0125332 -0.010097 -0.00523801 -0.0087302 -0.00153201 -0.00392568 -0.000853404 -0.0118134 -0.00934368 -0.014144 -0.0143241 -0.013604 -0.014545 -0.0138704
internal_weight=0 333 120 83 670 213 50 78 592 163 56 163 62 48 120 429 402 160 101 52 49 88 49 138 58 242 43 80 199 105
internal_count=1003 333 120 83 670 213 50 78 592 163 56 163 62 48 120 429 402 160 101 52 49 88 49 138 58 242 43 80 199 105
cat_boundaries=0 1
cat_threshold=48
is_linear=0
shrinkage=0.05


Tree=6
num_leaves=31
num_cat=3
split_feature=13 25 17 13 18 25 19 8 22 25 13 18 23 17 22 7 18 5 12 19 20 19 27 7 8 23 10 6 5 18
split_gain=52.3271 46.4131 23.1856 7.10288 6.81235 3.58996 3.7838 3.29187 3.07808 2.36834 3.81887 2.20428 1.91702 0.979424 0.789566 0.728867 0.7319 0.553977 0.542653 0.462917 0.689277 0.412715 0.259995 0.284034 0.195981 0.148989 0.0949094 0.156379 0.180837 0.0724859
threshold=2.0126758453675748 0 165.54689139250374 3.9796379800581989 0.27725166368371318 1 25262.000000000004 0.14733792874039028 3.8550000000000004 2 3.1984648276080736 0.28584602658705088 166.42857142857147 128.32070850992545 3.729166666666667 0.64361770928610373 0.33122303962149235 483.50000000000006 0.28062500000000007 46747.000000000007 11.575288999156024 25262.000000000004 86.404794077678943 0.66272620802350024 0.25459956009833101 609.68181818181836 0.074744253734537469 39.500000000000007 180.50000000000003 0.55151887180943271
decision_type=2 1 2 2 2 1 2 2 2 1 2 2 2 2 2 2 2 2 2 2 2 2 2 2 2 2 2 2 2 2
left_child=5 2 7 9 -4 6 15 -2 -5 10 13 -8 -9 18 -11 24 -17 22 -3 20 -16 -19 23 -7 -1 26 -24 28 -28 -29
right_child=1 3 4 8 -6 17 11 12 -10 14 -12 -13 -14 -15 19 16 -18 21 -20 -21 -22 -23 25 -25 -26 -27 27 29 -30 -31
leaf_value=-0.015153909668974256 0.0078854545605955301 0.0054290060777395198 0.047687160857021814 0.003407331882044673 0.083027383796870718 -0.0057500021299347285 0.021161736090752212 0.018792771449726492 0.028730569425970316 -0.013310073150528802 0.018332903285420709 -0.0003425915501653575 0.036524989471903871 -0.010078466969598257 -0.0030630413108156066 0.0040337767126038667 -0.0094930481351912024 -0.0021588097675703465 -0.0049504265376162952 -0.00035381534865959306 -0.014895599223673346 -0.010892339885955858 -0.014990238146856428 -0.012871828638682409 -0.0089735273143340798 -0.0088254270795732736 -0.012737692772027324 -0.01405320982514343 -0.0068364117072806478 -0.011619550804010569
leaf_weight=23 27 34 30 20 25 28 22 27 30 36 31 26 35 27 32 20 20 24 20 38 20 31 64 28 29 20 34 142 21 39
leaf_count=23 27 34 30 20 25 28 22 27 30 36 31 26 35 27 32 20 20 24 20 38 20 31 64 28 29 20 34 142 21 39
internal_value=0 0.0137229 0.0357467 0.00142049 0.0637509 -0.00934053 -0.00174205 0.0224572 0.0186013 -0.00212923 0.00312934 0.00951356 0.0288029 -0.00230297 -0.00653336 -0.00780389 -0.00272964 -0.0115014 0.00158477 -0.0045486 -0.00761403 -0.00708134 -0.0124539 -0.00931092 -0.0117072 -0.0130039 -0.0132825 -0.0128193 -0.0104845 -0.0135288
internal_weight=0 432 144 288 55 571 140 89 50 238 112 48 62 81 126 92 40 431 54 90 52 55 376 56 52 320 300 236 55 181
internal_count=1003 432 144 288 55 571 140 89 50 238 112 48 62 81 126 92 40 431 54 90 52 55 376 56 52 320 300 236 55 181
cat_boundaries=0 1 2 3
cat_threshold=48 16 384
is_linear=0
shrinkage=0.05


Tree=7
num_leaves=31
num_cat=1
split_feature=15 25 13 26 13 18 23 8 23 15 23 13 13 26 9 3 12 13 12 15 20 15 7 24 15 27 27 27 23 9
split_gain=49.9479 33.8363 20.9641 6.019 5.28714 3.59491 2.86587 2.63572 2.39587 2.11973 1.93209 1.52601 2.66188 1.30106 0.981023 0.661532 0.642759 0.534107 1.02341 0.343332 0.503507 0.32563 0.46576 0.212173 0.147561 0.0948817 0.0897217 0.0851367 0.0933875 0.0757974
threshold=2.7121996025095583 0 2.6735537653587347 420.94092800052067 3.9796379800581989 0.27725166368371318 514.70370370370381 0.17863092984259207 283.10000000000008 1.6699933253086297 36.500000000000007 3.1984648276080736 3.7726948748059121 946.09212525332339 0.65089640107621427 147.50000000000003 0.51000000000000012 0.89587973461402759 0.427706860601129 2.2245322356625152 11.270091939034074 3.4735105316175434 0.54841160853245452 36.624568756385784 0.59411222367889849 752.39632287796792 112.77249258759578 373.28288361375206 75.750000000000014 0.53741258741258757
decision_type=2 1 2 2 2 2 2 2 2 2 2 2 2 2 2 2 2 2 2 2 2 2 2 2 2 2 2 2 2 2
left_child=3 2 7 9 11 -4 -6 -2 13 16 -11 15 -13 -5 -12 21 17 25 23 -16 -21 22 -3 27 -25 26 29 -19 -29 -1
right_child=1 4 5 8 6 -7 -8 -9 -10 10 14 12 -14 -15 19 -17 -18 18 -20 20 -22 -23 -24 24 -26 -27 -28 28 -30 -31
leaf_value=-0.008827168457210063 0.0081478904809046074 -0.014491503386069899 0.047141381377975147 0.0074077038529693426 0.0078973178503414006 0.071233446183032359 0.032332049272954466 0.029580335233073969 0.016837666829427084 -0.013262947817701241 0.0065864519099704923 0.015290972994989716 -0.005440225809773741 -0.0090702997948974365 -0.0071373500473176435 0.0029626244192265654 -0.0033993118753035869 -0.014242836256162265 0.00088793089697984131 0.005252786479541101 -0.0050595434816104587 -0.0025085172948560545 -0.0048888023329449687 -0.011769050696776027 -0.0065214710184247114 -0.0095521746389567869 -0.013619059228061975 -0.0089175355136394512 -0.01350144125521183 -0.013180253896862268
leaf_weight=20 32 23 30 23 30 32 20 26 30 43 32 32 30 25 39 22 27 35 22 20 29 28 28 21 37 20 182 25 20 20
leaf_count=20 32 23 30 23 30 32 20 26 30 43 32 32 30 25 39 22 27 35 22 20 29 28 28 21 37 20 182 25 20 20
internal_value=0 0.0163902 0.0363349 -0.00730274 0.00329333 0.059576 0.0176712 0.0177555 0.0057532 -0.00902295 -0.00416913 -0.000915015 0.00525975 -0.00117459 -0.00091051 -0.00470546 -0.0108672 -0.0113687 -0.00912735 -0.00363668 -0.000850429 -0.00684088 -0.00921943 -0.010724 -0.00842146 -0.0128507 -0.0131478 -0.0123933 -0.0109548 -0.0110037
internal_weight=0 333 120 670 213 62 50 58 78 592 163 163 62 48 120 101 429 402 160 88 49 79 51 138 58 242 222 80 45 40
internal_count=1003 333 120 670 213 62 50 58 78 592 163 163 62 48 120 101 429 402 160 88 49 79 51 138 58 242 222 80 45 40
cat_boundaries=0 1
cat_threshold=48
is_linear=0
shrinkage=0.05


Tree=8
num_leaves=31
num_cat=2
split_feature=15 25 17 26 18 13 24 22 23 25 15 17 24 23 13 13 24 23 10 23 17 22 16 16 17 13 23 18 20 27
split_gain=45.078 30.5372 19.7265 5.43215 4.79728 4.77164 3.29906 2.66164 2.16228 2.01048 1.90087 1.67559 1.61012 1.43454 1.74679 2.24088 0.725504 0.691252 0.626684 0.619282 0.605323 0.592873 0.409447 0.304597 0.21693 0.146143 0.142298 0.0720697 0.0437965 0.0973121
threshold=2.7121996025095583 0 134.07672905880793 420.94092800052067 0.27725166368371318 3.9796379800581989 23.636270525193556 3.8550000000000004 283.10000000000008 1 1.6699933253086297 66.21035274660133 12.950163878894797 130.66666666666671 3.1984648276080736 3.7726948748059121 33.263511918810487 348.81250000000006 0.15043290043290039 81.250000000000014 27.626881650397703 3.9937304075235112 802.50000000000011 652.00000000000011 57.555273253466162 1.0000000180025095e-35 35.250000000000007 0.14529806083613903 9.3708146549654234 444.90369712165244
decision_type=2 1 2 2 2 2 2 2 2 1 2 2 2 2 2 2 2 2 2 2 2 2 2 2 2 2 2 2 2 2
left_child=3 2 6 9 -4 13 -2 -7 11 10 16 -5 -12 21 17 -16 23 -15 -18 -14 27 -3 24 25 -22 -1 -27 -11 29 -29
right_child=1 5 4 8 -6 7 -8 -9 -10 20 12 -13 19 14 15 -17 18 -19 -20 -21 22 -23 -24 -25 -26 26 -28 28 -30 -31
leaf_value=-0.013147016198829162 0.0068501640285830948 -0.014441247013482181 0.044946221485733989 0.0094768086392875948 0.073997307361827955 0.0026588390860706572 0.029736679744335914 0.02620685729508599 0.015995783321559428 -0.0097981851193166911 -0.0092876862335417951 -0.0093546028386939459 0.0012837498742358192 0.0021707911419892503 0.018080709116726084 -0.0028179432472983457 -0.0066059540453794838 -0.0079510847257601245 0.0043794419057667259 0.012546943584815241 -0.012148600984609834 -0.0026959465611504302 -0.0018585132202133536 -0.00528897668325132 -0.006076644962498298 -0.012397459261119367 -0.0069152767224044641 -0.013289069947673055 -0.013281024227685789 -0.009378749633637759
leaf_weight=43 32 22 30 21 27 20 31 30 30 21 21 27 23 31 29 23 37 37 20 26 38 21 22 31 24 20 29 41 170 26
leaf_count=43 32 22 30 21 27 20 31 30 30 21 21 27 23 31 29 23 37 37 20 26 38 21 22 31 24 20 29 41 170 26
internal_value=0 0.0155707 0.0345181 -0.0069376 0.0587073 0.00312867 0.0181118 0.0167877 0.00546554 -0.0085718 -0.00451499 -0.00111586 0.00229579 -0.000869264 0.0019386 0.00883707 -0.00741446 -0.0033367 -0.00275143 0.00726014 -0.0110813 -0.00870517 -0.00771873 -0.00957538 -0.00979817 -0.0110197 -0.0091529 -0.0126056 -0.0128543 -0.0117716
internal_weight=0 333 120 670 57 213 63 50 78 592 250 48 70 163 120 52 180 68 57 49 342 43 84 123 62 92 49 258 237 67
internal_count=1003 333 120 670 57 213 63 50 78 592 250 48 70 163 120 52 180 68 57 49 342 43 84 123 62 92 49 258 237 67
cat_boundaries=0 1 2
cat_threshold=48 48
is_linear=0
shrinkage=0.05


Tree=9
num_leaves=31
num_cat=0
split_feature=15 24 16 18 17 17 12 13 9 23 23 16 23 15 17 19 12 13 12 10 23 13 12 13 13 12 27 27 8 23
split_gain=40.6829 8.25584 5.38165 4.33472 4.58388 4.2305 4.0149 5.23766 4.21185 3.0369 2.16026 2.17435 2.15554 1.21339 1.0608 1.99513 1.19964 1.04167 0.918155 0.916537 0.752836 0.415753 0.689512 1.65627 0.301037 0.319854 0.0800297 0.0974105 0.064778 0.017832
threshold=2.7121996025095583 27.045412154526407 303.43750000000006 0.18825146913953408 632.91474367825072 33.414476840233888 0.24303017020965736 3.5972184255501678 0.79864924596983888 102.50000000000001 46.500000000000007 561.75769230769242 473.50000000000006 1.9895486855462337 64.995413508424676 31271.500000000004 0.23983471074380167 4.0342014792848504 0.51000000000000012 0.088299624311666866 66.833333333333357 0.89587973461402759 0.35901234567901247 1.2424533248940004 1.2424533248940004 0.2633755394129027 112.77249258759578 752.39632287796792 0.20492690093499727 123.31250000000001
decision_type=2 2 2 2 2 2 2 2 2 2 2 2 2 2 2 2 2 2 2 2 2 2 2 2 2 2 2 2 2 2
left_child=5 9 3 -3 -5 13 -4 8 -8 -2 -7 -12 19 18 15 -13 -16 -9 21 -11 -15 26 24 -24 -23 -26 28 29 -1 -28
right_child=1 2 6 4 -6 10 7 17 -10 12 11 14 -14 20 16 -17 -18 -19 -20 -21 -22 22 23 -25 25 -27 27 -29 -30 -31
leaf_value=-0.011534995975142176 -0.0084285776480101052 0.013734026534411199 0.00074802201886016591 0.021483545695714978 0.050747227352985647 -0.012669960236442941 0.045999978048106037 0.00075695865508168937 0.017897991524077953 0.019970661529805513 -0.0080219200654962179 0.0032265312058905905 -0.0045923499576747424 -0.0080658857795325202 0.0091310525462031372 0.022550611617043616 -0.0056990970376258098 0.015051293562954435 -0.0018678772088605911 0.0063261878467164943 0.004616117976605892 -0.01301420301687522 0.0063461531642014573 -0.011487863846123219 -0.012176081389188768 -0.0035303655040004982 -0.012744291860144585 -0.0088159605151131044 -0.0076032792404294022 -0.011727370939289149
leaf_weight=22 36 26 39 23 32 28 24 25 30 32 37 34 20 22 25 22 30 26 34 20 25 61 23 30 20 23 128 21 20 65
leaf_count=22 36 26 39 23 32 28 24 25 30 32 37 34 20 22 25 22 30 26 34 20 25 61 23 30 20 23 128 21 20 65
internal_value=0 0.0147922 0.0202466 0.030557 0.0385097 -0.00659072 0.014447 0.0195352 0.0303878 0.00342879 6.56193e-05 0.00247505 0.00935747 -0.00896222 0.00597404 0.0108181 0.00104188 0.00804427 -0.00976574 0.0147228 -0.00132014 -0.0104159 -0.0083902 -0.00374857 -0.0107556 -0.00755163 -0.0116583 -0.0120499 -0.00966275 -0.0124018
internal_weight=0 333 225 81 55 670 144 105 54 108 176 148 72 494 111 56 55 51 447 52 47 413 157 53 104 43 256 214 42 193
internal_count=1003 333 225 81 55 670 144 105 54 108 176 148 72 494 111 56 55 51 447 52 47 413 157 53 104 43 256 214 42 193
is_linear=0
shrinkage=0.05


Tree=10
num_leaves=31
num_cat=2
split_feature=15 25 11 13 13 25 26 26 24 11 12 13 13 12 22 22 23 22 22 20 6 15 11 26 3 16 26 16 19 6
split_gain=36.9069 28.1092 20.8404 6.60376 4.59388 4.52475 8.39272 2.78577 2.4293 2.18641 2.06166 1.25676 0.746353 1.21619 0.728784 0.687415 0.616502 0.602206 0.592473 0.427459 0.384945 0.340951 0.14895 0.118636 0.116141 0.11283 0.0935602 0.109782 0.0709468 0.128482
threshold=2.7121996025095583 0 6.5000000000000009 3.9219243190762363 3.0201273556387074 1 420.94092800052067 577.82651963218268 27.045412154526407 4.5000000000000009 0.51000000000000012 2.0126758453675748 0.89587973461402759 0.38362824354118386 3.8450000000000011 3.729166666666667 208.00000000000003 4.0928571428571443 3.9937304075235112 11.682519120350117 81.500000000000014 2.2446691852314853 1.5000000000000002 1882.2907187983285 167.50000000000003 540.7932692307694 223.28439570467719 882.68750000000011 11132.500000000002 63.11538461538462
decision_type=2 1 2 2 2 1 2 2 2 2 2 2 2 2 2 2 2 2 2 2 2 2 2 2 2 2 2 2 2 2
left_child=5 15 4 -4 7 6 9 17 -9 10 12 26 22 20 -13 23 21 -3 -17 -20 25 -16 24 -2 -1 -14 27 28 29 -7
right_child=1 2 3 -5 -6 11 -8 8 -10 -11 -12 14 13 -15 16 18 -18 -19 19 -21 -22 -23 -24 -25 -26 -27 -28 -29 -30 -31
leaf_value=-0.0066239896665016814 -0.0081372886267490688 0.0062111220774906028 0.034455503279773085 0.065102466847747564 0.032877740808935081 -0.011343919331473964 0.025979723265537848 0.007310699486254674 0.030291321484938911 0.010759286654343747 0.0067384738205388808 -0.010819847293896602 -0.007664803204976995 0.0064731270030495671 -0.00034149644896388056 0.0027264715036532535 0.0056940057128667832 -0.0044989645569807014 -0.0014605867192149164 -0.010617430071131542 -0.002314580075442791 -0.0094633576371485287 -0.012911729183461932 -0.01358330297516659 -0.010892276405630744 -0.012733942119493372 -0.014667440056800844 -0.0076507611377608217 -0.012027410675872522 -0.0069634084674445075
leaf_weight=30 20 35 39 32 27 70 26 23 23 23 30 32 23 21 20 30 20 21 25 26 25 21 36 20 34 21 20 21 166 22
leaf_count=30 20 35 39 32 27 70 26 23 23 23 30 32 23 21 20 30 20 21 25 26 25 21 36 20 34 21 20 21 166 22
internal_value=0 0.0144465 0.02525 0.0482682 0.0145384 -0.00621811 -0.000983587 0.0096839 0.018801 -0.00390903 -0.00544253 -0.00954167 -0.00736585 -0.00406258 -0.00470877 -0.00507775 -0.00150296 0.00219484 -0.00284906 -0.00612878 -0.0072691 -0.00501367 -0.0103388 -0.0108603 -0.00889152 -0.0100842 -0.011364 -0.0111272 -0.0114102 -0.0102964
internal_weight=0 321 200 71 129 661 269 102 46 243 220 392 190 90 93 121 61 56 81 51 69 41 100 40 64 44 299 279 258 92
internal_count=982 321 200 71 129 661 269 102 46 243 220 392 190 90 93 121 61 56 81 51 69 41 100 40 64 44 299 279 258 92
cat_boundaries=0 1 2
cat_threshold=75 48
is_linear=0
shrinkage=0.05


Tree=11
num_leaves=31
num_cat=2
split_feature=15 25 11 13 25 11 13 20 26 24 13 12 22 9 23 16 22 22 16 27 27 12 19 1 15 2 26 10 9 20
split_gain=33.3085 25.3685 18.8084 5.95989 4.25737 9.65399 4.14598 2.60308 2.51415 2.19244 1.57061 0.672273 0.620392 0.581677 0.547458 0.857602 0.543491 0.543484 0.444602 0.333627 0.253273 0.366381 0.321734 0.220081 0.121323 0.119017 0.107069 0.0908657 0.0818049 0.0803426
threshold=2.7121996025095583 0 6.5000000000000009 3.9219243190762363 1 3.5000000000000004 3.0201273556387074 11.322757327469398 577.82651963218268 27.045412154526407 2.8029010331479989 0.34659958166091925 3.729166666666667 0.60615546176060764 50.500000000000007 790.43750000000011 4.0928571428571443 4.2464285714285728 315.43750000000006 369.52045641078325 171.04595897618654 0.37389053254437871 13887.000000000002 748.00000000000011 2.0871936349478188 427.00000000000006 1882.2907187983285 0.15345549738219891 0.55459040391969416 10.530945625101461
decision_type=2 1 2 2 1 2 2 2 2 2 2 2 2 2 2 2 2 2 2 2 2 2 2 2 2 2 2 2 2 2
left_child=4 12 6 -4 5 11 8 -7 16 -10 14 28 26 -13 25 20 -3 18 -14 -17 21 22 -16 24 27 -6 -2 -22 -1 -27
right_child=1 2 3 -5 10 7 -8 -9 9 -11 -12 13 17 -15 15 19 -18 -19 -20 -21 23 -23 -24 -25 -26 29 -28 -29 -30 -31
leaf_value=-0.0086079826205968848 -0.0077304241852834826 0.0059005659885172333 0.032732728305153357 0.06184734319976997 -0.0079284581427390751 0.010047444310039282 0.031233853044816191 0.035557619351893666 0.006945164843067609 0.028776755234550522 0.0018243485356907588 -0.0074849103129020454 0.0041225556460819371 0.0028007295165610102 -0.0074268365123619636 0.001460965442557579 -0.0042740164723779469 -0.0098593158344738186 -0.0044250881903280968 -0.0062191929633067609 -0.010770210113160011 -0.010840209134455239 0.0011598181584849955 -0.0054648704671611398 -0.014248657715506853 -0.010449199917931836 -0.012904137922450902 -0.0075441290491393628 -0.01273626197129488 -0.012740788385762196
leaf_weight=30 20 35 39 32 26 20 27 20 23 23 37 27 29 28 24 31 21 20 32 26 99 28 20 24 20 77 20 28 20 76
leaf_count=30 20 35 39 32 26 20 27 20 23 23 37 27 29 28 24 31 21 20 32 26 99 28 20 24 20 77 20 28 20 76
internal_value=0 0.0137241 0.0239875 0.0458548 -0.0059072 0.00177719 0.0138115 0.0228025 0.0091997 0.017861 -0.00794701 -0.00606321 -0.00482386 -0.00224858 -0.0088677 -0.007562 0.0020851 -0.00270661 -0.000361454 -0.00204226 -0.00885675 -0.00636908 -0.00352381 -0.00990419 -0.010629 -0.011056 -0.0103173 -0.0100589 -0.0102593 -0.0115875
internal_weight=0 321 200 71 661 145 129 40 102 46 516 105 121 55 479 300 56 81 61 57 243 72 44 171 147 179 40 127 50 153
internal_count=982 321 200 71 661 145 129 40 102 46 516 105 121 55 479 300 56 81 61 57 243 72 44 171 147 179 40 127 50 153
cat_boundaries=0 1 2
cat_threshold=75 16
is_linear=0
shrinkage=0.05


Tree=12
num_leaves=31
num_cat=2
split_feature=15 25 17 13 25 17 20 22 22 26 13 22 15 22 22 23 16 15 3 23 27 10 19 9 6 15 4 19 8 4
split_gain=30.0609 22.8951 18.7493 4.81387 3.84227 10.3461 3.48888 2.6836 2.7113 1.89381 1.41748 0.898525 0.831164 0.559904 0.503623 0.494081 0.773986 0.401555 0.339152 0.303679 0.228579 0.332994 0.356235 0.203821 0.159431 0.183543 0.141701 0.129464 0.124395 0.115919
threshold=2.7121996025095583 0 595.2581927512291 2.6735537653587347 1 33.414476840233888 13.235191495238377 3.8258333333333341 4.0928571428571443 577.82651963218268 2.8029010331479989 4.0928571428571443 1.0338267929638969 3.729166666666667 3.9937304075235112 50.500000000000007 790.43750000000011 3.3186290156422289 197.50000000000003 208.00000000000003 171.04595897618654 0.16455552184466024 13258.500000000002 0.59643140995072341 83.500000000000014 1.6932533331260762 559.50000000000011 23850.000000000004 0.23580703484549639 325.00000000000006
decision_type=2 1 2 2 1 2 2 2 2 2 2 2 2 2 2 2 2 2 2 2 2 2 2 2 2 2 2 2 2 2
left_child=4 13 3 9 5 12 7 -5 -9 11 15 -3 23 -2 -15 29 20 -16 -14 -18 21 22 -17 28 26 -26 27 -22 -1 -6
right_child=1 2 -4 6 10 -7 -8 8 -10 -11 -12 -13 18 14 17 16 19 -19 -20 -21 24 -23 -24 -25 25 -27 -28 -29 -30 -31
leaf_value=-0.011261533354890758 -0.0098014170606620619 0.0075382393417936389 0.05716711978028928 0.0040782963600941007 -0.0078755909248309983 0.032565057164301046 0.04322286154143512 0.036357976165082719 0.012403441167303495 0.01939938246893386 0.0017331310849938845 -0.0058925363235175611 0.0051187068410217772 0.0025692190478245418 -7.1482337079942224e-05 -0.0074450636049732573 0.00084724284719818075 -0.0091587162366317167 -0.0032025585630132505 -0.0067185419478586741 -0.010410597915641773 -0.010313170070626907 0.0015902700088918208 -0.0033528998070819814 -0.0041222055944112627 -0.010493337181396783 -0.013620110343282039 -0.0059877163275987621 -0.0062755970961668288 -0.011119356691066562
leaf_weight=29 40 33 35 20 34 23 20 27 21 24 37 20 25 30 20 24 36 31 24 21 78 28 20 22 26 20 26 21 22 145
leaf_count=29 40 33 35 20 34 23 20 27 21 24 37 20 25 30 20 24 36 31 24 21 78 28 20 22 26 20 26 21 22 145
internal_value=0 0.0130379 0.0227881 0.0168767 -0.00561184 0.00168833 0.0248655 0.0194662 0.0258779 0.00774671 -0.00754966 0.00247002 -0.0039943 -0.00458267 -0.00257128 -0.00842431 -0.0071839 -0.0055951 0.00104299 -0.00194015 -0.00841391 -0.00605062 -0.00333809 -0.0073755 -0.00940898 -0.00689226 -0.0103351 -0.00947241 -0.00911074 -0.0105032
internal_weight=0 321 200 165 661 145 88 68 48 77 516 53 122 121 81 479 300 51 49 57 243 72 44 73 171 46 125 99 51 179
internal_count=982 321 200 165 661 145 88 68 48 77 516 53 122 121 81 479 300 51 49 57 243 72 44 73 171 46 125 99 51 179
cat_boundaries=0 1 2
cat_threshold=75 16
is_linear=0
shrinkage=0.05


Tree=13
num_leaves=31
num_cat=2
split_feature=15 25 17 25 17 13 8 26 13 8 5 10 13 17 9 17 1 18 13 17 19 18 1 7 16 19 3 9 15 15
split_gain=27.1438 21.1406 16.4311 3.81272 10.3783 3.49258 3.61002 1.47136 1.28391 1.27671 0.839892 0.518551 0.508063 0.705222 0.469606 0.447626 0.394049 0.222623 0.450022 0.259216 0.240272 0.191816 0.153531 0.145763 0.141478 0.132491 0.116807 0.084179 0.222881 0.0824069
threshold=2.7286611583730016 0 595.2581927512291 1 33.414476840233888 2.6735537653587347 0.23647322830150982 577.82651963218268 2.8029010331479989 0.15083221755390366 257.50000000000006 0.17254088015033794 4.2121001622835372 565.6737757031209 0.82698108658634062 81.287071968305909 207.50000000000003 0.34090666713280243 2.0126758453675748 49.308799777704451 39760.000000000007 0.19418053809283883 388.00000000000006 0.59381892464528241 948.81250000000011 8222.0000000000018 84.500000000000014 0.73904208998548626 1.4319925013614851 1.6217842187292864
decision_type=2 1 2 1 2 2 2 2 2 2 2 2 2 2 2 2 2 2 2 2 2 2 2 2 2 2 2 2 2 2
left_child=3 12 5 4 10 7 9 15 14 -7 22 23 13 16 17 -3 21 18 25 24 -20 -2 -1 -12 26 -5 -19 28 -27 -28
right_child=1 2 -4 8 -6 6 -8 -9 -10 -11 11 -13 -14 -15 -16 -17 -18 19 20 -21 -22 -23 -24 -25 -26 27 29 -29 -30 -31
leaf_value=-0.0056764562584219443 -0.0048908213432878253 0.0077084901456076372 0.054308763385883398 -0.0056640981572369737 0.032131953195979196 0.025517052109353247 0.036561187857296319 0.01842941351545354 0.001525639133576892 0.0096809522022626229 -0.0060997450444847355 0.0065971146138118844 0.0017787399818189444 -0.014453527836927348 -0.0025283427158784536 -0.0019821002656085925 -0.0086516292508820019 -0.0062648499384522442 0.00059454312237600495 -0.014463083510813508 -0.0065570228115614986 0.0016223011162275307 -0.010784252866038256 -0.00037291011586785319 -0.0049863856729297417 -0.010370603483170272 -0.0092412214914831935 -0.012351084202528 -0.0046694182480374975 -0.011954749357777045
leaf_weight=31 20 26 35 30 24 20 32 24 38 35 20 21 24 21 36 22 29 28 24 23 23 26 28 25 21 60 158 20 24 34
leaf_count=31 20 26 35 30 24 20 32 24 38 35 20 21 24 21 36 22 29 28 24 23 23 26 28 25 21 60 158 20 24 34
internal_value=0 0.012585 0.0221523 -0.00523912 0.00188968 0.016467 0.0232084 0.00832112 -0.00718373 0.0154395 -0.00376566 0.000109421 -0.00436437 -0.00635477 -0.00802113 0.00326697 -0.00408712 -0.00846549 -0.00711486 -0.0093915 -0.00290516 -0.00120949 -0.0081005 -0.00291817 -0.00890749 -0.00859139 -0.00928177 -0.00943581 -0.00874169 -0.00972174
internal_weight=0 314 194 668 149 159 87 72 519 55 125 66 120 96 481 48 75 445 181 264 47 46 59 45 241 134 220 104 84 192
internal_count=982 314 194 668 149 159 87 72 519 55 125 66 120 96 481 48 75 445 181 264 47 46 59 45 241 134 220 104 84 192
cat_boundaries=0 1 2
cat_threshold=75 16
is_linear=0
shrinkage=0.05


Tree=14
num_leaves=31
num_cat=2
split_feature=15 25 17 25 26 13 19 12 11 12 22 22 23 10 2 13 2 22 13 12 23 17 17 17 11 3 26 16 19 6
split_gain=24.4973 20.0267 14.1283 3.46983 6.60132 3.16204 2.47024 2.16241 1.45845 1.56055 1.44412 1.51677 0.874613 0.973971 0.928181 0.86573 0.637039 0.606967 0.595672 0.805059 0.497113 0.366542 0.328487 0.267985 0.148146 0.109012 0.07735 0.0744081 0.0585618 0.11342
threshold=2.7286611583730016 0 147.5791157994548 1 483.13886139236325 4.4126329767578776 150070.50000000003 0.31441326530612246 4.5000000000000009 0.51000000000000012 3.3166666666666669 4.1708333333333343 335.75000000000006 0.088299624311666866 103.50000000000001 2.0126758453675748 327.50000000000006 3.8450000000000011 0.89587973461402759 0.35901234567901247 208.00000000000003 90.747222602829794 20.938861884621797 18.197175760793446 1.5000000000000002 167.50000000000003 223.28439570467719 882.68750000000011 11132.500000000002 63.11538461538462
decision_type=2 1 2 1 2 2 2 2 2 2 2 2 2 2 2 2 2 2 2 2 2 2 2 2 2 2 2 2 2 2
left_child=3 2 7 4 8 10 -4 16 9 18 -3 12 13 -12 -14 26 -2 -17 24 22 21 -19 -20 -21 25 -1 27 28 29 -5
right_child=1 5 6 15 -6 -7 -8 -9 -10 -11 11 -13 14 -15 -16 17 -18 20 19 23 -22 -23 -24 -25 -26 -27 -28 -29 -30 -31
leaf_value=-0.0050150742574084188 0.0019016233831644061 -0.012199307378867399 0.040932541672588779 -0.0093920298346451356 0.023469828728299877 0.017856759609033667 0.063797405220213391 0.028335394971072677 0.0089806818626011198 0.0059884450120989644 0.014982264023274183 -0.0072884098650553286 -0.0091929203900508582 0.0026222284851797131 0.0047128679106632869 -0.0094968019635416571 0.014231288610872897 0.00062235583827714442 -0.01105026664833228 0.0058883191615512432 0.0052380345717427286 -0.0088356344029307376 -0.0029188128269237025 -0.0021086175611708317 -0.011157728503975603 -0.0091147019363501496 -0.012407296970486641 -0.0063262261139849828 -0.00997882746606173 -0.0052762946621938188
leaf_weight=31 20 23 27 70 26 27 21 20 23 32 28 39 20 37 30 32 22 20 27 22 21 21 23 20 36 34 20 21 167 22
leaf_count=31 20 23 27 70 26 27 21 20 23 32 28 39 20 37 30 32 22 20 27 22 21 21 23 20 36 34 20 21 167 22
internal_value=0 0.0119558 0.0280229 -0.00497716 -0.00048156 0.00182876 0.0509359 0.0148037 -0.00301201 -0.00423793 -0.000512873 0.0012325 0.0041222 0.00794655 -0.000849447 -0.00789104 0.00836002 -0.00390426 -0.0059335 -0.00302304 -0.00101778 -0.00422198 -0.0073098 0.00208025 -0.00858461 -0.00715949 -0.00940327 -0.0091887 -0.00942079 -0.00840783
internal_weight=0 314 110 668 274 204 48 62 248 225 177 154 115 65 50 394 42 94 193 92 62 41 50 42 101 65 300 280 259 92
internal_count=982 314 110 668 274 204 48 62 248 225 177 154 115 65 50 394 42 94 193 92 62 41 50 42 101 65 300 280 259 92
cat_boundaries=0 1 2
cat_threshold=48 48
is_linear=0
shrinkage=0.05


Tree=15
num_leaves=31
num_cat=2
split_feature=11 25 17 17 12 18 25 14 15 12 17 17 24 17 22 18 1 17 20 17 12 20 14 12 3 1 12 17 5 16
split_gain=21.6402 20.7354 11.2198 4.20442 3.15313 2.79207 1.88454 2.09173 1.599 0.96247 0.872761 1.14298 1.06233 0.677191 0.607315 0.599697 0.57855 0.751409 0.456804 0.455322 0.380298 0.337724 0.301131 0.828277 0.216302 0.186963 0.12569 0.0826481 0.0310957 0.0417865
threshold=4.5000000000000009 0 175.11005979367897 1038.1351838433386 0.26681665023011181 0.28315259301490764 1 0.8335322195704058 1.6699933253086297 0.42543928690498389 55.20414104070759 34.710676093127269 12.950163878894797 82.102027610008648 3.729166666666667 0.28584602658705088 360.50000000000006 286.3237086538058 11.43210440245098 90.747222602829794 0.51000000000000012 11.240382164914868 0.28898170246618932 0.427706860601129 169.50000000000003 141.23076923076925 0.35901234567901247 19.782395820107386 354.50000000000006 337.18750000000006
decision_type=2 1 2 2 2 2 1 2 2 2 2 2 2 2 2 2 2 2 2 2 2 2 2 2 2 2 2 2 2 2
left_child=8 2 4 6 18 -4 7 19 20 -9 11 12 21 -12 25 -14 17 -16 -2 -3 22 -10 28 26 -18 -8 27 -24 29 -1
right_child=1 3 5 -5 -6 -7 14 9 10 -11 13 -13 15 -15 16 -17 24 -19 -20 -21 -22 -23 23 -25 -26 -27 -28 -29 -30 -31
leaf_value=-0.0093680574566372184 0.00305452955546099 0.0021827594926435269 0.035548133243407519 0.020694515194433431 0.02776182375607952 0.060008301921188834 -0.0063036567671224484 0.019532773712568959 -0.010764199495315553 0.0045352740865200764 0.011066888831555844 -0.011505644571863944 0.0088072920379300545 -0.0019445621315389871 0.007099549406363319 -0.0011014521427175686 -0.010964238182419823 -0.004527858299005664 0.012643548360337382 -0.0065479755900534134 -0.0017895395212151385 -0.002121919239871204 -0.0099399411154014097 0.0027940827845172448 -0.0036987082427367571 -0.012789532922208311 -0.0052837438881397254 -0.0069623887175466956 -0.010317496935787955 -0.00794077499696378
leaf_weight=121 27 32 28 24 31 20 20 23 26 20 20 36 26 20 24 37 21 33 23 28 27 20 54 22 20 25 39 41 38 89
leaf_count=121 27 32 28 24 31 20 20 23 26 20 20 36 26 20 24 37 21 33 23 28 27 20 54 22 20 25 39 41 38 89
internal_value=0 0.00908138 0.024672 0.0006931 0.0152332 0.0457399 -0.00123008 0.00377402 -0.00586572 0.0125572 -0.00197745 -0.00378121 -0.00123002 0.00456116 -0.00476513 0.00298787 -0.00289034 0.000367892 0.00746548 -0.00189158 -0.0075347 -0.00700669 -0.00791866 -0.00619751 -0.00742008 -0.00990692 -0.00767374 -0.00865489 -0.00900133 -0.00876316
internal_weight=0 399 129 270 81 48 246 103 616 43 185 145 109 40 143 63 98 57 50 60 431 46 404 156 41 45 134 95 248 210
internal_count=1015 399 129 270 81 48 246 103 616 43 185 145 109 40 143 63 98 57 50 60 431 46 404 156 41 45 134 95 248 210
cat_boundaries=0 1 2
cat_threshold=48 384
is_linear=0
shrinkage=0.05


Tree=16
num_leaves=31
num_cat=1
split_feature=17 25 13 22 22 23 23 18 16 15 15 22 23 23 20 18 22 7 16 20 5 1 23 7 3 16 10 1 27 1
split_gain=19.579 5.70862 9.01867 5.24839 3.09448 2.59674 2.76626 2.18474 2.12649 2.0853 1.416 1.26555 1.02636 0.856362 0.813813 0.705318 0.630493 0.620265 0.578777 0.431056 0.314096 0.303946 0.103981 0.146899 0.217834 0.128959 0.0922212 0.0753262 0.0941023 0.062666
threshold=169.92047040906979 0 2.1383330595080281 3.5083333333333342 4.225833333333334 378.25000000000006 738.47500000000014 0.28496798231139636 424.68750000000006 1.1590446397650058 1.8323814237376406 3.9033333333333338 72.500000000000014 22.500000000000004 11.75429206592244 0.25896419272451154 4.29 0.59935145324510641 576.87500000000011 10.820620152252932 235.50000000000003 462.50000000000006 40.500000000000007 0.6120339073507437 233.50000000000003 406.62500000000006 0.10416006540006841 481.50000000000006 68.570637020107384 459.50000000000006
decision_type=2 1 2 2 2 2 2 2 2 2 2 2 2 2 2 2 2 2 2 2 2 2 2 2 2 2 2 2 2 2
left_child=1 2 9 -2 5 8 7 -7 11 20 22 -5 -11 29 16 -14 17 21 -16 -19 26 -15 -3 -24 25 27 -1 28 -25 -12
right_child=3 10 -4 4 -6 6 -8 -9 -10 12 13 -13 15 14 18 -17 -18 19 -20 -21 -22 -23 23 24 -26 -27 -28 -29 -30 -31
leaf_value=-0.010548319394389789 -0.0054827408158573615 -0.0088720098827180915 0.026441658867170682 0.010691790590062738 -0.00090881057083606713 0.022472355331992731 0.014106403798079835 0.044847997929900886 0.0033285666474451624 -0.0032628300245446358 -0.0075565719267442115 0.027159601586338667 0.015373149402439596 0.0087561037945183551 -0.0016328915964358634 0.0030979059647176076 -0.0052266429096241209 -0.006181852015666664 -0.010612567369346782 0.0036663773108739405 -0.0026699120385779277 0.0013347735109908339 -0.0086407880207843846 -0.0041896814107894899 -0.0019752578988957866 -0.0091467000130150047 -0.0061650840006768704 -0.0036513178436844438 -0.0085361465811729428 -0.011467262078076601
leaf_weight=30 29 127 37 20 20 20 26 24 30 23 21 28 25 37 38 22 34 25 34 20 36 22 96 20 26 45 20 27 33 20
leaf_count=30 29 127 37 20 20 20 26 24 30 23 21 28 25 37 38 22 34 25 34 20 36 22 96 20 26 45 20 27 33 20
internal_value=0 -0.00339838 0.00403897 0.0141602 0.0175509 0.0200455 0.0270367 0.0346773 0.0137713 -0.00101558 -0.00566895 0.020298 0.00539197 -0.00285456 -0.0015641 0.00962729 0.000684176 0.00261656 -0.00587329 -0.00180486 -0.00623102 0.00598883 -0.00770933 -0.00711152 -0.00613927 -0.00700539 -0.00879503 -0.0058009 -0.00689597 -0.00946423
internal_weight=0 818 193 197 168 148 70 44 78 156 625 48 70 251 210 47 138 104 72 45 86 59 374 247 151 125 50 80 53 41
internal_count=1015 818 193 197 168 148 70 44 78 156 625 48 70 251 210 47 138 104 72 45 86 59 374 247 151 125 50 80 53 41
cat_boundaries=0 1
cat_threshold=16
is_linear=0
shrinkage=0.05


Tree=17
num_leaves=31
num_cat=3
split_feature=11 25 17 25 14 12 18 25 19 23 22 22 17 22 7 14 14 18 3 23 14 16 20 22 23 10 16 17 17 20
split_gain=17.7024 17.9817 9.74682 3.86417 4.57392 2.8453 2.3541 1.44134 1.44177 1.54404 1.14181 1.84034 1.43257 0.917037 0.677804 0.422851 0.377241 0.554554 0.35669 0.628226 0.289221 0.226228 0.220265 0.20137 0.181107 0.132022 0.0845838 0.10746 0.12709 0.0675395
threshold=4.5000000000000009 0 175.11005979367897 1 0.93715194908512334 0.26681665023011181 0.28315259301490764 2 25262.000000000004 71.500000000000014 4.29 3.8071428571428574 178.33394368097453 3.9128787878787885 0.61321192609544506 0.68396976929196518 0.28898170246618932 0.23413897244391893 46.500000000000007 264.50000000000006 0.57617342879872724 353.56250000000006 11.540792645133378 4.0154761904761918 98.500000000000014 0.16952104499274309 948.81250000000011 30.762593140894193 22.793354196177415 11.384356496533989
decision_type=2 1 2 1 2 2 2 1 2 2 2 2 2 2 2 2 2 2 2 2 2 2 2 2 2 2 2 2 2 2
left_child=7 2 5 18 10 15 -4 8 14 -10 11 22 23 -11 24 -2 25 -18 21 -20 26 -3 -5 -13 -1 -16 27 28 29 -9
right_child=1 3 6 4 -6 -7 -8 20 9 13 -12 12 -14 -15 16 -17 17 -19 19 -21 -22 -23 -24 -25 -26 -27 -28 -29 -30 -31
leaf_value=-0.006713779530438938 0.0027802735264413061 -0.00764087557881361 0.032988810579159429 -0.00039579608244821434 0.023317555627175447 0.025814786060683187 0.055448786765336988 -0.0079269882411174813 -0.0063813992711747513 -0.00020924627103588797 -0.0095600031130015847 -0.0010793888091575356 0.016940078656349718 0.012818087396611062 -0.0034810249448606841 0.012166106994263829 -0.0057927437041970821 0.0043951696113628501 -0.0063127440281021286 -0.017039334596622557 -0.0026312952343788415 -0.00021050958384876141 -0.0073188023848666092 0.0057137888677971206 -0.012069528246367421 -0.0082805884759063319 -0.0049517551348322916 -0.010718988803656479 -0.0041432328721774476 -0.010775809443515281
leaf_weight=38 30 21 28 20 29 31 20 218 29 22 20 20 29 35 38 20 22 34 39 21 27 20 27 24 27 23 21 38 21 23
leaf_count=38 30 21 28 20 29 31 20 218 29 22 20 20 29 35 38 20 22 34 39 21 27 20 27 24 27 23 21 38 21 23
internal_value=0 0.00821366 0.0227313 0.000419997 0.00495135 0.0139134 0.0423471 -0.00530529 -0.00224018 0.00301127 0.00150058 0.00334402 0.0083124 0.00778999 -0.00484471 0.00653461 -0.0025704 0.000392775 -0.00692515 -0.0100671 -0.00738907 -0.00401631 -0.00437284 0.00262598 -0.00893848 -0.0052907 -0.00801945 -0.00823419 -0.0078738 -0.00819887
internal_weight=0 399 129 270 169 81 48 616 268 86 140 120 73 57 182 50 117 56 101 60 348 41 47 44 65 61 321 300 262 241
internal_count=1015 399 129 270 169 81 48 616 268 86 140 120 73 57 182 50 117 56 101 60 348 41 47 44 65 61 321 300 262 241
cat_boundaries=0 1 2 3
cat_threshold=48 74 48
is_linear=0
shrinkage=0.05


Tree=18
num_leaves=31
num_cat=2
split_feature=11 25 17 25 13 15 24 12 12 23 17 13 23 27 19 22 17 17 3 17 23 15 17 27 13 23 7 7 10 10
split_gain=16.1841 14.5799 6.86338 3.46251 5.48177 2.76954 2.73655 1.73493 1.43885 1.40159 1.34913 1.28448 0.882129 0.870832 0.809961 0.590367 0.346871 0.409037 0.986645 0.263599 0.259339 0.247905 0.386361 0.14567 0.135251 0.0930992 0.11551 0.140382 0.121142 0.0871113
threshold=5.5000000000000009 0 175.11005979367897 1 2.0126758453675748 3.6730504658022038 51.634243850072224 0.54599215719345595 0.23639875082182779 378.25000000000006 97.839786850460285 1.2424533248940004 430.25000000000006 151.89673975082263 20743.000000000004 4.0455026455026468 63.371457945126259 44.061023749433772 152.50000000000003 159.75565888006068 257.83333333333343 2.0231676715178701 29.484890985592248 72.973152181158866 0.89587973461402759 40.500000000000007 0.61307763723683484 0.66648127549128666 0.14943942708767041 0.13058841603933011
decision_type=2 1 2 1 2 2 2 2 2 2 2 2 2 2 2 2 2 2 2 2 2 2 2 2 2 2 2 2 2 2
left_child=3 12 8 4 7 9 -7 11 -3 -4 16 24 15 19 -13 20 17 21 -19 -12 -2 23 -23 -5 29 -25 -27 28 -28 -1
right_child=1 2 5 10 -6 6 -8 -9 -10 -11 13 14 -14 -15 -16 -17 -18 18 -20 -21 -22 22 -24 25 -26 26 27 -29 -30 -31
leaf_value=-0.0067794637106682945 -0.0065645079067172974 0.0026386795547104591 0.014399801538540766 -0.0035810573509445897 0.022837993737110603 0.026717796982266007 0.05256054046608153 0.012447577115381137 0.018706238873048939 0.031547377004542132 0.0006430351963410011 -0.0036605547275394205 0.0040888063997651138 0.0098206658847630034 0.010097510310942713 0.0001391807235777378 -0.011365234838483637 -0.0083418590120143358 0.0057506960047327962 -0.0069921466955565857 -0.013488048608858317 -0.00063975911501697018 -0.0092254188936203713 -0.0084692399332842502 -0.0033702320839351855 -0.0081276659046610206 -0.0060318676526753268 -0.0079743124564866652 -0.0019975366257131101 -0.010732086077332496
leaf_weight=46 38 38 26 27 28 20 21 20 22 22 26 20 27 20 23 25 34 27 23 20 21 38 20 127 21 90 49 46 30 20
leaf_count=46 38 38 26 27 28 20 21 20 22 22 26 20 27 20 23 25 34 27 23 20 21 38 20 127 21 90 49 46 30 20
internal_value=0 0.0107675 0.0202413 -0.00369644 0.00239455 0.0304108 0.0399543 -0.00126192 0.00853012 0.0222591 -0.00552128 -0.00337108 -0.00346135 0.00111044 0.00369841 -0.00630025 -0.00648587 -0.00613807 -0.00185928 -0.00267661 -0.00902882 -0.0066391 -0.00360033 -0.00711674 -0.00686519 -0.00739588 -0.00676184 -0.00577845 -0.00449984 -0.00797723
internal_weight=0 260 149 755 178 89 41 150 60 48 577 130 111 66 43 84 511 477 50 46 59 427 58 369 87 342 215 125 79 66
internal_count=1015 260 149 755 178 89 41 150 60 48 577 130 111 66 43 84 511 477 50 46 59 427 58 369 87 342 215 125 79 66
cat_boundaries=0 1 2
cat_threshold=75 16
is_linear=0
shrinkage=0.05


Tree=19
num_leaves=31
num_cat=2
split_feature=11 25 16 12 13 25 19 24 15 0 23 22 23 5 5 24 1 23 23 20 15 23 19 16 12 12 23 13 10 23
split_gain=14.6061 13.1583 6.25303 3.68849 4.23062 3.12492 4.96313 4.43098 1.17821 0.843409 0.796121 0.532806 0.476841 0.464831 0.53394 0.42897 0.4086 0.234053 0.229893 0.264939 0.597769 0.404293 0.295473 0.171193 0.106759 0.219642 0.0682631 0.0621389 0.0599103 0.0337713
threshold=5.5000000000000009 0 315.43750000000006 0.24303017020965736 3.5114340430413216 1 23850.000000000004 36.053359491986036 2.8331863104534416 731.84615384615392 430.25000000000006 4.0455026455026468 120.33333333333336 235.50000000000003 349.00000000000006 90.093339946791744 369.50000000000006 257.83333333333343 36.500000000000007 11.698696235984899 1.781232764629139 184.12500000000003 25262.000000000004 574.75000000000011 0.35901234567901247 0.49111111111111116 110.72368421052634 1.2424533248940004 0.10416006540006841 224.33333333333334
decision_type=2 1 2 2 2 1 2 2 2 2 2 2 2 2 2 2 2 2 2 2 2 2 2 2 2 2 2 2 2 2
left_child=5 10 -3 16 -5 6 13 12 15 -10 11 17 -8 28 -15 18 -4 -2 27 20 24 22 -22 -21 29 -26 -27 -7 -1 -20
right_child=1 2 3 4 -6 8 7 -9 9 -11 -12 -13 -14 14 -16 -17 -18 -19 19 23 21 -23 -24 -25 25 26 -28 -29 -30 -31
leaf_value=-0.0090915068487326302 -0.0062362825620527335 0.037722101337157005 -0.00031340100492040316 0.036972517503558532 0.010359517537290232 -0.007457416778037307 -0.0013615967985242607 0.032115870217482252 -0.003053855371828645 0.0093747613363943643 0.0038843660736111577 0.00013222159072756769 0.0088245297782123099 0.0042188209266616752 -0.0053619072726701928 -0.00059007927210945072 0.0087337526116663452 -0.012813646245437363 -0.0068724407820121907 -0.0056338740648546569 0.0061730959763129558 -0.0056204154988517985 -0.0022144427256924767 -0.011183816324355025 -0.0011933984607458115 -0.0088414411681393794 -0.0053586128386942785 -0.0097019510040449539 -0.0056094527067173097 -0.0086756062938978789
leaf_weight=30 38 39 24 28 32 109 20 21 39 21 27 25 27 26 33 33 26 21 82 24 21 30 21 33 25 24 34 43 21 38
leaf_count=30 38 39 24 28 32 109 20 21 39 21 27 25 27 26 33 33 26 21 82 24 21 30 21 33 25 24 34 43 21 38
internal_value=0 0.0102291 0.0192293 0.0144208 0.0227789 -0.00351162 0.00227482 0.0130215 -0.00524521 0.00129616 -0.00328828 -0.00598524 0.00449001 -0.00416179 -0.00113989 -0.00610582 0.00439112 -0.00857738 -0.0064819 -0.00574456 -0.00510151 -0.00118723 0.00197933 -0.008847 -0.00648983 -0.00511111 -0.00679978 -0.00809238 -0.00765772 -0.00744344
internal_weight=0 260 149 110 60 755 178 68 577 60 111 84 47 110 59 517 50 59 484 332 275 72 42 57 203 83 58 152 51 120
internal_count=1015 260 149 110 60 755 178 68 577 60 111 84 47 110 59 517 50 59 484 332 275 72 42 57 203 83 58 152 51 120
cat_boundaries=0 1 2
cat_threshold=75 16
is_linear=0
shrinkage=0.05


Tree=20
num_leaves=31
num_cat=2
split_feature=15 25 11 9 25 11 18 16 24 18 7 23 21 13 17 15 18 18 23 23 15 16 7 24 23 11 7 17 24 23
split_gain=10.4516 12.488 7.82183 2.48732 2.29966 3.55734 1.96872 1.60562 1.21481 0.721546 0.857291 0.591295 0.549012 0.519046 0.649296 0.343456 0.299424 0.438379 0.278513 0.157885 0.266826 0.172715 0.130904 0.130543 0.148517 0.178673 0.115342 0.104222 0.0937957 0.0877919
threshold=2.8183704116502564 0 6.5000000000000009 0.64716461974492223 1 4.5000000000000009 0.27725166368371318 451.12500000000006 40.886244762102898 0.35054517843120658 0.45768501306862686 8.3333333333333339 13.062579433127043 1.4978661367769956 19.782395820107386 1.781232764629139 0.11917889793992976 0.25469407875736699 192.50000000000003 465.50000000000006 2.3690577346920763 769.81250000000011 0.58683817906208191 43.097299722929129 42.250000000000007 3.5000000000000004 0.67815696824764193 41.459398323060164 27.453788321305421 105.16666666666667
decision_type=2 1 2 2 1 2 2 2 2 2 2 2 2 2 2 2 2 2 2 2 2 2 2 2 2 2 2 2 2 2
left_child=4 2 3 -2 5 11 -4 -5 -7 16 -11 -1 13 14 15 22 -3 -18 -12 20 23 -22 -13 27 -25 -26 28 29 -24 -6
right_child=1 9 6 7 19 8 -8 -9 -10 10 18 12 -14 -15 -16 -17 17 -19 -20 -21 21 -23 26 24 25 -27 -28 -29 -30 -31
leaf_value=-0.0081103527799565745 0.023201277379761451 -0.010804382601583546 0.02515938416084585 0.014702364762374404 -0.0077096141442872489 0.0041653066287162133 0.045411543920636177 -0.0022099041535208626 0.019625720847398043 0.0086775904133295015 -0.0072426103232871922 -0.007008616596220001 0.0047531891045057111 -0.0097368261000762395 0.0063351093547507412 0.0028680261038243771 -0.00061015717637462503 -0.0086496091975520051 0.0010018102964386344 -0.0096293561846802125 -0.005201743097131839 0.00072131895460188396 -0.0042542592883110051 -0.0088508337736129764 -0.0067060488643068258 -0.0016125592985190452 -0.0063207621242673626 -0.010162912532687189 -0.00013798133980843328 -0.0054570071458343479
leaf_weight=47 25 22 24 23 138 27 24 36 24 24 21 31 27 24 21 20 39 30 20 38 32 20 25 21 33 36 21 30 31 63
leaf_count=47 25 22 24 23 138 27 24 36 24 24 21 31 27 24 21 20 39 30 20 38 32 20 25 21 33 36 21 30 31 63
internal_value=0 0.00724845 0.0178333 0.00998369 -0.00404663 -0.000562639 0.0352855 0.00438301 0.0114408 -0.00267938 0.00117236 -0.00306386 -0.00187793 -0.00291285 -0.00181369 -0.0031506 -0.00572506 -0.00410557 -0.00322094 -0.00640325 -0.00624626 -0.00292364 -0.00426516 -0.0067845 -0.0051691 -0.00404858 -0.00316065 -0.00741388 -0.00197561 -0.00700357
internal_weight=0 288 132 84 709 298 48 59 51 156 65 247 200 173 149 128 91 69 41 411 373 52 108 321 90 69 77 231 56 201
internal_count=997 288 132 84 709 298 48 59 51 156 65 247 200 173 149 128 91 69 41 411 373 52 108 321 90 69 77 231 56 201
cat_boundaries=0 1 2
cat_threshold=176 48
is_linear=0
shrinkage=0.05


Tree=21
num_leaves=31
num_cat=2
split_feature=15 25 17 12 25 15 24 23 24 23 12 9 12 20 23 22 21 22 17 23 17 12 5 14 23 15 24 20 20 23
split_gain=9.43257 11.2704 5.53563 8.13034 2.07545 1.90197 1.61058 1.25468 0.780795 0.600124 0.788591 0.847452 0.545854 0.545673 0.52618 0.705584 0.467648 0.32642 0.314925 0.19533 0.180284 0.153034 0.211381 0.150001 0.142698 0.241334 0.118163 0.169836 0.116403 0.115717
threshold=2.8183704116502564 0 366.26057101794498 0.42543928690498389 1 1.9634558089609484 40.886244762102898 199.50000000000003 11.786306007091925 133.70000000000002 0.28196904674945217 0.74018975036939116 0.24744897959183673 12.65819992979551 8.3333333333333339 3.8887500000000004 12.626417516859565 4.1708333333333343 10.172963667358578 115.33333333333336 124.66545799879135 0.427706860601129 215.50000000000003 0.85063643595863181 473.50000000000006 2.3690577346920763 43.097299722929129 10.245704361695202 11.501698685002985 118.25000000000001
decision_type=2 1 2 2 1 2 2 2 2 2 2 2 2 2 2 2 2 2 2 2 2 2 2 2 2 2 2 2 2 2
left_child=4 2 3 7 5 14 8 -2 -7 20 11 23 -9 -12 -1 18 19 -10 -16 21 -3 22 -17 -11 25 26 28 -28 -6 -29
right_child=1 9 -4 -5 24 6 -8 12 17 10 13 -13 -14 -15 15 16 -18 -19 -20 -21 -22 -23 -24 -25 -26 -27 27 29 -30 -31
leaf_value=-0.0078775335931115693 -0.0040672182683543908 -0.0046667253022037803 0.034632056522359317 0.039293039732036142 -0.006588958327344914 -0.0063630781136453157 0.017786073205726487 0.0041182680986821653 0.0010447494774347261 -0.0045691003836691377 -0.00022076565772295002 0.010521056138626908 0.015156494675292856 -0.01056658081137217 -0.00042969736910890792 -0.0011098311096429826 0.0028563100723144803 0.0096668119400577721 0.0084433640539646158 -0.0077646021824330086 -0.011299819843843581 0.00031535254791378978 -0.0080062578953802588 0.0014812944102145379 -0.0091931536655268965 -0.0027774603876213615 -0.0074514653141561308 -0.0049952123464355553 -0.009795323285189542 -0.00018814428753796079
leaf_weight=45 29 21 37 21 199 20 21 24 21 20 25 23 21 26 20 20 23 23 20 40 20 20 25 21 37 52 38 31 33 21
leaf_count=45 29 21 37 21 199 20 21 24 21 20 25 23 21 26 20 20 23 23 20 40 20 20 25 21 37 52 38 31 33 21
internal_value=0 0.00688603 0.0169417 0.011835 -0.0038443 -0.000534507 0.00577085 0.00404291 0.00182836 -0.00254541 -0.000856876 0.00283921 0.00926944 -0.0054951 -0.00307582 -0.00178965 -0.00360105 0.00555174 0.00400683 -0.00501552 -0.00790238 -0.00332378 -0.00494118 -0.00147012 -0.00608309 -0.00593806 -0.00644847 -0.00491065 -0.00704504 -0.0030539
internal_weight=0 288 132 95 709 298 85 74 64 156 115 64 45 51 213 168 128 44 40 105 41 65 45 41 411 374 322 90 232 52
internal_count=997 288 132 95 709 298 85 74 64 156 115 64 45 51 213 168 128 44 40 105 41 65 45 41 411 374 322 90 232 52
cat_boundaries=0 1 2
cat_threshold=176 48
is_linear=0
shrinkage=0.05


Tree=22
num_leaves=31
num_cat=2
split_feature=15 25 11 12 9 25 11 23 20 12 18 14 14 12 12 9 11 11 23 17 12 17 15 14 9 15 14 20 18 6
split_gain=8.51289 10.1716 6.60008 2.32262 2.08954 1.87309 2.99865 1.31931 1.13651 0.807828 0.617957 0.670252 0.516199 0.962485 0.47495 0.406133 0.344252 0.170828 0.151422 0.146174 0.139417 0.139153 0.134236 0.296569 0.247518 0.148339 0.161115 0.120591 0.203006 0.0829822
threshold=2.8183704116502564 0 6.5000000000000009 0.26094729760242158 0.64716461974492223 1 4.5000000000000009 215 11.43210440245098 0.51000000000000012 0.35054517843120658 0.87649164677804303 0.28898170246618932 0.40312213039485773 0.25712616541714733 0.66608289550496214 3.5000000000000004 1.5000000000000002 111.07142857142858 30.762593140894193 0.52967537373228646 15.012048699581753 2.3211426592885105 0.72692919649960241 0.7910250335623471 2.0635671925225458 0.63424821002386655 11.514787926969342 0.12140786018693982 50.500000000000007
decision_type=2 1 2 2 2 1 2 2 2 2 2 2 2 2 2 2 2 2 2 2 2 2 2 2 2 2 2 2 2 2
left_child=5 2 4 -4 -2 6 9 -6 -8 12 14 -12 17 16 -3 -16 21 18 29 -18 22 -14 25 24 -24 26 27 28 -7 -1
right_child=1 10 3 -5 7 20 8 -9 -10 -11 11 -13 13 -15 15 -17 19 -19 -20 -21 -22 -23 23 -25 -26 -27 -28 -29 -30 -31
leaf_value=-0.0043235533870756631 0.020976949088275434 -0.00044395275639765188 0.020147378302433277 0.042221419498897517 -0.0041382567083928738 -0.00096245201304554948 0.0012205199711024762 0.010834769874570832 0.016508350859681564 0.0051930305787079439 -0.0032664834685321598 0.0069868704137791482 -0.0040697047642121714 0.0079670106473548174 -0.0031504406705498695 -0.011599166787257701 0.0026622292958199977 -0.0089394834382753637 -0.0013384264893829823 -0.0033828894328325992 -0.0098880710168963385 -0.0095749696758999081 0.0026716657537257391 -0.0084440022973077643 -0.0050051137782810701 -0.0097364470993992515 -0.0015760284582419055 -0.0095057568357636534 -0.006209003623827535 -0.0083580650091171268
leaf_weight=26 25 33 22 26 28 20 20 31 31 28 37 28 24 22 25 33 20 38 22 20 21 22 21 21 21 26 21 24 236 25
leaf_count=26 25 33 22 26 28 20 20 31 31 28 37 28 24 22 25 33 20 38 22 20 21 22 21 21 21 26 21 24 236 25
internal_value=0 0.00654173 0.0160946 0.0321042 0.00886227 -0.00365209 -0.000507782 0.00372893 0.0105131 -0.00280391 -0.00241814 0.00115035 -0.00382635 -0.00136538 -0.00523279 -0.00795747 -0.00375274 -0.00622081 -0.00480561 -0.00036033 -0.00577894 -0.00670266 -0.00570585 -0.00359248 -0.00116672 -0.00611302 -0.00580003 -0.00611683 -0.00579912 -0.00630126
internal_weight=0 288 132 48 84 709 298 59 51 247 156 65 219 108 91 58 86 111 73 40 411 46 390 63 42 327 301 280 256 51
internal_count=997 288 132 48 84 709 298 59 51 247 156 65 219 108 91 58 86 111 73 40 411 46 390 63 42 327 301 280 256 51
cat_boundaries=0 1 2
cat_threshold=176 48
is_linear=0
shrinkage=0.05


Tree=23
num_leaves=31
num_cat=2
split_feature=25 13 17 11 12 12 23 23 9 12 17 21 23 10 12 25 10 9 18 20 13 15 13 8 1 18 17 17 11 4
split_gain=8.05599 17.6424 4.17722 4.00915 2.9058 1.78615 0.785636 0.653982 0.615813 0.55997 0.807004 0.387545 0.375713 0.450039 0.326323 0.303149 0.62802 0.281146 0.398307 0.235676 0.402317 0.242292 0.418638 0.214186 0.133719 0.126113 0.129452 0.111598 0.109619 0.0639022
threshold=0 2.6735537653587347 394.89247311827967 3.5000000000000004 0.28463458842036865 0.32242074222294331 514.70370370370381 228.62500000000003 0.82698108658634062 0.46448745314452311 7.6923122439717426 15.171076872731666 68.166666666666671 0.17695228789376086 0.54599215719345595 1 0.091126155560078359 0.63261003702180185 0.31740316828963594 11.801393516238635 2.8029010331479989 2.3393264813739481 2.602003343538398 0.23304771648620229 528.50000000000011 0.13139268726814493 66.21035274660133 27.626881650397703 4.5000000000000009 599.50000000000011
decision_type=1 2 2 2 2 2 2 2 2 2 2 2 2 2 2 1 2 2 2 2 2 2 2 2 2 2 2 2 2 2
left_child=1 3 8 9 -5 6 7 -4 11 23 -11 14 -10 -14 15 16 -2 -18 -19 21 28 25 -23 24 -1 -17 27 29 -21 -27
right_child=2 -3 5 4 -6 -7 -8 -9 12 10 -12 -13 13 -15 -16 19 17 18 -20 20 -22 22 -24 -25 -26 26 -28 -29 -30 -31
leaf_value=-0.0048651755025440994 0.003508832446737763 0.045886398437950351 0.01378799554426223 0.0030121777756485736 0.023952285336951415 -0.002332607357271223 0.018992033009619817 0.0010014632623642683 -0.0053825882830373616 -0.0046407939550893694 0.0089584093209123233 0.0011451781690120699 0.0079134851960199221 -0.0016975814621124803 -0.010120937251485884 -0.0026020822725419343 -0.0010203952487144207 -0.0018681467782395583 -0.01044788398749886 -0.0083554199989885093 -0.0035366424259596638 0.0012394095425094878 -0.0074443020027778724 -0.0021342869981059004 -0.010261868926075599 -0.0057291617431835824 -0.009942652510944755 -0.0030532684600488706 -0.013279097111752401 -0.0078284924121006672
leaf_weight=22 34 27 20 37 30 36 23 20 23 24 20 25 21 29 32 29 36 24 31 20 28 35 23 28 24 171 20 33 26 46
leaf_count=22 34 27 20 37 30 36 23 20 23 24 20 25 21 29 32 29 36 24 31 20 28 35 23 28 24 171 20 33 26 46
internal_value=0 0.00776424 -0.00301095 0.00262016 0.0123883 0.00655184 0.0116287 0.00739473 -0.0044349 -0.00292618 0.00154066 -0.00495187 -9.37836e-05 0.00233907 -0.00521109 -0.00492851 -0.00211966 -0.00445554 -0.006704 -0.00556485 -0.00826204 -0.00516165 -0.00220413 -0.00558215 -0.00768084 -0.00573535 -0.00607188 -0.00576222 -0.0111384 -0.00617418
internal_weight=0 212 785 185 67 99 63 40 686 118 44 613 73 50 588 556 125 91 55 431 74 357 58 74 46 299 270 250 46 217
internal_count=997 212 785 185 67 99 63 40 686 118 44 613 73 50 588 556 125 91 55 431 74 357 58 74 46 299 270 250 46 217
cat_boundaries=0 1 2
cat_threshold=16 32
is_linear=0
shrinkage=0.05


Tree=24
num_leaves=31
num_cat=1
split_feature=25 13 11 13 12 12 13 13 7 12 18 22 15 22 7 27 10 15 5 23 24 10 10 15 10 13 12 23 24 10
split_gain=7.27053 15.9223 3.61826 2.98712 2.62249 1.50358 1.23348 0.80173 0.55756 0.505373 0.409781 0.407836 0.573866 0.601506 0.384315 0.307392 0.399671 0.287517 0.244557 0.238792 0.180792 0.173649 0.277786 0.263102 0.149821 0.221249 0.140883 0.110578 0.105879 0.140733
threshold=0 2.6735537653587347 3.5000000000000004 3.4175922930736511 0.28463458842036865 0.32242074222294331 4.0942056540395164 3.7726948748059121 0.46448895065260637 0.46448745314452311 0.26762358620989019 3.8350340136054428 2.3690577346920763 4.1708333333333343 0.60623726840624703 353.87080336809544 0.064368156259248258 2.6164725823309447 326.00000000000006 297.16666666666669 24.72710004565317 0.16518009840292577 0.14857666662728278 2.0395625829293658 0.19567902537899581 2.1383330595080281 0.33091681951844415 150.13888888888891 69.878420061691315 0.098824406525259659
decision_type=1 2 2 2 2 2 2 2 2 2 2 2 2 2 2 2 2 2 2 2 2 2 2 2 2 2 2 2 2 2
left_child=1 2 9 8 -4 6 7 -5 15 18 -11 17 21 -14 -15 16 -2 24 20 -7 -1 22 23 28 25 -10 -19 -23 29 -13
right_child=3 -3 4 5 -6 19 -8 -9 11 10 -12 12 13 14 -16 -17 -18 26 -20 -21 -22 27 -24 -25 -26 -27 -28 -29 -30 -31
leaf_value=-0.0058616395164845575 -0.0026229391765335334 0.04359207834910464 0.0028615688307311489 0.010024996217162838 0.022754671325286233 0.00034279269725084307 0.015888437436837138 -0.0036333238658368249 -0.0052445143890037819 0.006288875562842639 -0.0033616175951795995 -0.0043719833794360367 0.0045190350021211767 -0.0086741455830633644 0.00078227731088797254 -0.0049361438278786168 0.0064253932653138271 -0.0073410006356425589 -0.010026125116273762 -0.0069871627073734999 7.294270963895889e-05 -0.0055161199075918575 0.001610778272151947 0.00066300917394636642 -0.0018215666785836222 -0.010640922984616323 -0.012687808021225714 -0.0096922285409401301 -0.0024348379423220954 -0.0076360772134827781
leaf_weight=33 23 27 37 21 30 25 33 22 139 22 22 72 39 22 21 22 26 28 20 20 21 51 20 21 25 22 22 23 27 61
leaf_count=33 23 27 37 21 30 25 33 22 139 22 22 72 39 22 21 22 26 28 20 20 21 51 20 21 25 22 22 23 27 61
internal_value=0 0.00737603 0.00248915 -0.00286041 0.0117689 0.0043284 0.00861724 0.00303702 -0.00421349 -0.00277987 0.00146363 -0.00471483 -0.00364871 2.24267e-05 -0.00405589 -2.6233e-05 0.00217822 -0.00632757 -0.00530304 -0.00291497 -0.00355375 -0.00474338 -0.00398102 -0.0045989 -0.00542273 -0.00598191 -0.0096936 -0.0068141 -0.00528953 -0.00586905
internal_weight=0 212 185 785 67 121 76 43 664 118 44 593 357 82 43 71 49 236 74 45 54 275 201 181 186 161 50 74 160 133
internal_count=997 212 185 785 67 121 76 43 664 118 44 593 357 82 43 71 49 236 74 45 54 275 201 181 186 161 50 74 160 133
cat_boundaries=0 1
cat_threshold=16
is_linear=0
shrinkage=0.05


Tree=25
num_leaves=31
num_cat=2
split_feature=13 25 13 25 12 13 12 23 12 22 22 10 5 23 12 26 26 20 7 12 12 26 23 9 13 10 7 20 0 10
split_gain=8.2399 10.7576 4.71316 2.97564 4.26268 2.47315 1.56078 1.50414 1.61546 1.04343 1.71097 0.662575 0.602825 0.690861 0.412756 0.547916 0.662423 0.207577 0.252768 0.436705 0.226748 0.149626 0.122594 0.235907 0.123064 0.101573 0.176509 0.103851 0.100076 0.0984661
threshold=2.6735537653587347 0 3.9219243190762363 1 0.52108033240997242 1.2424533248940004 0.33979686057248387 181.15384615384619 0.29002714088557019 3.729166666666667 4.2550000000000008 0.12508992805755398 218.50000000000003 438.66666666666669 0.54599215719345595 605.81634533977206 1036.4662570065307 11.75429206592244 0.5347606673445563 0.24432769540634322 0.2833193553914275 3211.5804394515335 68.166666666666671 0.75641233766233784 1.7005986908310777 0.1808594061776678 0.61904576331141004 10.521339040064857 795.50000000000011 0.14494331065759633
decision_type=2 1 2 1 2 2 2 2 2 2 2 2 2 2 2 2 2 2 2 2 2 2 2 2 2 2 2 2 2 2
left_child=3 2 7 4 5 29 11 -2 -9 21 12 -7 13 -11 15 17 -17 18 19 -5 -19 -3 24 25 -20 26 -24 28 -28 -1
right_child=1 9 -4 14 -6 6 -8 8 -10 10 -12 -13 -14 -15 -16 16 -18 20 22 -21 -22 -23 23 -25 -26 -27 27 -29 -30 -31
leaf_value=-0.0039322296213080638 0.0056398971263190798 -0.0053850036114454275 0.039564935559406877 0.0049857664434239269 0.023239242503642229 -0.0024557771212130319 0.017247287631034853 0.013167089070319325 0.030276357264003975 0.0028953517315204484 -0.012138130255043508 0.0088161479258401839 -0.0019270329503342509 0.014249874716846363 -0.010299038845631811 0.0055401868427232392 -0.0061313192779198292 -0.0040749601906899247 -0.0050286792844306425 -0.0043775551021099091 -0.0098520005040336409 -0.011501094396226109 -0.0058871402849371623 0.00092351042743151401 -0.0090700982942838564 -0.0077191083878278737 -0.0055808214362089836 0.00036039434683819618 -0.0015298470374076598 -0.0073789118498098112
leaf_weight=67 29 20 25 20 23 32 25 37 22 37 20 22 28 21 27 31 20 33 131 33 35 20 65 24 22 20 30 24 31 30
leaf_count=67 29 20 25 20 23 32 25 37 22 37 20 22 28 21 27 31 20 33 131 33 35 20 65 24 22 20 30 24 31 30
internal_value=0 0.00802269 0.0187475 -0.0023304 0.00285277 0.000350715 0.00691839 0.0149639 0.0195468 -0.00146196 0.00103449 0.00213649 0.00409789 0.00700647 -0.00419492 -0.00395819 0.000963126 -0.00449449 -0.00406031 -0.000844226 -0.00704844 -0.00844305 -0.00455153 -0.00371692 -0.0056098 -0.00437204 -0.00392576 -0.00242589 -0.00352213 -0.00499821
internal_weight=0 259 113 745 199 176 79 88 59 146 106 54 86 58 546 519 51 468 400 53 68 40 347 194 153 170 150 85 61 97
internal_count=1004 259 113 745 199 176 79 88 59 146 106 54 86 58 546 519 51 468 400 53 68 40 347 194 153 170 150 85 61 97
cat_boundaries=0 1 2
cat_threshold=304 16
is_linear=0
shrinkage=0.05


Tree=26
num_leaves=31
num_cat=2
split_feature=15 25 14 12 10 25 12 17 24 20 17 17 27 24 3 15 10 27 3 23 24 17 10 22 27 22 22 9 20 9
split_gain=7.64207 9.74106 7.23602 3.12227 2.20978 2.13289 2.30814 2.76365 1.78305 0.869654 1.00331 1.42513 0.705712 0.693711 0.858141 0.6831 0.662156 0.314052 0.337238 0.491967 0.266254 0.26322 0.228635 0.18628 0.124263 0.101877 0.174963 0.162976 0.168996 0.0862884
threshold=2.3572924859869793 0 0.74482895783611791 0.26022481941400866 0.08840986330981486 1 0.33091681951844415 558.05494694862273 34.624441990822497 11.270091939034074 84.094927240582095 50.061932287365821 173.43058434752101 27.045412154526407 96.500000000000014 1.4319925013614851 0.15435659497983154 14.537802497751967 42.500000000000007 264.50000000000006 50.450771474757225 39.863791146424525 0.14046309069327262 4.0928571428571443 141.80049472883516 4.29 3.9468750000000008 0.61518611509644516 9.9499903296030414 0.67746041710260174
decision_type=2 1 2 2 2 1 2 2 2 2 2 2 2 2 2 2 2 2 2 2 2 2 2 2 2 2 2 2 2 2
left_child=9 2 8 -4 -5 17 7 13 12 20 11 15 -2 -7 -15 -11 -17 -3 -19 -20 21 25 23 -22 -8 26 -1 28 -28 -27
right_child=1 5 3 4 -6 6 24 -9 -10 10 -12 -13 -14 14 -16 16 -18 18 19 -21 22 -23 -24 -25 -26 29 27 -29 -30 -31
leaf_value=-0.0050126628508374554 0.0075075088359881194 -0.011939480837567577 0.013603879001153552 0.047501332278956067 0.024825782164753903 -0.0024041669777135313 -0.0085181381516158585 0.022067892799774808 0.016991024003696762 -0.0065559614089227489 -0.0094941584393382072 0.013911217393442281 -0.0033618873596424239 0.0017220997772015194 0.01477454106323421 -0.0015162349678575994 0.0097143000080471952 -0.00010189574677497149 -0.0032803203609278971 -0.012630217941477895 -0.00090706864228615397 -0.010561273922212422 0.0013736704477306568 -0.006836636481737649 -0.0034256701884062394 -0.0052847772198063997 -0.00040233822539448739 0.0007909409059532759 -0.0063767172010808157 -0.0090087239257991315
leaf_weight=181 28 21 23 22 21 36 25 24 28 31 22 21 32 34 20 35 21 24 34 24 26 20 33 27 23 70 20 29 29 20
leaf_count=181 28 21 23 22 21 36 25 24 28 31 22 21 32 34 20 35 21 24 34 24 26 20 33 27 23 70 20 29 29 20
internal_value=0 0.00547777 0.0149856 0.0284736 0.0364272 -0.000590738 0.00293824 0.00699229 0.00657248 -0.00336845 0.000238164 0.00222067 0.0017105 0.00297214 0.00655634 -0.000601181 0.00269522 -0.00591001 -0.00508661 -0.00714924 -0.00439891 -0.00498282 -0.00189351 -0.00392779 -0.006078 -0.00466314 -0.00415956 -0.00217993 -0.0039382 -0.00611232
internal_weight=0 419 154 66 43 265 162 114 88 585 130 108 60 90 54 87 56 103 82 58 455 369 86 53 48 349 259 78 49 90
internal_count=1004 419 154 66 43 265 162 114 88 585 130 108 60 90 54 87 56 103 82 58 455 369 86 53 48 349 259 78 49 90
cat_boundaries=0 1 2
cat_threshold=48 74
is_linear=0
shrinkage=0.05


Tree=27
num_leaves=31
num_cat=1
split_feature=25 13 12 13 13 22 7 12 15 12 22 23 23 7 23 21 24 22 20 18 15 22 5 24 16 16 16 13 20 23
split_gain=7.15012 15.7829 3.78401 3.17055 2.0861 1.82938 1.48797 1.23006 1.37319 1.1006 0.958621 1.26189 0.823698 0.731223 0.906301 0.582177 0.517157 0.394139 0.337891 0.297138 0.219961 0.471985 0.171292 0.137122 0.167114 0.0930328 0.126677 0.106545 0.0598359 0.0973806
threshold=0 2.6735537653587347 0.52108033240997242 3.9796379800581989 1.2424533248940004 3.8550000000000004 0.64343685367464742 0.31788548752834467 2.1473655632068476 0.28463458842036865 3.3875000000000006 565.87500000000011 411.18292682926835 0.56981786041617022 199.50000000000003 14.260176474161741 25.608362556704815 4.0928571428571443 11.666379514606836 0.13139268726814493 2.0231676715178701 3.8450000000000011 429.50000000000006 38.624957481217145 557.87500000000011 348.00000000000006 790.43750000000011 0.89587973461402759 11.247288025651818 128.83333333333334
decision_type=1 2 2 2 2 2 2 2 2 2 2 2 2 2 2 2 2 2 2 2 2 2 2 2 2 2 2 2 2 2
left_child=1 2 4 7 23 -5 9 8 19 -6 -10 13 -7 14 -12 18 -15 -13 20 -2 25 -22 -20 24 -1 27 -27 -9 29 -21
right_child=3 -3 -4 5 6 12 -8 15 10 -11 11 17 -14 16 -16 -17 -18 -19 22 28 21 -23 -24 -25 -26 26 -28 -29 -30 -31
leaf_value=-0.0072954432012475277 0.0013339048590172422 0.040173838962095254 0.021910888813031111 -0.0035073590930551294 -0.0044399341358052147 0.0076756954554002737 0.016462735429406166 -0.0051326469255563549 -0.0078566951171049598 0.0099957043547993125 0.0032869452619566941 0.00042063628012935326 0.021853901326124157 -0.0039105777232045381 0.014210902142489479 -0.012486189367392889 0.0054202045737562887 -0.0091558899010785611 -0.0061212944057889478 -0.0044332712143659598 -0.0054583069682121281 0.0045832605270499536 -0.011812662929296495 -0.00099052444455169516 -0.0023964930351616609 -0.0065352144138887533 -0.0024576728916727007 -0.0014367582037662849 -0.0028484543394898219 -0.0073267732269880247
leaf_weight=49 22 33 23 20 31 20 25 39 23 23 39 21 21 27 37 26 33 22 39 100 25 22 20 21 27 80 25 39 31 41
leaf_count=49 22 33 23 20 31 20 25 39 23 23 39 21 21 27 37 26 33 22 39 100 25 22 20 21 27 80 25 39 31 41
internal_value=0 0.00781213 0.00283819 -0.00202318 0.000345731 0.00889014 0.00637762 -0.00298794 -0.0011331 0.00170858 0.00175235 0.00298703 0.0149377 0.00534761 0.00860519 -0.00531973 0.00122135 -0.00447898 -0.004675 -0.00413753 -0.00380909 -0.000757999 -0.00805057 -0.00456684 -0.00555503 -0.00459271 -0.00556437 -0.0032847 -0.00483737 -0.00527464
internal_weight=0 232 199 772 176 61 79 711 396 54 202 179 41 136 76 315 60 43 289 194 230 47 59 97 76 183 105 78 172 141
internal_count=1004 232 199 772 176 61 79 711 396 54 202 179 41 136 76 315 60 43 289 194 230 47 59 97 76 183 105 78 172 141
cat_boundaries=0 1
cat_threshold=16
is_linear=0
shrinkage=0.05


Tree=28
num_leaves=31
num_cat=1
split_feature=25 13 12 17 18 17 8 12 12 15 23 3 18 0 20 11 15 18 19 24 7 12 24 15 20 0 13 17 23 15
split_gain=6.45298 14.2441 3.41507 3.11443 2.35778 2.05357 1.28306 1.14308 0.829819 0.885359 0.794833 0.661449 0.506768 0.607614 0.493158 0.439001 0.33022 0.268167 0.265167 0.22233 0.212768 0.191609 0.207664 0.136631 0.117372 0.0887437 0.236758 0.17793 0.127932 0.0637994
threshold=0 2.6735537653587347 0.52108033240997242 394.89247311827967 0.14623627377846429 49.308799777704451 0.15308006390910703 0.265789155899046 0.31788548752834467 2.1473655632068476 411.18292682926835 138.50000000000003 0.303332167268757 961.50000000000011 11.23080043946119 3.5000000000000004 2.7367914188088918 0.13139268726814493 27753.000000000004 38.624957481217145 0.57715238065148033 0.21826388888888892 23.307770313094185 2.588692422607151 11.783714964255386 1011.5000000000001 1.4978661367769956 18.197175760793446 68.166666666666671 0.89064408468037992
decision_type=1 2 2 2 2 2 2 2 2 2 2 2 2 2 2 2 2 2 2 2 2 2 2 2 2 2 2 2 2 2
left_child=1 2 5 8 -5 15 -6 -7 9 17 -8 16 -13 -14 18 19 -11 -2 25 29 -16 -18 -23 24 -22 26 27 -10 -27 -1
right_child=3 -3 -4 4 6 7 10 -9 14 11 -12 12 13 -15 20 -17 21 -19 -20 -21 23 22 -24 -25 -26 28 -28 -29 -30 -31
leaf_value=-0.0066421209986126705 0.0012672095982865855 0.038165147032475838 0.02081534431376697 -0.0086054187800203054 0.00030121749058826424 0.0018349085305817425 0.0089783126278029351 0.01873961489647627 -0.0049978832904757423 0.0036535770990527594 0.020960916314274075 -0.0015050322713796051 0.014212194218167239 0.002321778229353103 -0.011255095058092565 0.0028560295508339491 0.001296923451379619 -0.0045954974809509904 0.0017852290533483029 0.00015895720571279526 -0.0018422607798129322 -0.0076891322729643443 -0.0019334971195175536 -0.0092350509984848589 -0.0070795718235034588 -0.0050829116565485801 -0.0098326076221253202 0.0002266836352646351 2.7801531367003919e-05 -0.0038678234984399749
leaf_weight=43 22 33 23 21 23 20 31 20 88 26 25 20 21 22 33 29 22 172 20 24 20 25 42 26 23 24 21 20 25 40
leaf_count=43 22 33 23 21 23 20 31 20 88 26 25 20 21 22 33 29 22 172 20 24 20 25 42 26 23 24 21 20 25 40
internal_value=0 0.00742152 0.00269628 -0.00192202 0.00628565 0.000328444 0.010244 0.0102873 -0.003172 -0.00159415 0.0143277 0.000952386 0.00507039 0.00812873 -0.00512853 -0.00260062 -0.00130356 -0.00393065 -0.00367351 -0.00407952 -0.00795299 -0.00275172 -0.00408112 -0.00637372 -0.00464361 -0.00428685 -0.00497492 -0.00403037 -0.0024754 -0.00530511
internal_weight=0 232 199 772 100 176 79 40 672 372 56 178 63 43 300 136 115 194 198 107 102 89 67 69 43 178 129 108 49 83
internal_count=1004 232 199 772 100 176 79 40 672 372 56 178 63 43 300 136 115 194 198 107 102 89 67 69 43 178 129 108 49 83
cat_boundaries=0 1
cat_threshold=16
is_linear=0
shrinkage=0.05


Tree=29
num_leaves=31
num_cat=1
split_feature=25 13 12 17 18 17 22 23 12 12 15 22 23 23 3 20 6 17 17 18 16 18 7 20 22 15 20 13 10 20
split_gain=5.82381 12.8553 3.0821 2.81077 2.1279 1.85335 1.1556 1.97905 1.03163 0.748911 0.799037 0.700363 0.803872 0.553755 0.689688 0.445075 0.413177 0.602949 0.365256 0.606995 0.248207 0.242021 0.192024 0.190829 0.157234 0.12331 0.118544 0.11184 0.127041 0.105929
threshold=0 2.6735537653587347 0.52108033240997242 394.89247311827967 0.14623627377846429 49.308799777704451 4.0928571428571443 411.18292682926835 0.265789155899046 0.31788548752834467 2.1473655632068476 3.3875000000000006 514.70370370370381 222.50000000000003 113.00000000000001 11.23080043946119 81.500000000000014 15.667844158649659 53.814587641106733 0.30400136444258841 590.31250000000011 0.13139268726814493 0.57715238065148033 10.980114901488756 4.0928571428571443 2.588692422607151 11.929222185435881 1.4978661367769956 0.17830736293811247 11.783714964255386
decision_type=1 2 2 2 2 2 2 2 2 2 2 2 2 2 2 2 2 2 2 2 2 2 2 2 2 2 2 2 2 2
left_child=1 2 5 9 -5 16 7 -6 -7 10 21 -12 13 18 -15 23 20 -18 -13 -20 24 -2 -17 27 -1 29 -14 28 -11 -24
right_child=3 -3 -4 4 6 8 -8 -9 -10 15 11 12 26 14 -16 22 17 -19 19 -21 -22 -23 25 -25 -26 -27 -28 -29 -30 -31
leaf_value=-0.003656215221319046 0.0012038491496985609 0.036256889669422171 0.019774576973008075 -0.0081751478614196897 0.0054671486815550457 0.0017431629495695232 0.00029578076108642245 0.024460956628900021 0.017802633699029687 -0.0042805732368734204 -0.0079104931489564472 0.0066773335609468633 -0.0012491380196297541 0.0026465282076969746 0.014197362679988147 -0.010692340299261339 -0.0043385890397158542 0.0073675586164674975 -0.0071229795722857776 0.0044940097045830709 0.00012175460224566253 -0.0043657225719111606 -0.0017501477058976889 0.00059347386658191686 -0.0084424317930825062 -0.0087732986224671981 -0.0066278457774647656 -0.0071730998773127793 -0.00058994704279406328 -0.0067255932321448044
leaf_weight=37 22 33 23 21 32 20 23 24 20 119 20 20 20 28 24 33 22 22 23 22 23 172 20 25 32 26 21 25 29 23
leaf_count=37 22 33 23 21 32 20 23 24 20 119 20 20 20 28 24 33 22 22 23 22 23 172 20 25 32 26 21 25 29 23
internal_value=0 0.00705045 0.00256146 -0.00182592 0.00597137 0.000312022 0.00973183 0.0136074 0.0097729 -0.0030134 -0.00151444 0.000904767 0.00202062 0.00413184 0.00797768 -0.00487211 -0.00247059 0.00151448 0.00105517 -0.00144356 -0.00437649 -0.00373412 -0.00755534 -0.00348983 -0.00587591 -0.00605503 -0.00400409 -0.00407991 -0.00355741 -0.00441143
internal_weight=0 232 199 772 100 176 79 56 40 672 372 178 158 117 52 300 136 44 65 45 92 194 102 198 69 69 41 173 148 43
internal_count=1004 232 199 772 100 176 79 56 40 672 372 178 158 117 52 300 136 44 65 45 92 194 102 198 69 69 41 173 148 43
cat_boundaries=0 1
cat_threshold=16
is_linear=0
shrinkage=0.05


Tree=30
num_leaves=31
num_cat=1
split_feature=13 25 26 12 26 15 24 10 23 17 12 12 3 24 5 24 26 1 27 17 23 24 16 8 27 17 12 8 23 17
split_gain=3.99525 3.65827 3.887 4.14387 3.2047 1.14431 1.22068 0.917905 0.721048 0.439132 0.385576 0.305426 0.534488 0.184914 0.26411 0.243085 0.272145 0.181995 0.138899 0.182252 0.137036 0.106208 0.228878 0.098975 0.0978591 0.16964 0.0952282 0.100001 0.308498 0.117179
threshold=3.9796379800581989 0 483.13886139236325 0.40312213039485773 11843.428809290284 1.781232764629139 23.636270525193556 0.12938217785296066 83.65000000000002 82.102027610008648 0.51000000000000012 0.33091681951844415 25.000000000000004 12.783638250410599 383.50000000000006 41.885964912280706 804.66271802419362 707.50000000000011 61.802693173411271 107.1737443389561 490.00000000000006 38.624957481217145 646.43750000000011 0.20796457457531287 325.48673718987624 20.18846187288062 0.52108033240997242 0.19616640094871893 138.25000000000003 47.151284293527404
decision_type=2 1 2 2 2 2 2 2 2 2 2 2 2 2 2 2 2 2 2 2 2 2 2 2 2 2 2 2 2 2
left_child=1 2 5 7 -2 10 8 -4 -7 -8 17 12 -3 -14 18 16 -16 21 -15 24 26 22 -1 -23 25 -20 27 28 -13 -29
right_child=4 11 3 -5 -6 6 9 -9 -10 -11 -12 20 13 14 15 -17 -18 -19 19 -21 -22 23 -24 -25 -26 -27 -28 29 -30 -31
leaf_value=-0.0059897196266941637 0.023174513579015774 0.0033324869004108257 0.00045704767706670932 0.031469550232092545 0.0010985091541494641 -0.0062087500250087154 0.013316711092427855 0.013490544623610649 0.0050819756606450446 0.0040800839493220506 0.0041873039642814549 -0.0055531168069977033 -0.0061293138550561777 -0.00094548786431550985 0.00023896891091551098 0.0037016648171550553 -0.0070724680647253988 0.0005364328606187233 -0.0052561530843377117 -0.0093868616409599794 -0.0085654959049341946 -0.004309464512126787 -2.0041316747665406e-06 0.0004382606514770052 -0.0059687337691062374 0.00078593602936182698 -0.0077439282536506662 -0.0045763558102771646 0.00068651338879135439 -0.0085598187365879611
leaf_weight=79 31 31 35 21 35 31 31 22 26 22 20 52 57 25 35 23 20 28 26 20 28 21 20 23 38 21 25 80 32 24
leaf_count=79 31 31 35 21 35 31 31 22 26 22 20 52 57 25 35 23 20 28 26 20 28 21 20 23 38 21 25 80 32 24
internal_value=0 -0.00126977 0.00247046 0.0124827 0.0114675 -4.1995e-05 0.00402036 0.00548752 -0.00105859 0.00948264 -0.00238157 -0.00388322 -0.00287957 -0.00360626 -0.00291485 -0.000614707 -0.00241974 -0.00314986 -0.00429494 -0.00509242 -0.00527705 -0.00387166 -0.00478008 -0.0018277 -0.00408197 -0.0025565 -0.00484477 -0.00445924 -0.00317611 -0.00549562
internal_weight=0 916 379 78 66 301 110 57 57 53 191 537 296 265 208 78 55 171 130 105 241 143 99 44 85 47 213 188 84 104
internal_count=982 916 379 78 66 301 110 57 57 53 191 537 296 265 208 78 55 171 130 105 241 143 99 44 85 47 213 188 84 104
cat_boundaries=0 1
cat_threshold=48
is_linear=0
shrinkage=0.05


Tree=31
num_leaves=31
num_cat=2
split_feature=11 25 17 24 7 18 20 17 25 15 26 9 20 17 26 3 21 16 22 9 17 8 21 15 24 18 17 3 3 9
split_gain=3.72751 5.18465 5.09894 1.54188 1.81913 1.40023 2.28454 0.791305 0.660397 0.672511 0.736064 0.789056 0.415721 0.333973 0.270129 0.442232 0.368231 0.228961 0.229995 0.201748 0.174152 0.141639 0.131859 0.272063 0.123492 0.109877 0.0771875 0.0334433 0.0514845 0.0357004
threshold=4.5000000000000009 0 663.75055601085921 24.131103189517102 0.43414811143757309 0.26213549154129151 12.416145787955971 94.313748599952135 1 1.6699933253086297 223.28439570467719 0.73904208998548626 11.23080043946119 79.886697942104746 1708.0843062258878 36.500000000000007 14.611427942583564 331.93750000000006 2.3500000000000001 0.53741258741258757 7.328771537833541 0.15822647822439323 13.425788992473992 2.6869153004291113 29.186525429865025 0.23413897244391893 89.610353876105464 193.00000000000003 73.500000000000014 0.6465344827586208
decision_type=2 1 2 2 2 2 2 2 1 2 2 2 2 2 2 2 2 2 2 2 2 2 2 2 2 2 2 2 2 2
left_child=8 2 3 12 -5 6 13 -7 9 17 11 -11 -2 -6 15 -3 -16 19 -19 24 -20 -17 23 27 -1 -22 -23 28 -10 -30
right_child=1 14 -4 4 5 7 -8 -9 22 10 -12 -13 -14 -15 16 21 -18 18 20 -21 25 26 -24 -25 -26 -27 -28 -29 29 -31
leaf_value=-0.0048772682689807636 -0.0062331210709929185 0.0033028478207795518 0.026489189540734516 -0.0036630232319501896 0.011980288838967682 0.011660682416654059 0.025198785591149526 -0.00090983536830472375 -0.0058487452100962406 0.0045363374409805 0.010884433665445873 -0.0070440276370694237 0.0019291036529466511 0.0030529125508936971 -0.012334846164144223 -0.0081504120713188546 -0.0040452428086585291 -0.0056845026135089851 -0.0023189481813460588 -0.007355865871382726 -7.91630574635097e-05 -0.0053693233337253335 -0.0079862663671374321 0.0014276865008287132 0.00055132815847173337 0.0050991849880665545 -0.001077500434423035 -0.0054291387630063439 -0.004339705212810718 -0.0027031813942206403
leaf_weight=22 26 23 32 28 20 21 31 31 40 38 21 24 39 22 21 21 37 21 36 37 21 20 25 20 20 20 22 86 109 48
leaf_count=22 26 23 32 28 20 21 31 31 40 38 21 24 39 22 21 21 37 21 36 37 21 20 25 20 20 20 22 86 109 48
internal_value=0 0.00337024 0.00754948 0.00511565 0.00785645 0.0104368 0.0149032 0.00416672 -0.00291466 -0.000885476 0.00279394 5.36155e-05 -0.00133579 0.00730404 -0.00412331 -0.00263122 -0.00704665 -0.00266088 -0.00104628 -0.0046638 0.00021869 -0.00479762 -0.00436313 -0.00420819 -0.00229222 0.00244686 -0.00312123 -0.00460649 -0.00424736 -0.00383937
internal_weight=0 394 250 218 153 125 73 52 588 260 83 62 65 42 144 86 58 177 98 79 77 63 328 303 42 41 42 283 197 157
internal_count=982 394 250 218 153 125 73 52 588 260 83 62 65 42 144 86 58 177 98 79 77 63 328 303 42 41 42 283 197 157
cat_boundaries=0 1 2
cat_threshold=432 48
is_linear=0
shrinkage=0.05


Tree=32
num_leaves=31
num_cat=0
split_feature=13 12 12 15 24 22 22 22 18 12 15 22 22 22 7 17 7 24 13 12 13 13 9 3 15 24 13 3 8 5
split_gain=3.24732 2.5373 1.78707 1.40349 0.852738 0.986147 1.1964 1.59525 1.08392 0.804839 0.57112 0.552707 1.97571 0.762962 0.43054 0.331652 0.315144 0.310563 0.253622 0.124175 0.231374 0.413157 0.200846 0.12174 0.107982 0.0657733 0.0476464 0.0354234 0.025609 0.0193259
threshold=3.9796379800581989 0.32242074222294331 0.56450872359963278 1.8323814237376406 12.453377377656812 4.29 3.8071428571428574 3.9937304075235112 0.24354401980007531 0.37389053254437871 2.8183704116502564 4.0014705882352954 4.0928571428571443 4.1039473684210543 0.50893774571548545 37.568604868887434 0.55112215164304323 50.637559799849093 2.1383330595080281 0.37389053254437871 0.89587973461402759 1.2424533248940004 0.53741258741258757 80.500000000000014 0.89064408468037992 38.624957481217145 2.3502401828962087 243.50000000000003 0.23702003495067867 191.50000000000003
decision_type=2 2 2 2 2 2 2 2 2 2 2 2 2 2 2 2 2 2 2 2 2 2 2 2 2 2 2 2 2 2
left_child=2 -2 3 18 14 6 9 8 -8 17 -7 -9 -13 -14 -5 -16 -15 26 19 22 28 -22 24 -24 25 29 -6 -25 -21 -1
right_child=1 -3 -4 4 5 10 7 11 -10 -11 -12 12 13 16 15 -17 -18 -19 -20 20 21 -23 23 27 -26 -27 -28 -29 -30 -31
leaf_value=-0.0048694215579466391 0.019564564265310766 -7.8683947363207432e-05 0.011291963254500714 0.0014925443037772431 7.7666566940024493e-05 -0.00035146522646148999 0.021255005726760087 -0.003142777920672388 0.0057311304804423587 -0.0085045978721852104 -0.011102452058167685 0.017651646458332174 -0.0060955829038802124 0.00068437243428300413 -0.0025134616494178774 -0.010436655770172366 0.0077794414254483482 0.0050195122618348371 0.0019587490308497634 -0.0048890015215806246 0.0037957281921990218 -0.003962747168702048 -0.0089975517412478282 -0.0053298615911435863 7.0531368255615244e-05 -0.0016745005967095496 -0.0033736502053216101 -0.0030373587924987077 -0.0032670616865572003 -0.0030864058860710693
leaf_weight=55 35 31 28 23 20 30 22 33 23 30 21 22 27 34 25 28 29 31 21 53 32 37 22 107 25 32 20 20 45 21
leaf_count=55 35 31 28 23 20 30 22 33 23 30 21 22 27 34 25 28 29 31 21 53 32 37 22 107 25 32 20 20 45 21
internal_value=0 0.0103382 -0.00114516 -0.00153732 0.000570478 0.00163507 0.00275907 0.00509654 0.0133206 -0.00163815 -0.00477834 0.00254425 0.00421989 0.000936575 -0.00422019 -0.0066993 0.00395036 0.00126317 -0.00341192 -0.00366311 -0.00258259 -0.000364614 -0.00430299 -0.00556368 -0.00289063 -0.00357608 -0.00164799 -0.00496884 -0.00414423 -0.00437675
internal_weight=0 66 916 888 418 342 291 190 45 101 51 145 112 90 76 53 63 71 470 449 167 69 282 149 133 108 40 127 98 76
internal_count=982 66 916 888 418 342 291 190 45 101 51 145 112 90 76 53 63 71 470 449 167 69 282 149 133 108 40 127 98 76
is_linear=0
shrinkage=0.05


Tree=33
num_leaves=31
num_cat=0
split_feature=11 22 22 16 13 15 15 22 24 15 12 12 22 10 22 13 16 15 15 17 18 17 12 11 12 10 9 15 7 4
split_gain=3.07317 1.87683 2.04858 2.14212 1.7975 1.00511 0.912452 0.761172 1.34027 0.599333 0.616978 0.472387 0.446852 0.573211 0.408856 0.3541 0.476404 0.459638 0.2839 0.198369 0.18295 0.121174 0.101405 0.686951 0.0719758 0.0565463 0.0753717 0.0355173 0.0333635 0.0351104
threshold=4.5000000000000009 4.29 3.5083333333333342 376.93750000000006 4.0942056540395164 3.0651374749782208 3.4735105316175434 3.8887500000000004 55.59440424356454 2.9074382610808942 0.60156250000000011 0.25712616541714733 4.0154761904761918 0.11417203486168996 3.2250000000000005 1.4978661367769956 839.25000000000011 2.0231676715178701 2.8331863104534416 21.476548761855344 0.26468128441522848 17.026243799963865 0.37389053254437871 2.5000000000000004 0.33091681951844415 0.086167562007086515 0.42622042883139494 1.1975251603330699 0.61172808749623242 426.50000000000006
decision_type=2 2 2 2 2 2 2 2 2 2 2 2 2 2 2 2 2 2 2 2 2 2 2 2 2 2 2 2 2 2
left_child=9 2 14 4 6 -3 -4 8 -5 10 15 -8 18 -14 -2 17 20 19 -9 21 -17 22 24 -24 25 26 -1 -26 -27 -30
right_child=1 5 3 7 -6 -7 11 12 -10 -11 -12 -13 13 -15 -16 16 -18 -19 -20 -21 -22 -23 23 -25 27 28 -28 -29 29 -31
leaf_value=-0.003662192842790059 -0.0092281210779522858 -0.00024910480264694461 0.015681138275457279 0.0004169667728781475 0.020408896650922926 -0.014626024067401886 0.0079307963928351034 0.00083123428789390764 0.015289874534521783 0.0046320335197917841 0.0054138062787907467 -0.0017969336729341497 -0.0015056679188273849 0.0076795792094234263 -0.00065122787473779738 -0.01183580647294338 -0.00087585113942623138 0.0025931766843486177 -0.0068862459765603916 0.0013948033648458395 -0.0063316032271056137 -0.0070056576767693396 -0.0036774675073219516 0.0061312849322954811 -0.0045153823826048108 -0.0051745519314597291 -0.00010818397769561183 -0.0070056489358345676 -0.0046010589626218588 -0.0021584506957761703
leaf_weight=35 24 31 21 33 38 20 26 22 28 27 21 24 35 33 33 26 29 37 26 22 36 23 119 21 45 41 26 21 28 31
leaf_count=35 24 31 21 33 38 20 26 22 28 27 21 24 35 33 33 26 29 37 26 22 36 23 119 21 45 41 26 21 28 31
internal_value=0 0.00306233 0.004393 0.00611806 0.0116323 -0.00588711 0.0069349 0.00272231 0.00724388 -0.00264434 -0.00299454 0.00326149 0.00034459 0.00295188 -0.00426255 -0.00332153 -0.00616559 -0.00274512 -0.00334907 -0.00322453 -0.00863982 -0.0034851 -0.00326447 -0.00220615 -0.00391717 -0.00334713 -0.00214737 -0.00530774 -0.00407898 -0.00331765
internal_weight=0 394 343 286 109 51 71 177 61 588 561 50 116 68 57 540 91 449 48 412 62 390 367 140 227 161 61 66 100 59
internal_count=982 394 343 286 109 51 71 177 61 588 561 50 116 68 57 540 91 449 48 412 62 390 367 140 227 161 61 66 100 59
is_linear=0
shrinkage=0.05


Tree=34
num_leaves=31
num_cat=1
split_feature=25 11 17 12 24 12 12 13 17 22 26 22 13 21 13 13 12 10 27 27 1 22 13 19 20 11 19 10 3 17
split_gain=3.26834 5.02032 2.67377 2.1429 0.913901 0.588963 0.562766 0.81626 0.430574 0.347461 0.573115 0.502151 0.95793 0.282911 0.323867 0.325864 0.640308 0.281164 0.271792 0.285154 0.277594 0.234341 0.214543 0.198531 0.479589 0.144649 0.115409 0.110518 0.108835 0.145764
threshold=0 4.5000000000000009 663.75055601085921 0.42312925170068033 14.820322126482859 0.51000000000000012 0.24303017020965736 2.4414009612931857 12.334522285435225 4.29 849.9271828652935 3.8071428571428574 3.9796379800581989 13.062579433127043 1.4978661367769956 0.89587973461402759 0.37389053254437871 0.14172430880694442 47.344041703445818 19.063797126271908 155.50000000000003 4.0455026455026468 1.2424533248940004 40755.000000000007 11.894494775483279 1.5000000000000002 39760.000000000007 0.11417203486168996 154.15384615384619 27.626881650397703
decision_type=1 2 2 2 2 2 2 2 2 2 2 2 2 2 2 2 2 2 2 2 2 2 2 2 2 2 2 2 2 2
left_child=1 5 3 4 -3 13 7 -6 -7 11 27 18 23 14 15 25 -17 -16 19 -2 -20 -8 -18 28 -25 -1 -22 -11 -13 -30
right_child=9 2 -4 -5 6 8 21 -9 -10 10 -12 12 -14 -15 17 16 22 -19 20 -21 26 -23 -24 24 -26 -27 -28 -29 29 -31
leaf_value=-0.002177967192967319 -0.0041724668138406499 -0.0040355387243575288 0.024363454501144591 0.019191077329950141 -0.0046670472340496335 0.009518602212192492 0.012845100016044131 0.0072093249179231815 -0.00085653747431933879 -0.0060116189255102264 -0.013732640296220781 -0.0054440590045932271 0.0086726382172302077 0.0021534439162625113 -0.0029578259369979305 -0.0044704470345202614 0.0081567485605112521 -0.010984863135963679 0.0017806251222888632 -0.012421587789431214 -0.0036522045103127808 0.0061658570426516238 0.0011739258739081298 0.0060170203979526254 -0.0037692144409858536 -0.0055767677064674599 -0.0073246964046524629 -0.0020316736716212646 -0.0044476444433842388 0.00099099200557578701
