tree
version=v4
num_class=1
num_tree_per_iteration=1
label_index=0
max_feature_idx=15
objective=regression
feature_names=population genre_diversity genre_hhi other_genre_count neighbor_avg_restaurants neighbor_avg_population saturation_index nearest_station_distance nearest_station_passengers land_price google_avg_rating reviews_per_shop google_density genre_encoded price_x_saturation pop_x_station_dist
feature_infos=none [1:8] [0:0.68000000000000016] [0:5.5834963087816991] [0:4.7632417405585858] none [0:2650] [0.0092080997154766007:2.7908652862861478] [1:132306] [0:6600000] none none none -1:4:3:0:6:7:2:5:1 [0:3519000000] none
tree_sizes=2717 2797 2714 2780 2799 2718 2705 2811 2831 2735 2572 2635 2726 2658 2673 2630 2856 2742 2844 2829 2836 2831 2854 2811 2830 2834 2649 2822 2653 2577 2845 2830 2571 2848 2845 2840 2833 2565 2835 2688 2791 2766 2850 2842 2852 2856 2764 2769 2836 2682 2875 2855 2863 2849 2789 2865 2858 2751 2791 2859 2785 2869 2794 2792 2881 2838 2837 2866 2869 2847 2880 2876 2860 2877 2864 2682 2791 2606 2777 2689 2790 2859 2865 2867 2878 2613 2854 2776 2868 2859 2766 2883 2861 2884 2882 2887 2797 2712 2887 2874 2861 2767 2863 2699 2785 2877 2885 2778 2873 2878 2876 2864 2878 2866 2869 2602 2866 2870 2854 2766 2859 2863 2799 2879 2883 2596 2779 2776 2789 2619 2862 2857 2890 2867 2872 2685 2888 2805 2795 2884 2872 2865 2780 2798 2534 2789 2704 2780 2860 2761 2607 2888 2796 2902 2882 2778 2782 2784 2887 2879 2873 2869 2879 2884 2876 2891 2892 2900 2883 2899 2878 2904 2881 2880 2806 2881 2887 2710 2885 2816 2888 2806 2787 2886 2910 2865 2873 2874 2868 2909 2892 2894 2911 2899 2886 2878 2890 2895 2883 2879 2879 2883 2799 2900 2900 2635 2804 2876 2883 2696 2908 2904 2877 2887 2905 2872 2890 2890 2883 2868 2801 2825 2892 2903 2924 2903 2870 2734 2874 2903 2870 2881 2787 2866 2794 2813 2699 2696 2803 2885 2899 2788 2904 2887 2896 2914 2897 2917 2726 2810 2723 2817 2705 2893 2725 2874 2789 2877 2899 2881 2810 2892 2899 2894 2805 2895 2903 2884 2719 2805 2719 2804 2735 2898 2897 2883 2909 2885 2890 2881 2892 2911 2910 2895 2899 2902 2796 2804 2897 2882 2806 2913 2894 2917 2825 2806 2902 2884 2903 2904

Tree=0
num_leaves=30
num_cat=1
split_feature=3 3 13 1 7 2 7 2 2 3 1 7 1 2 8 7 2 7 7 8 7 2 3 8 7 7 8 7 7
split_gain=84.9214 15.3486 19.5272 5.17303 4.87014 2.01622 1.95392 1.64406 1.4077 1.598 1.34142 0.999899 0.818252 1.35158 0.803853 0.483862 0.280393 0.225173 0.10398 0.176362 0.165641 0.0956599 0.739364 0.181077 0.0749675 0.0324416 0.0470444 0.0282415 0.00900318
threshold=4.166635176627655 1.8688348091416842 0 6.5000000000000009 1.145560164602738 0.26145850902344409 0.15115880030836074 0.29249043367346944 0.53749999999999998 0.89587973461402759 4.5000000000000009 0.45159845280739935 3.5000000000000004 0.25894223335047867 23878.000000000004 1.5965108613998262 0.42860000000000004 0.11639464248390892 0.80405090628447828 11766.000000000002 0.57052026249213583 0.3675000000000001 0.89587973461402759 22526.000000000004 0.3223073375126953 0.52085605474906094 21101.000000000004 0.30189602731800319 0.25672078172882123
decision_type=2 2 1 2 2 2 2 2 2 2 2 2 2 2 2 2 2 2 2 2 2 2 2 2 2 2 2 2 2
left_child=1 4 3 5 8 -3 -2 14 11 -10 -7 12 17 -14 -4 -6 -9 -1 19 20 -13 23 27 24 28 -21 -27 -23 -19
right_child=6 2 7 -5 15 10 -8 16 9 -11 -12 18 13 -15 -16 -17 -18 21 -20 25 -22 22 -24 -25 -26 26 -28 -29 -30
leaf_value=-0.016570296994677158 0.083026199384969482 0.0062142221623671537 0.0025251389258107715 0.045170716501218094 0.0038279701145908043 0.013981820486439638 0.06092463235129119 -0.011023988590198746 0.0092481813585261162 -0.0092286048760592838 0.029653089132278255 -0.0014153083717405707 -0.013557555156787832 0.004214872055947603 -0.0093782127255691034 0.014573534398716699 -0.018861044115098594 -0.015695242850043367 -0.0042378908904772391 -0.0071651660152164702 -0.0073300818143624607 -0.016415360749322167 -0.0048753522171383823 -0.0088410787250890535 -0.012213010161863944 -0.0081190390685025003 -0.010894317663040979 -0.013819313845050868 -0.014448598866506126
leaf_weight=34 20 23 37 24 22 22 20 25 22 25 36 20 23 20 23 20 21 30 34 26 29 20 31 21 37 37 26 22 28
leaf_count=34 20 23 37 24 22 22 20 25 22 25 36 20 23 20 23 20 21 30 34 26 29 20 31 21 37 37 26 22 28
internal_value=-6.26403e-10 -0.00282608 0.0085696 0.0226273 -0.00738868 0.0187412 0.0719754 -0.0068444 -0.00880313 -0.000579896 0.0237088 -0.00968554 -0.0116066 -0.00529131 -0.00203781 0.00894491 -0.0146018 -0.0128243 -0.00671464 -0.00732485 -0.00491589 -0.0121504 -0.0107324 -0.0130428 -0.0139716 -0.00865114 -0.00926439 -0.0150555 -0.0150934
internal_weight=0 738 211 105 527 81 40 106 485 47 58 438 266 43 60 42 46 223 172 138 49 189 73 116 95 89 63 42 58
internal_count=778 738 211 105 527 81 40 106 485 47 58 438 266 43 60 42 46 223 172 138 49 189 73 116 95 89 63 42 58
cat_boundaries=0 1
cat_threshold=28
is_linear=0
shrinkage=1


Tree=1
num_leaves=31
num_cat=2
split_feature=4 4 13 1 7 7 13 1 4 7 7 9 1 2 7 7 7 2 2 7 8 1 7 7 7 8 4 1 8 8
split_gain=87.1645 12.6835 7.50895 19.7462 3.85295 1.7592 1.24076 2.89171 2.33899 1.01262 0.459401 0.457658 0.695073 0.340995 0.479815 0.283008 0.278534 0.252995 0.277191 0.217355 0.164824 0.121055 0.213023 0.064092 0.0602233 0.055538 0.0448817 0.0341931 0.0254424 0.0155511
threshold=4.4520455793502007 3.4497040187471546 0 3.5000000000000004 1.145560164602738 0.20758006617529348 1 3.5000000000000004 1.8020691128294231 0.36726060884291262 0.30809783909557292 726000.00000000012 5.5000000000000009 0.35768595041322321 0.33081614170141105 0.14686323271502488 0.11192600406678661 0.34534438775510207 0.43879286694101516 0.15482772780053833 11766.000000000002 2.5000000000000004 0.48211844067257575 0.18012426245181937 0.76316146648053917 8057.0000000000009 1.1190232859282376 1.5000000000000002 16823.000000000004 16188.000000000002
decision_type=2 2 1 2 2 2 1 2 2 2 2 2 2 2 2 2 2 2 2 2 2 2 2 2 2 2 2 2 2 2
left_child=1 2 3 13 6 -3 7 10 -9 11 23 12 16 14 -1 -2 -8 25 -19 -14 -12 22 -11 -4 28 -18 -15 -22 -24 -27
right_child=15 5 4 -5 -6 -7 9 8 -10 21 20 -13 19 26 -16 -17 17 18 -20 -21 27 -23 24 -25 -26 29 -28 -29 -30 -31
leaf_value=-0.012605627745389938 0.077061138376593591 0.013119675061450557 -0.010055699277753858 0.039121631780290045 0.0090197679672308056 0.03233066551725973 -0.017741377119507112 -0.0047949942108243705 0.019096944800999372 -0.011498969172437985 -0.0020232163855563039 -0.019430501909837836 -0.0025390588212758306 0.00033090462908148767 -0.0035888646498076723 0.068649722770787777 -0.012122068818037708 -0.0051010945190986005 -0.012643947670685836 -0.0097410623449832208 -0.0058524624444544317 -0.0044703361468718334 -0.0066684926495603897 -0.013830575670885005 -0.0042893841751806792 -0.014185098156332971 -0.0030187845276668668 -0.0086401422592726623 -0.0087052080942236869 -0.015966956169965366
leaf_weight=25 20 26 22 34 34 22 28 20 21 30 23 21 22 20 36 20 24 21 29 20 22 34 46 23 21 25 20 22 23 24
leaf_count=25 20 26 22 34 34 22 28 20 21 30 23 21 22 20 36 20 24 21 29 20 22 34 46 23 21 25 20 22 23 24
internal_value=0 -0.00292753 -0.00465638 0.00573819 -0.00715919 0.0219247 -0.00835242 -0.00367831 0.00744234 -0.00992606 -0.00807768 -0.0124208 -0.011658 -0.00493166 -0.00728426 0.0728554 -0.0132405 -0.0122159 -0.00947595 -0.00596858 -0.0054533 -0.00710395 -0.00785014 -0.0119851 -0.00663386 -0.0140927 -0.00134394 -0.0072463 -0.0073474 -0.0150578
internal_weight=0 738 690 135 555 48 521 153 41 368 112 214 193 101 61 40 151 123 50 42 67 154 120 45 90 73 40 44 69 49
internal_count=778 738 690 135 555 48 521 153 41 368 112 214 193 101 61 40 151 123 50 42 67 154 120 45 90 73 40 44 69 49
cat_boundaries=0 1 2
cat_threshold=8 16
is_linear=0
shrinkage=0.05


Tree=2
num_leaves=30
num_cat=2
split_feature=4 4 13 3 1 13 3 4 9 1 3 8 8 2 8 3 2 8 2 2 2 2 4 4 4 4 8 4 8
split_gain=78.666 11.4469 6.77683 21.7032 1.10267 0.947945 4.30407 1.14539 0.739492 0.696277 0.684168 0.389648 0.356093 0.307491 0.267841 0.334269 0.238466 0.189132 0.178945 0.10983 0.217426 0.124564 0.109738 0.10134 0.052617 0.0440751 0.0344393 0.0606001 0.0299428
threshold=4.4520455793502007 3.4497040187471546 0 1.7005986908310777 5.5000000000000009 1 2.3502401828962087 0.36195941961334954 782500.00000000012 5.5000000000000009 2.9174053685313028 23352.000000000004 9128.0000000000018 0.54818594104308405 11766.000000000002 0.89587973461402759 0.35768595041322321 29111.000000000004 0.33666666666666673 0.34534438775510207 0.42860000000000004 0.33111111111111119 4.6267021756845397 0.36195941961334954 0.83796382685146675 0.36195941961334954 8057.0000000000009 0.83796382685146675 14737.000000000002
decision_type=2 2 1 2 2 1 2 2 2 2 2 2 2 2 2 2 2 2 2 2 2 2 2 2 2 2 2 2 2
left_child=1 2 3 11 -3 6 14 12 9 13 -11 16 -7 17 18 23 25 19 -4 21 -21 26 -2 -16 -22 -1 -9 -28 -14
right_child=22 4 5 -5 -6 7 -8 8 -10 10 -12 -13 28 -15 15 -17 -18 -19 -20 20 24 -23 -24 -25 -26 -27 27 -29 -30
leaf_value=-0.006810204275063284 0.066593754887580875 0.013559611782431603 -0.0059915137714207437 0.045950510849555336 0.028729417337023694 -0.0080740401703224048 0.018522258223965766 -0.0087696663414438564 -0.019227095805108549 0.0014698812703567523 -0.01073134248610586 0.00026191076818470131 -0.00015515104258576265 -0.0046150645108095243 -0.0026806984276680108 -0.011388894485739563 -0.0026688012936762697 -0.015238772553351264 3.4421733157201251e-05 -0.0054580087640455797 -0.0092801206406544559 -0.013995892554521562 0.071831561131402863 -0.0071809232042267402 -0.012665403059994182 -0.0099467940550918392 -0.0095734079209664341 -0.012767471300645006 -0.0023692592122667548
leaf_weight=21 20 25 28 27 23 30 20 24 20 27 20 34 26 21 22 39 29 23 22 28 22 33 20 29 24 24 33 27 37
leaf_count=21 20 25 28 27 23 30 20 24 20 27 20 34 26 21 22 39 29 23 22 28 22 33 20 29 24 24 33 27 37
internal_value=0 -0.00278115 -0.00442356 0.00545128 0.0208285 -0.00680123 -0.00298794 -0.00823394 -0.00993651 -0.00927761 -0.00372213 -0.00416877 -0.00359051 -0.0103887 -0.00627424 -0.00790432 -0.00620449 -0.0109553 -0.0033401 -0.0104395 -0.00893185 -0.011393 0.0692127 -0.00523965 -0.0110464 -0.00848305 -0.0103704 -0.0110107 -0.0014555
internal_weight=0 738 690 135 48 555 160 395 302 282 47 108 93 235 140 90 74 214 50 191 74 117 40 51 46 45 84 60 63
internal_count=778 738 690 135 48 555 160 395 302 282 47 108 93 235 140 90 74 214 50 191 74 117 40 51 46 45 84 60 63
cat_boundaries=0 1 2
cat_threshold=8 16
is_linear=0
shrinkage=0.05


Tree=3
num_leaves=31
num_cat=0
split_feature=4 4 3 7 3 1 7 9 2 3 2 3 7 1 2 7 7 7 4 4 7 4 7 8 7 7 8 4 8 7
split_gain=70.9961 10.3308 4.13801 3.92439 1.95634 2.36396 1.5826 1.57505 1.21322 1.40308 1.09931 0.900919 0.791789 0.639902 1.08488 0.435825 0.248762 0.190107 0.149899 0.122827 0.145021 0.150014 0.0834618 0.135551 0.146309 0.0539581 0.0504205 0.0463545 0.036802 0.0313778
threshold=4.4520455793502007 3.4497040187471546 1.8688348091416842 1.145560164602738 3.1984648276080736 6.5000000000000009 0.20758006617529348 570000.00000000012 0.53749999999999998 0.89587973461402759 0.34534438775510207 2.3502401828962087 0.45159845280739935 3.5000000000000004 0.25894223335047867 1.5965108613998262 0.14686323271502488 0.11639464248390892 0.66087791999115975 0.89064408468037992 0.25246329178225352 1.2703086284010034 0.86603717766459287 11766.000000000002 0.57052026249213583 0.31373651909349415 25292.000000000004 1.5448104945054695 21101.000000000004 0.67926955130943489
decision_type=2 2 2 2 2 2 2 2 2 2 2 2 2 2 2 2 2 2 2 2 2 2 2 2 2 2 2 2 2 2
left_child=1 2 3 8 5 7 -3 10 12 -10 11 -4 13 17 -15 -5 -2 -1 25 -20 27 -22 23 24 -14 -19 28 -21 29 -25
right_child=16 6 4 15 -6 -7 -8 -9 9 -11 -12 -13 22 14 -16 -17 -18 18 19 20 21 -23 -24 26 -26 -27 -28 -29 -30 -31
leaf_value=-0.014673031822723502 0.069695071186870336 0.011435638411113849 -0.006359089627861976 0.0034500221467830918 -0.010422666774441799 0.020492647943042577 0.029656906747682527 -0.009147023187445787 0.0092177339575507441 -0.008095500323921442 0.011625376033286255 0.006492696826656659 -0.00077985528856515894 -0.011975309673858726 0.0039473626390099529 0.013648246638476851 0.061808979194611313 -0.014148983590561768 -0.0067357296059871539 -0.011037746835500004 -0.011714143274972838 -0.0064105921406492905 -0.0028475469421772731 -0.0083044323242372937 -0.006265080780271561 -0.01126846767760612 -0.0095270223170518878 -0.014441954530775548 -0.0050820760273685064 -0.0058343653939664369
leaf_weight=34 20 26 25 22 24 21 22 24 22 25 39 30 20 23 20 20 20 29 29 20 24 30 21 36 31 37 20 20 24 20
leaf_count=34 20 26 25 22 24 21 22 24 22 25 39 30 20 23 20 20 20 29 29 20 24 30 21 36 31 37 20 20 24 20
internal_value=0 -0.0026421 -0.00420238 -0.00635581 0.00275992 0.00503605 0.0197871 0.00228529 -0.00762552 8.56679e-06 0.00520418 0.000650976 -0.0084447 -0.0101542 -0.00456942 0.00830632 0.065752 -0.0112311 -0.0106119 -0.00958039 -0.010458 -0.00876773 -0.00580099 -0.00621173 -0.00411401 -0.0125341 -0.00728157 -0.0127399 -0.00672021 -0.00742227
internal_weight=0 738 690 527 163 139 48 118 485 47 94 55 438 266 43 42 40 223 189 123 94 54 172 151 51 66 100 40 80 56
internal_count=778 738 690 527 163 139 48 118 485 47 94 55 438 266 43 42 40 223 189 123 94 54 172 151 51 66 100 40 80 56
is_linear=0
shrinkage=0.05


Tree=4
num_leaves=31
num_cat=2
split_feature=4 4 13 3 7 7 13 3 7 1 9 1 3 7 2 7 4 7 7 2 2 7 3 7 8 7 8 7 7 7
split_gain=64.074 9.32355 6.08669 19.0892 3.1087 1.4283 1.01255 3.87952 0.881584 0.40335 0.336194 0.47512 0.327636 0.315363 0.299323 0.283938 0.446592 0.259739 0.224507 0.192354 0.229481 0.136765 0.134365 0.184811 0.0888947 0.0669526 0.0540933 0.0314293 0.0149377 0.0065139
threshold=4.4520455793502007 3.4497040187471546 0 1.7005986908310777 1.145560164602738 0.20758006617529348 1 2.3502401828962087 0.36726060884291262 2.5000000000000004 726000.00000000012 5.5000000000000009 2.9174053685313028 0.21391295312595801 0.33666666666666673 0.62855294906396419 0.98834090386103357 0.11192600406678661 0.14686323271502488 0.34534438775510207 0.43879286694101516 0.45159845280739935 0.89587973461402759 0.53563714666298579 22526.000000000004 0.14686323271502488 8057.0000000000009 0.76316146648053917 0.24431270766259128 0.67926955130943489
decision_type=2 2 1 2 2 2 1 2 2 2 2 2 2 2 2 2 2 2 2 2 2 2 2 2 2 2 2 2 2 2
left_child=1 2 3 9 6 -3 7 13 10 15 11 17 -13 25 21 16 -1 -8 -2 26 -21 -15 23 -10 -24 -4 -19 29 -28 -25
right_child=18 5 4 -5 -6 -7 8 -9 22 -11 -12 12 -14 14 -16 -17 -18 19 -20 20 -22 -23 24 27 -26 -27 28 -29 -30 -31
leaf_value=-0.0105818705985675 0.066210316210053868 0.010863856420753739 -0.0081069092244087232 0.043350984218219923 0.0082870618481298581 0.028174061986448413 -0.016046280200992313 0.017187533508986236 -0.009775725484658512 0.0015116372478327581 -0.017053248686715962 -0.0014770765619521791 -0.010319356750114821 -0.009477137452481188 -0.0012492021649248071 -0.00030165246716933329 -0.0017095671156826227 -0.010402146338795623 0.058718531419290232 -0.0043407782734859552 -0.011203865154549995 -0.0045320859316874433 -0.0060383973909275872 -0.006629191140333811 -0.0014903886047911577 -0.012149137789383532 -0.014120578319461159 -0.0038176514662336559 -0.012371297666560048 -0.0054964772679589012
leaf_weight=37 20 26 21 27 34 22 28 20 39 28 21 22 20 29 36 20 23 24 20 21 29 27 21 30 22 20 26 20 23 22
leaf_count=37 20 26 21 27 34 22 28 20 39 28 21 22 20 29 36 20 23 24 20 21 29 27 21 30 22 20 26 20 23 22
internal_value=0 -0.00250999 -0.00399226 0.00535117 -0.00624882 0.0187977 -0.00731736 -0.00313897 -0.00873199 -0.0036533 -0.0110453 -0.0103916 -0.00568769 -0.0064316 -0.00480625 -0.00546103 -0.00718082 -0.0116999 0.0624644 -0.0107105 -0.00832137 -0.00709292 -0.00608441 -0.00700364 -0.00371151 -0.0100787 -0.0123469 -0.0055021 -0.0132995 -0.00614997
internal_weight=0 738 690 135 555 48 521 153 368 108 214 193 42 133 92 80 60 151 40 123 50 56 154 111 43 41 73 72 49 52
internal_count=778 738 690 135 555 48 521 153 368 108 214 193 42 133 92 80 60 151 40 123 50 56 154 111 43 41 73 72 49 52
cat_boundaries=0 1 2
cat_threshold=8 16
is_linear=0
shrinkage=0.05


Tree=5
num_leaves=30
num_cat=2
split_feature=4 13 6 4 7 13 6 9 8 7 6 7 7 7 4 8 4 7 7 4 4 4 4 7 8 7 7 6 4
split_gain=65.8832 9.2169 21.8502 3.79532 2.51635 1.56563 4.15361 1.3222 0.789451 0.516852 0.498446 0.371841 0.30914 0.242736 0.200522 0.173136 0.151536 0.153017 0.119001 0.124596 0.112841 0.100442 0.0991683 0.0677264 0.0497501 0.049349 0.0217566 0.0191806 0.0187114
threshold=4.4520455793502007 0 55.000000000000007 4.1098229755757414 1.145560164602738 1 75.000000000000014 852500.00000000012 22949.000000000004 0.36726060884291262 95.000000000000014 0.15482772780053833 0.56379469595725573 0.28370930229001051 0.66087791999115975 22949.000000000004 1.3704200119626007 0.16506578151024423 0.67926955130943489 1.4614127513729518 0.59411222367889849 0.66087791999115975 1.077332481458712 0.5091306841077009 12860.000000000002 0.47616515138472787 0.84403550637437219 45.000000000000007 0.52256180185856183
decision_type=2 1 2 2 2 1 2 2 2 2 2 2 2 2 2 2 2 2 2 2 2 2 2 2 2 2 2 2 2
left_child=1 2 8 4 5 6 13 9 12 10 15 -12 14 16 -1 20 17 -3 19 25 -7 23 24 -15 -22 -11 -20 -24 -27
right_child=-2 3 -4 -5 -6 7 -8 -9 -10 18 11 -13 -14 21 -16 -17 -18 -19 26 -21 22 -23 27 -25 -26 28 -28 -29 -30
leaf_value=-0.01037702769614183 0.070451423909980812 -0.007160335034132004 0.041944395726848695 0.01587168736907188 0.006929182321833008 -0.013142021519668173 0.014216741981605689 -0.020931123891337354 0.0043159445759374656 -0.0097014352679252631 -0.0023419124676365755 -0.0099062888403282021 -4.2243944924502144e-05 -0.0080471520498394972 -0.0044228669406185233 -0.01504218801856041 -0.0050376954441890128 -0.013203131746162068 -0.0049102356125201498 -0.0037121180054699916 -0.0063922444763390915 -0.0020961603358516409 -0.010419579182655134 -0.0042650523868485776 -0.0098019932396709933 -0.008058649625467219 -0.0027812404247621698 -0.01240374440593379 -0.0060825470685958866
leaf_weight=26 32 20 37 20 34 33 30 22 30 27 32 33 21 20 31 27 20 22 28 22 23 29 29 29 20 23 21 21 25
leaf_count=26 32 20 37 20 34 33 30 22 30 27 32 33 21 20 31 27 20 22 28 22 23 29 29 29 20 23 21 21 25
internal_value=0 -0.00279666 0.00821692 -0.00545983 -0.00627548 -0.00708296 -0.00251859 -0.00879994 -0.00257704 -0.0083085 -0.00985038 -0.00618229 -0.00522819 -0.00628463 -0.0071388 -0.0114087 -0.00861983 -0.0103256 -0.00600624 -0.0070208 -0.0106301 -0.00442844 -0.00973879 -0.00580877 -0.00797817 -0.00799135 -0.00399781 -0.0112529 -0.00702943
internal_weight=0 755 145 610 590 556 170 386 108 364 218 65 78 140 57 153 62 42 146 97 126 78 93 49 43 75 49 50 48
internal_count=787 755 145 610 590 556 170 386 108 364 218 65 78 140 57 153 62 42 146 97 126 78 93 49 43 75 49 50 48
cat_boundaries=0 1 2
cat_threshold=8 16
is_linear=0
shrinkage=0.05


Tree=6
num_leaves=30
num_cat=0
split_feature=3 3 7 9 2 8 3 3 2 7 3 7 7 2 3 7 9 8 2 7 3 7 7 7 1 7 7 7 7
split_gain=54.683 8.49862 2.74642 2.72552 1.20052 1.16451 2.83192 1.55671 1.67695 1.08592 0.914082 0.604896 0.404107 0.229727 0.897685 0.145643 0.19072 0.125957 0.113392 0.0891353 0.0855937 0.107954 0.0352958 0.0318933 0.0280267 0.0248367 0.018865 0.0154067 0.00840073
threshold=4.166635176627655 1.8688348091416842 1.086954302602068 570000.00000000012 0.54040816326530627 10522.000000000002 3.0677824455408698 3.1567740231385479 0.37844693028095738 0.1980839280074683 0.89587973461402759 0.47616515138472787 1.5516303135739686 0.3418750000000001 0.89587973461402759 0.31190504822036674 172000.00000000003 13412.000000000002 0.24829696421504888 0.11192600406678661 0.89587973461402759 0.67459607398303645 0.26824868668438351 0.17265779490529801 1.5000000000000002 0.57708399890884798 0.83691399199182304 0.22859925326883043 0.36790385669097297
decision_type=2 2 2 2 2 2 2 2 2 2 2 2 2 2 2 2 2 2 2 2 2 2 2 2 2 2 2 2 2
left_child=1 2 4 5 11 6 -3 8 9 -7 -6 13 -4 15 22 16 19 -16 28 -1 21 24 -15 -21 25 -13 -23 -25 -17
right_child=-2 3 12 -5 10 7 -8 -9 -10 -11 -12 20 -14 14 17 18 -18 -19 -20 23 -22 26 -24 27 -26 -27 -28 -29 -30
leaf_value=-0.014961144781630973 0.065258771436469215 0.005534423521209148 0.0017252858797291992 -0.0059786264092112204 0.0077070196807060556 -0.0017372541016701497 0.029666784922592344 -0.0036783741802097329 0.018520554636415911 0.011783671173853455 -0.0056405220052291611 -0.005594596688946088 0.011030896548181773 -0.013751074746251108 -0.0049169363842035338 -0.0062417216598987585 -0.007175670074217994 0.00020566407280663649 -0.010943984868936241 -0.0096858952101320037 -0.0027331770984111011 -0.0050381150415965492 -0.01093299823999405 -0.013079784136442913 -0.0086811420818169917 -0.0078693068213760847 -0.0032600682479544327 -0.011301501369071675 -0.0075789575775464376
leaf_weight=23 31 31 28 39 23 33 20 31 32 27 29 30 20 20 24 23 23 24 28 20 27 35 25 21 21 20 26 29 24
leaf_count=23 31 31 28 39 23 33 20 31 32 27 29 30 20 20 24 23 23 24 28 20 27 35 25 21 21 20 26 29 24
internal_value=0 -0.0024963 -0.00581656 0.00596805 -0.00692388 0.00864575 0.0149981 0.00601185 0.00927704 0.00434716 0.000263198 -0.00776751 0.00560262 -0.00914995 -0.00711201 -0.0101423 -0.0112524 -0.00235564 -0.00842515 -0.0122607 -0.00529824 -0.00582291 -0.0121855 -0.0113734 -0.00714828 -0.00650448 -0.00428026 -0.0120484 -0.00692457
internal_weight=0 756 543 213 495 174 51 123 92 60 52 443 48 284 93 191 116 48 75 93 159 132 45 70 71 50 61 50 47
internal_count=787 756 543 213 495 174 51 123 92 60 52 443 48 284 93 191 116 48 75 93 159 132 45 70 71 50 61 50 47
is_linear=0
shrinkage=0.05


Tree=7
num_leaves=31
num_cat=2
split_feature=4 13 3 4 7 13 3 9 2 3 7 7 3 2 7 4 7 7 8 2 8 4 8 7 4 7 7 3 4 8
split_gain=53.898 8.24985 19.0916 2.97668 2.09499 1.42163 3.51322 1.15535 0.799999 0.936109 0.424994 0.407664 0.379206 0.436596 0.258339 0.214227 0.361387 0.174752 0.168391 0.140668 0.101662 0.0832923 0.0814621 0.0775736 0.0798433 0.0412346 0.0168241 0.0307296 0.0158394 0.0100315
threshold=4.4520455793502007 0 1.8688348091416842 4.1098229755757414 1.086954302602068 1 2.1383330595080281 909000.00000000012 0.3418750000000001 0.89587973461402759 0.36726060884291262 0.54758223473598311 2.3502401828962087 0.35115533816832517 0.1575436816922853 1.6932533331260762 0.31190504822036674 0.16291060951025202 23352.000000000004 0.35115533816832517 16823.000000000004 1.077332481458712 11766.000000000002 0.67926955130943489 1.4614127513729518 0.47616515138472787 0.30372599211753487 1.4978661367769956 0.52256180185856183 16823.000000000004
decision_type=2 1 2 2 2 1 2 2 2 2 2 2 2 2 2 2 2 2 2 2 2 2 2 2 2 2 2 2 2 2
left_child=1 2 8 4 5 6 15 10 11 -10 12 20 18 14 -14 16 17 -3 19 26 -1 -21 -18 24 25 -12 27 -7 -27 -25
right_child=-2 3 -4 -5 -6 7 -8 -9 9 -11 23 -13 13 -15 -16 -17 22 -19 -20 21 -22 -23 -24 29 -26 28 -28 -29 -30 -31
leaf_value=-0.011156005740520501 0.063721525871369519 -0.0064840345662087202 0.039424611310902483 0.013836087780073288 0.005421355721624329 -0.012415170214242405 0.013147028554230928 -0.020126887136138978 -0.0037328467741608619 0.010586802710202479 -0.0088044572759557651 -2.2905973019078377e-05 0.00052804500876885401 -0.011895372292825154 -0.0071423496829257126 -0.0009317144053056837 -0.0016994840077434977 -0.012188413353829549 -0.014186495513870166 -0.0059562580852672974 -0.0062361261763033415 -0.010150529299862683 -0.0053672939567349677 -0.0032755271866917613 -0.0038737757111211185 -0.0073089325557584356 -0.0098250230401754381 -0.010075476692746515 -0.0054907995909452443 -0.0047778915148228409
leaf_weight=21 32 25 37 20 39 36 30 20 25 21 27 20 23 21 21 20 24 29 26 29 21 20 41 25 23 23 20 23 25 20
leaf_count=21 32 25 37 20 39 36 30 20 25 21 27 20 23 21 21 20 24 29 26 29 21 20 41 25 23 23 20 23 25 20
internal_value=0 -0.00252988 0.007884 -0.00505174 -0.00577763 -0.00657029 -0.00223818 -0.00821326 -0.00219159 0.00280438 -0.00778193 -0.00589827 -0.0091663 -0.0059638 -0.00313283 -0.00571975 -0.00652447 -0.0095475 -0.010518 -0.00977285 -0.00869607 -0.00766821 -0.00401303 -0.00566181 -0.00645095 -0.00724128 -0.0110783 -0.0115031 -0.00636199 -0.00394324
internal_weight=0 755 145 610 590 551 169 382 108 46 362 62 219 65 44 139 119 54 154 128 42 49 65 143 98 75 79 59 48 45
internal_count=787 755 145 610 590 551 169 382 108 46 362 62 219 65 44 139 119 54 154 128 42 49 65 143 98 75 79 59 48 45
cat_boundaries=0 1 2
cat_threshold=8 16
is_linear=0
shrinkage=0.05


Tree=8
num_leaves=31
num_cat=1
split_feature=3 13 3 9 3 7 2 2 7 7 7 7 7 7 3 2 2 2 7 7 1 1 7 7 7 1 1 7 7 7
split_gain=44.6698 7.52579 17.2302 2.01819 2.40976 2.1168 1.29787 0.721999 0.865071 0.566208 0.367917 0.31922 0.315667 0.628617 0.244183 0.237382 0.217001 0.197014 0.0575126 0.107098 0.167747 0.0510451 0.035343 0.0675941 0.0447219 0.0207473 0.0202335 0.0199825 0.00934632 0.000933293
threshold=4.0153674620492712 0 1.8688348091416842 852500.00000000012 2.249904835165133 1.0048376764108387 0.33666666666666673 0.3418750000000001 0.34763271286609659 0.45159845280739935 0.54758223473598311 1.4281345218099837 0.20054284337593661 0.12264313058696051 3.0201273556387074 0.33666666666666673 0.43879286694101516 0.53749999999999998 0.32080855642988221 0.16291060951025202 3.5000000000000004 2.5000000000000004 0.75713859509273729 0.57052026249213583 0.62855294906396419 3.5000000000000004 1.5000000000000002 0.35064183960532608 0.23242017608214258 0.22859925326883043
decision_type=2 1 2 2 2 2 2 2 2 2 2 2 2 2 2 2 2 2 2 2 2 2 2 2 2 2 2 2 2 2
left_child=1 2 7 4 5 9 12 10 -9 15 21 -7 13 -6 -8 18 -17 29 19 20 -3 -1 23 26 -25 28 -11 -20 -21 -18
right_child=-2 3 -4 -5 6 11 14 8 -10 22 -12 -13 -14 -15 -16 16 17 -19 27 25 -22 -23 -24 24 -26 -27 -28 -29 -30 -31
leaf_value=-0.0065992820457640017 0.054563175099772515 -0.011320928743352061 0.037453380378114208 -0.018583120173291088 0.01001689674332738 0.00036108152583307985 -0.0087057615207000224 0.009228983517580976 -0.0044974546456201516 -0.0044428974903863048 -2.1760653471574187e-05 0.0090791506426674985 0.0098630468097204976 -0.0016785029369337416 -0.0010722245671786368 -0.0033516385086945128 -0.0099391132127493627 -0.0051330387197209134 -0.0069606111198663714 -0.011620099131356587 -0.0052139248021624311 -0.010089441225863994 -0.0030930816743742016 -0.0077481425988177467 -0.0049458293403897968 -0.012742576307871126 -0.0024050040259247737 -0.0090149809831175307 -0.01019333451986313 -0.010393427398342354
leaf_weight=22 36 23 37 26 20 21 22 24 22 29 20 21 30 27 20 35 20 33 20 22 22 20 34 24 35 22 21 29 24 26
leaf_count=22 36 23 37 26 20 21 22 24 22 29 20 21 30 27 20 35 20 33 20 22 22 20 34 24 35 22 21 29 24 26
internal_value=0 -0.00245232 0.0074898 -0.00487437 -0.00434388 -0.00598132 0.00199948 -0.00208201 0.00266417 -0.00705402 -0.00560336 0.00472012 0.00585597 0.00329826 -0.00507074 -0.00837704 -0.00662903 -0.00808103 -0.00960712 -0.0102275 -0.00833528 -0.00826126 -0.00450051 -0.00493953 -0.00608575 -0.0114797 -0.00358698 -0.00817646 -0.0108757 -0.0101959
internal_weight=0 751 145 606 580 461 119 108 46 419 62 42 77 47 42 276 114 79 162 113 45 42 143 109 59 68 50 49 46 46
internal_count=787 751 145 606 580 461 119 108 46 419 62 42 77 47 42 276 114 79 162 113 45 42 143 109 59 68 50 49 46 46
cat_boundaries=0 1
cat_threshold=8
is_linear=0
shrinkage=0.05


Tree=9
num_leaves=30
num_cat=2
split_feature=4 13 3 4 7 13 3 9 8 7 4 8 7 4 7 3 7 4 7 7 4 4 4 4 8 7 7 7 4
split_gain=44.3585 6.73696 15.5502 2.49964 1.72861 1.29558 3.06088 1.03701 0.664305 0.410645 0.27792 0.300134 0.239585 0.188345 0.313972 0.16831 0.151983 0.15072 0.0851519 0.0742414 0.107949 0.116835 0.0737066 0.065339 0.0438462 0.033209 0.0210988 0.0143603 0.01357
threshold=4.4520455793502007 0 1.8688348091416842 4.1098229755757414 1.145560164602738 1 2.1383330595080281 909000.00000000012 22949.000000000004 0.36726060884291262 2.8230821981816026 25292.000000000004 0.56379469595725573 1.6932533331260762 0.31190504822036674 2.3502401828962087 0.16291060951025202 0.66087791999115975 0.67926955130943489 0.096539940960792617 1.077332481458712 0.59411222367889849 0.52256180185856183 1.4614127513729518 16188.000000000002 0.47616515138472787 0.58577615981778008 0.84403550637437219 0.52256180185856183
decision_type=2 1 2 2 2 1 2 2 2 2 2 2 2 2 2 2 2 2 2 2 2 2 2 2 2 2 2 2 2
left_child=1 2 8 4 5 6 13 9 12 10 11 15 17 14 16 19 -3 -1 23 -7 21 -21 26 25 -22 -11 -16 -20 -27
right_child=-2 3 -4 -5 -6 7 -8 -9 -10 18 -12 -13 -14 -15 22 -17 -18 -19 27 20 24 -23 -24 -25 -26 28 -28 -29 -30
leaf_value=-0.0088993048152098287 0.057807291223434733 -0.0057702078428119421 0.035580711689702164 0.012734615374356509 0.0057054623379372066 -0.011803044480356304 0.012548251915723086 -0.018739984224084766 0.0043451717053540053 -0.0079721703021614649 -0.0041911102252814806 -0.014388291817158462 0.00015555693590570065 -0.00055876305792480708 -0.0059817218407988556 -0.0049456092520970213 -0.011090009351228846 -0.0037372173247105472 -0.004042881654043283 -0.010125444626266307 -0.0090859169333145553 -0.0055684496815770097 -0.0014137619318297277 -0.0035230242120830911 -0.012085854918474243 -0.0066567300778368243 -0.0036850507899362133 -0.0023132212160687361 -0.0049738772511482244
leaf_weight=26 32 25 37 20 34 22 30 20 30 27 33 24 21 20 20 29 29 31 28 22 29 39 26 23 21 23 20 21 25
leaf_count=26 32 25 37 20 34 22 30 20 30 27 33 24 21 20 20 29 29 31 28 22 29 39 26 23 21 23 20 21 25
internal_value=0 -0.00229587 0.00711531 -0.00457461 -0.00523889 -0.00590815 -0.00183715 -0.00746022 -0.00197791 -0.00704767 -0.00841981 -0.00917007 -0.00440986 -0.00505096 -0.00579966 -0.008397 -0.00862714 -0.00609185 -0.00500346 -0.00914956 -0.00862364 -0.00721196 -0.00348626 -0.00585439 -0.0103459 -0.00656934 -0.00483339 -0.0033016 -0.00578024
internal_weight=0 755 145 610 590 556 170 386 108 366 219 186 78 140 120 162 54 57 147 133 111 61 66 98 50 75 40 49 48
internal_count=787 755 145 610 590 556 170 386 108 366 219 186 78 140 120 162 54 57 147 133 111 61 66 98 50 75 40 49 48
cat_boundaries=0 1 2
cat_threshold=8 16
is_linear=0
shrinkage=0.05


Tree=10
num_leaves=28
num_cat=1
split_feature=4 13 1 2 4 4 7 8 7 4 7 2 4 7 4 4 1 7 7 2 1 4 7 4 7 8 7
split_gain=33.6909 4.21027 8.48139 7.72041 4.16646 4.07543 1.31601 1.06087 1.01999 0.498454 0.51916 0.259057 0.418391 0.396267 0.157524 0.151296 0.178807 0.149789 0.0878335 0.0942972 0.0846901 0.0397555 0.0387077 0.0382799 0.0353211 0.0119583 0.000360706
threshold=4.1098229755757414 0 3.5000000000000004 0.37844693028095738 4.4520455793502007 1.5711323612481805 0.9183693548759041 122915.00000000001 0.95285357128174175 2.9075314664125091 0.36726060884291262 0.43104938271604948 0.7234594914681628 0.31190504822036674 0.52256180185856183 1.9187170742185369 4.5000000000000009 0.17076728204781641 0.11506046736002916 0.3675000000000001 2.5000000000000004 1.2345791464099307 0.48211844067257575 0.52256180185856183 0.60696922828216249 14737.000000000002 0.13709766627551764
decision_type=2 1 2 2 2 2 2 2 2 2 2 2 2 2 2 2 2 2 2 2 2 2 2 2 2 2 2
left_child=1 2 8 5 -2 -4 7 9 11 10 15 13 -13 21 -15 16 18 -14 -3 25 22 -1 -12 24 -24 -20 -18
right_child=4 6 3 -5 -6 -7 -8 -9 -10 -11 20 12 17 14 -16 -17 26 -19 19 -21 -22 -23 23 -25 -26 -27 -28
leaf_value=-0.009943117312080153 0.020242987945675851 -0.011757016802827518 -0.0081001359187731787 0.040541638637130915 0.048569013508420217 0.017333976600720134 0.0026466603869553899 -0.015407076468192308 0.0073074372357223184 -0.00011056203860789539 -0.0067228944706065321 -0.0071060746242957457 0.0037478377277563725 -0.0057401766468371668 -0.00099639505147933963 -0.012245616143569352 -0.0050299310311675074 -0.0018384054968399661 -0.0087978842277680672 -0.0059509012848138814 -0.0019439907601246469 -0.0072193360976165249 -0.0069625858962535855 -0.0028931757900863887 -0.0043285654591662549 -0.010223396601421493 -0.0053302251175045973
leaf_weight=37 21 24 28 22 34 36 38 35 20 30 28 28 21 35 35 25 20 28 31 28 26 21 20 24 35 28 20
leaf_count=37 21 24 28 22 34 36 38 35 20 30 28 28 21 35 35 25 20 28 31 28 26 21 20 24 35 28 20
internal_value=0 -0.0028407 0.00158337 0.0149899 0.0377536 0.00620655 -0.0060713 -0.00711942 -0.00347055 -0.00626376 -0.00686116 -0.00452206 -0.0022304 -0.00590064 -0.00336829 -0.00864277 -0.00804627 0.000555699 -0.00907913 -0.0083404 -0.00450355 -0.00895692 -0.0051255 -0.00455934 -0.00528639 -0.0094744 -0.00518008
internal_weight=0 723 311 86 55 64 412 374 225 339 309 205 77 128 70 176 151 49 111 87 133 58 107 79 55 59 40
internal_count=778 723 311 86 55 64 412 374 225 339 309 205 77 128 70 176 151 49 111 87 133 58 107 79 55 59 40
cat_boundaries=0 1
cat_threshold=24
is_linear=0
shrinkage=0.05


Tree=11
num_leaves=29
num_cat=2
split_feature=4 13 4 1 4 7 9 4 8 4 7 13 4 2 8 4 4 8 8 2 7 7 7 7 7 7 8 4
split_gain=30.406 3.89142 6.3537 4.39933 3.76023 1.38235 1.02299 1.11527 0.889242 0.688818 0.45085 0.406688 1.46349 0.29215 0.239783 0.2199 0.179459 0.164109 0.267841 0.162379 0.118686 0.10674 0.0732116 0.0729622 0.0637501 0.0997598 0.0196613 0.0102065
threshold=4.1098229755757414 0 1.7382104014498718 4.5000000000000009 4.4520455793502007 1.3306026094358041 782500.00000000012 2.9075314664125091 12645.000000000002 0.66087791999115975 0.36726060884291262 1 1.7382104014498718 0.28444444444444456 19338.000000000004 1.8809632979644644 1.077332481458712 25292.000000000004 22526.000000000004 0.27664399092970532 0.20584928615739154 0.45159845280739935 0.16834389548104062 0.11506046736002916 0.52085605474906094 0.75713859509273729 12645.000000000002 0.36195941961334954
decision_type=2 1 2 2 2 2 2 2 2 2 2 1 2 2 2 2 2 2 2 2 2 2 2 2 2 2 2 2
left_child=1 2 8 -4 -2 6 7 10 19 -10 11 12 14 -9 22 16 23 18 21 -1 -18 -12 -3 -13 -23 27 -25 -26
right_child=4 5 3 -5 -6 -7 -8 13 9 -11 17 15 -14 -15 -16 -17 20 -19 -20 -21 -22 24 -24 26 25 -27 -28 -29
leaf_value=-0.010749807905050972 0.019230838847302256 -0.0036661711463239046 0.0059199457190951092 0.037984004672616728 0.046140563660575187 0.0082825307175517088 -0.013775427333894186 0.0069907305073802885 -0.0031007355609391301 0.0069813542257179508 -0.0065454661970337242 -0.012287923977488563 0.0060955174620552317 -0.0012720836838707329 -0.011517854709000816 -0.013342678666114808 -0.0038271265361329606 -0.006743906509569463 0.0010404913203434689 -0.0044547227863222369 -0.0087628038156600235 -0.00077661069279367275 -0.0069751074271542689 -0.0075593080371618273 -0.0058680531933255828 -0.0016990575952351922 -0.0095971025526523594 -0.0045121606439352041
leaf_weight=21 21 32 23 20 34 20 32 23 36 32 30 21 29 20 21 25 29 34 34 20 21 22 35 20 23 36 29 35
leaf_count=21 21 32 23 20 34 20 32 23 36 32 30 21 29 20 21 25 29 34 34 20 21 22 35 20 23 36 29 35
internal_value=0 -0.00269867 0.00427639 0.0208335 0.0358659 -0.00455062 -0.00509903 -0.00456406 -0.00186297 0.00164378 -0.0052607 -0.00665142 -0.00335867 0.00314756 -0.00685592 -0.0084911 -0.00818795 -0.00355805 -0.00295628 -0.00767903 -0.00590011 -0.00388703 -0.00539472 -0.00982212 -0.0031995 -0.00376656 -0.00876535 -0.00504984
internal_weight=0 723 152 43 55 571 551 519 109 68 476 262 117 43 88 145 120 214 180 41 50 146 67 70 116 94 49 58
internal_count=778 723 152 43 55 571 551 519 109 68 476 262 117 43 88 145 120 214 180 41 50 146 67 70 116 94 49 58
cat_boundaries=0 1 2
cat_threshold=8 144
is_linear=0
shrinkage=0.05


Tree=12
num_leaves=30
num_cat=0
split_feature=4 3 3 7 9 4 4 4 3 7 2 7 4 7 1 3 7 3 7 4 2 8 4 7 7 8 4 7 8
split_gain=27.4414 3.3936 2.15146 2.01097 1.39975 1.0744 0.817166 1.09016 1.07111 0.556561 0.519465 0.344923 0.389737 0.449312 0.898984 0.186003 0.166304 0.135775 0.112632 0.105669 0.0721447 0.0521371 0.0328702 0.044331 0.0216367 0.0249293 0.0141009 0.00923315 0.00219564
threshold=4.1098229755757414 4.166635176627655 1.8688348091416842 1.4817401698767703 570000.00000000012 1.5711323612481805 1.8424827773964003 3.4497040187471546 2.4414009612931857 0.10463244881685446 0.54818594104308405 0.47616515138472787 0.66087791999115975 0.21501052003305401 2.5000000000000004 0.89587973461402759 0.94150557760555997 1.2424533248940004 0.3109061218107057 2.9075314664125091 0.27664399092970532 13412.000000000002 0.59411222367889849 0.67459607398303645 0.29382874132864245 12860.000000000002 1.1590446397650058 0.76316146648053917 18506.000000000004
decision_type=2 2 2 2 2 2 2 2 2 2 2 2 2 2 2 2 2 2 2 2 2 2 2 2 2 2 2 2 2
left_child=2 -2 3 9 5 -4 -7 8 -8 17 11 12 24 14 -14 16 22 -1 26 -10 -20 -12 23 28 -11 -26 -15 -25 -13
right_child=1 -3 4 -5 -6 6 7 -9 19 10 21 15 13 18 -16 -17 -18 -19 20 -21 -22 -23 -24 27 25 -27 -28 -29 -30
leaf_value=-0.0074562022547559961 0.018269296646827745 0.043833534085356139 -0.0044442016431795696 0.010660567524080927 -0.0065416648253999862 0.013738338321704289 0.0096889049867572991 0.014000857762792814 -0.0060761403906243773 -0.0095695319275061301 -0.00070539149677469623 -0.0062900701165199274 -0.0092945551056237453 -0.0095054378360509874 0.0036578198794174838 0.00068134933503137703 -0.00051683816033595755 -0.012793259559707207 -0.0030478741973638535 -0.0011755630665654529 -0.0066993397420212139 0.002817902914691894 -0.0030440875363570673 -0.0045414840043694884 -0.0067960253228311956 -0.0090769555568695065 -0.007671044563705271 -0.0031615772453898734 -0.0056407424094884299
leaf_weight=26 21 34 28 22 37 29 23 21 22 39 21 30 21 20 37 27 31 22 24 22 31 21 27 27 23 25 22 22 23
leaf_count=26 21 34 28 22 37 29 23 21 22 39 21 30 21 20 37 27 31 22 24 22 31 21 27 27 23 25 22 22 23
internal_value=0 0.0340726 -0.00256374 -0.00414573 0.00213878 0.00435379 0.00645929 0.00406052 0.000944886 -0.00477335 -0.00425065 -0.00477021 -0.00601649 -0.0045132 -0.00103183 -0.00315738 -0.00380516 -0.00990235 -0.00659485 -0.00362585 -0.00510597 0.00105626 -0.00459538 -0.00500602 -0.00869476 -0.00798401 -0.00854457 -0.00392193 -0.00600829
internal_weight=0 55 723 541 182 145 117 88 67 519 471 429 242 155 58 187 160 48 97 44 55 42 129 102 87 48 42 49 53
internal_count=778 55 723 541 182 145 117 88 67 519 471 429 242 155 58 187 160 48 97 44 55 42 129 102 87 48 42 49 53
is_linear=0
shrinkage=0.05


Tree=13
num_leaves=29
num_cat=1
split_feature=4 13 6 4 8 6 6 7 7 6 7 4 8 7 7 7 6 7 8 7 7 4 7 7 8 7 4 6
split_gain=24.7659 3.52152 9.37591 3.09107 1.11143 1.08531 0.890355 0.85685 0.800158 0.405033 0.489069 0.258255 0.364495 0.21153 0.175867 0.267341 0.118514 0.110414 0.0627942 0.124595 0.0705368 0.0493523 0.0487215 0.0294352 0.0230954 0.0175827 0.00426154 0.003692
threshold=4.1098229755757414 0 75.000000000000014 4.554238602839229 122915.00000000001 55.000000000000007 145.00000000000003 1.086954302602068 0.95285357128174175 205.00000000000003 0.36726060884291262 0.7234594914681628 23352.000000000004 0.47616515138472787 0.3109061218107057 0.17076728204781641 15.000000000000002 0.11192600406678661 13917.000000000002 0.20584928615739154 0.27269114688967971 0.36195941961334954 0.53563714666298579 0.21205404737632463 12272.000000000002 0.76316146648053917 0.44548646194493263 45.000000000000007
decision_type=2 1 2 2 2 2 2 2 2 2 2 2 2 2 2 2 2 2 2 2 2 2 2 2 2 2 2 2
left_child=1 2 5 -2 7 8 -4 9 11 10 17 13 14 24 15 -13 22 27 19 -19 -21 -15 -12 -20 -1 26 -24 -3
right_child=3 4 6 -5 -6 -7 -8 -9 -10 -11 16 12 -14 21 -16 -17 -18 18 23 20 -22 -23 25 -25 -26 -27 -28 -29
leaf_value=-0.0090111618132694901 0.019384249776601793 -0.010342156104743481 0.015882862043445526 0.0431896464775006 -0.014045798278696437 0.0084645031607183431 0.029952486858449201 0.0036842211673501881 0.006681370077130851 0.0015019602258689703 -0.0059817395069532925 -0.0025041182003350871 0.0026060498614485068 -0.0047810459975153215 -0.00074498454003684952 -0.0094396168986956297 -0.001167596545484331 -0.0032540198565194651 -0.0090674850525278034 -0.0091412929473099879 -0.0052775604295588682 -0.0017246299833059313 -0.0046695404286895481 -0.0069860306382179263 -0.0068895227436361652 -0.0025899568329686706 -0.0037396151572465898 -0.009381427583284677
leaf_weight=23 25 20 23 30 35 23 22 28 20 20 36 33 30 28 31 24 36 28 33 27 21 25 28 35 29 23 22 20
leaf_count=23 25 20 23 30 35 23 22 28 20 20 36 33 30 28 31 24 36 28 33 27 21 25 28 35 29 23 22 20
internal_value=0 -0.00243555 0.0016026 0.032369 -0.00539179 -0.00191664 0.0227613 -0.00473139 -0.00289922 -0.00540656 -0.00582653 -0.00375846 -0.00215339 -0.00556227 -0.00377592 -0.00542433 -0.00365492 -0.00753786 -0.00689232 -0.00590469 -0.00745091 -0.00333934 -0.00447642 -0.00799615 -0.00782794 -0.00373408 -0.00426037 -0.00986179
internal_weight=0 723 311 55 412 266 45 377 243 349 329 223 118 105 88 57 145 184 144 76 48 53 109 68 52 73 50 40
internal_count=778 723 311 55 412 266 45 377 243 349 329 223 118 105 88 57 145 184 144 76 48 53 109 68 52 73 50 40
cat_boundaries=0 1
cat_threshold=24
is_linear=0
shrinkage=0.05


Tree=14
num_leaves=29
num_cat=1
split_feature=4 13 3 3 7 9 3 4 7 4 7 2 7 4 1 7 2 7 4 2 4 7 7 4 4 7 4 4
split_gain=22.3512 3.28554 8.96646 2.80356 1.05461 0.888326 1.01822 0.483771 0.610455 0.437684 0.368926 0.166723 0.141109 0.140482 0.458657 0.130161 0.0921579 0.0898502 0.114336 0.0699056 0.063542 0.0528843 0.0282783 0.0266824 0.0236325 0.00693706 0.0031001 0.00224323
threshold=4.1098229755757414 0 1.8688348091416842 4.166635176627655 1.3306026094358041 782500.00000000012 3.0201273556387074 2.9075314664125091 0.36726060884291262 1.2703086284010034 0.48504293422762818 0.30102040816326531 0.10935372106374491 1.8424827773964003 4.5000000000000009 0.063846110617309063 0.3675000000000001 0.74632304678054329 0.89064408468037992 0.3418750000000001 0.94068581395887119 0.47616515138472787 0.31190504822036674 1.0338267929638969 0.27079864121637226 0.21681220225453993 1.5177768838703316 0.36195941961334954
decision_type=2 1 2 2 2 2 2 2 2 2 2 2 2 2 2 2 2 2 2 2 2 2 2 2 2 2 2 2
left_child=1 2 9 -2 5 6 7 8 12 10 11 -1 15 14 16 -3 22 18 19 21 -18 -10 23 25 -19 -14 -20 -23
right_child=3 4 -4 -5 -6 -7 -8 -9 17 -11 -12 -13 13 -15 -16 -17 20 24 26 -21 -22 27 -24 -25 -26 -27 -28 -29
leaf_value=-0.0094111965447664266 0.016386619281201137 -0.0065595177503732539 0.027870309600257315 0.039622407801011034 0.0071900380449369562 -0.012583213270409033 0.0047873555171874266 0.0012878764124417848 -0.00725463810376823 0.0030901864294719419 6.2567044703944308e-05 -0.0036925189770185031 -0.0094131459905342635 -0.0091566518429786938 0.0012256256050684235 -0.011612394098192454 -0.0029237113771555219 -0.0021397734119091186 -0.00094780754297971734 -0.0026119657180138996 -0.0064428738735873127 -0.0047552668090377545 -0.0059575962168829785 -0.0066517891192978077 -5.9711760629645801e-05 -0.0081426568684123818 -0.0018176196852610225 -0.0041165217757225042
leaf_weight=25 21 26 32 34 20 32 31 33 24 32 37 26 22 31 22 25 23 36 20 35 29 28 21 22 22 21 21 27
leaf_count=25 21 26 32 34 20 32 31 33 24 32 37 26 22 31 22 25 23 36 20 35 29 28 21 22 22 21 21 27
internal_value=0 -0.00231377 0.00408497 0.0307506 -0.00401828 -0.00449804 -0.00399954 -0.00455772 -0.00498169 -0.00191737 -0.0037383 -0.00649579 -0.00669989 -0.00607599 -0.00547912 -0.00903642 -0.00654799 -0.00302956 -0.00365774 -0.00447214 -0.00488632 -0.00529626 -0.00755272 -0.00806807 -0.00135078 -0.00879267 -0.00139332 -0.0044417
internal_weight=0 723 152 55 571 551 519 488 455 120 88 51 242 191 160 51 138 213 155 114 52 79 86 65 58 43 41 55
internal_count=778 723 152 55 571 551 519 488 455 120 88 51 242 191 160 51 138 213 155 114 52 79 86 65 58 43 41 55
cat_boundaries=0 1
cat_threshold=8
is_linear=0
shrinkage=0.05


Tree=15
num_leaves=29
num_cat=0
split_feature=4 4 3 14 4 2 3 4 4 3 2 4 8 2 2 3 4 1 1 8 4 3 4 4 4 8 8 8
split_gain=23.7669 4.559 1.17892 1.28388 1.00731 0.559124 0.639275 0.428762 1.24957 0.932696 0.751627 0.402639 0.273895 0.432606 0.345824 0.60628 0.332906 0.250223 0.182488 0.092388 0.0819995 0.0525177 0.0256886 0.0216991 0.0108291 0.0082639 0.0064407 0.00613393
threshold=4.1098229755757414 4.5836781054642399 1.8688348091416842 365000000.00000006 1.5711323612481805 0.53749999999999998 0.89587973461402759 1.8424827773964003 2.1831391388528716 2.4414009612931857 0.28444444444444456 0.27079864121637226 18506.000000000004 0.48765432098765432 0.3418750000000001 0.89587973461402759 1.0338267929638969 1.5000000000000002 2.5000000000000004 22949.000000000004 1.0000000180025095e-35 1.7005986908310777 0.66087791999115975 0.44548646194493263 0.98834090386103357 14149.000000000002 8057.0000000000009 13412.000000000002
decision_type=2 2 2 2 2 2 2 2 2 2 2 2 2 2 2 2 2 2 2 2 2 2 2 2 2 2 2 2
left_child=2 -2 5 4 -4 11 -7 -6 -9 -10 -11 17 14 16 18 22 19 20 23 -14 -1 27 -16 -13 -25 -22 -17 -20
right_child=1 -3 3 -5 7 6 -8 8 9 10 -12 12 13 -15 15 26 -18 -19 21 -21 25 -23 -24 24 -26 -27 -28 -29
leaf_value=0.0021710747356216112 0.018097243669468004 0.045118898752197212 -0.004975235106094795 -0.01074204307049513 0.010051697333632358 0.0072833861839026216 -0.0038125399431144752 -0.0070800905723286713 0.015491274348460139 0.0085833336459472786 -0.0029016580964837755 -0.0046896031776936182 -0.0012275925658356687 -0.007597324069744598 -0.0058689155615866189 0.001900838315486908 0.0024767367585905291 -0.0049548739833491194 -0.0076427283114753669 -0.0051623864212472529 -0.0018015470077364665 -0.011271739173680545 -0.0082343032273153472 -0.0067540421616286046 -0.0053924614644568908 -0.00055902277454151778 0.00064710885995910281 -0.0088283470459282389
leaf_weight=30 37 27 34 20 29 25 27 23 20 29 28 34 26 36 22 20 38 35 24 35 23 20 24 40 23 32 21 20
leaf_count=30 37 27 34 20 29 25 27 23 20 29 28 34 26 36 22 20 38 35 24 35 23 20 24 40 23 32 21 20
internal_value=0 0.029497 -0.00226626 0.00121396 0.00268095 -0.00341378 0.00152204 0.00469886 0.00314654 0.00620124 0.00294158 -0.00392405 -0.00471589 -0.00290362 -0.0057024 -0.00316245 -0.00119682 -0.00139677 -0.00707492 -0.00348526 6.83286e-05 -0.0091473 -0.00710303 -0.00570758 -0.00625696 -0.00107862 0.00125868 -0.00818165
internal_weight=0 64 738 183 163 555 52 129 100 77 57 503 383 135 248 87 99 120 161 61 85 64 46 97 63 55 41 44
internal_count=802 64 738 183 163 555 52 129 100 77 57 503 383 135 248 87 99 120 161 61 85 64 46 97 63 55 41 44
is_linear=0
shrinkage=0.05


Tree=16
num_leaves=31
num_cat=1
split_feature=4 4 13 3 8 9 7 3 7 7 3 8 7 7 3 7 7 8 4 3 7 7 4 8 7 7 7 3 8 7
split_gain=21.4496 4.1145 2.98271 6.20624 1.19638 1.19524 0.808137 0.842252 0.578128 0.511121 0.686282 0.356553 0.188579 0.113251 0.0946634 0.0980694 0.0755454 0.0700312 0.198856 0.100638 0.0642841 0.0499651 0.0403594 0.0308788 0.0298288 0.0266175 0.0205714 0.00873989 0.00186192 0.00146911
threshold=4.1098229755757414 4.5836781054642399 0 1.8688348091416842 23352.000000000004 1148250.0000000002 1.4817401698767703 2.3502401828962087 0.47616515138472787 0.15482772780053833 2.6735537653587347 22949.000000000004 0.55575370629699028 0.17076728204781641 0.89587973461402759 0.94150557760555997 0.33081614170141105 23352.000000000004 1.7599529574197412 1.2424533248940004 0.12701804418436738 0.13744426576365187 1.5711323612481805 13917.000000000002 0.65294120487435914 0.25246329178225352 0.57052026249213583 1.0000000180025095e-35 12645.000000000002 0.34763271286609659
decision_type=2 2 1 2 2 2 2 2 2 2 2 2 2 2 2 2 2 2 2 2 2 2 2 2 2 2 2 2 2 2
left_child=2 -2 3 4 12 6 7 8 17 11 -11 -9 13 -1 15 24 -15 18 19 20 -4 -21 -19 25 26 -22 -10 28 -26 -27
right_child=1 -3 5 -5 -6 -7 -8 9 14 10 -12 -13 -14 16 -16 -17 -18 22 -20 21 23 -23 -24 -25 27 29 -28 -29 -30 -31
leaf_value=-0.0021671409373923852 0.017192381791569091 0.042862953997596549 -0.0030589234261285693 0.025897807351968907 0.0068808071637669437 -0.015549387374804133 0.0064703655219636863 7.8023709356784827e-05 -0.0035539974204518579 0.0048246257007122043 -0.0067271614020379886 0.0095193278254009778 0.00070231890538707386 -0.0086026207660324875 0.00028571390581351739 -0.00027292272799448776 -0.0044797933548688896 -0.0065644778311252597 -0.0022787612650011268 -0.0097881104871630677 -0.0067509903572499754 -0.0068435528918224233 -0.0093288354737603146 -0.0072491452299259813 -0.0028625996829941872 -0.0043417343124747283 -0.0054554657489061355 -0.0019329503364861013 -0.0035366889000648543 -0.0049477679654955867
leaf_weight=26 37 27 21 27 39 21 20 20 33 20 36 20 20 20 27 28 25 31 35 25 24 34 23 37 20 20 25 20 21 20
leaf_count=26 37 27 21 27 39 21 20 20 33 20 36 20 20 20 27 28 25 31 35 25 24 34 23 37 20 20 25 20 21 20
internal_value=0 0.0280222 -0.00215294 0.00383979 -0.000446116 -0.00377346 -0.00339925 -0.00376479 -0.00468299 0.000481893 -0.00260152 0.00479868 -0.00358623 -0.00479427 -0.0024355 -0.00293532 -0.00631216 -0.00613138 -0.00572875 -0.00639587 -0.00557598 -0.00809125 -0.00774189 -0.00609933 -0.00356176 -0.00543459 -0.0043736 -0.00278986 -0.00320786 -0.00464475
internal_weight=0 64 738 157 130 581 560 540 444 96 56 40 91 71 174 147 45 270 216 181 122 59 54 101 119 64 58 61 41 40
internal_count=802 64 738 157 130 581 560 540 444 96 56 40 91 71 174 147 45 270 216 181 122 59 54 101 119 64 58 61 41 40
cat_boundaries=0 1
cat_threshold=8
is_linear=0
shrinkage=0.05


Tree=17
num_leaves=30
num_cat=1
split_feature=4 2 13 3 8 4 9 3 2 8 4 2 8 1 3 3 2 9 2 3 8 1 4 4 8 8 4 4 8
split_gain=19.3583 4.16855 2.69189 5.6451 1.62742 1.1385 1.0787 0.63004 0.689722 0.414772 0.381679 0.269786 0.242196 0.213366 0.190041 0.134782 0.100606 0.195699 0.145464 0.141945 0.102655 0.086164 0.0347308 0.0334186 0.0333903 0.0451854 0.0123483 0.0106771 2.51483e-06
threshold=4.1098229755757414 0.2512626262626263 0 2.0126758453675748 23352.000000000004 1.077332481458712 1148250.0000000002 2.3502401828962087 0.21835634451019068 25292.000000000004 0.27079864121637226 0.35115533816832517 29111.000000000004 2.5000000000000004 3.9112223647446598 2.9700856263602158 0.33666666666666673 180000.00000000003 0.33111111111111119 1.2424533248940004 22949.000000000004 1.5000000000000002 0.44548646194493263 0.83796382685146675 16188.000000000002 4230.0000000000009 0.52256180185856183 1.0000000180025095e-35 14737.000000000002
decision_type=2 2 1 2 2 2 2 2 2 2 2 2 2 2 2 2 2 2 2 2 2 2 2 2 2 2 2 2 2
left_child=2 -2 3 4 11 -6 7 10 -9 15 21 13 16 -1 -3 -10 18 19 20 23 22 27 -12 26 25 -24 -18 -4 -29
right_child=1 14 6 -5 5 -7 -8 8 9 -11 12 -13 -14 -15 -16 -17 17 -19 -20 -21 -22 -23 24 -25 -26 -27 -28 28 -30
leaf_value=-0.0030053872177659563 0.045548131093382842 0.021456743386529743 0.00053179495735093956 0.02800783339577417 -5.7417341740801926e-05 0.016611336750377501 -0.014771917471218678 0.0077984085553907791 -0.0020889976150577981 -0.0070368578012746114 -0.0036341001741889423 -0.00017529087214681664 -0.0091101848231307393 -0.009201330821573114 0.014877944828375525 0.003344563853926957 -0.0014129355380480941 -0.0066742187472326412 -0.0080321017227002554 -0.0050250827127860656 -0.0013795041276708894 -0.0036423230006431156 -0.0045064481673762202 -0.00019778060034299509 -0.0042406992110259395 -0.0072921029921319035 -0.00312954830005765 -0.00075763502239209165 -0.00073370313427100582
leaf_weight=33 20 21 26 21 20 21 21 24 21 26 34 38 29 24 23 25 22 35 35 36 23 26 24 39 34 37 20 23 21
leaf_count=33 20 21 26 21 20 21 21 24 21 26 34 38 29 24 23 25 22 35 35 36 23 26 24 39 34 37 20 23 21
internal_value=0 0.026621 -0.0020453 0.00364781 0.000154551 0.00848024 -0.00358479 -0.00322929 0.000457798 -0.00198907 -0.00399213 -0.00343864 -0.00472457 -0.00561421 0.0180178 0.000864025 -0.0043494 -0.00339401 -0.00512598 -0.00241275 -0.0044568 -0.00118445 -0.00500547 -0.00125172 -0.00549628 -0.00619611 -0.00223037 -0.000271524 -0.000746213
internal_weight=0 64 738 157 136 41 581 560 96 72 464 95 368 57 44 46 339 152 187 117 152 96 129 81 95 61 42 70 44
internal_count=802 64 738 157 136 41 581 560 96 72 464 95 368 57 44 46 339 152 187 117 152 96 129 81 95 61 42 70 44
cat_boundaries=0 1
cat_threshold=8
is_linear=0
shrinkage=0.05


Tree=18
num_leaves=31
num_cat=1
split_feature=4 2 13 3 7 14 7 3 2 2 1 7 7 3 3 7 7 7 4 14 3 2 2 3 7 7 7 2 7 1
split_gain=17.4708 3.76211 2.42943 5.1311 1.59737 0.901558 0.709714 0.735344 0.594926 0.510371 2.36738 0.501625 0.501057 0.225741 0.0883571 0.0849819 0.0631872 0.0537321 0.0976693 0.0718199 0.0692005 0.147317 0.067216 0.0503653 0.0241342 0.0175832 0.0129317 0.0205253 0.00828517 0.00826317
threshold=4.1098229755757414 0.2512626262626263 0 1.8688348091416842 0.14424316016155139 111200000.00000001 1.4817401698767703 2.3502401828962087 0.21835634451019068 0.3418750000000001 2.5000000000000004 0.47616515138472787 0.32417614480897516 2.740319461670996 0.89587973461402759 0.94150557760555997 0.57708399890884798 0.17803491929976373 2.0793194564637494 2242500.0000000005 1.2424533248940004 0.24829696421504888 0.3675000000000001 1.4978661367769956 0.65294120487435914 0.57052026249213583 0.25246329178225352 0.3675000000000001 0.32595198994888913 1.5000000000000002
decision_type=2 2 1 2 2 2 2 2 2 2 2 2 2 2 2 2 2 2 2 2 2 2 2 2 2 2 2 2 2 2
left_child=2 -2 3 9 -3 6 7 11 -9 12 -11 17 -1 -10 15 24 -14 20 19 23 22 -22 -4 26 25 -13 -19 28 -28 -26
right_child=1 4 5 -5 -6 -7 -8 8 13 10 -12 14 16 -15 -16 -17 -18 18 -20 -21 21 -23 -24 -25 29 -27 27 -29 -30 -31
leaf_value=-0.0077445918059145863 0.043270724788308151 0.027087063963214558 -0.0071153284609317777 0.023520357982703934 0.0080137740010800575 -0.013392429036850279 0.0061753633548505609 0.0074084881242015401 -0.0049915987097968661 -0.0051014909575528957 0.015948274620512331 -0.0032019340292070856 -0.0013830137882559074 0.00077748602638259921 0.00046561034223823638 -0.00016789752844488249 0.0025439039524644616 -0.0064069120562635362 -0.0022725331525389968 -0.0081623434048631923 -0.0045672148233279588 -0.010145234997416366 -0.0030160610377788547 -0.0028894312147583283 -0.0029415540783325348 -0.0049598822891712196 -0.0050355828790502113 -0.0040941136026823961 -0.0062960491515696056 -0.0017018975596874951
leaf_weight=33 20 21 20 27 23 22 20 24 30 34 22 33 21 39 27 28 20 32 26 23 20 29 20 21 41 25 22 27 32 20
leaf_count=33 20 21 20 27 23 22 20 24 30 34 22 33 21 39 27 28 20 32 26 23 20 29 20 21 41 25 22 27 32 20
internal_value=0 0.02529 -0.00194303 0.00346541 0.0171169 -0.00340555 -0.00307343 -0.00341661 0.000627717 -0.000433272 0.00316806 -0.00425994 -0.0031586 -0.00173081 -0.0021634 -0.00264628 0.000532556 -0.0056011 -0.00511102 -0.00558109 -0.00660881 -0.00786849 -0.00506569 -0.00513804 -0.00322943 -0.00395967 -0.00555592 -0.00521972 -0.00578253 -0.00253511
internal_weight=0 64 738 157 44 581 559 539 93 130 56 446 74 69 174 147 41 272 183 157 89 49 40 134 119 58 113 81 54 61
internal_count=802 64 738 157 44 581 559 539 93 130 56 446 74 69 174 147 41 272 183 157 89 49 40 134 119 58 113 81 54 61
cat_boundaries=0 1
cat_threshold=8
is_linear=0
shrinkage=0.05


Tree=19
num_leaves=31
num_cat=1
split_feature=4 4 13 3 8 7 7 2 2 1 3 4 7 8 8 7 2 7 7 8 7 7 3 7 3 8 7 7 4 8
split_gain=15.7674 3.51411 2.24165 5.22721 1.98801 0.725583 0.573031 0.588173 0.368752 0.645534 0.460001 0.647704 0.335614 0.36192 0.261168 0.260136 0.21515 0.155426 0.220205 0.158473 0.122313 0.101618 0.117753 0.0863987 0.0327211 0.0266151 0.0145896 0.0119296 0.0100659 0.00685971
threshold=4.1098229755757414 4.5836781054642399 0 1.8688348091416842 22949.000000000004 0.47616515138472787 1.086954302602068 0.53749999999999998 0.19428571428571428 5.5000000000000009 2.602003343538398 2.9542537202231967 0.10463244881685446 19338.000000000004 26485.000000000004 1.145560164602738 0.35115533816832517 0.17265779490529801 0.22730151848442029 13412.000000000002 0.3223073375126953 0.34276413486129886 1.2424533248940004 0.33380840925931893 0.89587973461402759 23352.000000000004 0.67926955130943489 0.56379469595725573 0.44548646194493263 12860.000000000002
decision_type=2 2 1 2 2 2 2 2 2 2 2 2 2 2 2 2 2 2 2 2 2 2 2 2 2 2 2 2 2 2
left_child=2 -2 3 6 -5 8 7 12 9 29 17 -12 -1 16 -15 24 20 19 -19 -10 -14 22 -20 -18 25 26 28 -22 -7 -4
right_child=1 -3 5 4 -6 15 -8 -9 10 -11 11 -13 13 14 -16 -17 23 18 21 -21 27 -23 -24 -25 -26 -27 -28 -29 -30 -31
leaf_value=-0.0096135449782013896 0.014017000116055479 0.037740838705320606 -0.0052829435653984555 0.0039018682526567811 0.022046021946395437 -0.0036504401232708588 0.0063124154176330194 0.0042691808659583328 -0.0048709646093122892 0.0048344685973244761 -0.0063015110963689433 -0.017249899742786179 -0.0080670438068253646 0.002990777564008494 -0.0039904706557059568 0.0032811291904654353 0.00095620629377663141 0.0002020439376001773 -0.0047179842688914002 -0.009892079470058282 -0.0048541552089154723 -0.0030192271645726829 -0.0097049875184893608 -0.0036356776597953979 -0.0005271533615000192 -0.0043296029185876253 -0.0015247073094360531 -0.0032158156158402563 -0.0021544546050869902 -0.0065768118415560047
leaf_weight=20 37 27 20 26 36 22 20 28 33 21 35 22 35 37 21 25 20 23 29 30 25 29 20 21 21 20 35 20 23 21
leaf_count=20 37 27 20 26 36 22 20 28 33 21 35 22 35 37 21 25 20 23 29 30 25 29 20 21 21 20 35 20 23 21
internal_value=0 0.0240255 -0.00184588 0.0014114 0.0144372 -0.00412869 -0.00180109 -0.00251593 -0.00570189 -0.00229432 -0.00665786 -0.0105272 -0.00347062 -0.00278426 0.000463084 -0.00136206 -0.00434084 -0.00531302 -0.00409735 -0.00726197 -0.00585021 -0.00536511 -0.0067535 -0.00139573 -0.0023214 -0.00269819 -0.00229034 -0.004126 -0.00288583 -0.00594566
internal_weight=0 64 738 309 62 429 247 227 283 62 221 57 199 179 58 146 121 164 101 63 80 78 49 41 121 100 80 45 45 41
internal_count=802 64 738 309 62 429 247 227 283 62 221 57 199 179 58 146 121 164 101 63 80 78 49 41 121 100 80 45 45 41
cat_boundaries=0 1
cat_threshold=24
is_linear=0
shrinkage=0.05


Tree=20
num_leaves=31
num_cat=1
split_feature=4 13 3 1 4 1 7 7 4 7 7 1 8 7 8 8 4 8 3 7 7 3 8 4 4 7 7 4 7 4
split_gain=10.8051 4.18164 16.0952 2.7336 3.12551 0.948757 0.646462 0.485285 0.447171 0.447479 0.231882 0.297383 0.330101 0.22887 0.220751 0.154435 0.101827 0.100628 0.116737 0.0901949 0.238253 0.168278 0.0767014 0.0502229 0.137211 0.0814625 0.0493206 0.0398949 0.0218558 0.00492303
threshold=4.5836781054642399 0 2.740319461670996 3.5000000000000004 1.8809632979644644 7.5000000000000009 1.1228087097330024 0.16834389548104062 3.4497040187471546 0.36726060884291262 0.9183693548759041 2.5000000000000004 19338.000000000004 0.25246329178225352 9870.0000000000018 23352.000000000004 2.6542885277428261 23878.000000000004 0.89587973461402759 0.078068611100705815 0.1575436816922853 1.7005986908310777 25292.000000000004 0.66087791999115975 1.077332481458712 0.5091306841077009 0.55575370629699028 0.7234594914681628 0.11506046736002916 1.1190232859282376
decision_type=2 1 2 2 2 2 2 2 2 2 2 2 2 2 2 2 2 2 2 2 2 2 2 2 2 2 2 2 2 2
left_child=1 2 3 10 7 6 8 -5 9 15 11 13 14 28 -13 19 22 18 26 -3 -21 27 -17 25 -25 -15 -11 -22 -1 -29
right_child=-2 5 -4 4 -6 -7 -8 -9 -10 17 -12 12 -14 23 -16 16 -18 -19 -20 20 21 -23 -24 24 -26 -27 -28 29 -30 -31
leaf_value=-0.0063858201228348278 0.032014720249921087 -0.0083962649916825092 0.040699765965557445 0.0049275444727391003 0.020979125926206852 -0.014698931337757546 0.0037499202885665005 -0.0060870534554123877 0.0018038815245605432 -0.0043344238576920411 0.0023244849554612305 0.00089688886489186969 0.0048733124625869101 -0.0064771829949071009 -0.0061227045565222706 -0.0072624935873318464 -0.0055195130471309486 -0.0052535527495338637 0.0010291367647764476 -0.0016623448359927063 -0.0036810864162232192 -0.010070875184812948 -0.011316629685461523 0.0010886383429169655 -0.0044676639139652257 -0.0027748021177756484 -0.0019920709219083867 -0.0066799897700548175 -0.0086168561616669533 -0.0056073809609464981
leaf_weight=21 25 23 26 20 29 22 25 20 26 38 20 21 20 24 24 20 22 34 23 38 28 23 28 20 25 39 55 20 23 23
leaf_count=21 25 23 26 20 29 22 25 20 26 38 20 21 20 24 24 20 22 34 23 38 28 23 28 20 25 39 55 20 23 23
internal_value=0 -0.00137908 0.0028461 -0.000277216 0.00848122 -0.0044739 -0.00405087 -0.000579754 -0.00453721 -0.00497686 -0.00282714 -0.00330195 -0.000471446 -0.00451236 -0.00284689 -0.0063871 -0.00833635 -0.00286148 -0.00216036 -0.0055068 -0.00500333 -0.00635394 -0.00962741 -0.00327397 -0.0019982 -0.00418523 -0.00294916 -0.00514986 -0.00755204 -0.00610627
internal_weight=0 780 332 306 69 448 426 40 401 375 237 217 65 152 45 225 70 150 116 155 132 94 48 108 45 63 93 71 44 43
internal_count=805 780 332 306 69 448 426 40 401 375 237 217 65 152 45 225 70 150 116 155 132 94 48 108 45 63 93 71 44 43
cat_boundaries=0 1
cat_threshold=24
is_linear=0
shrinkage=0.05


Tree=21
num_leaves=31
num_cat=0
split_feature=4 4 8 2 2 7 3 2 3 7 14 3 7 9 4 7 7 3 8 8 8 8 7 2 8 7 8 8 4 7
split_gain=9.75164 2.45776 1.03626 0.827668 2.07517 0.697164 0.617592 0.607953 0.766245 0.326212 0.186455 0.529636 0.239049 0.314145 0.193641 0.125876 0.196293 0.233119 0.0735759 0.0641589 0.128953 0.110995 0.0558813 0.0472492 0.0460264 0.042242 0.0182999 0.0107189 0.00733575 0.00677728
threshold=4.5836781054642399 3.4497040187471546 12860.000000000002 0.37844693028095738 0.46120461684564257 1.3306026094358041 2.8617925509761908 0.51750000000000007 0.89587973461402759 0.25540664714667888 36400000.000000007 2.740319461670996 0.34763271286609659 249500.00000000003 2.7367258493379434 0.10695924087809981 0.16291060951025202 1.7005986908310777 14149.000000000002 22949.000000000004 19338.000000000004 12645.000000000002 0.59162166582510622 0.22057856673241288 19338.000000000004 0.62855294906396419 4230.0000000000009 4230.0000000000009 0.59411222367889849 0.24093619892697488
decision_type=2 2 2 2 2 2 2 2 2 2 2 2 2 2 2 2 2 2 2 2 2 2 2 2 2 2 2 2 2 2
left_child=1 3 -3 5 6 10 -5 9 -9 -6 11 12 13 14 15 -1 -17 24 -11 20 21 23 -23 26 27 -21 -14 -18 -20 -29
right_child=-2 2 -4 4 7 -7 -8 8 -10 18 -12 -13 19 -15 -16 16 17 -19 28 25 -22 22 -24 -25 -26 -27 -28 29 -30 -31
leaf_value=-0.0089951711796945142 0.030413983404636385 0.0035907366086179631 0.01736718865909747 0.012194102769088304 -0.0096514392092272097 0.0058485482819378379 0.0022485723787987674 0.0081011504977941528 -0.0031123579026032717 -0.0051657466277960813 -0.0078853076100349438 0.0041155995764049959 -0.0013322063868313476 0.00099451048299670219 -0.00091038389829918749 -0.0024454246370647203 -0.0051480814104988464 -0.011456672921776772 -0.0025653512872479585 -0.0056241068243980414 0.0012600330519489944 -0.0060014945422780927 -0.0026147713197306509 0.00045807489992252419 -0.0033734372584149244 -0.0025411779282148929 -0.0030874249359564574 -0.0072063303366303446 -0.0013019416294991972 -0.0060099152270062222
leaf_weight=31 25 39 21 37 27 20 27 25 39 31 25 22 27 20 20 39 21 20 27 25 24 29 21 21 20 20 33 20 20 29
leaf_count=31 25 39 21 37 27 20 27 25 39 31 25 22 27 20 20 39 21 20 27 25 24 29 21 21 20 20 33 20 20 29
internal_value=0 -0.00131013 0.00841249 -0.00212034 0.000330514 -0.00329293 0.00799833 -0.00257328 0.00126792 -0.00491457 -0.00368443 -0.00344682 -0.00384295 -0.0049803 -0.00557778 -0.00609638 -0.00549327 -0.00657387 -0.00327489 -0.00259187 -0.00210934 -0.00272663 -0.00457907 -0.00158315 -0.00548881 -0.00425392 -0.00229758 -0.0060932 -0.00202773 -0.00649825
internal_weight=0 780 60 720 233 487 64 169 64 105 467 442 420 220 200 180 149 110 78 200 155 131 50 81 90 45 60 70 47 49
internal_count=805 780 60 720 233 487 64 169 64 105 467 442 420 220 200 180 149 110 78 200 155 131 50 81 90 45 60 70 47 49
is_linear=0
shrinkage=0.05


Tree=22
num_leaves=31
num_cat=1
split_feature=4 13 3 4 3 14 2 2 2 8 3 3 4 2 4 14 3 2 2 2 8 4 8 4 2 4 8 8 4 8
split_gain=8.80085 3.74775 14.2515 2.36168 2.58205 0.852835 0.434478 0.355138 0.506036 0.392956 0.235652 0.214092 0.206455 0.354145 0.157138 0.151618 0.117745 0.0999112 0.324091 0.126814 0.066118 0.0448785 0.0397687 0.0331353 0.0327171 0.0117854 0.0124884 0.0102981 0.00815792 2.50921e-05
threshold=4.5836781054642399 0 2.740319461670996 1.8809632979644644 1.4978661367769956 365000000.00000006 0.53749999999999998 0.19428571428571428 1.0000000180025095e-35 25292.000000000004 3.1567740231385479 2.3502401828962087 1.077332481458712 0.3418750000000001 0.27079864121637226 5080000.0000000009 2.602003343538398 0.48765432098765432 0.35115533816832517 0.19428571428571428 10522.000000000002 0.44548646194493263 13412.000000000002 0.89064408468037992 0.33666666666666673 0.83796382685146675 10522.000000000002 14149.000000000002 1.0000000180025095e-35 12272.000000000002
decision_type=2 1 2 2 2 2 2 2 2 2 2 2 2 2 2 2 2 2 2 2 2 2 2 2 2 2 2 2 2 2
left_child=1 2 3 6 -5 7 15 8 14 10 11 12 13 29 28 17 -11 18 19 21 -15 27 -21 -23 -14 26 -16 -1 -3 -9
right_child=-2 5 -4 4 -6 -7 -8 9 -10 16 -12 -13 24 20 25 -17 -18 -19 -20 22 -22 23 -24 -25 -26 -27 -28 -29 -30 -31
leaf_value=-0.0025855743703477158 0.028893284738063813 2.4188989773392677e-05 0.038375078671826768 -0.002404617707900427 0.018745040340769677 -0.013057607819791884 0.0039426476294174796 -0.0060477720666676765 0.0055989165845676328 -0.0065627756738854993 -0.0084145878795534364 0.0010607540514320135 -0.0047072415202856072 -0.0019812270533293487 -0.0048044662245295272 0.00093224419873546476 -0.011227599640066427 -0.0057118195920991596 0.0027486688372763725 -0.007457520828946778 0.0014464405255720895 -0.0054215631137291588 -0.0044089513458311557 -0.0025778704509139064 -0.0070243438084920248 -0.0051555482527384398 -0.0032842169276305609 -0.0012260219966992736 -0.0012630860783247044 -0.0061269744276069111
leaf_weight=26 25 20 26 27 31 26 25 20 20 31 25 25 25 24 22 22 24 39 22 23 34 21 20 20 39 26 35 30 32 20
leaf_count=26 25 20 26 27 31 26 25 20 20 31 25 25 25 24 22 22 24 39 22 23 34 21 20 20 39 26 35 30 32 20
internal_value=0 -0.00124462 0.00275319 -0.000183533 0.00889951 -0.00417553 -0.00230779 -0.00372724 -0.00182353 -0.0048324 -0.00385539 -0.00324587 -0.00391047 -0.00246801 -0.00292315 -0.00300851 -0.00859834 -0.00343984 -0.00289288 -0.00377941 2.80953e-05 -0.00277748 -0.00603958 -0.0040344 -0.00611923 -0.00427337 -0.00387098 -0.00185724 -0.00076798 -0.00608737
internal_weight=0 780 332 306 58 448 248 422 155 267 212 187 162 98 135 223 55 201 162 140 58 97 43 41 64 83 57 56 52 40
internal_count=805 780 332 306 58 448 248 422 155 267 212 187 162 98 135 223 55 201 162 140 58 97 43 41 64 83 57 56 52 40
cat_boundaries=0 1
cat_threshold=24
is_linear=0
shrinkage=0.05


Tree=23
num_leaves=31
num_cat=2
split_feature=13 3 1 8 13 3 3 3 7 1 7 7 1 7 7 7 8 3 3 7 3 8 7 7 7 7 1 8 7 8
split_gain=6.09191 33.4766 4.12069 1.48631 1.32961 6.50449 3.58212 0.581264 0.310206 0.391698 0.33588 0.222537 0.226778 0.318271 0.212156 0.16823 0.186728 0.165457 0.10556 0.26371 0.0848295 0.0846553 0.0752725 0.0637182 0.0565982 0.0407623 0.0304305 0.027841 0.0276619 0.0535286
threshold=0 3.0677824455408698 3.5000000000000004 22949.000000000004 1 3.4811217321331038 3.6076199893650496 2.6735537653587347 0.86603717766459287 4.5000000000000009 0.27269114688967971 0.3109061218107057 2.5000000000000004 0.18122226310068854 0.36726060884291262 0.36294505703428831 22526.000000000004 1.8688348091416842 3.0677824455408698 0.15115880030836074 1.4978661367769956 16823.000000000004 0.74632304678054329 0.19169184808144349 0.51406834615319785 0.84403550637437219 1.5000000000000002 21101.000000000004 0.45159845280739935 11766.000000000002
decision_type=1 2 2 2 1 2 2 2 2 2 2 2 2 2 2 2 2 2 2 2 2 2 2 2 2 2 2 2 2 2
left_child=1 2 11 17 5 7 8 14 9 10 20 12 27 -14 23 -13 22 -4 19 -11 -6 24 28 -2 -12 26 -16 -1 -17 -30
right_child=4 -3 3 -5 6 -7 -8 -9 -10 18 21 15 13 -15 25 16 -18 -19 -20 -21 -22 -23 -24 -25 -26 -27 -28 -29 29 -31
leaf_value=-0.0054867834888158761 -0.003255932591855526 0.066006932212483313 0.001813362315297127 0.019356505796313289 -0.0068082096962592542 -0.032311828806996346 0.01886976893991232 -0.011082416365388781 0.0026214269948901521 -0.0056994483005255465 0.00029400588013231757 0.0024029789958149197 0.0030077944137156011 -0.005707193961875006 -0.002829878848905747 -0.0031758110322382144 -0.005775711513034857 0.0076106503838673234 0.0020246354311340207 0.0015629181414842609 -0.010813391301780939 -0.004842675849795342 0.0016606994721639371 -0.0061882236718454149 -0.0034225321729623136 0.00058730755090003926 -0.00062155685602472387 -0.007752916629871597 0.00086424896493554116 -0.0026726141086091167
leaf_weight=33 32 21 20 30 39 23 20 26 21 25 20 26 20 22 39 23 26 32 23 25 20 40 21 44 21 21 26 23 20 23
leaf_count=33 32 21 20 30 39 23 20 26 21 25 20 26 20 22 39 23 26 32 23 25 20 40 21 44 21 21 26 23 20 23
internal_value=0 0.00471949 0.000832836 0.0104939 -0.00397446 -0.00688678 -0.00138594 -0.00414259 -0.00317643 -0.00374805 -0.00529634 -0.00250982 -0.00433452 -0.0015572 -0.00302879 -0.00122335 -0.00205772 0.00538092 -0.000778721 -0.00206827 -0.0081659 -0.00320617 -0.000946599 -0.00495357 -0.00160959 -0.00132782 -0.00194655 -0.00641752 -0.00177619 -0.00102756
internal_weight=0 340 319 82 465 211 254 188 234 213 140 237 98 42 162 139 113 52 73 50 59 81 87 76 41 86 65 56 66 43
internal_count=805 340 319 82 465 211 254 188 234 213 140 237 98 42 162 139 113 52 73 50 59 81 87 76 41 86 65 56 66 43
cat_boundaries=0 1 2
cat_threshold=24 35
is_linear=0
shrinkage=0.05


Tree=24
num_leaves=31
num_cat=1
split_feature=13 6 6 6 1 1 2 8 7 6 2 7 7 7 2 9 6 7 8 8 8 7 7 8 7 8 8 7 8 7
split_gain=5.53305 29.6573 4.61137 4.46022 1.1622 0.743676 2.74615 0.658535 0.984827 0.594638 0.477138 0.446742 0.318108 0.192051 0.161273 0.299269 0.535446 0.183357 0.166903 0.11369 0.128037 0.10835 0.0820512 0.0473134 0.041303 0.0233488 0.0258618 0.021248 0.0202337 0.0170776
threshold=0 545.00000000000011 620.00000000000011 85.000000000000014 6.5000000000000009 3.5000000000000004 0.33666666666666673 88840.000000000015 0.1927392447708304 165.00000000000003 0.26578915589904606 1.1703663129655422 0.48211844067257575 0.10463244881685446 0.41560000000000002 107000.00000000001 15.000000000000002 0.35064183960532608 18506.000000000004 23352.000000000004 18506.000000000004 0.95285357128174175 0.15275301062094232 22526.000000000004 0.29382874132864245 3191.0000000000005 12645.000000000002 0.25246329178225352 16823.000000000004 0.16291060951025202
decision_type=1 2 2 2 2 2 2 2 2 2 2 2 2 2 2 2 2 2 2 2 2 2 2 2 2 2 2 2 2 2
left_child=1 3 9 5 7 11 10 8 -5 12 -7 13 19 -1 17 16 18 27 -16 20 22 28 -2 25 -24 -19 -27 29 -14 -15
right_child=2 -3 -4 4 -6 6 -8 -9 -10 -11 -12 -13 21 14 15 -17 -18 23 -20 -21 -22 -23 24 -25 -26 26 -28 -29 -30 -31
leaf_value=-0.0071882508271041189 -0.002239387125397722 0.062510820589959631 -0.029177542030811313 0.0028881257907910785 0.018669326079945113 -0.0070025255282719929 0.018055647221349537 -0.00065591714921451759 0.018218342401087283 -0.010042015795203809 0.002784660952165723 0.004470276804058813 -0.0011152841738964381 -0.0052427381509914999 -0.00024061690959514996 -0.0061340599507093436 0.0060599305093861546 -0.0032120983781559129 -0.0056567499488592151 -0.0074865157338630034 -0.00034776516258716583 0.002435580180026591 -0.0068391879042610532 -0.0041828846841651416 -0.0043923122698769851 -1.2931920718983748e-05 -0.0021700533389142069 -0.0046305727994730393 -0.0030206597410142423 -0.0072029563635587698
leaf_weight=28 24 20 20 22 29 33 21 21 20 38 20 20 38 20 33 25 26 21 25 29 20 20 35 28 34 24 33 31 22 25
leaf_count=28 24 20 20 22 29 33 21 21 20 38 20 20 38 20 33 25 26 21 25 29 20 20 35 28 34 24 33 31 22 25
internal_value=0 0.00274308 -0.00583376 0.000430354 0.0103863 -0.00178744 0.00275376 0.00657351 0.0101882 -0.00426246 -0.00330925 -0.00277874 -0.00327317 -0.00323322 -0.00285267 -0.00133167 9.76082e-05 -0.00376359 -0.00257516 -0.0046938 -0.00397709 -0.000751546 -0.00475759 -0.00241978 -0.00563348 -0.00178687 -0.00126179 -0.00563785 -0.00181392 -0.00633175
internal_weight=0 525 280 505 92 413 74 63 42 260 53 339 222 319 291 109 84 182 58 142 113 80 93 106 69 78 57 76 60 45
internal_count=805 525 280 505 92 413 74 63 42 260 53 339 222 319 291 109 84 182 58 142 113 80 93 106 69 78 57 76 60 45
cat_boundaries=0 1
cat_threshold=216
is_linear=0
shrinkage=0.05


Tree=25
num_leaves=31
num_cat=1
split_feature=3 3 13 3 1 2 8 7 7 3 8 8 7 3 2 3 7 7 7 7 7 8 8 2 7 8 1 7 7 8
split_gain=6.3626 1.95977 1.9487 5.86369 1.59912 2.71333 0.700356 0.545976 0.45525 0.335725 0.309571 0.326208 0.272946 0.490716 0.272275 0.405382 0.163627 0.160702 0.17047 0.138375 0.116387 0.0797796 0.0701305 0.0673575 0.041715 0.0110699 0.0211323 0.0219071 0.00950236 0.00370601
threshold=4.0153674620492712 4.9593358439305844 0 2.740319461670996 3.5000000000000004 0.33111111111111119 122915.00000000001 1.1228087097330024 1.145560164602738 2.0126758453675748 26485.000000000004 23352.000000000004 0.23623566680123356 2.0126758453675748 0.21835634451019068 2.602003343538398 0.14522632960517259 0.35010695462553881 0.17076728204781641 0.17803491929976373 0.47616515138472787 12860.000000000002 4230.0000000000009 0.35768595041322321 0.56379469595725573 3057.0000000000005 1.5000000000000002 0.67459607398303645 0.38848108664694442 16188.000000000002
decision_type=2 2 1 2 2 2 2 2 2 2 2 2 2 2 2 2 2 2 2 2 2 2 2 2 2 2 2 2 2 2
left_child=2 -2 3 4 7 9 8 10 12 -6 11 17 14 20 -4 19 -17 18 -1 21 22 -16 -14 24 -19 -22 27 -27 29 -24
right_child=1 -3 6 -5 5 -7 -8 -9 -10 -11 -12 -13 13 -15 15 16 -18 23 -20 -21 25 -23 28 -25 -26 26 -28 -29 -30 -31
leaf_value=-0.0019807458971627056 0.030104029066860678 0.0084782884710214359 -0.00069020596248182389 0.026711218063296245 -0.0048431952204555278 0.022221023105084899 -0.010219495098239609 0.0059034906327724464 0.0043232823012485395 0.0041075648739933969 -0.0082162189702300933 0.003127139821075476 -0.0015545230917632579 0.0052093810978389929 -0.0038014886462513138 -0.0065542117040604357 -0.012802990850865503 -0.0041416507661342621 -0.0069047236385253764 -0.0013039482588117774 -0.00065087376195671306 -0.0075666606115798165 -0.0048567630350589757 9.7524695784637801e-05 -0.0012811353630520618 -0.0038668124284595251 -0.0009308251995413055 -0.0016835045006397802 -0.0041387246847152713 -0.0057783350193252175
leaf_weight=32 20 22 33 22 20 20 35 20 21 22 23 26 20 21 34 20 22 25 39 33 21 24 20 38 26 20 31 27 25 24
leaf_count=32 20 22 33 22 20 20 35 20 21 22 23 26 20 21 34 20 22 25 39 33 21 24 20 38 26 20 31 27 25 24
internal_value=0 0.0187763 -0.00122639 0.0017652 -6.00947e-05 0.00706327 -0.00336189 -0.00198869 -0.00284068 -0.000154702 -0.00274393 -0.00206724 -0.00324186 -0.00203967 -0.00475547 -0.00576414 -0.00982738 -0.00291133 -0.00468547 -0.0038888 -0.00284941 -0.00535949 -0.0041615 -0.00149601 -0.00268335 -0.00166985 -0.00194419 -0.00261257 -0.00491715 -0.00535944
internal_weight=0 42 744 313 291 62 431 229 396 42 209 186 375 209 166 133 42 160 71 91 188 58 89 89 51 99 78 47 69 44
internal_count=786 42 744 313 291 62 431 229 396 42 209 186 375 209 166 133 42 160 71 91 188 58 89 89 51 99 78 47 69 44
cat_boundaries=0 1
cat_threshold=24
is_linear=0
shrinkage=0.05


Tree=26
num_leaves=29
num_cat=2
split_feature=4 4 7 7 13 1 8 4 8 8 7 7 13 1 6 4 4 7 4 8 4 1 7 4 4 7 8 7
split_gain=6.71239 1.72856 1.23075 1.0806 0.905455 2.28313 1.98611 0.638742 0.288584 0.202324 0.171814 0.153369 0.142046 0.410808 0.298715 0.103147 0.158031 0.10255 0.0791199 0.193012 0.0454127 0.0258195 0.0253927 0.0361855 0.0200406 0.00957151 0.00710165 0.00995754
threshold=3.6288538385800218 4.5836781054642399 0.21391295312595801 1.5965108613998262 0 3.5000000000000004 22949.000000000004 2.9766216671438923 29111.000000000004 23352.000000000004 0.47616515138472787 0.5091306841077009 1 5.5000000000000009 75.000000000000014 1.077332481458712 0.59411222367889849 0.19424424114252212 1.3381507513938151 13412.000000000002 0.27079864121637226 1.5000000000000002 0.9183693548759041 0.7234594914681628 1.4614127513729518 0.32417614480897516 9128.0000000000018 0.66857927362475056
decision_type=2 2 2 2 1 2 2 2 2 2 2 2 1 2 2 2 2 2 2 2 2 2 2 2 2 2 2 2
left_child=3 2 -2 4 5 8 -7 10 9 11 12 18 14 15 17 16 -14 -6 19 21 -13 -1 23 26 -17 -19 -12 -28
right_child=1 -3 -4 -5 7 6 -8 -9 -10 -11 22 20 13 -15 -16 24 -18 25 -20 -21 -22 -23 -24 -25 -26 -27 27 -29
leaf_value=-0.0058222876861691482 0.0023734730109572413 0.024105637192726136 0.016734978513648878 0.0094014180070232795 -0.0067148037392784051 0.00034689008209266164 0.01740077001177856 -0.011807247360601375 -0.0081508999411016702 0.0017915394164447207 -0.0018350078305229547 -0.002064614645011413 -0.0049678467912599444 0.0033157274033874273 -0.010239729657769203 -0.006285374328494072 -0.00019889409212689652 -0.001992617957293987 -0.0063955049873107963 0.00028183393025149904 0.00081260024599032481 -0.0037154722958803177 -0.00022412009373231113 -0.00030393074469073963 -0.004431856157524245 -0.003473655452641348 -0.0037585016251319931 -0.0022525922759719518
leaf_weight=26 35 25 26 21 27 38 31 23 20 32 20 24 32 25 30 25 38 20 21 30 32 33 26 23 35 24 21 23
leaf_count=26 35 25 26 21 27 38 31 23 20 32 20 24 32 25 30 25 38 20 21 30 32 33 26 23 35 24 21 23
internal_value=0 0.0130328 0.00849477 -0.00176923 -0.00211471 7.92214e-05 0.00800878 -0.0036304 -0.00242696 -0.00184878 -0.00321911 -0.00255053 -0.00393593 -0.0023993 -0.00551092 -0.00368291 -0.00237899 -0.00428901 -0.00363492 -0.00298354 -0.000420492 -0.0046439 -0.00159518 -0.00200493 -0.00520416 -0.00280046 -0.00261622 -0.00297132
internal_weight=0 86 61 700 679 287 69 392 218 198 369 166 256 155 101 130 70 71 110 89 56 59 113 87 60 44 64 44
internal_count=786 86 61 700 679 287 69 392 218 198 369 166 256 155 101 130 70 71 110 89 56 59 113 87 60 44 64 44
cat_boundaries=0 1 2
cat_threshold=24 98
is_linear=0
shrinkage=0.05


Tree=27
num_leaves=31
num_cat=2
split_feature=3 3 13 3 1 2 8 7 7 3 8 8 13 3 3 7 3 2 7 7 7 7 7 7 8 7 8 7 8 8
split_gain=5.19373 1.81123 1.63918 5.04009 1.30285 2.42721 0.593104 0.455866 0.369337 0.286972 0.258058 0.272942 0.239081 0.596149 0.567852 0.303884 0.183843 0.13822 0.133079 0.0843632 0.130486 0.11441 0.0528506 0.0577928 0.0409718 0.0351726 0.0821189 0.0137509 0.0117657 0.0101845
threshold=4.0153674620492712 4.9593358439305844 0 2.740319461670996 3.5000000000000004 0.33111111111111119 122915.00000000001 1.1228087097330024 1.145560164602738 2.0126758453675748 26485.000000000004 23352.000000000004 1 2.3502401828962087 2.602003343538398 0.19424424114252212 3.1567740231385479 0.54818594104308405 0.5091306841077009 0.11192600406678661 0.18276760683019941 0.55575370629699028 0.16291060951025202 0.33081614170141105 7711.0000000000009 0.34276413486129886 16188.000000000002 0.59162166582510622 16188.000000000002 16188.000000000002
decision_type=2 2 1 2 2 2 2 2 2 2 2 2 1 2 2 2 2 2 2 2 2 2 2 2 2 2 2 2 2 2
left_child=2 -2 3 4 7 9 8 10 12 -6 11 17 13 19 15 -14 -15 18 22 -4 -21 24 -1 -24 -22 -17 27 -27 -26 -20
right_child=1 -3 6 -5 5 -7 -8 -9 -10 -11 -12 -13 14 16 -16 25 -18 -19 29 20 21 -23 23 -25 28 26 -28 -29 -30 -31
leaf_value=-0.0022109770681709054 0.02785429668896541 0.0070642727511850273 -0.0059460384432565086 0.024762979649345984 -0.0047889187093824153 0.020708915144205094 -0.0093768003839899659 0.005413637826713967 0.0038662266873178033 0.0034864624030888081 -0.0074843189456378634 0.0028812058198337373 -0.0075744055211544037 0.0060966448446449183 -0.01149310047308413 -0.0033700354911130048 -0.00019329536174024855 0.0010383454363115808 -0.0017300353510878407 0.00083808134431424353 -0.0023939390836114237 -0.0011251620829192013 -0.0064515603120837888 -0.0035571655532454743 -0.004048796786138645 -0.0035507165268063544 0.0011202986250914957 -0.0017188138433474314 -0.0054084824625311827 -0.00024958750720889799
leaf_weight=22 20 22 22 22 20 20 35 20 21 22 23 26 32 26 26 29 21 22 26 23 22 43 35 34 26 20 23 21 41 21
leaf_count=22 20 22 22 22 20 20 35 20 21 22 23 26 32 26 26 29 21 22 26 23 22 43 35 34 26 20 23 21 41 21
internal_value=0 0.0169643 -0.00110787 0.00163518 -5.71186e-05 0.00637261 -0.00306671 -0.00179792 -0.00258645 -0.000454195 -0.00248802 -0.0018702 -0.0029478 -0.00164593 -0.00447376 -0.00337164 0.00328625 -0.0026423 -0.00322907 -0.0030486 -0.00263735 -0.00324292 -0.00434494 -0.00502534 -0.0042661 -0.00192552 -0.00127098 -0.00261242 -0.00488084 -0.00106856
internal_weight=0 42 744 313 291 62 431 229 396 42 209 186 375 224 151 125 47 160 138 177 155 132 91 69 89 93 64 41 67 47
internal_count=786 42 744 313 291 62 431 229 396 42 209 186 375 224 151 125 47 160 138 177 155 132 91 69 89 93 64 41 67 47
cat_boundaries=0 1 2
cat_threshold=24 133
is_linear=0
shrinkage=0.05


Tree=28
num_leaves=29
num_cat=2
split_feature=4 4 7 7 13 1 8 4 4 7 8 4 13 1 3 7 4 4 7 7 7 7 4 4 1 7 8 7
split_gain=5.6113 1.47069 1.08495 0.921761 0.731859 1.81931 1.70208 0.561153 0.254015 0.138543 0.137982 0.175648 0.116726 0.340258 0.254732 0.109073 0.0926265 0.139616 0.0813752 0.0656001 0.0569105 0.0191694 0.0338081 0.0176684 0.017226 0.0091298 0.00649967 0.00840193
threshold=3.6288538385800218 4.5836781054642399 0.21391295312595801 1.5965108613998262 0 3.5000000000000004 22949.000000000004 2.9766216671438923 1.781232764629139 0.47616515138472787 12860.000000000002 0.7234594914681628 1 5.5000000000000009 2.1383330595080281 0.5091306841077009 1.077332481458712 0.59411222367889849 0.19424424114252212 0.67459607398303645 0.27269114688967971 0.9183693548759041 0.7234594914681628 1.4614127513729518 1.5000000000000002 0.32417614480897516 9128.0000000000018 0.66857927362475056
decision_type=2 2 2 2 1 2 2 2 2 2 2 2 1 2 2 2 2 2 2 2 2 2 2 2 2 2 2 2
left_child=3 2 -2 4 5 8 -7 9 10 12 15 19 14 16 18 24 17 -14 -6 -12 -13 22 26 -18 -1 -20 -11 -28
right_child=1 -3 -4 -5 7 6 -8 -9 -10 21 11 20 13 -15 -16 -17 23 -19 25 -21 -22 -23 -24 -25 -26 -27 27 -29
leaf_value=-0.0052730427086353305 0.0019846300667683992 0.022131341964006426 0.01546861632512166 0.0087011926934965674 -0.0060003432548708388 2.4177913406961845e-05 0.01581163906582421 -0.01095904128059097 -0.0069407301396131526 -0.0016506670415401459 -0.0035393717129611306 0.0039296836010180415 -0.0045279105252120644 0.0030391988418996332 -0.0093346469849348076 -0.00015160992889749734 -0.0057869901582598693 -4.5414768943661141e-05 -0.0017244854941964151 -0.00037358062286026931 0.00038201290970811476 -0.00025989058037969068 -0.00016299369947417924 -0.0040466280387980603 -0.0035441068768063016 -0.0031709454177568357 -0.0034608358339894385 -0.0020775486856860963
leaf_weight=25 35 25 26 21 27 38 31 23 25 20 36 20 32 25 30 22 25 38 20 30 26 26 23 35 34 24 21 23
leaf_count=25 35 25 26 21 27 38 31 23 25 20 36 20 32 25 30 22 25 38 20 30 26 26 23 35 34 24 21 23
internal_value=0 0.0119178 0.0077319 -0.00161586 -0.00193494 3.97354e-05 0.0071171 -0.00329758 -0.00219852 -0.0029094 -0.00158425 -0.000447311 -0.00355307 -0.00216331 -0.00497875 -0.00315631 -0.0033302 -0.00209456 -0.00383946 -0.00210038 0.00192448 -0.00145116 -0.00180717 -0.00477178 -0.00427671 -0.00251346 -0.00239804 -0.00273775
internal_weight=0 86 61 700 679 287 69 392 218 369 193 112 256 155 101 81 130 70 71 66 46 113 87 60 59 44 64 44
internal_count=786 86 61 700 679 287 69 392 218 369 193 112 256 155 101 81 130 70 71 66 46 113 87 60 59 44 64 44
cat_boundaries=0 1 2
cat_threshold=24 98
is_linear=0
shrinkage=0.05


Tree=29
num_leaves=28
num_cat=1
split_feature=4 4 13 1 4 2 4 4 2 3 4 2 8 4 9 2 8 8 8 3 8 1 8 4 4 1 4
split_gain=5.07998 0.901811 0.858099 1.62616 1.52407 0.687139 0.628092 0.435616 0.550512 0.369941 0.310501 0.24734 0.175426 0.0845515 0.0824368 0.065828 0.115067 0.0939891 0.0489475 0.0433296 0.0438461 0.035196 0.021114 0.018426 0.0178599 0.00862581 0.00635665
threshold=4.1098229755757414 4.5836781054642399 0 3.5000000000000004 1.7382104014498718 0.27664399092970532 2.9477176794395201 1.7599529574197412 0.23493100944081338 2.8617925509761908 1.8424827773964003 0.53749999999999998 14149.000000000002 0.59411222367889849 129500.00000000001 0.48765432098765432 18506.000000000004 26485.000000000004 22526.000000000004 0.89587973461402759 2960.0000000000005 1.5000000000000002 8684.0000000000018 0.78235100929635459 0.98834090386103357 2.5000000000000004 0.36195941961334954
decision_type=2 2 1 2 2 2 2 2 2 2 2 2 2 2 2 2 2 2 2 2 2 2 2 2 2 2 2
left_child=2 -2 3 10 5 -5 -6 14 -9 -10 11 12 13 22 18 16 -14 -18 19 20 -4 26 -1 -20 -21 -15 -22
right_child=1 -3 7 4 6 -7 -8 8 9 -11 -12 -13 15 25 -16 -17 17 -19 23 24 21 -23 -24 -25 -26 -27 -28
leaf_value=-0.0009879045166599099 0.0086632678272306092 0.021024774804711342 0.00035490643233060837 -0.0075805383649739351 0.015684315981343389 0.0046530636803557481 0.0054300798344359344 0.0011089431088683861 -0.0047540813923264164 -0.011889604805722176 -0.006748295627120468 0.0034155549136576828 -0.0022844469804247773 -0.005258280118661268 -0.0042999092489480976 -0.0023585941554207742 0.0031707713495298115 -0.0010835511959521682 0.00071894520002862682 -0.0038834019244781562 -0.0021593220430546471 -0.00027874962404547703 -0.0030000811442732812 -0.00119102935506297 -0.002205499621300862 -0.0038987254910171037 -0.0031891860099958966
leaf_weight=32 36 25 25 22 32 24 28 21 39 34 27 27 27 28 35 29 37 20 23 35 31 21 22 28 29 20 29
leaf_count=32 36 25 25 22 32 24 28 21 39 34 27 27 27 28 35 29 37 20 23 35 31 21 22 28 29 20 29
internal_value=0 0.0137295 -0.00129429 0.00039378 0.00564945 -0.00119779 0.010899 -0.00302767 -0.00602519 -0.00807748 -0.00166259 -0.00109518 -0.00166164 -0.00316491 -0.00204529 -0.000304706 0.000404374 0.00167803 -0.00168823 -0.00209579 -0.00147553 -0.00204048 -0.00180768 -0.000329668 -0.0031231 -0.0046918 -0.00265709
internal_weight=0 61 725 375 106 46 60 350 94 73 269 242 215 102 256 113 84 57 221 170 106 81 54 51 64 48 60
internal_count=786 61 725 375 106 46 60 350 94 73 269 242 215 102 256 113 84 57 221 170 106 81 54 51 64 48 60
cat_boundaries=0 1
cat_threshold=152
is_linear=0
shrinkage=0.05


Tree=30
num_leaves=31
num_cat=1
split_feature=13 6 6 6 8 2 2 6 7 2 2 6 7 8 8 7 7 6 6 2 2 7 7 7 7 7 7 8 7 7
split_gain=3.95585 14.7295 2.51272 1.58719 1.05526 0.785213 0.633215 0.522049 0.477322 0.324804 2.26917 0.275548 0.258555 0.143808 0.21902 0.0837888 0.0822325 0.0793464 0.0744741 0.172884 0.0569101 0.109784 0.042387 0.0372013 0.0986609 0.0300887 0.0198147 0.0183181 0.00668469 0.00236244
threshold=0 305.00000000000006 85.000000000000014 165.00000000000003 9410.0000000000018 0.28444444444444456 0.51750000000000007 285.00000000000006 1.2430425499028026 0.48765432098765432 0.41560000000000002 45.000000000000007 0.34276413486129886 23878.000000000004 18506.000000000004 1.0048376764108387 0.38848108664694442 15.000000000000002 45.000000000000007 0.26515306122448984 0.27664399092970532 0.25672078172882123 0.23457301795437299 0.18012426245181937 0.26054155216757696 0.53563714666298579 0.41927470863057881 11154.000000000002 0.59886768778256727 0.75713859509273729
decision_type=1 2 2 2 2 2 2 2 2 2 2 2 2 2 2 2 2 2 2 2 2 2 2 2 2 2 2 2 2 2
left_child=1 2 6 12 -5 -4 8 -6 9 10 11 13 18 14 20 17 -11 25 23 -20 21 -1 -22 -2 -25 -14 -19 -23 -27 -30
right_child=3 -3 5 4 7 -7 -8 -9 -10 16 -12 -13 15 -15 -16 -17 -18 26 19 -21 22 27 -24 24 -26 28 -28 -29 29 -31
leaf_value=-0.0063007022719830282 -0.0042077196141084043 0.043042368077757687 0.017860154564016777 -0.01966386942870238 -0.01169416055513116 0.0058254110993761002 0.0053811909189741859 -0.0017676816183935713 0.0059724926622584463 -0.0079204489355501929 0.014414174854755402 -0.0073653602009189538 -0.0033019727509882718 -0.0051248907231638448 0.0030514398124068978 0.0020817676014848983 -0.0037777976654469973 0.0015937165636569263 -0.0022467482835054398 -0.0078766090360780552 0.00083211278542876248 -0.0029749168490525338 -0.002256101477891207 0.00032874835736077771 -0.0040563702647542135 -0.00073226777836680416 -0.00060531316890514325 -0.0011074901919747736 -0.0022004349241879855 -0.0014495924664151972
leaf_weight=20 36 22 23 22 26 33 38 27 20 23 21 29 36 32 23 20 25 20 25 30 20 24 25 23 29 20 21 29 22 20
leaf_count=20 36 22 23 22 26 33 38 27 20 23 21 29 36 32 23 20 25 20 25 30 20 24 25 23 29 20 21 29 22 20
internal_value=0 0.00317332 0.00097751 -0.0038463 -0.0104584 0.0107683 -0.000689 -0.00663728 -0.00148167 -0.00203179 -0.0012287 -0.00285494 -0.00233158 -0.00209886 -0.0014121 -0.000944149 -0.00576282 -0.00137953 -0.00387425 -0.00531758 -0.00228211 -0.00314424 -0.000883562 -0.00297218 -0.0021168 -0.00215222 0.000467384 -0.00195312 -0.00148463 -0.00184289
internal_weight=0 407 385 377 75 56 329 53 291 271 223 202 302 173 141 159 48 139 143 55 118 73 45 88 52 98 41 53 62 42
internal_count=784 407 385 377 75 56 329 53 291 271 223 202 302 173 141 159 48 139 143 55 118 73 45 88 52 98 41 53 62 42
cat_boundaries=0 1
cat_threshold=152
is_linear=0
shrinkage=0.05


Tree=31
num_leaves=31
num_cat=2
split_feature=4 13 2 1 14 7 4 7 8 2 8 13 4 1 7 4 7 7 9 2 8 2 7 2 7 7 7 2 7 7
split_gain=4.09538 1.35721 2.996 8.24777 1.41676 1.3536 0.482572 0.410295 0.331933 0.338545 0.286335 0.217535 0.69447 0.406214 0.285192 0.232944 0.15176 0.263903 0.0982371 0.0881166 0.155584 0.0907328 0.0626896 0.0469757 0.0408117 0.0392235 0.035702 0.0254593 0.0339777 0.0135843
threshold=4.1098229755757414 0 0.37844693028095738 2.5000000000000004 365000000.00000006 0.20758006617529348 3.4497040187471546 1.5516303135739686 25292.000000000004 0.25894223335047867 12272.000000000002 1 1.5711323612481805 4.5000000000000009 0.19424424114252212 1.2703086284010034 0.20054284337593661 0.48504293422762818 1.0000000180025095e-35 0.35115533816832517 13917.000000000002 0.24829696421504888 0.3223073375126953 0.3418750000000001 0.30809783909557292 0.56379469595725573 0.11506046736002916 0.24829696421504888 0.48211844067257575 0.35382630164606493
decision_type=2 1 2 2 2 2 2 2 2 2 2 1 2 2 2 2 2 2 2 2 2 2 2 2 2 2 2 2 2 2
left_child=1 2 10 -4 6 -2 7 8 11 -10 -1 12 15 -14 26 19 -12 -18 23 21 29 22 -3 27 -11 -24 -13 28 -16 -21
right_child=5 4 3 -5 -6 -7 -8 -9 9 24 16 14 13 -15 18 -17 17 -19 -20 20 -22 -23 25 -25 -26 -27 -28 -29 -30 -31
leaf_value=-0.0058427165786270052 0.0069999743776861583 -0.0034294241967682652 -0.0048797268296013885 0.035214049952185675 -0.014745249116623943 0.023484659381210804 0.0058172902266960596 0.0047581683336396794 -0.0011645626096816904 -0.0088601160666038261 0.0035521787592733747 -0.0050847633826461708 8.4212832152843486e-05 0.010040894093080647 6.039937026798726e-05 -0.0070586599409580234 -0.0058356592342967079 0.0016377908024609229 -0.0052522342465817929 0.0028876707889139656 -0.0028885347044302363 -0.004381669652374352 0.00088748384400137844 0.00013382794674147262 -0.0061320293121612992 -0.0015929070145609108 -0.0078215363775738147 -0.003659430266561685 -0.0025513595566294639 0.0010668999701738356
leaf_weight=32 33 26 29 23 22 20 20 21 33 29 20 22 20 21 20 20 21 27 20 21 27 34 28 33 26 37 26 20 33 20
leaf_count=32 33 26 29 23 22 20 20 21 33 29 20 22 20 21 20 20 21 27 20 21 27 34 28 33 26 37 26 20 33 20
internal_value=0 -0.00117329 0.00292691 0.0128541 -0.00226118 0.0132206 -0.00180869 -0.00209271 -0.00237152 -0.00516826 -0.00194252 -0.0017965 -0.000745725 0.00518398 -0.00310885 -0.00192213 -0.000107131 -0.00163184 -0.00203813 -0.00138985 5.86566e-05 -0.00217784 -0.00135443 -0.00143169 -0.00757048 -0.000524431 -0.00656718 -0.00213939 -0.00156579 0.00199949
internal_weight=0 731 152 52 579 53 557 537 516 88 100 428 254 41 174 213 68 48 126 193 68 125 91 106 55 65 48 73 53 41
internal_count=784 731 152 52 579 53 557 537 516 88 100 428 254 41 174 213 68 48 126 193 68 125 91 106 55 65 48 73 53 41
cat_boundaries=0 1 2
cat_threshold=8 145
is_linear=0
shrinkage=0.05


Tree=32
num_leaves=28
num_cat=2
split_feature=4 13 2 1 14 6 4 8 2 8 13 6 6 4 2 2 9 8 4 9 6 4 8 2 6 4 4
split_gain=3.69608 1.22489 2.70389 7.44361 1.27863 0.982849 0.435521 0.34051 0.325942 0.258417 0.22018 0.55573 0.221493 0.155663 0.114812 0.0934442 0.108355 0.0870966 0.077085 0.0728717 0.0383561 0.0366114 0.0348986 0.032623 0.0126458 0.0190144 0.013552
threshold=4.1098229755757414 0 0.37844693028095738 2.5000000000000004 365000000.00000006 1385.0000000000002 3.4497040187471546 25292.000000000004 0.25894223335047867 12272.000000000002 1 85.000000000000014 35.000000000000007 1.6217842187292864 0.2529987373737374 0.54818594104308405 213500.00000000003 23352.000000000004 0.27079864121637226 132500.00000000003 55.000000000000007 0.36195941961334954 12272.000000000002 0.29249043367346944 15.000000000000002 0.89064408468037992 0.44548646194493263
decision_type=2 1 2 2 2 2 2 2 2 2 1 2 2 2 2 2 2 2 2 2 2 2 2 2 2 2 2
left_child=1 2 9 -4 6 -2 7 10 -9 -1 13 12 15 19 17 16 18 -11 22 21 -10 -3 -12 -23 25 26 -20
right_child=5 4 3 -5 -6 -7 -8 8 20 14 11 -13 -14 -15 -16 -17 -18 -19 24 -21 -22 23 -24 -25 -26 -27 -28
leaf_value=-0.0055505807191366333 0.017860282933565255 -0.00025172622475880556 -0.0046357404047237902 0.033453347177609158 -0.014007986607876692 0.0038134199008345603 0.0055264256568625571 -0.00096443893031819777 -0.0056344915181398393 -0.0037950062880885201 -0.0013106112005047952 0.0062261272463257668 -0.0048330221006548726 -0.0068199320670682935 0.0028690423414280469 0.0024578139917658913 0.0023048257031901319 0.00056043878818551709 -0.0020795841066677486 -0.0051049191149927326 -0.0083113754866644737 -0.0014491292381925243 0.00087383217689376781 -0.0037168473069523946 -0.0013093978006924903 -0.0012688205290872319 -0.0034883004429407029
leaf_weight=32 33 26 29 23 22 20 20 34 23 22 33 27 38 25 22 21 22 24 31 21 32 35 41 29 35 26 38
leaf_count=32 33 26 29 23 22 20 20 34 23 22 33 27 38 25 22 21 22 24 31 21 32 35 41 29 35 26 38
internal_value=0 -0.00111463 0.00278056 0.0122114 -0.00214812 0.0125596 -0.00171825 -0.00198807 -0.0048129 -0.00184539 -0.00142689 -0.000610227 -0.00127929 -0.00303257 -0.000101775 -0.000732565 -0.00102902 -0.0015226 -0.00138855 -0.00245276 -0.00719195 -0.00183392 -0.000100311 -0.00247669 -0.00212185 -0.00242118 -0.0028554
internal_weight=0 731 152 52 579 53 557 537 89 100 448 312 285 136 68 247 226 46 204 111 55 90 74 64 130 95 69
internal_count=784 731 152 52 579 53 557 537 89 100 448 312 285 136 68 247 226 46 204 111 55 90 74 64 130 95 69
cat_boundaries=0 1 2
cat_threshold=8 70
is_linear=0
shrinkage=0.05


Tree=33
num_leaves=31
num_cat=1
split_feature=13 4 4 4 8 8 8 7 7 3 3 7 4 4 8 7 9 7 8 7 4 8 4 4 4 3 7 8 8 8
split_gain=3.36189 18.2631 4.36314 0.76736 0.792119 0.702834 0.545838 0.405612 0.303168 0.294052 0.154006 0.14441 0.129741 0.338647 0.996419 0.126453 0.110415 0.0596394 0.0624421 0.0695574 0.0416002 0.0437275 0.0565842 0.0378991 0.034257 0.0326078 0.0274911 0.0253751 0.037781 0.0176942
threshold=0 4.1098229755757414 4.2396888702097106 1.7382104014498718 22949.000000000004 26485.000000000004 122915.00000000001 1.3306026094358041 0.21391295312595801 2.4414009612931857 2.0126758453675748 0.94150557760555997 1.4614127513729518 1.0338267929638969 13412.000000000002 0.11639464248390892 285000.00000000006 0.1927392447708304 13917.000000000002 0.40152195057908807 1.8020691128294231 2136.0000000000005 1.3381507513938151 0.94068581395887119 0.52256180185856183 1.0000000180025095e-35 0.57052026249213583 10522.000000000002 1450.0000000000002 22526.000000000004
decision_type=1 2 2 2 2 2 2 2 2 2 2 2 2 2 2 2 2 2 2 2 2 2 2 2 2 2 2 2 2 2
left_child=1 3 6 7 8 -6 11 10 -5 -7 12 16 13 15 -15 -1 20 -17 27 -20 21 -2 23 24 26 29 -23 28 -19 -21
right_child=2 -3 -4 4 5 9 -8 -9 -10 -11 -12 -13 -14 14 -16 17 -18 18 19 25 -22 22 -24 -25 -26 -27 -28 -29 -30 -31
leaf_value=-0.0050545490479895049 3.9182288142351008e-05 0.040817418723399272 -0.027144985124468803 -0.0066208929941058165 0.01269738996135337 0.0075648456066846857 -0.010093741879488033 0.0056868743045197338 0.0018848013640804726 -0.00021141841106357115 -0.0053390577865334663 0.0018854865781031552 -0.0052259454329032454 -0.0031396306148081116 0.010417384557102038 0.0011218456923961641 -0.00591250148347833 0.0001966470457694453 -0.0049660914189492665 1.2007891061893178e-05 -0.0037631713682511714 -0.0038768434055870579 0.00018195197695777531 -0.0043193793604866821 -0.00081027256054503304 -0.0032732440261707568 -0.0016483617834746837 0.00041999671014090036 -0.0023976358652968584 -0.001956714255735278
leaf_weight=28 26 29 20 20 28 20 24 20 22 31 26 20 20 33 23 20 22 23 24 21 34 31 21 26 31 26 25 29 36 25
leaf_count=28 26 29 20 20 28 20 24 20 22 31 26 20 20 33 23 20 22 23 24 21 34 31 21 26 31 26 25 29 36 25
internal_value=0 0.00225245 -0.00448082 -5.46233e-05 0.00338279 0.00633253 -0.00290976 -0.00122956 -0.00216553 0.0028381 -0.00164372 -0.00217918 -0.00133177 -0.00106134 0.00242843 -0.0019037 -0.00255554 -0.00147123 -0.00175309 -0.00263496 -0.00217485 -0.00183734 -0.00220144 -0.00264437 -0.00214379 -0.00185792 -0.00288199 -0.000791047 -0.00138631 -0.00105795
internal_weight=0 504 280 475 121 79 260 354 42 51 334 236 308 288 56 232 216 204 184 96 194 160 134 113 87 72 56 88 59 46
internal_count=784 504 280 475 121 79 260 354 42 51 334 236 308 288 56 232 216 204 184 96 194 160 134 113 87 72 56 88 59 46
cat_boundaries=0 1
cat_threshold=216
is_linear=0
shrinkage=0.05


Tree=34
num_leaves=31
num_cat=1
split_feature=13 3 3 3 7 8 2 7 2 2 3 14 8 7 8 2 2 8 8 8 3 7 7 7 7 3 7 7 7 8
split_gain=3.03411 15.6225 3.96682 1.16434 0.790115 1.38106 0.459423 0.401165 0.240057 1.0957 0.19987 0.188783 0.154816 0.124055 0.0893271 0.116047 0.120136 0.0868828 0.125581 0.0767583 0.0827498 0.0761045 0.0478075 0.0389717 0.030846 0.0246011 0.0414233 0.0237581 0.0165855 0.00611823
threshold=0 3.6076199893650496 3.4811217321331038 2.249904835165133 0.21975832997482589 22949.000000000004 0.51750000000000007 1.3306026094358041 0.48765432098765432 0.41560000000000002 1.7005986908310777 8750000.0000000019 15572.000000000002 0.94150557760555997 23878.000000000004 0.3675000000000001 0.26515306122448984 23878.000000000004 18506.000000000004 12645.000000000002 1.2424533248940004 0.38848108664694442 0.47616515138472787 0.30809783909557292 0.3223073375126953 1.4978661367769956 0.53563714666298579 0.37704650359013686 0.43193620388145609 6769.0000000000009
decision_type=1 2 2 2 2 2 2 2 2 2 2 2 2 2 2 2 2 2 2 2 2 2 2 2 2 2 2 2 2 2
left_child=1 3 11 6 5 -5 7 8 9 10 17 13 -8 14 15 16 25 18 19 20 24 -10 -19 -16 -1 26 -2 -17 -21 -26
right_child=2 -3 -4 4 -6 -7 12 -9 21 -11 -12 -13 -14 -15 23 27 -18 22 -20 28 -22 -23 -24 -25 29 -27 -28 -29 -30 -31
leaf_value=-0.0028680239530170667 -0.0032182314702750821 0.041550420298396305 -0.021917350192008349 -0.006110424390779092 0.01266315245517978 0.0098928184065568674 0.00086701824329793453 0.0054025305830873553 -0.00659437111482538 0.0089452470187097784 -0.0056289445004753169 -0.0069239515279020591 0.006945240561088379 0.0017912121603148989 -0.0058090514588085094 0.0017479714285582306 -0.0051927002496086061 -0.0054837930703070014 0.0018333215667898286 -0.0041332162852431168 0.0016728989698964617 -0.0030309185145362735 -0.0020266460744824146 -0.002865473970608867 -0.0014379963220562788 -0.00025973099594314898 -0.00073284309046963857 -0.00065995441483599805 -0.0022881569613846728 -0.00020124320835748224
leaf_weight=34 38 24 29 26 27 28 20 20 29 24 37 21 22 20 22 20 32 20 29 29 23 31 20 23 20 24 30 21 21 20
leaf_count=34 38 24 29 26 27 28 20 20 29 24 37 21 22 20 22 20 32 20 29 29 23 31 20 23 20 24 30 21 21 20
internal_value=0 0.00213983 -0.00425677 0.000213877 0.00567942 0.00218755 -0.000895669 -0.00147761 -0.00188593 -0.00126485 -0.00223339 -0.0023859 0.00405085 -0.00197156 -0.00232992 -0.00179138 -0.00255386 -0.00165175 -0.00117369 -0.00176691 -0.000946608 -0.00475325 -0.00375522 -0.00430456 -0.00176078 -0.001636 -0.00212174 0.000514644 -0.00335829 -0.00081962
internal_weight=0 504 280 480 81 54 399 357 337 277 253 251 42 230 210 165 124 216 176 147 97 60 40 45 74 92 68 41 50 40
internal_count=784 504 280 480 81 54 399 357 337 277 253 251 42 230 210 165 124 216 176 147 97 60 40 45 74 92 68 41 50 40
cat_boundaries=0 1
cat_threshold=216
is_linear=0
shrinkage=0.05


Tree=35
num_leaves=31
num_cat=1
split_feature=4 13 6 6 2 6 6 6 8 14 4 8 2 2 1 8 8 6 1 4 8 8 2 8 4 4 4 8 8 8
split_gain=4.87711 1.00878 1.67457 1.48249 0.598679 0.513966 1.04195 0.409958 0.266365 0.19145 0.145575 0.117682 0.0958109 0.347669 0.144297 0.167201 0.0794219 0.127765 0.0853504 0.0749634 0.0460837 0.0445471 0.0491925 0.0436418 0.0302318 0.0269541 0.0221131 0.0204521 0.00801004 0.00250125
threshold=4.4520455793502007 0 175.00000000000003 85.000000000000014 0.51750000000000007 125.00000000000001 195.00000000000003 1470.0000000000002 13412.000000000002 8445000.0000000019 0.17046329348529662 32781.500000000007 0.48765432098765432 0.34534438775510207 2.5000000000000004 19338.000000000004 14149.000000000002 25.000000000000004 4.5000000000000009 1.5711323612481805 2960.0000000000005 23352.000000000004 0.3675000000000001 13412.000000000002 0.36195941961334954 0.59411222367889849 1.0000000180025095e-35 13412.000000000002 11154.000000000002 11154.000000000002
decision_type=2 1 2 2 2 2 2 2 2 2 2 2 2 2 2 2 2 2 2 2 2 2 2 2 2 2 2 2 2 2
left_child=1 3 9 4 10 -5 -7 -2 -6 16 26 12 13 14 15 24 17 20 21 23 -3 22 -18 -16 -12 -14 -1 -15 -22 -26
right_child=7 2 -4 5 8 6 -8 -9 -10 -11 11 -13 25 27 19 -17 18 -19 -20 -21 28 -23 -24 -25 29 -27 -28 -29 -30 -31
