tree
version=v4
num_class=1
num_tree_per_iteration=1
label_index=0
max_feature_idx=25
objective=regression
feature_names=population pop_working pop_adult pop_elderly households single_households young_single working_ratio elderly_ratio single_ratio young_single_ratio genre_diversity genre_hhi other_genre_count commercial_density_rank neighbor_avg_restaurants neighbor_avg_population saturation_index nearest_station_distance nearest_station_passengers station_accessibility land_price google_avg_rating reviews_per_shop google_density genre_encoded
feature_infos=[0:4854] [0:3432] [0:3619] [0:834] [0:2243] [0:1575] [0:516] [0:0.95061728395061718] [0:0.87096774193548387] [0:0.97777777777777763] [0:0.64444444444444449] [1:8] [0:0.70247933884297531] [0:5.978885764901122] [0.029867256637168101:1] [0:4.8903491282217537] [0:2344.5] [0:3096.6767371601209] [0.0039847203108185:1.0443184338284852] [0:1044356] [0:16.065037894449745] [0:17.606495257588726] [0:5] [0:17901] [0:1078.125] -1:5:4:3:7:1:0:8:6
tree_sizes=3847 4074 4113 4049 4076 3996 4067 4092 4127 4004 3959 4029 4055 4090 4102 4048 4077 4029 4020 3939 4038 4057 4017 4120 4106 4121 4128 4078 4002 4011 4264 4092 4100 4071 4094 4028 4091 4035 4117 3995 3939 4159 4008 3986 4083 4032 4151 4102 4062 4101 4142 4007 4042 4149 4055 3995 4074 4109 4012 4053 3993 4036 4115 4057 4085 4049 4084 4107 4005 4013 4034 4144 4091 4000 3969 4003 4129 3987 4049 4080 3948 3861 4033 3952 4108 4113 4031 3954 4154 4041 3931 3948 3983 4127 4097 4007 3959 3956 4018 4002 4199 4001 3936 3989 3891 3966 3926 3939 3938 4007 4052 4075 3956 4023 4038 3939 3930 4115 3879 4030 3949 3972 4035 3959 4030 3949 3967 3942 3923 3992 4016 3984 3948 3968 3933 3857 3863 3876 4037 3989 3943 4054 3965 3953 3834 4034 3911 3858 3852 3904 3876 3966 3877 3868 3942 3805 3966 3888 3878 4018 3828 4045 3841 3977 3975 3987 3828 3840 3988 3887 3826 3819 3903 3890 3971 3875 3875 3852 3807 3899 3937 3892 3911 3875 3848 3744 3960 3894 3860 3895 3873 3885 3917 3837 3929 3737 3948 3922 3814 3896 3932 3866 3950 3733 3865 3839 3936 3851 3890 3779 3905 3862 3863 3887 3865 3808 3776 3960 3835 3915 3830 3773 3820 3915 3918 3759 3737 3895 3771 3774 3820 3700 3754 3767 3757 3917 3810 3875 3929 3874 4024 3827 3810 3849 3922 3819 3743 3858 3878 3982 3908 3898 3843 3840 3829 3724 3785 3831 3823 3775 3819 3846 3794 3943 3824 3845 3807 3822 3808 3770 3715 3838 3746 3682 3876 3738 3837 3770 3883 3785 3880 3801 3797 3795 3756 3865 3881 3890 3962 3853 3800 3875 3804 3683 3849 3778 3803 3700 3837 3755

Tree=0
num_leaves=45
num_cat=6
split_feature=14 25 14 25 25 17 14 14 11 14 12 14 17 25 12 12 12 12 12 14 12 1 12 11 25 14 12 12 19 10 25 12 12 12 12 8 11 12 12 10 8 7 12 12
split_gain=549.331 334.408 124.569 180.918 68.553 36.2325 35.5231 26.2334 12.614 12.0032 11.8853 11.6358 10.6614 10.1218 8.75892 7.6624 6.76404 6.33949 5.2059 5.00778 4.80842 4.30881 4.1328 4.20339 3.79259 3.60575 3.99667 3.23452 2.99894 2.8404 2.69831 2.67823 3.70821 9.94382 3.12675 2.4512 2.05285 2.02854 1.84571 1.79949 2.11248 1.70592 1.69297 1.67245
threshold=0.76731194690265492 0 0.40116150442477877 1 2 413.08839356914621 0.91183628318584076 0.52405973451327437 5.5000000000000009 0.25774336283185839 0.28062500000000007 0.96515486725663713 78.527985683711606 3 0.23463088939279417 0.62731481481481499 0.56944444444444453 0.2246709334621422 0.21569132012694098 0.95713495575221252 0.18914563070407223 882.50000000000011 0.21884245562130178 5.5000000000000009 4 0.55011061946902662 0.26459750566893425 0.30838525986604121 22434.000000000004 0.056889090262849752 5 0.35984693877551027 0.4966666666666667 0.38700255102040815 0.50338368491360974 0.17333298829374788 4.5000000000000009 0.35259259259259262 0.26534360300594068 0.12144086504284056 0.18604124476070752 0.73675326059916857 0.3319773175542407 0.62731481481481499
decision_type=2 1 2 1 1 2 2 2 2 2 2 2 2 1 2 2 2 2 2 2 2 2 2 2 1 2 2 2 2 2 1 2 2 2 2 2 2 2 2 2 2 2 2 2
left_child=2 5 9 7 6 8 14 22 -2 16 -11 20 21 36 -3 24 31 -14 -7 38 -6 -9 -4 28 25 -5 -27 -25 -24 -19 39 -1 33 -33 -34 -23 -12 -16 -8 -22 -41 -20 -15 -18
right_child=1 4 3 15 11 18 19 12 -10 10 13 -13 17 42 37 -17 43 29 41 -21 30 35 23 27 -26 26 -28 -29 -30 -31 -32 32 34 -35 -36 -37 -38 -39 -40 40 -42 -43 -44 -45
leaf_value=1.2058878443717018 1.2599677857440481 1.2867193070670275 1.23445580756984 1.2224958786801612 1.2673252848239891 1.3430973831206308 1.316872422288373 1.2490212838929697 1.3478330149755322 1.2150628480564039 1.2475478856281539 1.2688526734857466 1.2767672581851934 1.2415096832432972 1.2613866313464526 1.3029069232282464 1.2362515126220408 1.2758155201177461 1.4144421726598402 1.3273766890184377 1.231210581198197 1.2907513845550735 1.2306786215883303 1.2673406298345697 1.220394754971764 1.2431553185219044 1.2254253312562047 1.3219452719017755 1.2596016745947884 1.3128221084641356 1.2256972593416522 1.2161092945765386 1.2041580667117555 1.262499587061209 1.2209503426741075 1.259021297957049 1.2804281419572587 1.2426316478173647 1.2856672875155004 1.2391257442134698 1.2662935935245603 1.3245172265645195 1.2165670769451105 1.2759110751002383
leaf_weight=611 11.999999999999998 93 34 186 21 17 28 39 130 369 121 66 60 24 131 5.9999999999999991 22.000000000000004 22 90 85 50 57 21 31 588 175 113 9.9999999999999982 126 146 162 157 240 29 118 28 11.999999999999998 35 59 33 26 5.9999999999999991 106 6.9999999999999991
leaf_count=611 12 93 34 186 21 17 28 39 130 369 121 66 60 24 131 6 22 22 90 85 50 57 21 31 588 175 113 10 126 146 162 157 240 29 118 28 12 35 59 33 26 6 106 7
internal_value=1.24309 1.29075 1.2287 1.24363 1.26521 1.36364 1.28511 1.27725 1.34096 1.21516 1.22379 1.24089 1.29064 1.2363 1.26806 1.22545 1.21063 1.30055 1.40135 1.31265 1.23423 1.27168 1.25721 1.26165 1.22475 1.23103 1.23637 1.28332 1.25503 1.3085 1.23139 1.20973 1.21419 1.22371 1.20947 1.28123 1.2506 1.2571 1.29696 1.24212 1.25026 1.41015 1.22227 1.24447
internal_weight=0 1044 3458 1642 789 255 431 574 142 1816 632 358 352 263 259 1068 1184 228 113 172 292 124 222 188 1062 474 288 41 147 168 271 1155 544 186 358 85 133 166 87 109 59 96 130 29
internal_count=4502 1044 3458 1642 789 255 431 574 142 1816 632 358 352 263 259 1068 1184 228 113 172 292 124 222 188 1062 474 288 41 147 168 271 1155 544 186 358 85 133 166 87 109 59 96 130 29
cat_boundaries=0 1 2 3 4 5 6
cat_threshold=48 48 392 48 136 2
is_linear=0
shrinkage=1


Tree=1
num_leaves=45
num_cat=5
split_feature=13 25 13 25 25 17 13 13 11 17 13 25 17 22 15 22 15 15 13 15 22 4 13 22 25 13 6 7 19 22 15 18 16 17 18 19 6 5 18 22 15 15 18 18
split_gain=471.057 287.009 106.803 155.396 58.9256 31.0386 30.4922 22.5001 10.6378 10.3605 10.2475 9.27699 9.02719 6.42766 6.39584 5.8304 4.83199 4.81928 4.67255 4.5991 3.62624 3.47733 3.26891 3.006 2.95356 2.72757 2.7077 3.88284 2.70167 2.95639 2.6953 2.12341 2.09672 2.09203 2.05703 1.93313 1.89016 2.36822 1.85641 2.25518 1.91479 1.71152 1.648 1.63308
threshold=3.2769667020129059 0 2.0126758453675748 1 2 413.08839356914621 4.1026092131977068 2.4414009612931857 5.5000000000000009 468.98535873979034 1.4978661367769956 3 78.527985683711606 3.5348484848484851 2.9925974670471938 3.8007936507936511 2.8146529224064971 1.5177768838703316 3.795426061844291 2.9211377481749516 3.414285714285715 791.32142857142867 4.7492611597348082 3.6232142857142859 4 4.983512786670059 161.50000000000003 0.6653376117253359 22143.500000000004 4.2937500000000011 3.5677690262223862 0.17646218892688148 1800.3125000000002 215.63096469484938 0.076039542581167921 193712.00000000003 3.5000000000000004 83.750000000000014 0.22022787931370078 3.7021739130434792 3.4539401355851447 2.9736093646190871 0.14797986688637429 0.27945108780669886
decision_type=2 1 2 1 1 2 2 2 2 2 2 1 2 2 2 2 2 2 2 2 2 2 2 2 1 2 2 2 2 2 2 2 2 2 2 2 2 2 2 2 2 2 2 2
left_child=2 5 10 7 6 8 15 20 -2 23 41 30 17 -5 -15 -3 33 -9 -7 -8 -4 -19 34 -6 26 -21 35 -28 -17 32 43 -24 -30 -14 -11 -16 -22 -38 40 -40 -18 -1 -27 -12
right_child=1 4 3 13 9 18 19 12 -10 22 11 -13 16 14 24 28 38 21 -20 25 36 -23 31 -25 -26 42 27 -29 29 -31 -32 -33 -34 -35 -36 -37 37 -39 39 -41 -42 -43 -44 -45
leaf_value=-0.030679208892284572 0.015690201659031532 0.0012993508455338499 -0.012787518866995994 -0.03000520811620247 -0.031967017986147761 0.10026317700796275 0.016190044480373679 -0.016559714902029395 0.096934606251655023 0.023355162078862776 -0.0028609773820579497 -0.026093258333352281 0.036833729363701148 -0.018371851741790908 0.0058245878922244913 -0.012632709784129564 0.08043240347203065 0.0087086108811340983 0.15687316106110868 0.061195497888681928 -0.0067994143472439083 0.040165305405457784 0.042874387061107438 -0.0082738452788507517 -0.010952602680162224 0.049457914937769264 0.081849936183009828 0 0.036406615987046059 0.0055053876109803146 0.035164013763401308 0.0099409419116625181 -2.1983526116472399e-05 0 -0.0017333930365480189 -0.015063288605738022 0.055366582818199596 0.015983464021197599 0 0.050181170104004566 0.050396334556053787 -0.013454420464782893 0.11094003636852139 -0.014943144371389836
leaf_weight=1136 11.999999999999998 59 24 173 41 23 13.999999999999998 10.999999999999998 130 22 160 342 51 590 87 5.9999999999999991 57 34 90 128 13.999999999999998 79 26 160 170 10.000000000000002 4.9999999999999991 8.9999999999999982 160 28 6.9999999999999991 30 5.9999999999999991 6.9999999999999991 79 34 9.9999999999999982 174 4.9999999999999991 65 43 48 20 123
leaf_count=1136 12 59 24 173 41 23 14 11 130 22 160 342 51 590 87 6 57 34 90 128 14 79 26 160 170 10 5 9 160 28 7 30 6 7 79 34 10 174 5 65 43 48 20 123
internal_value=0 0.0441517 -0.0133127 0.000514854 0.0204865 0.111686 0.0389374 0.0316762 0.0906074 -0.00205657 -0.0258426 -0.0178578 0.044077 -0.0163324 -0.0137817 0.0231115 0.0532287 0.0265451 0.146651 0.0644644 0.0130835 0.0313456 0.0120918 -0.0135059 -0.00468495 0.068268 0.00335124 0.0338851 0.0292218 0.0308652 -0.00676803 0.026656 0.0347427 0.0315445 0.00329224 0 0.0165546 0.0186721 0.0601003 0.0464879 0.0686017 -0.0300402 0.0941683 -0.00834714
internal_weight=0 1044 3458 1642 789 255 431 574 142 358 1816 632 352 1068 895 259 228 124 113 172 222 113 157 201 305 158 135 14 200 194 290 56 166 58 101 121 198 184 170 70 100 1184 30 283
internal_count=4502 1044 3458 1642 789 255 431 574 142 358 1816 632 352 1068 895 259 228 124 113 172 222 113 157 201 305 158 135 14 200 194 290 56 166 58 101 121 198 184 170 70 100 1184 30 283
cat_boundaries=0 1 2 3 4 5
cat_threshold=48 48 392 48 384
is_linear=0
shrinkage=0.075


Tree=2
num_leaves=45
num_cat=5
split_feature=13 25 17 25 25 13 17 13 11 17 25 17 17 12 12 12 12 11 12 12 11 12 13 12 16 24 13 13 25 7 13 24 11 12 24 12 1 13 12 12 12 12 7 9
split_gain=404.211 246.015 92.2211 122.079 50.6018 26.9732 26.4942 26.2446 8.95904 8.93491 8.91561 10.6691 7.89247 7.39148 6.47807 6.20773 5.27836 4.70515 4.37379 4.12572 4.66375 3.95793 3.77694 3.64745 3.38766 2.8502 2.82483 2.77591 3.7276 2.30881 2.04769 2.00156 2.00124 2.77368 1.99871 1.98447 1.93588 1.91968 7.56991 1.91926 1.91518 1.83407 1.97842 1.60819
threshold=3.2769667020129059 0 34.378208055500203 1 2 2.4414009612931857 413.08839356914621 4.1026092131977068 5.5000000000000009 468.98535873979034 3 17.021304335308113 78.527985683711606 0.23463088939279417 0.28260030864197533 0.62731481481481499 0.2246709334621422 4.5000000000000009 0.22274233437355764 0.2854352678571429 4.5000000000000009 0.25853813543929499 4.5271940351011493 0.50338368491360974 521.12500000000011 19.440850286135532 4.7492611597348082 2.3502401828962087 4 0.63947558268590465 2.0126758453675748 28.964579213981864 3.5000000000000004 0.40271214030665831 17.574706013622716 0.21175577669084164 1190.0000000000002 0.89587973461402759 0.38700255102040815 0.19047798782624389 0.33710761108026616 0.36144943212547337 0.68211613647662495 0.49790009032488197
decision_type=2 1 2 1 1 2 2 2 2 2 1 2 2 2 2 2 2 2 2 2 2 2 2 2 2 2 2 2 1 2 2 2 2 2 2 2 2 2 2 2 2 2 2 2
left_child=2 6 10 5 7 19 8 13 -2 -6 11 23 24 -3 36 21 -14 32 -8 30 43 27 -9 37 -7 -15 39 -5 -29 -26 -4 40 -16 -34 -22 -10 -13 -1 -39 -11 -31 -18 -43 -21
right_child=1 4 3 15 9 12 18 22 35 26 -12 14 16 25 17 -17 41 -19 -20 20 34 -23 -24 -25 29 -27 -28 28 -30 31 -32 -33 33 -35 -36 -37 -38 38 -40 -41 -42 42 -44 -45
leaf_value=-0.031441284689672715 0.014586639475215967 0.038507989437278303 -0.01262937254348862 -0.022978481071941313 -0.01252680908703307 -0.023677469920663007 0.089139585574628408 0.045948608452727878 0.064381902610341601 0.030258671095214549 -0.029427125410276225 -0.023389090340783264 0.0276354475158011 -0.0064248632622162767 -0.0080066864879141907 0.054593024382246037 0.051515797412093133 0.047033403925023622 0.14499098706234631 -0.023248669383208704 0.0080899091549949207 -0.020694987588598366 0.072709170392135924 -0.0076763277064085794 0.0029169172337875182 0.016494123277832801 0.024790146236323463 -0.0002189401401492623 -0.014128612658504546 0.027514496604609643 0.0063432255407842343 0.04792058451714911 0.0036882157636227218 0.054014867836233896 0.057631297319495775 0.09746646499198526 -0.0037656735922614853 -0.026037312925720375 0.010916709621201467 -0.00023797443538573621 -0.0050022981530789355 0.033366026173347003 0.099838122589481285 0.012408935461043777
leaf_weight=237 11.999999999999998 93 47 97 201 5.9999999999999991 21 87 34 11.999999999999998 964 84 60 35 56 5.9999999999999991 144 13.999999999999998 92 5.9999999999999991 10.000000000000002 494 85 81 23 131 56 205 263 47 96 36 48 6.9999999999999991 21 96 55 200 34 89 8.9999999999999982 8.0000000000000018 15.999999999999998 84
leaf_count=237 12 93 47 97 201 6 21 87 34 12 964 84 60 35 56 6 144 14 92 6 10 494 85 81 23 131 56 205 263 47 96 36 48 7 21 96 55 200 34 89 9 8 16 84
internal_value=0 0.0409126 -0.0123186 0.000262668 0.0189947 0.0266905 0.103442 0.0360934 0.0838899 -0.0018848 -0.0242068 -0.0173718 0.0408336 0.0213851 -0.0048801 -0.0150117 0.0493305 0.00716381 0.135826 0.00871243 0.0188565 -0.015644 0.0597885 -0.0235381 0.0241212 0.0113008 0.0112411 -0.0111007 -0.00847822 0.0272697 0 0.0326454 0.00130883 0.0118292 0.0441068 0.0897088 -0.0161118 -0.0261235 -0.020398 0.00301457 0.0212538 0.0565627 0.0818406 0.00919953
internal_weight=0 1044 3458 1678 789 613 255 431 142 358 1780 816 349 259 264 1065 228 125 113 264 121 1059 172 552 121 166 157 565 468 115 143 92 111 55 31 130 139 471 234 101 56 168 24 90
internal_count=4502 1044 3458 1678 789 613 255 431 142 358 1780 816 349 259 264 1065 228 125 113 264 121 1059 172 552 121 166 157 565 468 115 143 92 111 55 31 130 139 471 234 101 56 168 24 90
cat_boundaries=0 1 2 3 4 5
cat_threshold=48 48 392 48 136
is_linear=0
shrinkage=0.075


Tree=3
num_leaves=45
num_cat=5
split_feature=13 25 17 25 25 24 13 13 17 15 25 17 17 12 12 12 22 12 12 1 22 12 15 22 12 11 15 15 12 13 22 24 13 25 12 12 22 22 22 6 22 15 22 15
split_gain=344.472 208.23 79.3184 104.247 43.3176 24.6298 22.594 22.4415 7.96599 7.94263 7.35832 9.35394 7.19517 6.86563 6.76244 6.1268 5.52244 4.95512 4.47996 4.32104 4.16257 3.88338 3.77215 3.71089 3.66116 3.94973 3.18632 3.16347 3.03148 2.96434 2.92483 2.49933 2.35403 2.32436 2.62393 2.31421 2.42169 2.29305 2.08742 2.03914 2.01088 1.91018 1.87977 1.94375
threshold=3.2769667020129059 0 34.378208055500203 1 2 55.542844215240414 2.4414009612931857 4.1026092131977068 468.98535873979034 3.3366489838838276 3 20.729018835990459 78.527985683711606 0.21569132012694098 0.40682870370370378 0.21100508217993083 3.5348484848484851 0.62731481481481499 0.2246709334621422 1314.5000000000002 3.7180645161290329 0.44189349112426035 1.5177768838703316 3.6690476190476198 0.2854352678571429 4.5000000000000009 4.2652860220531688 2.9925974670471938 0.56944444444444453 4.983512786670059 3.308333333333334 19.30968010156808 4.7492611597348082 4 0.35721303772053492 0.36144943212547337 4.0171568627450993 3.6232142857142859 3.8007936507936511 49.500000000000007 4.3225000000000007 2.5406051233829294 3.2250000000000005 1.4899919582929262
decision_type=2 1 2 1 1 2 2 2 2 2 1 2 2 2 2 2 2 2 2 2 2 2 2 2 2 2 2 2 2 2 2 2 2 1 2 2 2 2 2 2 2 2 2 2
left_child=2 5 10 6 7 14 24 15 37 -7 11 28 22 -11 -2 40 -5 27 -14 21 26 -13 -8 -24 -4 42 -9 -18 -1 -22 -20 -17 -10 34 -29 -32 -37 -6 -33 -25 -3 -12 -26 -44
right_child=1 4 3 16 8 9 12 20 32 13 41 19 18 -15 -16 31 17 -19 30 -21 29 -23 23 39 25 -27 -28 33 -30 -31 35 38 -34 -35 -36 36 -38 -39 -40 -41 -42 -43 43 -45
leaf_value=-0.021668110811520112 0.073804565933599312 0.047232593679587216 0 -0.025902071093048627 -0.027663639100347349 0.081706585540528995 -0.016102083405955397 0 0.0030774568766703415 0.079013153615960494 -0.029161190207507924 -0.011459755046671504 0.025589926281096985 0.13922274152529798 0.004892332312231267 -0.002325544425933706 -0.015281578669464538 0.050978122175336239 0 0.020124129470573279 0.052673592229581297 0.032568341044904262 -0.0076862886584225893 0 -0.010104066989209392 0.041061255320108063 0.060048114311491624 0.0051096835295660987 0.0044151454044865143 0.085891641641018424 0.04882977889199612 0 0.022913897067052665 -0.011512493598881825 -0.024634206320065393 0.10155637392396411 0.03130251629669397 -0.0070327227929926281 0.021683825312735803 0.035441678038254341 0.0012021469272499715 -0.018775873229629959 -0.0080364194546066591 0.020873379696539948
leaf_weight=612 86 50 143 187 42 41 10.999999999999998 14.000000000000002 102 22 796 131 60 96 10.999999999999998 41 562 5.9999999999999991 4.9999999999999991 40 123 10.999999999999998 12.999999999999998 12.999999999999998 19 31 5.9999999999999991 135 22 29 140 33 57 156 18 15.000000000000002 7.9999999999999991 159 124 85 8.9999999999999982 162 12.999999999999998 58
leaf_count=612 86 50 143 187 42 41 11 14 102 22 796 131 60 96 11 41 562 6 5 40 123 11 13 13 19 31 6 135 22 29 140 33 57 156 18 15 8 159 124 85 9 162 13 58
internal_value=0 0.0377749 -0.0113574 0.000298567 0.017572 0.0951733 0.0246909 0.0334724 -0.00163988 0.117714 -0.0224109 -0.0161645 0.0376162 0.129098 0.066696 0.0197606 -0.013832 -0.0113276 0.0457441 -0.00102458 0.0553709 -0.00747376 0.0217482 0.0261144 0.0082034 0.0177593 0.0177903 -0.0118706 -0.0206657 0.0598115 0.0524382 0.0129042 0.0106363 -0.00545323 0.00104948 0.0541677 0.0814621 -0.0117279 0.0172466 0.0312206 0.0413063 -0.0271999 0.00879423 0.0147285
internal_weight=0 1045 3452 1678 789 256 614 429 360 159 1774 816 350 118 97 257 1064 877 228 182 172 142 122 111 264 121 20 871 634 152 168 198 159 309 153 163 23 201 157 98 59 958 90 71
internal_count=4497 1045 3452 1678 789 256 614 429 360 159 1774 816 350 118 97 257 1064 877 228 182 172 142 122 111 264 121 20 871 634 152 168 198 159 309 153 163 23 201 157 98 59 958 90 71
cat_boundaries=0 1 2 3 4 5
cat_threshold=48 48 392 48 136
is_linear=0
shrinkage=0.075


Tree=4
num_leaves=45
num_cat=4
split_feature=13 25 13 25 25 17 23 13 13 13 17 23 25 15 15 7 22 22 23 15 15 18 23 23 3 22 23 18 13 21 21 13 22 23 20 7 6 3 13 23 4 7 6 22
split_gain=295.641 178.664 68.4831 97.4436 37.2291 20.8049 20.1273 19.2298 13.2006 7.19912 6.86407 6.12654 5.69027 5.68025 3.77187 3.7504 3.72662 3.49052 3.92168 3.20035 2.79317 2.5712 2.53772 2.30917 2.17767 2.16706 2.42778 2.16325 2.11048 2.07711 2.02267 1.97837 1.95292 1.92056 2.09448 1.74139 1.71744 1.7099 1.61173 1.56245 1.53974 2.03599 5.95981 1.50328
threshold=3.2769667020129059 0 2.0126758453675748 1 2 413.08839356914621 81.333333333333357 4.1026092131977068 2.9174053685313028 1.4978661367769956 468.98535873979034 110.06521739130436 3 2.9925974670471938 3.9439943256836312 0.74954985183773692 3.8007936507936511 3.7180645161290329 151.25000000000003 2.6435018033238822 4.2652860220531688 0.17330489568470722 41.300000000000004 207.86458333333334 190.50000000000003 3.8282857142857147 158.19642857142858 0.22022787931370078 4.0342014792848504 14.710577540286538 14.034638826655337 3.795426061844291 3.6232142857142859 128.25000000000003 11.173558771508405 0.74610660530228368 92.500000000000014 121.50000000000001 5.2806591939842535 135.75000000000003 625.50000000000011 0.60670593403312134 92.500000000000014 3.7021739130434792
decision_type=2 1 2 1 1 2 2 2 2 2 2 2 1 2 2 2 2 2 2 2 2 2 2 2 2 2 2 2 2 2 2 2 2 2 2 2 2 2 2 2 2 2 2 2
left_child=2 5 9 6 7 14 22 16 19 -1 32 -5 23 -13 30 31 -3 20 -19 27 -9 28 35 -11 37 -10 -27 -8 -12 33 36 -7 -6 -18 -35 -4 -2 -25 -23 -21 -15 42 -42 -41
right_child=1 4 3 11 10 15 8 17 25 12 21 13 -14 40 -16 -17 29 18 -20 39 -22 38 -24 24 -26 26 -28 -29 -30 -31 -32 -33 -34 34 -36 -37 -38 -39 -40 43 41 -43 -44 -45
leaf_value=-0.024099510821132892 0.054369664257739231 0.0006987245400540326 -0.03069662618681513 -0.022285729573563447 -0.025627457627443211 0.081967595266903739 0.023749108881089876 0 0.078976231298690719 -0.010736735429148773 -0.0031232706672271672 -0.013850974862789777 -0.020328184438848523 -0.0049418982036780312 0.097530768526695316 0.046340855000614314 -0.0126924453201301 0.0030972479406099667 0.058641987075944813 0.0035203688170483177 0.056071999932191453 -0.0039766457960459228 0.005647140333843381 0.0025956294476234955 -0.0072421902719434113 0 0.049401891681275803 0.0058836523931327855 0.024639354700593964 0.033989152880724689 0.073322015442775224 0.12891129066135015 -0.0065078953464796363 -0.010885199441708756 0.022179626426069486 0 0.013987558899475944 0.032117414462595556 0.030116625701421606 0.0071665304459855002 -0.0032411101318632046 0.0021809530424089737 0.092213086601863462 0.035006033916746851
leaf_weight=1179 37 59 31 294 42 20 94 14.000000000000002 23 176 14.999999999999998 513 340 156 33 7.9999999999999991 8.9999999999999982 9.9999999999999982 142 15.999999999999998 5.9999999999999991 68 31 40 56 6.9999999999999991 88 83 68 74 60 85 159 8.9999999999999982 106 14.999999999999998 12.999999999999998 18 7.9999999999999991 18 6.9999999999999982 92 5 170
leaf_count=1179 37 59 31 294 42 20 94 14 23 176 15 513 340 156 33 8 9 10 142 16 6 68 31 40 56 7 88 83 68 74 60 85 159 9 106 15 13 18 8 18 7 92 5 170
internal_value=0 0.0350145 -0.0105023 0.000548202 0.0162933 0.0881863 0.0251683 0.0310345 0.0311337 -0.0205672 -0.00150637 -0.0128118 -0.0138413 -0.00927875 0.0707851 0.11679 0.0183159 0.0513214 0.0554087 0.0239732 0.0164909 0.00987592 -0.00942103 -0.00512314 0.00259802 0.0534419 0.0460397 0.0157669 0.0189365 0.0232451 0.0615863 0.121211 -0.0108805 0.016185 0.0190258 -0.0207587 0.0454146 0.013071 0 0.0307165 -1.66291e-05 0.00679017 0.0351867 0.0326942
internal_weight=0 1045 3452 1643 789 256 576 429 499 1809 360 1067 630 773 143 113 257 172 152 381 20 159 77 290 114 118 95 177 83 198 110 105 201 124 115 46 50 58 76 204 260 104 12 188
internal_count=4497 1045 3452 1643 789 256 576 429 499 1809 360 1067 630 773 143 113 257 172 152 381 20 159 77 290 114 118 95 177 83 198 110 105 201 124 115 46 50 58 76 204 260 104 12 188
cat_boundaries=0 1 2 3 4
cat_threshold=48 48 392 48
is_linear=0
shrinkage=0.075


Tree=5
num_leaves=45
num_cat=6
split_feature=13 25 13 25 25 13 13 25 17 25 17 11 13 22 22 10 22 17 22 25 13 22 13 22 22 6 18 22 18 3 22 22 22 10 22 5 5 13 18 22 18 22 13 10
split_gain=253.73 153.731 59.5238 78.124 32.5164 19.4848 17.7958 12.788 13.9299 8.51143 8.36938 7.57579 4.27688 3.98183 3.79716 3.62663 3.56714 3.46255 3.4514 2.8031 2.71864 2.58255 2.43968 2.41031 2.11662 2.55238 2.24679 2.01758 1.90525 1.83051 1.78449 2.45817 1.66049 1.64325 3.34434 1.71217 1.49349 1.48602 1.43846 1.41066 1.36836 1.62262 1.3388 1.25195
threshold=3.2769667020129059 0 2.249904835165133 1 2 4.4248287033199567 4.3372693810700085 3 20.729018835990459 4 100.33966907689337 5.5000000000000009 4.1026092131977068 3.7180645161290329 3.726136363636364 0.056889090262849752 3.5021739130434786 396.33459552495702 3.6100000000000008 5 3.5972184255501678 2.8500000000000001 3.5408542930527882 4.3535714285714295 4.0980000000000016 64.500000000000014 0.17646218892688148 4.1930952380952382 0.082885236103886969 287.50000000000006 4.2937500000000011 4.2183333333333346 3.594444444444445 0.18162365866121613 3.8949754901960794 904.50000000000011 273.15384615384625 1.4978661367769956 0.23571897260635041 3.7519230769230774 0.25888117977481068 4.1930952380952382 2.0126758453675748 0.010746274903733402
decision_type=2 1 2 1 1 2 2 1 2 1 2 2 2 2 2 2 2 2 2 1 2 2 2 2 2 2 2 2 2 2 2 2 2 2 2 2 2 2 2 2 2 2 2 2
left_child=2 6 7 10 5 13 11 8 32 12 18 -2 -6 28 -5 -12 -17 -11 -4 30 -13 -10 -15 -24 38 -26 29 43 -3 -27 31 33 -1 35 -35 -16 -19 -9 -20 -7 41 -34 -23 -14
right_child=1 4 3 14 9 39 -8 37 21 17 15 20 27 22 19 16 -18 36 24 -21 -22 42 23 -25 25 26 -28 -29 -30 -31 -32 -33 40 34 -36 -37 -38 -39 -40 -41 -42 -43 -44 -45
leaf_value=-0.02380721652935908 0.0097410600726755003 0.034609457034356715 -0.0041473374951318288 -0.018657066496360869 0.0039209541085566983 0.02551592699624344 0.12833569028361116 -0.026044095998190832 -0.014323909004580719 -0.018408507353888742 0.015594716470796499 0.061793889143692972 0.00045206851333894939 0.011672348289243352 -0.0058919469682428872 0.0014173710724282409 0.049493881075678037 -0.0044893133712372501 0.037679310764066894 -0.013626074714173843 0.086799545463112415 0 0.036264558649463985 0 -0.0054448947693143427 0.025463783731849252 0.026948212319812367 0 -0.010193874752820548 -0.01824669178330093 -0.010743274246949553 0.023190845754908693 -0.0017710876565055892 0.049787184965396331 0 0.028854570627640672 0.014221384339079709 -0.019672653637169656 0.017012553574586538 0.077126529847001649 -0.018205618887266649 -0.016974200508338901 0.0099816083112461047 0.030538911843399033
leaf_weight=194 11.999999999999998 6.0000000000000027 27 231 169 7.9999999999999991 48 615 51 98 34 75 12.999999999999998 47 228 11.999999999999998 142 87 69 233 121 186 136 7.9999999999999991 25 8.0000000000000018 64 17 24 12.999999999999998 120 23 101 8.9999999999999982 31 6.9999999999999991 32 525 48 58 262 77 117 86
leaf_count=194 12 6 27 231 169 8 48 615 51 98 34 75 13 47 228 12 142 87 69 233 121 186 136 8 25 8 64 17 24 13 120 23 101 9 31 7 32 525 48 58 262 77 117 86
internal_value=0 0.0324574 -0.00970985 0.00273675 0.0150857 0.0348699 0.0817828 -0.0174797 -0.0107241 0.0031639 0.0281094 0.0742261 0.0115884 0.0248293 -0.0101291 0.0410295 0.046155 -0.00766662 0.01932 -0.00714892 0.0778192 0.000928569 0.0288046 0.0338943 0.0223748 0.0137097 0.0200287 0.0231438 0 0 -0.00298208 0 -0.0174853 -0.0019319 0.0115794 -0.00451303 0.000111112 -0.0229759 0.0298733 0.0721319 -0.0145262 -0.00872371 0.00372067 0.0272139
internal_weight=0 1045 3452 1324 789 287 256 2128 988 502 442 208 285 221 882 188 154 217 254 651 196 354 191 144 227 110 85 116 30 21 418 298 634 275 40 235 119 1140 117 66 440 178 303 99
internal_count=4497 1045 3452 1324 789 287 256 2128 988 502 442 208 285 221 882 188 154 217 254 651 196 354 191 144 227 110 85 116 30 21 418 298 634 275 40 235 119 1140 117 66 440 178 303 99
cat_boundaries=0 1 2 3 4 5 6
cat_threshold=48 48 384 48 10 392
is_linear=0
shrinkage=0.075


Tree=6
num_leaves=45
num_cat=0
split_feature=17 23 17 17 23 6 23 17 6 12 9 12 23 12 23 12 11 12 2 8 23 17 17 8 2 23 1 0 23 0 12 17 16 12 16 17 12 16 23 12 16 23 21 5
split_gain=219.383 47.9134 32.398 28.289 15.9819 7.78851 7.48922 4.38103 4.22086 4.77944 9.06994 3.63167 3.61376 3.15668 2.91825 2.8444 4.66147 4.18469 2.82669 2.76481 2.70069 2.57162 2.53892 2.51254 2.42817 2.3767 3.56946 3.52975 4.45733 2.47883 2.36892 2.34514 2.30866 2.20698 2.13408 2.31014 3.58692 4.1296 2.08424 1.91296 2.54351 3.31644 1.8961 2.54267
threshold=124.29394400580166 110.06521739130436 25.325644885713256 468.98535873979034 110.06521739130436 36.500000000000007 480.33333333333343 39.974967927051239 64.500000000000014 0.37614142742347872 0.71490215287010483 0.21861982665950011 46.500000000000007 0.32981994459833797 1576.0666666666668 0.25853813543929499 3.5000000000000004 0.28260030864197533 1704.5000000000002 0.14576665998493152 2012.0000000000002 1433.2201539176201 1621.2604985266025 0.17543036766400052 125.93750000000001 218.35714285714286 758.50000000000011 627.75000000000011 848.00000000000011 1423.0000000000002 0.50338368491360974 396.33459552495702 226.63125000000002 0.33679120752984387 531.05208333333337 85.35624678405712 0.29620291820560174 1040.9375000000002 479.25000000000006 0.30185710305036967 430.60714285714295 372.81250000000006 14.79945856526475 291.50000000000006
decision_type=2 2 2 2 2 2 2 2 2 2 2 2 2 2 2 2 2 2 2 2 2 2 2 2 2 2 2 2 2 2 2 2 2 2 2 2 2 2 2 2 2 2 2 2
left_child=2 -2 12 5 -4 20 19 11 34 -10 23 -6 -1 25 21 -14 30 -18 -13 -5 24 32 39 38 -3 26 -7 -27 31 -28 -17 -29 -8 -26 -9 -36 -37 -38 -11 -21 41 -41 -15 -44
right_child=1 3 4 6 7 13 14 8 9 10 -12 18 15 42 -16 16 17 -19 -20 22 -22 -23 -24 -25 33 27 29 28 -30 -31 -32 -33 -34 -35 35 36 37 -39 -40 40 -42 -43 43 -45
leaf_value=-0.024483663563720205 -0.014414711522247336 0.025068677615921159 -0.015650427868792633 0.0042000314518126228 -0.021175531384972211 0.0024141637664442388 0.0092187322959463025 -0.0087830636767997194 0.0063342193268268012 0.055378503476918764 0.11536524354744968 -0.0061593454929328188 -0.022754993588247372 0.0037499220132271712 0.029669156758848091 -0.019413912477513999 -0.010286432896858672 0.015334388130972404 0.016305909072533778 0.048399648286588125 -0.011371090008848946 0.073254948640919929 0.0059926883268414128 -0.016384612816661637 0.012900704316399057 0.047815134039901688 0.053319164674645279 0.033730940685009828 0 0.012376037766838535 -0.0055819463951917421 0 0.053111309184986959 -0.005666369743854904 -0.0032995853709588464 0.0019597639383078288 0.059582617609493023 -0.0021068283684050927 0 0.066658958699709447 0.01105305271504437 0.0078040976236857032 0.0550725156132469 0
leaf_weight=519 158 90 448 22 75 49 10.999999999999998 158 448 8.0000000000000053 5.9999999999999991 157 293 58 36 416 112 51 38 80 22 65 19 7.9999999999999991 213 83 20 196 31 23 100 10.999999999999998 129 38 132 62 15.000000000000002 6.9999999999999991 6.9999999999999991 16.000000000000004 36 11.999999999999998 11.000000000000002 9.9999999999999982
leaf_count=519 158 90 448 22 75 49 11 158 448 8 6 157 293 58 36 416 112 51 38 80 22 65 19 8 213 83 20 196 31 23 100 11 129 38 132 62 15 7 7 16 36 12 11 10
internal_value=0 0.0242455 -0.0112545 0.0290659 -0.00368185 0.0210354 0.044976 0.00105647 0.00374318 0.0084397 0.0379491 -0.00718008 -0.0191775 0.0272867 0.0541399 -0.016266 -0.0133558 -0.00187464 -0.00143193 0.03254 0.0123593 0.0580194 0.0359661 0.0120928 0.0140857 0.0300251 0.0176887 0.033325 0.0278823 0.0333883 -0.0168601 0.0318444 0.0501529 0.00984661 -0.00209469 0.00254011 0.0123568 0.03798 0.031073 0.0394591 0.0269164 0.0443956 0.0120755 0.0313887
internal_weight=0 1439 3060 1281 1569 855 426 1121 851 477 29 270 1491 492 241 972 679 163 195 185 363 205 163 23 341 413 92 321 238 43 516 207 140 251 374 216 84 22 15 144 64 28 79 21
internal_count=4499 1439 3060 1281 1569 855 426 1121 851 477 29 270 1491 492 241 972 679 163 195 185 363 205 163 23 341 413 92 321 238 43 516 207 140 251 374 216 84 22 15 144 64 28 79 21
is_linear=0
shrinkage=0.075


Tree=7
num_leaves=45
num_cat=5
split_feature=17 25 17 25 17 17 25 25 15 17 0 6 17 11 15 24 17 17 19 10 17 7 15 2 17 15 1 6 0 19 17 7 6 0 18 25 7 1 24 6 0 15 15 10
split_gain=188.558 149.889 31.7458 29.9347 37.6648 21.4266 13.1489 11.7091 7.95794 7.24085 6.54085 6.02983 6.01738 5.64609 3.41343 3.21437 2.75655 2.70708 2.67072 2.66672 2.59654 2.37779 2.31237 2.33519 2.21505 2.19689 2.02206 1.8992 1.84897 1.76856 1.66641 1.66545 5.66553 1.59688 1.5963 1.54447 1.91596 1.4772 1.44305 1.60799 1.36032 1.33088 1.29819 1.203
threshold=124.29394400580166 0 378.60319149513788 1 39.04344512195123 644.70396954435512 2 3 2.9925974670471938 17.021304335308113 980.50000000000011 33.500000000000007 323.76904597913557 5.5000000000000009 3.3366489838838276 33.35660646251219 167.96690241939277 47.423986798048368 30282.500000000004 0.033917122595745058 1234.5458969783385 0.50481498506090572 2.3333383858505901 1525.5000000000002 86.29644136890515 3.9749950493966852 467.26923076923089 93.500000000000014 963.50000000000011 88182.500000000015 352.44146202170197 0.60822516843680641 101.50000000000001 32.500000000000007 0.44581067077532682 4 0.50481498506090572 581.50000000000011 36.914989481134185 32.187500000000007 1317.5000000000002 1.6461793008140024 4.0386459529934742 0.057872988255763307
decision_type=2 1 2 1 2 2 1 1 2 2 2 2 2 2 2 2 2 2 2 2 2 2 2 2 2 2 2 2 2 2 2 2 2 2 2 1 2 2 2 2 2 2 2 2
left_child=3 2 11 4 9 7 20 10 17 41 12 25 -3 19 -4 22 18 -5 -13 -6 33 -22 -11 -24 27 -2 -10 -15 -17 -12 -18 32 -28 -7 -26 43 -37 -33 40 -40 -21 -1 -38 -9
right_child=1 5 14 8 13 6 -8 35 26 15 29 16 -14 24 -16 28 30 -19 -20 38 21 -23 23 -25 34 -27 31 -29 -30 -31 -32 37 -34 -35 -36 36 42 -39 39 -41 -42 -43 -44 -45
leaf_value=-0.019441616069358632 0.027353022528115268 -0.0028981197046748695 0.048097716408285744 -0.021198573575062857 -0.01297566890813049 0.0046398863290825938 0.0044372522424085464 -0.018555240069040344 -0.017623894607046043 -0.011406352583976849 0.037760021774975096 -0.0018768034497464905 0.017748342981029421 0.0076593357070350761 0.10004929923580226 -0.0042137659155941339 0.069749353119984717 -0.013685335745657858 0.04528020138046164 0.0015229062324699954 0.02352355315631012 0.066204809753881683 -0.0026773750388527375 0.022002094826734871 0.039881643873636123 0.070914886644199079 -0.00077654445309641564 0.027716789751496766 0.022940484646621139 0.015174238846545949 0.021585970557541592 0.029560594297117774 0.081989898925982643 0.037113109570649894 0 0.013956324070645135 -0.018413246272646355 -0.0050951719440037726 0.0038194866387424326 0.033620740863267037 0.020831718707009828 -0.011111362642352955 0 0.00017632304600510986
leaf_weight=297 97 229 14.999999999999998 1044 27 14.999999999999998 118 21 54 148 45 4.9999999999999991 118 62 111 15.999999999999998 92 449 50 102 15.999999999999998 45 99 26 71 8.9999999999999982 17.000000000000004 67 41 61 8.9999999999999982 5.9999999999999991 4.9999999999999991 66 5.9999999999999991 9.9999999999999982 165 188 23 30 28 254 22 120
leaf_count=297 97 229 15 1044 27 15 118 21 54 148 45 5 118 62 111 16 92 449 50 102 16 45 99 26 71 9 17 67 41 61 9 6 5 66 6 10 165 188 23 30 28 254 22 120
internal_value=0 0.0224977 0.0616416 -0.0104139 -0.00162768 0.00729968 0.0260227 0.00114323 -0.0167365 -0.0104621 0.00898751 0.0476401 0.00397792 0.0168856 0.0946703 -0.00147159 0.0576038 -0.018987 0.0399711 0.00777965 0.0402901 0.0564109 -0.00502141 0.00209408 0.0258176 0.0321047 -0.00467281 0.018637 0.0143452 0.0255245 0.066239 -0.00111031 0.0176542 0.0319239 0.0367757 -0.0091865 -0.0135762 -0.00360431 0.0112056 0.0220318 0.0062339 -0.0157299 -0.0161383 -0.00213564
internal_weight=0 1439 388 3060 1297 1051 260 791 1763 881 453 262 347 416 126 330 156 1493 55 210 142 61 273 125 206 106 270 129 57 106 101 216 22 81 77 338 197 194 183 53 130 551 187 141
internal_count=4499 1439 388 3060 1297 1051 260 791 1763 881 453 262 347 416 126 330 156 1493 55 210 142 61 273 125 206 106 270 129 57 106 101 216 22 81 77 338 197 194 183 53 130 551 187 141
cat_boundaries=0 1 2 3 4 5
cat_threshold=48 48 386 392 2
is_linear=0
shrinkage=0.075


Tree=8
num_leaves=45
num_cat=4
split_feature=14 25 25 14 24 25 23 14 14 14 17 17 23 14 20 23 22 23 22 24 22 23 24 21 25 23 20 20 17 16 10 20 24 22 5 22 22 23 5 17 24 20 22 5
split_gain=164.025 113.98 38.952 56.7416 17.7938 12.2055 11.8008 8.31675 7.61501 7.07566 6.69268 4.39954 4.00377 3.99963 3.18968 2.78329 2.67309 2.48989 2.48611 2.30528 2.26846 2.16554 1.9577 2.20691 1.95589 1.81871 1.81787 1.55578 1.51455 2.40785 1.42376 1.40335 1.39019 1.37357 2.05233 1.35784 1.25615 1.25394 1.18858 1.15806 1.12196 1.1151 1.10171 1.26512
threshold=0.76731194690265492 0 1 0.43639380530973454 50.141065941551332 2 81.333333333333357 0.49900442477876111 0.6501106194690266 0.90387168141592933 17.021304335308113 644.70396954435512 103.16666666666667 0.97085176991150457 12.620281025509952 90.875000000000014 3.7021739130434792 233.68750000000003 3.7180645161290329 50.141065941551332 3.6366666666666672 218.35714285714286 36.227295396083797 14.250529878898382 3 150.09090909090912 11.802033844711801 12.96491362983828 42.629856151684365 408.99759615384625 0.17979082163892648 12.467197491670914 59.391272525253427 3.8949754901960794 556.50000000000011 3.8133928571428575 3.7928260869565222 126.08333333333336 901.50000000000011 139.73392343942905 21.086856393718652 13.333575532572301 4.3414285714285725 201.50000000000003
decision_type=2 1 1 2 2 1 2 2 2 2 2 2 2 2 2 2 2 2 2 2 2 2 2 2 1 2 2 2 2 2 2 2 2 2 2 2 2 2 2 2 2 2 2 2
left_child=2 4 3 10 26 9 28 40 22 20 37 -6 -9 25 21 -12 -13 -11 -19 41 -3 -10 23 -8 35 -7 -2 39 -5 -30 38 -23 -21 34 -32 -14 -28 -1 -26 -24 -4 -17 43 -38
right_child=1 5 7 6 11 13 8 12 14 17 15 16 24 -15 -16 19 -18 18 -20 32 -22 31 27 -25 30 -27 36 -29 29 -31 33 -33 -34 -35 -36 -37 42 -39 -40 -41 -42 -43 -44 -45
leaf_value=-0.017651674116349436 0.014884653478983885 -0.018255752679621515 -0.019789490826470663 0.0090556769649324936 0.059773893075372349 -0.018392469809590955 0.0085307041254815974 -0.017387166171128916 0.0020218238589025414 0.0065557197415728992 -0.011253017405215867 0.029730638902232799 -0.010078442103274259 0.014443640313787708 0.057038777888712332 -0.0012963225501570043 0.088134465878398197 -0.0017211379574336601 0.039400448954484323 0.04039748079724291 0.009989916616155517 0.04032533467648524 0.022499557589863908 0.026562945227005752 -0.012080811746433546 -0.0035721220742202554 0.0027854008135089767 0.041053875850311963 0.021835772814410022 -0.02332587727655 -0.00086081854335763163 0 0.0039378227861837948 -0.0037536307899733645 0.05270959869380152 0.0028801544170755657 0.020669174936062087 -0.0094117577799876524 0.0099072523130859999 -0.0031270820229840368 -0.013242883302718259 0.019353532348093234 0.00025968286888525862 0.049489288191801532
leaf_weight=336 28 15.999999999999998 954 15.999999999999998 147 63 144 213 17 25 112 8.9999999999999982 58 57 54 211 99 5.9999999999999991 96 13.000000000000002 142 55 60 62 281 239 7.9999999999999991 41 5.9999999999999991 39 4.9999999999999982 6.9999999999999991 18 38 6 200 20 215 10.999999999999998 6.9999999999999991 259 14.999999999999998 5.9999999999999991 85
leaf_count=336 28 16 954 16 147 63 144 213 17 25 112 9 58 57 54 211 99 6 96 13 142 55 60 62 281 239 8 41 6 39 5 7 18 38 6 200 20 215 11 7 259 15 6 85
internal_value=0 0.0261372 -0.00775253 0.00172994 0.0568426 0.00585985 0.0218768 -0.014404 0.0261272 0.0172116 -0.00932111 0.0705208 -0.00845275 -0.00323195 0.0415569 -0.00132209 0.0840625 0.0310747 0.0364135 0.0027985 0.00668119 0.0297721 0.0193158 0.0143243 -0.0051586 -0.00689869 0.0363102 0.0281204 -0.00825104 -0.0157422 -0.00875467 0.0363202 0.0217099 0.00180133 0.024947 0 0.040727 -0.0145615 -0.0110265 0.0189473 -0.0184498 0 0.042895 0.0447538
internal_weight=0 1046 3453 1428 402 644 508 2025 447 285 920 255 812 359 133 369 108 127 102 257 158 79 314 206 599 302 147 108 61 45 341 62 31 49 11 258 119 551 292 67 1213 226 111 105
internal_count=4499 1046 3453 1428 402 644 508 2025 447 285 920 255 812 359 133 369 108 127 102 257 158 79 314 206 599 302 147 108 61 45 341 62 31 49 11 258 119 551 292 67 1213 226 111 105
cat_boundaries=0 1 2 3 4
cat_threshold=176 48 264 136
is_linear=0
shrinkage=0.075


Tree=9
num_leaves=45
num_cat=0
split_feature=14 14 15 22 22 15 22 22 22 14 22 22 18 21 14 7 20 18 15 22 22 22 18 22 6 20 14 14 16 22 7 16 19 8 14 22 22 22 14 7 8 14 14 15
split_gain=140.018 31.6672 24.1813 10.6216 10.1069 8.14148 7.17772 6.83117 6.43702 6.36139 4.11452 3.71836 3.54415 2.89558 3.09387 5.23459 3.99945 3.82868 2.81153 2.81131 4.10193 3.77928 3.5693 3.65701 2.34858 2.342 2.27334 2.38511 2.13086 2.07619 1.99789 1.95414 1.93123 1.85528 2.12208 1.82426 1.6886 5.79006 1.63143 2.16371 1.61829 3.00616 1.57972 1.5005
threshold=0.76731194690265492 0.47051991150442485 3.5990216639628394 3.6100000000000008 3.5021739130434786 2.8146529224064971 4.3900000000000015 3.7021739130434792 4.3900000000000015 0.25774336283185839 4.2937500000000011 3.3800000000000008 0.3726153812652121 14.633083321856185 0.84081858407079657 0.71787352555701189 12.993571049730305 0.24885254242760865 2.3572924859869793 4.0980000000000016 4.1069047619047625 4.1930952380952382 0.22022787931370078 3.7021739130434792 164.50000000000003 13.670036610246457 0.92787610619469041 0.94026548672566379 786.62500000000011 3.917619047619048 0.72541195694000316 156.80715811965814 55836.500000000007 0.17496898263027297 0.72505530973451349 4.2006849315068502 4.1930952380952382 4.2006849315068502 0.73738938053097358 0.68025947347884974 0.13200467013760883 0.63335176991150444 0.59640486725663722 2.3690577346920763
decision_type=2 2 2 2 2 2 2 2 2 2 2 2 2 2 2 2 2 2 2 2 2 2 2 2 2 2 2 2 2 2 2 2 2 2 2 2 2 2 2 2 2 2 2 2
left_child=1 9 3 -2 -3 28 7 26 19 -1 13 -11 24 29 15 25 17 -16 -13 22 -21 -22 -7 -24 31 -15 -4 -28 33 32 -31 -9 -5 -6 43 -23 -33 -38 40 -40 41 -30 -25 -35
right_child=2 4 6 10 5 8 -8 12 -10 11 -12 18 -14 14 16 -17 -18 -19 -20 20 21 35 23 42 -26 -27 27 -29 38 30 -32 36 -34 34 -36 -37 37 -39 39 -41 -42 -43 -44 -45
leaf_value=-0.016555800191256131 -0.014773359852443563 -0.015227152177330776 -0.0077581602774521481 -0.020320173253795724 -0.016223903940230253 0.02668400028147213 -0.0083299207871442467 0 -0.0097547863315436464 -0.018676008810369849 -0.0046147249711501418 -0.0094218316927621015 0.010585123848867081 0.08826072304180585 0.044574946027100409 0.022066855633915822 0.00574491116344101 0 -2.7861452906138526e-05 -0.010440408824486659 0.031640873898466933 -0.0063975000429485193 -0.015951298371769861 0.029770671089983689 0.007934683309120524 0.015600866086497625 0.068052889138275008 0.009107334046485031 0.023621327852688039 0.021348157755363077 0 0.045990411491210977 0.0085757157927836836 -0.0032632303875269461 -0.021784671751638587 0.011615607904990293 -0.0099775247047719489 0.040195392872346823 0 0.056961980116514682 -0.0030671021535198955 -0.0032125048957744322 0.0086313860971575628 0.01554161358868689
leaf_weight=1184 68 167 21 17 90 150 18 7.9999999999999991 74 161 42 488 28 15.000000000000002 43 42 76 17 303 55 44 42 24 32 15.999999999999998 5.9999999999999991 5.0000000000000027 24 41 113 25 343 47 62 23 95 13.999999999999998 58 12.000000000000002 5.9999999999999991 234 46 90 35
leaf_count=1184 68 167 21 17 90 150 18 8 74 161 42 488 28 15 43 42 76 17 303 55 44 42 24 32 16 6 5 24 41 113 25 343 47 62 23 95 14 58 12 6 234 46 90 35
internal_value=0 -0.00718757 0.0241189 0.0122448 0.00189623 0.00443186 0.0353152 0.0369591 0.010436 -0.0128359 0.0165439 -0.00813755 0.039819 0.0189115 0.0256102 0.0401665 0.0182418 0.0328191 -0.00590148 0.0133655 0.00681955 0.0124113 0.0183537 0.00929539 0.041527 0.0715333 0.00888186 0.0227953 -0.00209398 0.011947 0.0171081 0.0426412 0 -0.0080599 -0.00138232 0.00566048 0.0433554 0.0296273 0.00143846 0.0229268 0 0.00886139 0.0148132 0.00299051
internal_weight=0 3458 1046 511 1322 1155 535 517 606 2136 443 952 467 401 199 63 136 60 791 532 236 181 296 146 439 21 50 29 549 202 138 423 64 210 120 137 415 72 339 18 321 87 122 97
internal_count=4504 3458 1046 511 1322 1155 535 517 606 2136 443 952 467 401 199 63 136 60 791 532 236 181 296 146 439 21 50 29 549 202 138 423 64 210 120 137 415 72 339 18 321 87 122 97
is_linear=0
shrinkage=0.075


Tree=10
num_leaves=45
num_cat=0
split_feature=14 17 15 22 22 22 15 22 22 22 15 21 22 18 22 22 22 18 17 22 14 7 14 14 22 6 3 15 7 17 6 18 2 18 17 3 22 22 22 22 22 0 15 2
split_gain=120.222 27.6295 20.6468 10.6338 9.15295 8.55478 7.0306 6.21427 5.76961 3.60637 3.56958 3.04742 3.01189 2.9756 2.33355 3.60756 3.81869 2.9545 3.04858 2.3477 2.08068 4.86836 2.00231 2.06566 1.96352 1.94673 1.85699 2.82653 1.83294 2.99581 1.65782 1.581 1.57898 1.57412 2.83035 1.49655 1.31717 1.30038 2.10595 3.40279 5.45037 1.414 1.33283 1.22856
threshold=0.76731194690265492 36.514198193539428 3.5990216639628394 3.5021739130434786 3.6100000000000008 4.3900000000000015 2.8146529224064971 4.3900000000000015 3.7021739130434792 4.4875000000000016 2.3087963529933249 14.633083321856185 3.4583333333333339 0.3726153812652121 4.0980000000000016 4.1069047619047625 4.1930952380952382 0.17761155084885888 71.178932173801755 3.7021739130434792 0.84513274336283206 0.71787352555701189 0.92787610619469041 0.94026548672566379 4.2006849315068502 164.50000000000003 56.500000000000007 3.4539401355851447 0.72227375798804383 99.027659099502742 34.500000000000007 0.24885254242760865 751.50000000000011 0.16117969437274587 150.44667171220621 19.625000000000004 4.2937500000000011 3.917619047619048 4.0980000000000016 4.0211111111111117 3.998333333333334 813.75000000000011 2.9639627631517476 549.50000000000011
decision_type=2 2 2 2 2 2 2 2 2 2 2 2 2 2 2 2 2 2 2 2 2 2 2 2 2 2 2 2 2 2 2 2 2 2 2 2 2 2 2 2 2 2 2 2
left_child=1 10 4 -3 -2 6 -5 8 22 11 -1 37 -12 25 17 -16 -17 18 -8 -19 21 -13 -4 -24 -18 -10 35 -28 29 -21 -31 -22 -14 -23 -35 -20 -26 41 39 40 -39 42 -6 -7
right_child=2 3 7 5 9 43 14 -9 13 -11 12 20 32 -15 15 16 24 19 26 28 31 33 23 -25 36 -27 27 -29 -30 30 -32 -33 -34 34 -36 -37 -38 38 -40 -41 -42 -43 -44 -45
leaf_value=-0.014897173566485086 -0.013678178252485289 -0.013912770662596156 -0.007197548484094379 -0.00024278332166243388 0.025711378706612491 -0.020185166058874847 -0.0070892441028677922 -0.0077316342759659422 0.039461687931583077 -0.023768492135487398 -0.016767258977706635 0.06239177305026003 -0.012502125531964512 0.0098131849092073925 -0.0085510240375225553 0.029419821732795774 -0.007562820012398979 -0.0074943158810156091 0.035809958623389669 0.034502888371907153 0.019794481139455734 0.038930738344694349 0.063649879837134812 0.0084462118620068846 0.021271391872344721 0.0073677850871210039 0.055893744505446964 0.015861239357824675 0.0021674090573357285 0.02191552536174253 0 0 0 0.031553703213684559 -0.0070586877862119975 0.0043523048437922795 0.0027590887153431834 0.02969710896988351 0.0027414346185148666 0.046457201627374781 -0.015151925284496912 -0.012982107186365043 0 -0.006460466882796707
leaf_weight=1383 68 245 21 585 15.999999999999998 63 10.999999999999998 18 423 10.999999999999998 126 24 72 28 69 48 46 32 14.999999999999998 45 116 17 5.0000000000000027 24 40 15.999999999999998 31 23 65 29 43 21 249 17 22 31 66 35 69 23 24 25 23 141
leaf_count=1383 68 245 21 585 16 63 11 18 423 11 126 24 72 28 69 48 46 32 15 45 116 17 5 24 40 16 31 23 65 29 43 21 249 17 22 31 66 35 69 23 24 25 23 141
internal_value=0 -0.006653 0.022356 0.000420272 0.01137 0.00300853 0.00549662 0.0327066 0.0342381 0.0153654 -0.0129752 0.0165399 -0.00688098 0.0368706 0.0112409 0.00569659 0.01092 0.0156239 0.025877 0.00995503 0.0230142 0.0334107 0.00829729 0.0213887 0.00456932 0.0384415 0.0301155 0.0403968 0.0133648 0.0190285 0.00827564 0.0163576 -0.00278531 0.0192519 0.00858553 0.0163046 0.0104033 0.00967146 0.0134596 0.0216535 0.0105087 0 0.00951936 -0.0110488
internal_weight=0 3458 1046 1628 511 1383 1179 535 517 443 1830 432 447 467 594 269 200 325 111 214 217 80 50 29 152 439 100 54 182 117 72 137 321 56 39 46 106 215 151 82 59 64 39 204
internal_count=4504 3458 1046 1628 511 1383 1179 535 517 443 1830 432 447 467 594 269 200 325 111 214 217 80 50 29 152 439 100 54 182 117 72 137 321 56 39 46 106 215 151 82 59 64 39 204
is_linear=0
shrinkage=0.075


Tree=11
num_leaves=45
num_cat=4
split_feature=14 25 25 14 25 24 23 14 14 25 15 23 23 22 14 11 24 9 22 24 18 22 24 15 4 19 19 23 19 11 18 21 6 18 24 15 21 24 15 21 22 15 22 23
split_gain=103.089 90.6556 32.1491 40.0717 18.6763 11.5089 10.5451 10.3118 6.80992 5.08454 4.99547 3.77383 3.60228 3.53389 3.38624 2.79892 2.70955 2.70673 2.56263 2.1884 2.02151 2.10841 1.97132 1.91959 1.90675 1.97528 3.62355 1.84577 1.72428 1.69888 1.69648 1.67706 1.64205 1.57525 1.43949 1.39689 1.36781 1.29717 1.20776 1.16386 0.979976 0.963798 1.02015 0.954238
threshold=0.76731194690265492 0 1 0.40116150442477877 2 55.542844215240414 41.300000000000004 0.9471238938053097 0.6501106194690266 3 2.9925974670471938 122.18750000000001 98.40000000000002 4.3900000000000015 0.96515486725663713 5.5000000000000009 4.5156977849120841 0.62509968102073377 3.8007936507936511 21.086856393718652 0.22022787931370078 3.7021739130434792 16.596364614590438 1.3704200119626007 562.50000000000011 110175.00000000001 70821.500000000015 265.05263157894746 71868.500000000015 4.5000000000000009 0.082885236103886969 16.546620792020533 1.5000000000000002 0.26280508379738804 21.323860272350505 4.0710498309767447 14.383657802358799 34.759372646518294 2.5207034763815055 14.250529878898382 4.1930952380952382 3.7884329408569211 4.1839743589743597 274.20000000000005
decision_type=2 1 1 2 1 2 2 2 2 1 2 2 2 2 2 2 2 2 2 2 2 2 2 2 2 2 2 2 2 2 2 2 2 2 2 2 2 2 2 2 2 2 2 2
left_child=2 5 3 12 7 15 16 18 20 17 19 -12 -1 28 38 -2 -5 35 30 -4 29 -22 -23 37 -13 26 43 -19 -10 -8 -3 -11 -31 34 -25 -6 39 -14 -7 -20 -29 42 -17 -26
right_child=1 4 10 6 9 14 8 -9 13 31 11 24 23 -15 -16 41 -18 27 36 -21 21 22 -24 33 25 -27 -28 40 -30 32 -32 -33 -34 -35 -36 -37 -38 -39 -40 -41 -42 -43 -44 -45
leaf_value=-0.013114085134165784 0 0.030496480796704677 -0.016508153754684302 0.0083796258515014405 -0.013143815588088711 0.025273669174449839 0.0040305492003829104 0.049503457394137813 0.027237039246111806 -0.012567106501439725 -0.014693386613941276 -0.0056304966618320402 -0.014059365232358482 -0.01659837258250817 0.11082779520309244 0.039024173983262418 -0.02805649006416891 0 0.015034665996771231 -0.010352848575572803 -0.010533816065518087 0 0.018358032262560903 0.00065256365860910106 0.019959279855376415 -0.0029455792222948776 0.064316764411221652 0.018027305815566424 0.048830281769400845 -0.0048318262678834333 -0.0055142064845279757 0.0068744071094181906 0.025515594863624067 -0.0047545836499353761 0.017950903402422558 0.0078741659622905465 0.027266958483582907 0.0038912333443971354 0.070172412416518948 -0.008462625329264362 0.0005338929341952356 0.057394671706106445 0.0055047702741556227 0.0001592550770995305
leaf_weight=393 11.999999999999998 7.9999999999999991 991 13.999999999999998 54 8.9999999999999982 37 66 68 193 147 155 112 4.9999999999999991 19 43 32 70 79 598 23 56 105 110 24 59 6.9999999999999991 111 62 6.9999999999999991 44 24 167 180 39 22 79 22 129 9.9999999999999982 30 33 10.999999999999998 45
leaf_count=393 12 8 991 14 54 9 37 66 68 193 147 155 112 5 19 43 32 70 79 598 23 56 105 110 24 59 7 111 62 7 44 24 167 180 39 22 79 22 129 10 30 33 11 45
internal_value=0 0.0207095 -0.00615296 0.00243381 0.00749894 0.0585261 0.0177634 0.0224766 0.0208027 -0.00117887 -0.0122016 -0.00493929 -0.00779111 0.0356707 0.0739406 0.0389601 -0.0157536 0.00517206 0.0149702 -0.0142351 0.0155108 0.0091131 0.0123222 -0.00313105 0 0.00652768 0.0146038 0.00982524 0.0382206 0.0207562 0 -0.00968431 0.023941 0 0.00564518 -0.00627349 0.0194563 -0.0106693 0.0678307 0.0116864 0.0147449 0.0436426 0.0334511 0.00803991
internal_weight=0 1046 3458 1432 790 256 576 286 530 504 2026 437 856 135 157 99 46 287 220 1589 395 184 161 463 290 135 76 211 130 211 52 217 174 329 149 76 168 134 138 89 141 87 54 69
internal_count=4504 1046 3458 1432 790 256 576 286 530 504 2026 437 856 135 157 99 46 287 220 1589 395 184 161 463 290 135 76 211 130 211 52 217 174 329 149 76 168 134 138 89 141 87 54 69
cat_boundaries=0 1 2 3 4
cat_threshold=48 48 384 10
is_linear=0
shrinkage=0.075


Tree=12
num_leaves=45
num_cat=6
split_feature=17 25 17 25 13 25 13 6 25 17 7 17 13 13 13 13 21 24 24 19 24 25 5 0 18 21 7 7 25 6 10 19 19 18 13 6 24 10 10 13 6 18 24 0
split_gain=90.0154 90.5252 19.0314 18.4774 21.6658 12.2234 13.8623 4.51458 3.94401 3.04458 2.99609 2.94131 2.93329 2.917 2.68609 2.67074 1.93935 1.69561 1.74951 1.63982 1.52339 1.48208 1.47918 1.52608 1.37832 1.16278 1.14937 1.13353 1.09751 2.13074 2.08 1.44162 1.93893 1.28293 1.01518 1.01465 1.58289 1.44967 0.977271 0.948508 0.943712 0.939948 0.934182 2.0143
threshold=124.29394400580166 0 413.08839356914621 1 2.0126758453675748 2 4.1026092131977068 34.500000000000007 3 17.021304335308113 0.74954985183773692 167.96690241939277 3.2769667020129059 2.3502401828962087 4.983512786670059 2.4414009612931857 16.604484172374548 17.162477012786439 19.853094197551886 30282.500000000004 33.000199133768113 4 676.50000000000011 936.00000000000011 0.24741869600995603 14.250529878898382 0.59025626981360702 0.71295472177968955 5 126.50000000000001 0.18061829658467224 22641.000000000004 88182.500000000015 0.16866326058675038 4.6727851606181448 6.5000000000000009 42.49900661055522 0.18611525929948411 0.050145579671784006 5.0434043048315838 139.53846153846158 0.36995992240514081 33.550342397811811 963.50000000000011
decision_type=2 1 2 1 2 1 2 2 1 2 2 2 2 2 2 2 2 2 2 2 2 1 2 2 2 2 2 2 1 2 2 2 2 2 2 2 2 2 2 2 2 2 2 2
left_child=3 2 7 4 9 16 12 -2 14 -1 34 19 24 -5 -8 17 26 25 -19 -9 22 -15 23 -17 -7 40 -3 -26 30 -30 31 -14 -33 -31 -4 -20 -37 -38 -10 -28 -6 -21 -11 -44
right_child=1 5 10 13 15 6 8 11 38 42 -12 -13 28 21 -16 20 -18 18 35 41 -22 -23 -24 -25 27 -27 39 -29 29 33 -32 32 -34 -35 -36 36 37 -39 -40 -41 -42 -43 43 -45
leaf_value=-0.010623442962741425 0.023568206710466087 -0.0016905224843751755 0.069498792648903407 -0.014286846750569921 0 -0.0077510066641885682 0.0299012274694469 -0.0037571847022320162 -0.000333808651343134 -0.0032509553884255333 0.016818118635641276 0.052905271574822853 -0.015361799103811411 -0.003643913203967846 0.064551063570684589 0.020028225722448903 0.0092134599591287402 0.042474201568390275 -0.0099076669079574669 0.035245172081218558 0.028177553715104994 -0.012313505426032677 0.024908398647967997 0 -0.00088410363196544071 0.018746417184878825 -0.016389810372057254 0.019958469694509279 -0.0020526541158574392 0.037110963610245816 -0.0017158172674823504 0.031753751162989667 0.0097366671828116712 0.00074703076287866322 0.10363274541932314 0.0034733118446917568 0.029438925838073948 -0.0025129773531804155 0.01446205535572377 0.0013125300646717936 -0.018936894831542667 0 -0.001206488217351258 0.026846172660062301
leaf_weight=552 119 59 84 1216 51 171 94 4.9999999999999991 24 243 7.9999999999999991 104 4.9999999999999991 338 20 35 23 9.9999999999999982 10.999999999999998 44 78 214 48 67 39 11.999999999999998 176 19 134 13.000000000000002 41 43 73 14.999999999999998 20 73 34 5.9999999999999991 92 11.999999999999998 20 4.9999999999999991 40 19
leaf_count=552 119 59 84 1216 51 171 94 5 24 243 8 104 5 338 20 35 23 10 11 44 78 214 48 67 39 12 176 19 134 13 41 43 73 15 20 73 34 6 92 12 20 5 40 19
internal_value=0 0.0155609 0.0459272 -0.0071542 -0.000265369 0.00378907 0.00855824 0.0359558 0.0241322 -0.0073022 0.07371 0.0447496 0.00210353 -0.0121099 0.0339424 0.0130898 -0.00962888 0.00666835 0.0119089 0.0274262 0.0188992 -0.00741315 0.0135603 0.00749505 -0.00422844 -0.0011216 -0.0120339 0.00511878 0.0067598 0.00142997 0.0109349 0.0165866 0.0185637 0.0202366 0.0773628 0.00871642 0.011104 0.0232456 0.0100539 -0.0149469 -0.00547126 0.0318012 -0.00102492 0.00707868
internal_weight=0 1442 389 3067 1299 1053 783 277 230 854 112 158 553 1768 114 445 270 217 134 54 228 552 150 102 229 83 247 58 324 162 162 121 116 28 104 124 113 40 116 188 71 49 302 59
internal_count=4509 1442 389 3067 1299 1053 783 277 230 854 112 158 553 1768 114 445 270 217 134 54 228 552 150 102 229 83 247 58 324 162 162 121 116 28 104 124 113 40 116 188 71 49 302 59
cat_boundaries=0 1 2 3 4 5 6
cat_threshold=48 48 65 384 392 136
is_linear=0
shrinkage=0.075


Tree=13
num_leaves=45
num_cat=4
split_feature=17 25 17 25 13 25 13 23 15 23 25 23 15 22 22 13 13 18 15 23 19 6 17 19 15 19 19 6 18 15 15 6 22 22 9 22 22 9 22 18 10 19 22 16
split_gain=77.3015 77.734 16.4327 15.8957 18.6588 10.4703 11.9041 5.57215 4.14927 3.56156 3.3886 2.93587 2.78015 2.74124 2.56407 2.55269 2.27555 2.13649 2.13178 2.0126 1.99353 2.80872 1.82468 1.75263 1.75101 1.72243 1.49322 2.95572 1.4098 1.39255 1.34421 1.33559 1.25636 2.08785 1.2208 1.19085 1.56634 1.15858 1.15443 1.14403 1.31174 1.09748 1.07911 1.03423
threshold=124.29394400580166 0 378.60319149513788 1 2.0126758453675748 2 4.1026092131977068 41.300000000000004 2.9925974670471938 117.50000000000001 3 121.45833333333336 3.9439943256836312 3.8007936507936511 4.4875000000000016 3.795426061844291 4.983512786670059 0.22428819083285698 2.3087963529933249 122.18750000000001 55836.500000000007 34.500000000000007 319.23914813304992 22143.500000000004 3.5245189019080136 59433.500000000007 72355.000000000015 161.50000000000003 0.094749078859637167 3.3366489838838276 3.5990216639628394 6.5000000000000009 3.6100000000000008 3.6995145631067969 0.7864055299539171 4.0980000000000016 4.0097222222222237 0.69595389320159973 4.1930952380952382 0.26280508379738804 0.11667884945633987 195146.00000000003 3.7021739130434792 483.37500000000006
decision_type=2 1 2 1 2 1 2 2 2 2 1 2 2 2 2 2 2 2 2 2 2 2 2 2 2 2 2 2 2 2 2 2 2 2 2 2 2 2 2 2 2 2 2 2
left_child=3 2 9 4 11 30 13 43 32 -2 16 -1 20 28 23 -4 -8 18 25 -10 -11 -22 -23 -15 35 -9 27 37 41 -17 -3 -20 -5 -34 -30 36 39 -21 -12 40 -13 -7 -19 -6
right_child=1 5 15 8 7 6 10 17 19 12 38 24 -14 14 -16 29 -18 42 31 26 21 22 -24 -25 -26 -27 -28 -29 34 -31 -32 -33 33 -35 -36 -37 -38 -39 -40 -41 -42 -43 -44 -45
leaf_value=-0.010990185320213989 -0.00040762352070560409 -0.013893104059992159 0.041080353349580344 -0.016438817601069144 0.010549452682421011 0.01558966392212544 0.027677466474540648 0 -0.011446229160391055 0.014959477867927675 0.013351119947830784 0.013650455517639576 0.056050493334111134 -0.011367307922318071 -0.01923534363749815 0.026380207051115177 0.05989504332078617 -0.0057300846059533603 -0.0024663191184586611 0.012672620688987233 0.0219592090630726 0.049311793282742732 0.011188533245489999 0.0080701609796167643 0.026013796626649887 0.022038264942661808 -0.0050265935988646551 0.056960560438859595 -0.015224351563752597 0.077345713035104485 -0.0024611484574512464 0.027464128186680977 0.02535597890177756 -0.011518882084511821 0.0027219268771947786 -0.0073861196817329132 0.020352048340774278 -0.0035303869945634064 -0.0054974115463080472 -0.0083820340220620085 -0.0023302804780448365 -0.010146194585040329 0.010561629031438959 -0.018835434253054988
leaf_weight=446 13.999999999999998 154 31 454 4.9999999999999991 23 94 46 93 51 99 43 36 25 21 7.9999999999999991 20 21 4.9999999999999991 46 74 76 12.999999999999998 364 10.999999999999998 32 82 5.9999999999999991 87 86 116 134 6.9999999999999991 1036 21 184 20 44 17 78 72 11.999999999999998 167 35
leaf_count=446 14 154 31 454 5 23 94 46 93 51 99 43 36 25 21 8 20 21 5 46 74 76 13 364 11 32 82 6 87 86 116 134 7 1036 21 184 20 44 17 78 72 12 167 35
internal_value=0 0.014432 0.0425723 -0.00661792 -0.000225487 0.00351873 0.00793548 0.0121651 -0.0112144 0.0324471 0.0223695 -0.00675888 0.0345175 0.0019455 0.00514508 0.0665318 0.0314773 0.0148751 0.0201517 -0.00245702 0.0304263 0.0348096 0.0445483 0.00664907 -0.00197689 0.00889889 0.00193994 0.00849193 -0.00679587 0.073888 -0.00889257 0.0259579 -0.0128331 -0.0111958 -0.0111986 -0.00295115 0.000617508 0.00414039 0.00927164 -0.00119853 0.0031888 0.0050897 0.00841308 -0.0135832
internal_weight=0 1442 389 3067 1299 1053 783 445 1768 264 230 854 250 553 410 125 114 405 217 271 214 163 89 389 408 78 178 96 143 94 270 139 1497 1043 108 397 213 90 116 193 115 35 188 40
internal_count=4509 1442 389 3067 1299 1053 783 445 1768 264 230 854 250 553 410 125 114 405 217 271 214 163 89 389 408 78 178 96 143 94 270 139 1497 1043 108 397 213 90 116 193 115 35 188 40
cat_boundaries=0 1 2 3 4
cat_threshold=48 48 65 384
is_linear=0
shrinkage=0.075


Tree=14
num_leaves=45
num_cat=0
split_feature=17 24 17 10 17 7 17 3 3 24 3 17 16 7 16 17 24 9 18 4 17 9 5 18 3 24 17 7 18 1 18 18 18 19 2 18 24 17 18 10 17 19 3 16
split_gain=66.3406 12.9522 10.814 3.04623 3.67668 2.91258 3.05996 2.44597 2.12687 1.81706 1.78469 1.67647 1.61924 1.50796 1.49238 1.42953 2.58555 1.92012 1.53877 3.31837 1.8123 2.60004 2.20557 1.87015 1.42846 1.4794 1.26704 1.52621 1.11177 1.13194 1.07532 1.78299 2.49392 1.74088 1.67045 1.05198 1.04906 1.31644 1.79023 1.56086 1.45404 1.12767 1.83882 1.04403
threshold=124.29394400580166 55.542844215240414 20.729018835990459 0.15452209965434194 403.67086590798857 0.74610660530228368 441.82940856118313 109.50000000000001 109.50000000000001 19.853094197551886 143.50000000000003 236.39576741080506 156.80715811965814 0.68195482395416629 539.56250000000011 572.67903099686475 72.521559279254021 0.57066827745296911 0.14566568768111779 355.00000000000006 1621.2604985266025 0.65188404657016996 4.5000000000000009 0.17761155084885888 108.76923076923077 50.141065941551332 332.4586971697305 0.63010568859014471 0.080475151829109567 50.500000000000007 0.35405530335867036 0.22570208471898948 0.15725515502985388 72355.000000000015 388.00000000000006 0.096286048747995664 14.999062617172855 141.15178668179141 0.21633950556535284 0.18162365866121613 300.84093010158 42682.500000000007 316.50000000000006 639.85937500000011
decision_type=2 2 2 2 2 2 2 2 2 2 2 2 2 2 2 2 2 2 2 2 2 2 2 2 2 2 2 2 2 2 2 2 2 2 2 2 2 2 2 2 2 2 2 2
left_child=2 10 43 4 8 12 11 15 -3 13 24 -7 -5 -4 -11 17 -17 -6 19 28 21 22 -20 -22 25 -2 27 -10 -18 -30 31 32 -14 -33 -34 -21 -12 -38 39 40 41 -39 -43 -1
right_child=1 3 9 5 7 6 -8 -9 26 14 36 -13 30 -15 -16 16 18 -19 20 35 23 -23 -24 -25 -26 -27 -28 -29 29 -31 -32 33 34 -35 -36 -37 37 38 -40 -41 -42 42 -44 -45
leaf_value=-0.014867396164795441 0.0062507528660757728 0.0019742516137902628 -0.0081148294552209291 0 0.0024421513621578801 0 -0.0035370703378535505 -0.0015619992893320001 0.05269226357892913 -0.0052065694900510209 -0.00063091202338885896 0.040400980273929722 0.034257455890893795 -0.0013652055463292078 0.0017805272905941456 -0.0054385544659463839 0.013630854105263155 0.044119646979811161 0.0094390035686721004 0.042095309619829872 0.046252668091435231 0.022959244588586652 0.071374015061150514 0.0045711939333320821 -0.006972013674172794 -0.01008122602844622 0.00010723750371565033 0.016008441335601167 0.0052382986802040803 -0.021297763677860598 0.0022265596587863752 0.019993275341432321 -0.013362247958513577 0.060142032442186084 0.022004313078456322 0 0.029649281581347425 0.0069132758010473751 0 -0.0027078722027859981 0.00510346486100166 0.038645068215387553 0 -0.0096804937227837288
leaf_weight=376 348 129 394 7.9999999999999991 10.999999999999998 5.0000000000000027 31 18 9.9999999999999982 226 29 19 100 400 708 15.999999999999998 28 42 7.0000000000000027 22.000000000000004 7.9999999999999991 43 19 35 65 31 22 46 15.000000000000002 14.999999999999998 9.9999999999999982 14.999999999999998 11.000000000000002 33 15.999999999999998 4.9999999999999991 26 23 68 18 42 41 11.999999999999998 963
leaf_count=376 348 129 394 8 11 5 31 18 10 226 29 19 100 400 708 16 28 42 7 22 8 43 19 35 65 31 22 46 15 15 10 15 11 33 16 5 26 23 68 18 42 41 12 963
internal_value=0 0.0133793 -0.00612117 0.0203413 0.0165571 0.0275196 0.0104278 0.0222272 0.00843876 -0.00215677 0.00596219 0.0303776 0.0320233 -0.00479346 2.38036e-05 0.0240579 0.0205041 0.0367295 0.0229225 0.0137155 0.0292413 0.0373937 0.0576749 0.0143716 0.00288461 0.00474135 0.018254 0.0242437 0.00236136 -0.00632307 0.0334466 0.0348771 0.0286783 0.0493345 0.00550487 0.035219 0.0109861 0.0127034 0.010149 0.0150936 0.0183052 0.0247048 0.0311133 -0.011189
internal_weight=0 1442 3067 739 491 248 55 284 207 1728 703 24 193 794 934 266 213 53 197 85 112 69 26 43 444 379 78 56 58 30 185 175 127 48 27 27 259 230 204 136 118 76 53 1339
internal_count=4509 1442 3067 739 491 248 55 284 207 1728 703 24 193 794 934 266 213 53 197 85 112 69 26 43 444 379 78 56 58 30 185 175 127 48 27 27 259 230 204 136 118 76 53 1339
is_linear=0
shrinkage=0.075


Tree=15
num_leaves=45
num_cat=0
split_feature=13 17 24 13 16 24 19 17 24 13 17 24 19 10 1 24 7 16 9 7 1 9 17 17 24 24 13 7 20 10 19 9 10 1 9 10 16 13 6 17 19 9 24 10
split_gain=57.7434 16.5523 6.20714 3.34256 3.19909 3.04066 1.98453 1.88594 2.70136 3.41999 1.81032 2.28337 1.70237 1.89545 1.89962 1.87272 1.64384 1.34959 2.14812 2.97356 2.13686 1.28003 1.99636 4.4316 4.22434 2.95445 1.78599 1.24003 1.20404 1.17633 1.60732 1.18356 1.39932 1.16462 1.11386 1.09228 1.0297 1.00917 1.34966 1.00098 1.51039 1.28754 1.22124 0.998698
threshold=3.4811217321331038 39.04344512195123 50.141065941551332 3.6505739029280164 145.75000000000003 35.021177259384636 328935.00000000006 124.29394400580166 127.78802747791954 3.3497501700808394 146.74187172639071 15.790185221455982 198955.00000000003 0.035643704121964957 960.00000000000011 127.78802747791954 0.78328389024970202 649.06250000000011 0.73442775076655431 0.64334866709132876 810.50000000000011 0.88548951048951052 1525.103264246811 572.67903099686475 281.72976448838523 121.39633416229161 4.7957563937576522 0.6267135651055834 14.385746606380874 0.18061829658467224 110175.00000000001 0.70268262788037272 0.15841651122723585 618.50000000000011 0.41473957884680146 0.079118338154482701 669.25000000000011 1.4978661367769956 37.722222222222229 386.10534594776391 88182.500000000015 0.66663539712320208 17.460899399558482 0.1784995340167754
decision_type=2 2 2 2 2 2 2 2 2 2 2 2 2 2 2 2 2 2 2 2 2 2 2 2 2 2 2 2 2 2 2 2 2 2 2 2 2 2 2 2 2 2 2 2
left_child=1 5 27 -4 -5 37 12 17 10 -10 11 -9 13 -6 15 16 34 -3 36 20 -20 22 23 -8 26 -24 -25 -2 -14 31 -31 32 -12 -7 -15 -35 -19 -1 -39 40 41 -29 -43 -36
right_child=2 7 3 4 6 33 21 8 9 -11 29 -13 28 14 -16 -17 -18 18 19 -21 -22 -23 25 24 -26 -27 -28 39 -30 30 -32 -33 -34 35 43 -37 -38 38 -40 -41 -42 42 -44 -45
leaf_value=-0.011106634588539804 0.017741055581632102 -0.0041199685199835882 0.043818509307303265 -0.002520486198540475 0.0034140558466047442 -0.0057636833260971019 0.017751291471323549 -0.0029504406832533748 0.057808555072952267 -0.006432437046004871 0.00092755719835231024 0.017191969699660085 -0.003218471580309377 0 0 0.0095461547143908948 0 0.028581057261761106 0.06349003230274429 0.0050722863476432541 0 0.0067357923391350881 0 0.08617439034127776 0.0019751607192652282 0.033522368033158854 0.030835531865498148 0 0.033372565582548856 0.0013319634232980982 0.027758967206666683 -0.0076720742364032824 0.038741313973075356 0.031719814627402004 0.03285940355146303 0.003714760213208474 -0.00066867718783672589 0.0081925621007151381 -0.0077867970675322487 -0.0048923299897976145 2.0075165407217361e-06 0 0.026783538418732253 0.016758505314967389
leaf_weight=1120 56 381 40 29 45 49 33 39 10.999999999999998 4.9999999999999991 248 101 32 4.9999999999999991 26 57 10.999999999999998 5.9999999999999991 8.9999999999999982 101 6.9999999999999991 20 29 21.000000000000004 7.9999999999999991 39 9.9999999999999982 25 4.9999999999999991 49 20 96 4.9999999999999991 9.9999999999999982 151 60 650 27 630 43 91 8.9999999999999982 43 49
leaf_count=1120 56 381 40 29 45 49 33 39 11 5 248 101 32 5 26 57 11 6 9 101 7 20 29 21 8 39 10 25 5 49 20 96 5 10 151 60 650 27 630 43 91 9 43 49
internal_value=0 -0.00401159 0.0174268 0.0216528 0.0199351 -0.00885293 0.0212496 0.00126797 0.00478688 0.03487 0.00377034 0.0111772 0.0178113 0.0194677 0.0216717 0.0235221 0.0268897 -0.000433374 0.00130988 0.0106499 0.0404397 0.0289417 0.0316393 0.0412839 0.0589615 0.0202109 0.071396 0.00751615 0.000765277 0.00113228 0.0100658 -0.000484308 0.0020263 0.002348 0.0284013 0.00885982 -0.000277081 -0.00963689 -0.00703137 0.00446761 0.00722433 0.0149147 0.0215629 0.0292903
internal_weight=0 3624 877 610 570 1896 541 1728 574 16 558 140 381 344 299 273 216 1154 773 117 16 160 140 72 39 68 31 267 37 418 69 349 253 119 205 70 656 1777 657 211 168 77 52 200
internal_count=4501 3624 877 610 570 1896 541 1728 574 16 558 140 381 344 299 273 216 1154 773 117 16 160 140 72 39 68 31 267 37 418 69 349 253 119 205 70 656 1777 657 211 168 77 52 200
is_linear=0
shrinkage=0.075


Tree=16
num_leaves=45
num_cat=0
split_feature=13 23 17 23 17 12 11 12 18 0 12 23 18 7 13 21 13 12 0 18 18 13 9 13 1 12 13 12 13 9 9 3 21 13 9 17 17 12 9 12 17 17 0 20
split_gain=49.7679 20.102 10.9228 6.52883 2.85696 2.82421 3.9504 3.38627 2.39314 2.04714 2.02195 1.92704 1.91348 2.39318 1.90337 1.88227 1.81379 1.50494 1.51922 1.52315 1.49745 1.7776 2.59085 1.80738 1.47539 1.39118 2.21282 3.43934 1.70175 1.367 1.29456 1.18278 1.28126 1.63943 1.56271 1.1151 2.4691 2.56744 1.4525 2.38498 2.00917 1.52924 1.12849 1.11875
threshold=3.4811217321331038 110.06521739130436 39.974967927051239 139.25000000000003 644.70396954435512 0.25423856119493982 4.5000000000000009 0.28459274673008322 0.23112495366472388 1153.4230769230771 0.62731481481481499 46.500000000000007 0.15512111137269693 0.56357967831077738 3.5972184255501678 14.79945856526475 2.3502401828962087 0.32087924701561071 403.00000000000006 0.1259652770331102 0.38273220621422616 4.8081027000528378 0.40029097963142585 5.0106130713801926 11.500000000000002 0.50338368491360974 0.89587973461402759 0.38203207824629803 1.4978661367769956 0.41473957884680146 0.7371786877295089 87.928571428571445 14.927362991985449 4.2121001622835372 0.55212152382351876 124.29394400580166 143.95246482838778 0.33396345305608066 0.71996262430916491 0.29818594104308388 187.15813865761325 253.17469855385974 318.50000000000006 12.018869991580237
decision_type=2 2 2 2 2 2 2 2 2 2 2 2 2 2 2 2 2 2 2 2 2 2 2 2 2 2 2 2 2 2 2 2 2 2 2 2 2 2 2 2 2 2 2 2
left_child=1 11 5 30 12 -3 25 -8 17 20 15 -1 14 -14 -5 35 -17 29 -19 -20 21 22 -10 -23 -24 26 -7 -28 -29 -6 -2 -16 -33 34 -34 -4 -37 38 39 40 -38 42 -42 -44
right_child=3 2 10 4 8 6 7 -9 9 -11 -12 -13 13 -15 31 16 -18 18 19 -21 -22 23 24 -25 -26 -27 27 28 -30 -31 -32 32 33 -35 -36 36 37 -39 -40 -41 41 -43 43 -45
leaf_value=-0.013256741159066188 0.0023792244048519307 -0.011351882062452003 0.0016558163788476584 0.045081305241136536 0 -0.017159175940981465 0.003081323676315373 0.047935703829450525 0 0.087181335067526886 0.05037957919958215 -0.0071787850443611129 0.030640373494026395 0.006735092864445096 0.006998396564888181 -0.0015567759616887888 0.014361258240468135 -0.00077290782499515149 0.007213309693993409 0.054107588965839337 0 0 0.0045171672543877113 0.032446304716457881 0.065134826673014179 0.0044527771967633172 -0.0068531539601579547 0.027467121059508021 0.0019054187182809539 0.025183558132954562 -0.017465528210205184 0.012445274011441354 0 0.0051748110501714855 0.042905121967992725 0.019227486653496984 0.019868745631920568 -0.010409754936982001 -0.0022179021053275296 0.052967209357858133 -0.013536066236023714 0.015098696380279115 -0.00089513581539532757 0.029975440020000643
leaf_weight=819 70 316 737 18 8.9999999999999982 83 36 13.999999999999998 5.9999999999999991 4.9999999999999991 4.9999999999999991 553 28 233 62 43 185 35 20.000000000000004 5.9999999999999991 7.9999999999999991 12.999999999999998 5.0000000000000027 20 24 79 328 23 54 160 23 68 6.9999999999999991 17 40 74 55 56 57 6.9999999999999991 37 32 24.000000000000004 6.9999999999999991
leaf_count=819 70 316 737 18 9 83 36 14 6 5 5 553 28 233 62 43 185 35 20 6 8 13 5 20 24 79 328 23 54 160 23 68 7 17 40 74 55 56 57 7 37 32 24 7
internal_value=0 -0.00369951 0.000636287 0.0162032 0.0184383 -0.00554144 -0.00245938 0.0173554 0.0243279 0.0363849 0.0050515 -0.0108555 0.0144071 0.00961018 0.0199776 0.00480379 0.0111065 0.0197155 0.00793022 0.0215209 0.0314064 0.0349785 0.0479912 0.0186276 0.0570618 -0.00433242 -0.00588015 -0.00339425 0.0105014 0.023565 -0.0020067 0.0171711 0.0214346 0.0298058 0.0372469 0.00341915 0.00696209 0.00340187 0.00722672 0.0109065 0.00836772 0.00135036 -0.00436241 0.00479755
internal_weight=0 3624 2252 877 784 933 617 50 311 81 1319 1372 473 261 212 1314 228 230 61 26 76 68 35 33 29 567 488 405 77 169 93 194 132 64 47 1086 349 275 219 162 155 100 68 31
internal_count=4501 3624 2252 877 784 933 617 50 311 81 1319 1372 473 261 212 1314 228 230 61 26 76 68 35 33 29 567 488 405 77 169 93 194 132 64 47 1086 349 275 219 162 155 100 68 31
is_linear=0
shrinkage=0.075


Tree=17
num_leaves=45
num_cat=4
split_feature=15 25 25 13 13 23 17 15 23 15 13 25 13 23 23 3 5 23 15 25 13 13 17 2 21 15 17 13 21 13 21 13 11 15 13 13 23 23 2 3 0 13 17 0
split_gain=43.923 39.4101 19.1435 24.4263 17.6347 5.15581 3.78058 3.34627 3.20588 3.47901 3.00309 2.81431 3.10494 2.51517 2.4846 2.21998 2.20246 1.82104 1.73051 1.68264 2.12151 1.656 1.41559 1.32843 1.18356 1.06239 1.01356 0.983159 0.945931 2.27738 0.945415 0.922402 0.920261 0.896468 0.802527 0.759431 0.756235 0.732952 1.01723 0.845311 0.727625 0.677969 0.680818 0.661656
threshold=3.3164535822552215 0 1 2.4414009612931857 3.4811217321331038 86.250000000000014 17.021304335308113 4.3788955132950145 104.16666666666667 2.2313350616904049 2.9700856263602158 2 4.0342014792848504 543.25000000000011 84.166666666666671 153.50000000000003 503.16666666666669 46.500000000000007 1.3704200119626007 3 3.2769667020129059 2.740319461670996 300.84093010158 760.50000000000011 13.830388022284048 2.3087963529933249 219.87047874710183 3.4175922930736511 14.633083321856185 3.6242520361853052 16.101903883287196 3.8176519431297078 6.5000000000000009 1.3381507513938151 4.1026092131977068 4.7578820629520608 185.80000000000004 751.09523809523819 833.50000000000011 45.125000000000007 1503.0000000000002 4.983512786670059 1056.9362299059753 268.50000000000006
decision_type=2 1 1 2 2 2 2 2 2 2 2 1 2 2 2 2 2 2 2 1 2 2 2 2 2 2 2 2 2 2 2 2 2 2 2 2 2 2 2 2 2 2 2 2
left_child=2 4 3 6 14 -5 33 15 -4 -10 18 12 16 24 -2 -6 27 25 -7 30 23 40 26 -21 -12 -8 -17 -3 34 -30 -11 -29 37 -1 -22 -13 -35 39 -39 -16 -18 42 -14 -20
right_child=1 11 8 5 7 10 17 -9 9 19 13 35 41 -15 32 22 21 -19 43 20 28 -23 -24 -25 -26 -27 -28 31 29 -31 -32 -33 -34 36 -36 -37 -38 38 -40 -41 -42 -43 -44 -45
leaf_value=-0.010850402904513497 -0.0071236735182048771 -0.011235501249047746 -0.012360054799349063 -0.012348406203744817 0.042018792318917003 -0.017731765672573275 -0.014953443008476643 0.060913520378785765 -0.01064983469656997 -0.011390709313120438 0.024581395709136006 -0.0096941751614163848 0.013420986566499484 0.010799667544324331 0 0 0.057162396304355649 0.0044385741841557833 0 -0.0077922210501392194 -0.00062080601060657942 0.0032732964368420866 -0.0045055610168354566 0.00026870836290892903 0.046092688425137703 0 0.038136853229942515 0.010792850245554625 0.038658138801749141 0.0045980040530573417 0.014038445885617147 -0.006875890699057462 0.026668236009417527 -0.0065951997071956002 0.024119082195856335 0.0010259899950716557 0.00072802627739344686 0.029499944503103205 0 0.013883515551855375 0.0017819805429403817 0.02337788403489529 0.00095536718467018197 0.018855571205808403
leaf_weight=219 21 96 774 22 136 5.9999999999999991 47 66 554 150 45 157 75 33 34 7.0000000000000062 4.9999999999999982 387 13.999999999999998 212 89 58 8.9999999999999982 221 61 44 12.999999999999998 28 14.999999999999998 57 5.9999999999999991 38 63 226 6.9999999999999991 36 101 32 5.9999999999999991 92 5 30 53 151
leaf_count=219 21 96 774 22 136 6 47 66 554 150 45 157 75 33 34 7 5 387 14 212 89 58 9 221 61 44 13 28 15 57 6 38 63 226 7 36 101 32 6 92 5 30 53 151
internal_value=0 0.0135326 -0.00392203 0.0029854 0.0291414 0.0206802 -0.00267655 0.0447727 -0.00841599 -0.00610059 0.0232395 3.89125e-05 0.00379888 0.0318819 0.0154193 0.0376994 -0.00144097 0.00209831 0.0157561 -0.00268581 -0.000675108 0.00947727 0.0148832 -0.00354915 0.0377638 -0.00716422 0.0262813 -0.00640997 0.00632495 0.0128488 -0.00937264 0 0.0177812 -0.00696152 0.000757639 -0.00703154 -0.00415717 0.0138972 0.0242522 0.0101767 0.0371056 0.012006 0.00875495 0.0174087
internal_weight=0 1060 3441 1356 479 332 1024 231 2085 1311 310 581 388 139 248 165 230 478 171 757 601 68 29 433 106 91 20 162 168 72 156 66 227 546 96 193 327 164 38 126 10 158 128 165
internal_count=4501 1060 3441 1356 479 332 1024 231 2085 1311 310 581 388 139 248 165 230 478 171 757 601 68 29 433 106 91 20 162 168 72 156 66 227 546 96 193 327 164 38 126 10 158 128 165
cat_boundaries=0 1 2 3 4
cat_threshold=176 48 265 65
is_linear=0
shrinkage=0.075


Tree=18
num_leaves=45
num_cat=5
split_feature=15 25 13 25 13 12 12 13 12 15 12 12 20 13 22 25 25 15 12 12 13 12 22 12 22 3 12 22 21 25 12 13 22 3 9 20 15 22 12 12 12 10 3 13
split_gain=37.9699 33.1768 17.1196 14.5568 18.2817 4.22198 3.59845 4.29791 4.18288 3.48369 3.17809 3.74542 3.09337 3.0267 2.52399 2.48459 2.12696 2.09325 2.08295 2.39416 2.02129 2.24212 1.96751 1.85057 1.73164 1.71499 1.68285 1.55199 1.54447 1.53957 2.59394 1.89506 1.64943 1.47873 1.42898 1.35868 1.33706 1.67409 1.29308 1.23586 1.21246 1.17972 1.05199 1.05069
threshold=3.1909873171337018 0 3.4811217321331038 1 2.4414009612931857 0.63103934384211213 0.25423856119493982 1.2424533248940004 0.61154875148632593 4.3788955132950145 0.37934911242603558 0.61154875148632593 12.811153048558774 3.9796379800581989 3.4583333333333339 2 3 2.2578278393901718 0.37403388822829969 0.28062500000000007 3.1567740231385479 0.21292186088459883 3.5530487804878055 0.24049861495844874 4.1930952380952382 153.50000000000003 0.28962809917355375 3.9483333333333337 14.79945856526475 4 0.23812063233750438 2.6735537653587347 3.8133928571428575 31.500000000000004 0.7864055299539171 14.87991507286282 1.2345791464099307 3.2900000000000005 0.36723536487072977 0.5151020408163266 0.32764274691358031 0.010746274903733402 121.50000000000001 1.4978661367769956
decision_type=2 1 2 1 2 2 2 2 2 2 2 2 2 2 2 1 1 2 2 2 2 2 2 2 2 2 2 2 2 1 2 2 2 2 2 2 2 2 2 2 2 2 2 2
left_child=3 2 14 4 6 13 -1 8 39 25 18 36 17 42 -2 40 20 26 19 -9 27 -22 -19 -14 34 -4 -6 -5 -23 30 -16 -32 -31 -34 -25 41 -12 -38 -24 -8 -15 -17 -3 -29
right_child=1 5 9 16 12 -7 7 10 -10 -11 11 -13 23 15 29 35 -18 22 -20 -21 21 28 38 24 -26 -27 -28 43 -30 32 31 -33 33 -35 -36 -37 37 -39 -40 -41 -42 -43 -44 -45
leaf_value=-0.0094968929055629127 -0.0066244976341482218 -0.0080114484495725866 0.037488411714469309 -0.010813896008986234 0.0060978025735180753 0.058468702076449157 -0.011489420861811608 -0.0032441497749457386 0.031416099329402751 0.056399448914541211 0 -0.022159531396731224 0.010717790963879948 0.018499179241186412 0.0050071062316994807 -0.020794890523781768 -0.010464297216436566 -0.013193190335031794 -0.016514323949242092 0.010469671041855529 0.026433044717063578 -0.0078549099988160422 0.01541132709213066 0.04334960136296373 0 0.014999848300464823 -0.026738930198090156 -0.0083987777437558777 0.0098506292250399585 -0.005649702905208785 0.019923390568509423 0.048050790867590003 -0.001298284472053585 0.015870786492246752 0 0.01807626726815114 0 0.029863011238828233 0.043418613599954088 0 0 -0.00045988044752457758 0 -0.00068163222104006651
leaf_weight=304 28 248 140 315 30 5.9999999999999991 217 134 13.999999999999998 66 9.9999999999999982 9.9999999999999982 32 87 33 20 1088 8.9999999999999982 31 142 19 70 122 61 8.9999999999999982 35 10.999999999999998 168 44 29 46 32 28 130 5.9999999999999991 15.999999999999998 7.9999999999999991 68 12.999999999999998 61 22 101 156 288
leaf_count=304 28 248 140 315 30 6 217 134 14 66 10 10 32 87 33 20 1088 9 31 142 19 70 122 61 9 35 11 168 44 29 46 32 28 130 6 16 8 68 13 61 22 101 156 288
internal_value=0 0.0113724 0.0244308 -0.00410438 0.00206947 -0.000209282 -0.00269771 0.000199065 -0.00663077 0.0401177 0.00529704 0.0172035 0.0185578 -0.000915573 0.0133318 0.00551988 -0.00810722 0.0120271 0.00134745 0.00360836 -0.00511592 0.00305272 0.0163141 0.029033 0.035786 0.0334143 -0.00164309 -0.0066694 -0.000486754 0.0154168 0.0229509 0.0325798 0.00885868 0.0124657 0.0399289 -0.0011885 0.022621 0.0260054 0.0187811 -0.00884247 0.0133301 -0.00441898 -0.00498297 -0.00366352
internal_weight=0 1223 567 3284 1292 656 999 695 292 241 403 96 293 650 326 246 1992 185 307 276 904 133 144 108 76 175 41 771 114 298 111 78 187 158 67 137 86 76 135 278 109 121 404 456
internal_count=4507 1223 567 3284 1292 656 999 695 292 241 403 96 293 650 326 246 1992 185 307 276 904 133 144 108 76 175 41 771 114 298 111 78 187 158 67 137 86 76 135 278 109 121 404 456
cat_boundaries=0 1 2 3 4 5
cat_threshold=176 48 264 136 16
is_linear=0
shrinkage=0.075


Tree=19
num_leaves=45
num_cat=6
split_feature=15 25 13 25 13 25 17 23 23 17 23 15 25 22 17 10 22 3 13 23 25 22 10 25 7 6 10 5 23 23 15 22 13 23 10 1 15 22 15 9 22 23 5 10
split_gain=32.6258 30.2823 14.0306 12.9441 17.18 5.5307 6.1157 4.4069 3.40969 2.95805 2.42574 2.48157 2.24188 3.64409 2.18225 2.1351 2.09531 2.01648 2.00704 1.58058 1.47814 1.45702 1.44514 1.44231 2.87504 1.46794 1.42062 1.42982 2.05694 1.31144 1.30561 1.20451 1.20442 1.19976 1.1545 1.0177 0.998037 0.938262 0.929666 0.920704 0.895189 0.790829 1.06042 1.01108
threshold=3.2700412904169318 0 3.795426061844291 1 2.4414009612931857 2 802.7396177699917 153.16666666666671 46.500000000000007 165.8787985515701 110.06521739130436 2.2313350616904049 3 4.1930952380952382 96.963272513030276 0.057872988255763307 3.726136363636364 196.62500000000003 2.0126758453675748 160.42553191489364 4 4.4875000000000016 0.10998487824421511 5 0.58925235753282512 183.50000000000003 0.1319886560944554 170.50000000000003 265.05263157894746 318.21428571428578 2.7286611583730016 4.1930952380952382 3.2769667020129059 468.48148148148158 0.13919319731145499 17.000000000000004 3.5990216639628394 4.0980000000000016 1.3704200119626007 0.52612872300305125 3.8133928571428575 125.10000000000001 195.50000000000003 0.059138403562863956
decision_type=2 1 2 1 2 1 2 2 2 2 2 2 1 2 2 2 2 2 2 2 1 2 2 1 2 2 2 2 2 2 2 2 2 2 2 2 2 2 2 2 2 2 2 2
left_child=3 2 9 4 8 6 16 22 -1 39 -5 -12 13 14 -9 -16 -3 -14 38 -11 26 23 -6 24 30 32 27 35 -29 -4 -13 41 -25 -20 -35 -7 -22 -27 -10 -2 -30 -18 43 -43
right_child=1 5 29 10 7 20 -8 12 18 19 11 21 17 -15 15 -17 31 -19 33 -21 36 -23 -24 25 -26 37 -28 28 40 -31 -32 -33 -34 34 -36 -37 -38 -39 -40 -41 -42 42 -44 -45
leaf_value=-0.0094873981390822659 -0.0036797709709854788 -0.011222609178424678 0.02951333737916647 -0.010704542964194416 -0.019008164831291707 0.010989551237929931 0.029086194484131727 0.019488979144076223 -0.0063512827923740351 0 -0.0090578175754724849 0.033083807827753678 0.0041945330218039721 0 0.0071969934823493632 0.050933724008786964 -0.00085746690062072544 0.024316739860659981 0.0036802218460907539 0.032414717648359292 -0.014636984618478385 -0.016687097571194798 0.0067140639960250438 -0.0032148492465178279 -0.013711594942834299 0.021528200258136284 -0.0041320793722715975 0 0 0.058784928886657796 0 -0.00017813310628255705 0.0048786314030766316 0.030669517526743191 0 -0.008385320052095243 -0.0029287659417454614 0 0 0.013909180326349808 0.028447039638465232 0.019436604791344445 0.019463236170416967 -0.0063276921448371833
leaf_weight=285 12.999999999999998 38 23 783 19 22 76 43 183 8.9999999999999982 548 10.000000000000002 92 17 10.999999999999998 58 14.999999999999998 47 136 96 74 37 28 350 114 28 135 30 5.9999999999999991 81 14.999999999999998 60 143 21 10.999999999999998 42 130 22 380 133 37 11.999999999999998 72 22
leaf_count=285 13 38 23 783 19 22 76 43 183 9 548 10 92 17 11 58 15 47 136 96 74 37 28 350 114 28 135 30 6 81 15 60 143 21 11 42 130 22 380 133 37 12 72 22
internal_value=0 0.0111459 0.0289024 -0.00358921 0.00214207 0.00246591 0.0103904 0.0174616 -0.00253849 0.0196342 -0.00731326 -0.00522325 0.0211954 0.0288124 0.0359147 0.0449674 0.00402507 0.0107508 9.75508e-05 0.0296191 -0.0024457 -0.00221198 -0.00259431 -0.00132179 -0.00784679 0.000386337 0.00101594 0.0065849 0.0137638 0.0531473 0.0131675 0.00758562 -0.000743786 0.0073472 0.0206668 -0.000762244 -0.00715474 0.012603 -0.00196851 0.01193 0.0241536 0.0118954 0.014245 0.00130804
internal_weight=0 1126 355 3381 1331 771 295 315 1016 251 2050 1267 268 129 112 69 219 139 731 105 476 719 47 682 139 543 272 137 73 104 25 181 493 168 32 64 204 50 563 146 43 121 106 34
internal_count=4507 1126 355 3381 1331 771 295 315 1016 251 2050 1267 268 129 112 69 219 139 731 105 476 719 47 682 139 543 272 137 73 104 25 181 493 168 32 64 204 50 563 146 43 121 106 34
cat_boundaries=0 1 2 3 4 5 6
cat_threshold=48 48 384 16 9 65
is_linear=0
shrinkage=0.075


Tree=20
num_leaves=45
num_cat=5
split_feature=15 25 24 25 13 25 23 13 24 13 24 25 13 6 16 23 15 25 15 10 13 8 24 23 24 16 3 23 8 3 15 7 6 15 15 19 6 19 16 19 16 4 8 19
split_gain=27.8893 26.043 12.0486 11.1374 14.7951 4.76361 3.89662 3.80075 3.2528 2.45544 2.36742 2.21415 2.70115 2.17151 1.75064 1.66876 1.65592 1.64457 1.54286 1.43047 1.39328 1.49176 1.30459 1.29619 1.20516 1.16961 1.16044 1.51753 1.15194 1.12921 0.951618 0.951457 0.907223 0.863235 0.828115 1.24116 0.817349 0.810902 0.808331 0.760754 0.738713 0.738008 0.728179 0.731554
threshold=3.2700412904169318 0 55.542844215240414 1 2.4414009612931857 2 86.250000000000014 3.9796379800581989 17.805483121844514 3.795426061844291 55.542844215240414 3 3.2769667020129059 8.5000000000000018 455.81250000000006 36.583333333333336 2.3453871616401201 4 1.3704200119626007 0.18505028004656746 1.4978661367769956 0.10771061604992056 45.260317956483945 38.500000000000007 26.662865000568733 430.60714285714295 101.62500000000001 122.18750000000001 0.14619526990037349 238.50000000000003 2.4796709998543531 0.75034965090253036 1.0000000180025095e-35 3.5990216639628394 4.2652860220531688 121264.50000000001 66.500000000000014 690128.00000000012 572.86931818181836 52684.500000000007 1800.3125000000002 1068.5000000000002 0.23067587752053767 28258.000000000004
decision_type=2 1 2 1 2 1 2 2 2 2 2 1 2 2 2 2 2 1 2 2 2 2 2 2 2 2 2 2 2 2 2 2 2 2 2 2 2 2 2 2 2 2 2 2
left_child=3 2 29 4 8 7 -6 26 16 -4 14 -5 23 -12 -8 -10 -1 38 -16 20 -17 -22 24 -13 42 -19 -3 -28 -20 -2 -25 32 -11 -7 -9 -36 -26 39 -14 -30 -40 -29 43 -23
right_child=1 5 9 11 6 33 10 34 15 31 13 12 17 -15 18 19 -18 25 28 -21 21 22 -24 30 36 -27 27 41 37 -31 -32 -33 -34 -35 35 -37 -38 -39 40 -41 -42 -43 -44 -45
leaf_value=-0.0076159576148182168 0.017872794775189958 -0.0018396071185234478 0.028284145421686183 -0.016828939321249979 -0.013017194554931661 -0.0099242901321650607 -0.0058579085855941975 0.011111588450926682 -0.012064138959152683 0.022538185407268312 0 -0.011048236870445181 -0.0016532645786482109 0.03633124484338577 -0.017811933909513935 -0.00073209400704816422 0.00025078212023985677 0.013470648254007705 0.0059723283288455071 -0.0052203421397004303 -0.0094342711608968715 0 0.025450676358492474 -0.0073667877873855054 -0.0073731559755262233 -0.0067889697969150094 -0.0060077623571866247 0.015700765971130837 0.012795224170025989 0 -0.0027778372036706615 0.0089003974431289736 0.059705212931361586 -0.0014142742441105984 0.0035630472899466324 0.031362234086657483 0.008436598667229768 0 0.01481728730997864 0.027340623716842382 -0.0063094525992116058 0 0 0.02739705751829621
leaf_weight=493 189 164 51 119 21 113 18 100 31 10.999999999999998 10.999999999999998 398 22 62 4.9999999999999991 63 196 15.999999999999998 52 50 13.999999999999998 10.999999999999998 43 854 28 127 28 75 56 26 434 5.9999999999999991 72 215 18 44 44 4.9999999999999991 74 85 5.9999999999999991 13.999999999999998 10.999999999999998 32
leaf_count=493 189 164 51 119 21 113 18 100 31 11 11 398 22 62 5 63 196 16 52 50 14 11 43 854 28 127 28 75 56 26 434 6 72 215 18 44 44 5 74 85 6 14 11 32
internal_value=0 0.0103119 0.0267794 -0.00331167 0.00200203 0.00225713 0.0162202 0.00730957 -0.00233774 0.0448486 0.0185381 -0.00676664 -0.00602606 0.0309465 0.0140772 0.00371107 -0.00529494 0.00109219 0.0161501 0.00558975 0.00803554 0.0113647 0.0134711 -0.00713114 0.00878376 -0.00378684 0.00194583 0.00772894 0.0173721 0.0158592 -0.00586892 0.0533492 0.0557438 -0.00440823 0.0166452 0.0243777 0.00146517 0.0209763 0.00806595 0.0220837 0.0124566 0.012722 0.017303 0.021636
internal_weight=0 1126 355 3381 1331 771 315 443 1016 140 294 2050 1931 73 221 327 689 245 203 296 246 183 169 1686 126 143 281 117 198 215 1288 89 83 328 162 62 72 146 102 141 80 89 54 43
internal_count=4507 1126 355 3381 1331 771 315 443 1016 140 294 2050 1931 73 221 327 689 245 203 296 246 183 169 1686 126 143 281 117 198 215 1288 89 83 328 162 62 72 146 102 141 80 89 54 43
cat_boundaries=0 1 2 3 4 5
cat_threshold=48 48 392 64 384
is_linear=0
shrinkage=0.075


Tree=21
num_leaves=45
num_cat=5
split_feature=15 25 11 25 11 12 12 12 23 23 12 11 12 12 25 11 25 23 12 11 12 23 15 12 12 23 12 12 12 15 19 9 18 9 21 11 25 21 12 23 3 10 12 12
split_gain=23.8466 21.8612 11.7068 9.28901 10.9074 9.25605 3.63813 3.32398 2.46085 2.54713 2.45768 3.16575 3.94394 1.87602 1.87179 2.0684 1.85899 1.7324 1.50986 1.44006 2.58533 1.42097 1.35071 1.34902 1.33674 1.33122 1.30607 1.28586 1.24636 1.21885 2.57181 1.1563 1.12831 0.970406 1.33375 0.903069 0.867339 1.35217 0.865844 0.821876 0.821125 0.805808 0.782219 0.767329
threshold=3.1909873171337018 0 6.5000000000000009 1 5.5000000000000009 0.22856827916351721 0.63103934384211213 0.22797501643655488 50.750000000000007 524.16666666666686 0.25423856119493982 3.5000000000000004 0.28459274673008322 0.34223511080332408 2 7.5000000000000009 3 158.19642857142858 0.35953443877551022 2.5000000000000004 0.50338368491360974 55.250000000000007 4.3788955132950145 0.18583703703703702 0.22446772110683103 30.500000000000004 0.37614142742347872 0.37934911242603558 0.25476995531940588 2.9925974670471938 69604.000000000015 0.82712544477250372 0.073017405643619415 0.62689265536723171 14.900677336751434 4.5000000000000009 4 15.149124924796885 0.20580578512396694 553.29185520362 58.500000000000007 0.12907656859269764 0.50029726516052331 0.35259259259259262
decision_type=2 1 2 1 2 2 2 2 2 2 2 2 2 2 1 2 1 2 2 2 2 2 2 2 2 2 2 2 2 2 2 2 2 2 2 2 1 2 2 2 2 2 2 2
left_child=3 2 17 4 10 23 14 -4 -7 18 -1 13 35 -12 15 24 21 -2 -10 20 -15 -5 -9 -6 -3 -14 -27 -21 -24 33 -31 43 -19 -23 39 -13 -18 -38 -34 -35 -11 -42 -40 -26
right_child=1 6 7 16 5 8 -8 22 9 40 11 12 25 19 -16 -17 36 32 -20 27 -22 29 28 -25 31 26 -28 -29 -30 30 -32 -33 38 34 -36 -37 37 -39 42 -41 41 -43 -44 -45
leaf_value=-0.0086679250557562728 0 0.0074584870434206887 0.018987925117496557 -0.0090907210066804977 -0.011569833176904989 -0.0078303279543030062 0.054101501307002121 0.031835062426081126 0.027782393388572205 -0.012082389904391141 -0.015079162423101557 -0.0070318706267107518 -0.0010398098314360431 -0.013669821004283706 -0.0064817535328689155 0.0100869984258691 -0.015806165163017191 -0.011900001156668042 0.056922221645544543 -0.001586587546393545 0.0030960075048432076 -0.0061304337512324402 0.0054044525772157731 0.0042123859085958009 -0.0032583949610693664 0.010813068495690614 0.028863616087459219 0.012445168516793823 0.055642870659876324 0.022541961184884031 -0.0043563361057999631 0.010011286217462837 -0.0051553200259499788 -0.00010611409875875814 0.013047326525336382 0.0045083247023730826 -0.0083236637065388017 0.0029110644898631588 0.016079051451114792 -0.012433770272432495 0.02146109966383072 0 0 -0.01503417515386565
leaf_weight=246 77 70 102 215 42 8.9999999999999982 5.9999999999999991 123 114 5.9999999999999991 75 99 21 110 221 123 111 6.9999999999999991 17 82 88 301 5.9999999999999991 104 164 96 41 58 44 33 42 25 7.9999999999999991 238 37 55 918 56 189 36 22 9.9999999999999982 11.999999999999998 46
leaf_count=246 77 70 102 215 42 9 6 123 114 6 75 99 21 110 221 123 111 7 17 82 88 301 6 104 164 96 41 58 44 33 42 25 8 238 37 55 918 56 189 36 22 10 12 46
internal_value=0 0.0090614 0.0196453 -0.0032045 0.00170925 0.0136459 -0.000333989 0.0311792 0.0250891 0.0272179 -0.0022034 0 0.00569117 -0.00430701 -0.000998763 0.00181064 -0.00641236 0.00923289 0.0323321 -0.00171293 -0.00593925 -0.00366358 0.037908 0 -0.00129262 0.0140456 0.0167784 0.00384537 0.0509539 -0.00192413 0.00681361 -0.00416571 0.0126678 -0.00309859 0 -0.00252756 -0.00858512 -0.00753807 0.0138136 -0.00197165 0.00776624 0.0134883 0.0148781 -0.00616454
internal_weight=0 1223 568 3282 1295 324 655 275 178 169 971 725 312 413 649 428 1987 293 131 338 198 902 173 146 305 158 137 140 50 687 75 235 216 612 311 154 1085 974 209 274 38 32 201 210
internal_count=4505 1223 568 3282 1295 324 655 275 178 169 971 725 312 413 649 428 1987 293 131 338 198 902 173 146 305 158 137 140 50 687 75 235 216 612 311 154 1085 974 209 274 38 32 201 210
cat_boundaries=0 1 2 3 4 5
cat_threshold=176 48 265 136 64
is_linear=0
shrinkage=0.075


Tree=22
num_leaves=45
num_cat=6
split_feature=14 25 25 14 25 25 17 22 14 20 25 22 17 25 22 11 7 14 16 16 7 22 20 9 17 9 17 20 21 0 21 20 22 0 21 5 20 22 0 16 16 22 22 3
split_gain=21.108 25.0178 11.1111 11.4467 6.24951 2.82534 4.26715 2.80814 2.49911 2.47076 1.99484 1.82873 1.73159 1.72444 1.68479 1.47353 1.74814 1.43406 1.39175 1.38559 1.32932 1.26453 1.24553 1.1891 1.18451 1.1744 0.946083 0.901508 0.900616 0.89043 0.872287 0.952969 0.852529 0.814884 0.799922 0.871672 0.776402 0.684272 0.681455 0.676661 0.662929 1.06348 0.95875 0.876839
threshold=0.80525442477876108 0 1 0.43639380530973454 2 3 100.33966907689337 3.7180645161290329 0.96515486725663713 11.465681078062891 4 3.8133928571428575 761.82158592152166 5 3.8133928571428575 5.5000000000000009 0.73223456779467189 0.52405973451327437 115.25000000000001 760.25000000000011 0.5287984111221451 4.0309523809523826 13.203446195942282 0.61527318637358286 18.833875258646177 0.62509968102073377 75.641677099609993 14.123135299578573 16.604484172374548 2112.0000000000005 14.949947468881613 13.292351268924572 4.0980000000000016 725.50000000000011 13.830388022284048 195.50000000000003 12.629414910425757 3.6100000000000008 679.50000000000011 494.50961538461542 546.50000000000011 4.0171568627450993 4.0980000000000016 147.50000000000003
decision_type=2 1 1 2 1 1 2 2 2 2 1 2 2 1 2 2 2 2 2 2 2 2 2 2 2 2 2 2 2 2 2 2 2 2 2 2 2 2 2 2 2 2 2 2
left_child=2 8 3 24 7 6 21 23 15 -8 14 -7 -9 25 -4 -2 -17 -16 -11 26 -20 29 -19 -3 -1 -6 -13 30 34 37 31 39 -22 -23 -15 -36 -26 -5 -34 -28 41 -27 -42 -44
right_child=1 4 10 5 13 11 9 12 -10 18 -12 19 -14 28 17 16 -18 22 20 -21 32 33 -24 -25 36 40 27 -29 -30 -31 -32 -33 38 -35 35 -37 -38 -39 -40 -41 42 -43 43 -45
leaf_value=-0.00446995332271763 0 0.017170247721489621 -0.007771889066989412 0.0010344174185467107 -0.0071989722914042173 -0.0055007037419403521 0 0.010514596012769255 0.062389142399431302 0 -0.0080340863794688255 -0.011150262560704803 0.026316845506780696 -0.0012732486904081458 -0.0038953754279351755 0.03563460417391167 0.012799964965759724 0.0058537290080463876 0 0.013883128329958973 0.04167563052661994 -0.019002745122252897 -0.0062192783948997734 -0.01582752146068098 -0.00049576102239785196 5.6129091507792538e-06 0 0.027458009227088104 0.0051377490158012783 -0.00013016260850029853 -0.012629147198994092 -0.0084403869453355262 0.027384735173869194 0.0040248978799663762 -0.023555770386055781 -0.007512610433586424 0.0089004832285004155 0.021822603899456134 0 0.021785462405808777 0.0071180463217668955 0.021341488553249927 -0.016630757068047834 0.0015131191598017296
leaf_weight=606 6.9999999999999991 6.0000000000000027 316 18 56 65 11.999999999999998 142 20 4.9999999999999991 1153 23 70 56 406 148 33 214 8.9999999999999982 118 67 8.9999999999999982 57 24 259 33 18 8.9999999999999982 20 11.999999999999998 14.999999999999998 11.999999999999998 17.000000000000004 64 38 75 58 56 8.9999999999999982 22 69 30 24 25
leaf_count=606 7 6 316 18 56 65 12 142 20 5 1153 23 70 56 406 148 33 214 9 118 67 9 57 24 259 33 18 9 20 12 15 12 17 64 38 75 58 56 9 22 69 30 24 25
internal_value=0 0.0105573 -0.00240834 0.00255458 0.00305099 0.0110429 0.01639 0.0124517 0.0325722 0.0279022 -0.00584977 0.0047831 0.0160883 -0.00233015 -0.00319564 0.0305636 0.0318699 -0.00101316 0.0315298 0.00836262 0.0334461 0.00833475 0.00308672 -0.00704053 -0.00250903 0.0017392 0.00113367 0.00569584 -0.00754628 0.0144847 0.00161497 0.00696888 0.0361344 0.0002127 -0.00985601 -0.0135527 0.00105592 0.017619 0.0188413 0.0131111 0.00494395 0.0112291 0.00103932 -0.00631364
internal_weight=0 876 3629 1483 668 560 278 242 208 119 2146 282 212 426 993 188 181 677 107 217 102 159 271 30 923 237 99 76 189 86 67 52 93 73 169 113 317 74 26 40 181 63 118 49
internal_count=4505 876 3629 1483 668 560 278 242 208 119 2146 282 212 426 993 188 181 677 107 217 102 159 271 30 923 237 99 76 189 86 67 52 93 73 169 113 317 74 26 40 181 63 118 49
cat_boundaries=0 1 2 3 4 5 6
cat_threshold=48 48 384 16 136 10
is_linear=0
shrinkage=0.075


Tree=23
num_leaves=45
num_cat=0
split_feature=23 13 22 22 22 22 12 22 22 22 22 22 22 12 23 12 12 13 17 22 22 13 23 23 1 16 21 22 22 23 21 13 1 4 4 17 17 12 9 20 16 22 20 13
split_gain=18.6781 12.1197 4.52387 3.59678 4.08604 5.20435 3.31436 2.17274 8.42265 3.68011 8.03117 3.40933 8.77948 2.04798 2.01901 1.96955 1.88122 2.79085 2.01785 1.74745 1.80083 1.41331 1.40958 1.63349 1.34782 1.3022 1.53841 1.23183 3.1237 1.2037 1.10361 1.09729 1.66521 1.07168 1.05496 1.0489 0.990578 0.981592 0.956194 0.931691 0.91832 0.905226 0.929774 0.892701
threshold=146.25000000000003 2.9174053685313028 4.2937500000000011 3.8007936507936511 3.7928260869565222 3.7021739130434792 0.63103934384211213 3.8949754901960794 3.9019230769230773 3.998333333333334 4.0012500000000015 4.0980000000000016 4.1021739130434796 0.43414957175196628 46.500000000000007 0.38278659611992955 0.28459274673008322 1.4978661367769956 48.57035575198325 4.2937500000000011 3.6232142857142859 2.0126758453675748 2118.2500000000005 740.33333333333337 50.500000000000007 156.80715811965814 14.857546626790638 4.2148351648351658 4.1930952380952382 439.62946428571433 15.248165960299881 3.3842466058243152 392.50000000000006 1102.0000000000002 461.00000000000006 1234.5458969783385 58.138159284557432 0.35984693877551027 0.87400673400673412 14.291403996220007 639.85937500000011 3.8133928571428575 7.6870390703983675 4.6150714996361826
decision_type=2 2 2 2 2 2 2 2 2 2 2 2 2 2 2 2 2 2 2 2 2 2 2 2 2 2 2 2 2 2 2 2 2 2 2 2 2 2 2 2 2 2 2 2
left_child=14 6 3 4 5 31 16 34 40 13 -11 24 -13 35 -1 22 18 37 -2 20 21 -19 23 43 -12 -22 27 28 33 -8 -25 32 -3 41 38 -10 39 -18 -5 -20 -9 -27 -43 -14
right_child=1 2 -4 7 -6 -7 29 8 9 10 11 12 15 -15 -16 -17 17 19 36 -21 25 -23 -24 30 -26 26 -28 -29 -30 -31 -32 -33 -34 -35 -36 -37 -38 -39 -40 -41 -42 42 -44 -45
leaf_value=-0.0086926069173534955 -0.0066267795246287347 0.022991633612664288 -0.0045647598081787711 0.031088893170717162 -0.013306002847103935 0.026882636011853821 0.00048086168572275746 -0.022673766637179505 0.023595468576338888 -0.010469627684015726 0.0038996600634648307 -0.012626840359217543 0.017022644618056772 -0.0063901611358577843 -0.0034119573478243663 -0.0090184411299497908 -0.011485698352243709 0.017100090571771073 0.01229620243257352 -0.0037248158559560519 -0.008190359299417577 -0.012045953825633478 -0.0041614873013167564 0.020459518251178484 0.028380330360943975 0.0015501438252729272 0.034296729823921589 0.030069869683419761 -0.016488316796965483 0.065317467860800366 0.04789791176684241 -0.004429289627577734 -0.0019301223455989113 0.0008781771168893019 0.010184986897543455 0.051252088409536094 -0.001028470625506101 -0.00051987533509334873 0 -0.010106447015909143 -0.0030269851751099884 -0.0010246877278419994 0.021531826222372322 0
leaf_weight=835 450 25 112 72 63 59 4.9999999999999982 31 134 80 21 70 145 7.9999999999999991 900 11.999999999999998 63 10.999999999999998 62 65 12.999999999999998 34 9.9999999999999982 39 115 28 20 19 22 5 21 91 27 45 38 12.999999999999998 367 212 4.9999999999999991 8.9999999999999982 38 5.9999999999999991 89 15.999999999999998
leaf_count=835 450 25 112 72 63 59 5 31 134 80 21 70 145 8 900 12 63 11 62 65 13 34 10 39 115 28 20 19 22 5 21 91 27 45 38 13 367 212 5 9 38 6 89 16
internal_value=0 0.0039313 0.00942188 0.0108587 0.00291034 0.00829097 -0.000515116 0.0132126 0.011565 0.0141267 0.0109165 0.0148698 0.010195 0.0245927 -0.00599015 0.0170308 -0.000847891 0.00224151 -0.00309564 0.00671346 0.00928613 -0.00346075 0.0186647 0.0199745 0.0250758 0.0119028 0.0133244 0.010914 0.00857196 0.0407852 0.031534 0.000103977 0.00910093 0.0122652 0.0233381 0.026703 0.000403336 -0.00327169 0.0289009 0.00855479 -0.0128563 0.0159225 0.0194952 0.0151684
internal_weight=0 2770 1245 1133 265 202 1525 868 753 684 529 449 313 155 1735 243 1515 627 888 352 287 45 231 221 136 242 229 209 190 10 60 143 52 168 115 147 438 275 77 71 69 123 95 161
internal_count=4505 2770 1245 1133 265 202 1525 868 753 684 529 449 313 155 1735 243 1515 627 888 352 287 45 231 221 136 242 229 209 190 10 60 143 52 168 115 147 438 275 77 71 69 123 95 161
is_linear=0
shrinkage=0.075


Tree=24
num_leaves=45
num_cat=0
split_feature=23 24 22 22 22 22 22 22 22 22 22 22 11 23 19 22 22 19 24 24 22 24 9 23 23 6 21 23 23 9 3 24 23 23 19 9 9 24 8 6 22 22 21 5
