tree
version=v4
num_class=1
num_tree_per_iteration=1
label_index=0
max_feature_idx=15
objective=regression
feature_names=population genre_diversity genre_hhi other_genre_count neighbor_avg_restaurants neighbor_avg_population saturation_index nearest_station_distance nearest_station_passengers land_price google_avg_rating reviews_per_shop google_density genre_encoded price_x_saturation pop_x_station_dist
feature_infos=[0:7277] [1:8] [0:0.70247933884297531] [0:5.978885764901122] [0:4.8903491282217537] [0:3475.875] [0:1984.5111326234269] [0.0039847203108185:1.0443184338284852] [0:1044356] [0:44300000] [0:5] [0:17901] [0:690] -1:4:3:2:6:1:0:7:5 [0:44899564375.605034] [0:4011.5792036735052]
tree_sizes=2791 2768 2779 2774 2786 2787 2777 2792 2792 2797 2782 2792 2782 2761 2783 2788 2791 2790 2813 2786 2800 2798 2784 2808 2781 2814 2806 2788 2815 2789 2807 2790 2807 2821 2828 2831 2827 2821 2803 2832 2794 2791 2816 2792 2789 2824 2808 2810 2813 2822 2843 2817 2836 2844 2827 2839 2849 2849 2845 2823 2857 2851 2862 2836 2833 2829 2857 2859 2833 2831 2833 2823 2838 2836 2878 2845 2865 2873 2865 2843 2881 2879 2856 2868 2874 2837 2881 2859 2857 2883 2877 2852 2863 2873 2866 2854 2867 2877 2860 2859 2875 2859 2882 2860 2888 2844 2886 2864 2840 2884 2880 2899 2891 2849 2856 2876 2870 2889 2882 2887 2844 2869 2868 2867 2875 2852 2855 2844 2854 2859 2871 2872 2844 2865 2826 2850 2854 2827 2867 2862 2889 2860 2867 2866 2864 2861 2859 2865 2858 2851 2849 2828 2855 2852 2866 2840 2845 2855 2851 2852 2890 2886 2868 2876 2892 2871 2846 2872 2873 2868 2869 2838 2898 2847 2834 2860 2859 2865 2871 2865 2864 2869 2889 2854 2849 2843 2885 2855 2864 2860 2862 2880 2885 2883 2878 2889 2860 2855 2870 2862 2859 2865 2892 2866 2879 2877 2881 2890 2883 2844 2863 2859 2857 2860 2860 2881 2859 2864 2871 2867 2860 2870 2853 2878 2853 2841 2889 2869 2869 2856 2847 2835 2871 2859 2861 2893 2879 2861 2884 2863 2879 2873 2890 2847 2867 2892 2866 2881 2908 2866 2882 2863 2860 2901 2861 2895 2874 2883 2909 2846 2876 2875 2869 2880 2866 2880 2853 2870 2874 2865 2871 2881 2867 2881 2870 2841 2840 2894 2873 2853 2872 2908 2882 2875 2842 2851 2852 2882 2868 2885 2883 2870 2861 2860 2896 2876 2854 2873 2874 2852

Tree=0
num_leaves=31
num_cat=2
split_feature=13 3 3 3 13 3 15 3 3 9 11 14 10 15 3 2 1 10 10 9 0 2 1 9 4 14 2 9 4 2
split_gain=188.052 309.462 43.2569 40.722 39.7621 37.9109 22.0923 15.0454 11.1485 10.1134 9.93488 9.21 7.84169 7.62816 6.61312 5.59341 5.53119 5.06292 4.76948 4.73734 4.41411 4.49562 6.87936 4.30443 4.16955 3.9519 4.10481 3.70518 3.58921 6.33981
threshold=0 2.8617925509761908 4.1026092131977068 2.0126758453675748 1 4.2413008733233104 251.80583487193618 3.1984648276080736 3.2384861814448418 6792500.0000000009 41.300000000000004 1211822672.0916183 3.5292857142857144 892.24531363538915 3.3842466058243152 0.26552854938271614 5.5000000000000009 3.9080128205128211 3.8282857142857147 13850000.000000002 2585.5000000000005 0.28062500000000007 3.5000000000000004 1245000.0000000002 3.7884329408569211 3746935433.7956424 0.25077160493827166 3110000.0000000005 3.0173667726356448 0.31452163185805843
decision_type=1 2 2 2 1 2 2 2 2 2 2 2 2 2 2 2 2 2 2 2 2 2 2 2 2 2 2 2 2 2
left_child=1 3 6 20 11 7 12 27 13 -6 -5 -4 -2 28 -14 -12 -17 -13 -10 23 21 -1 -23 24 -9 26 -16 -3 -8 -30
right_child=2 5 4 10 9 -7 8 19 18 -11 15 17 14 -15 25 16 -18 -19 -20 -21 -22 22 -24 -25 -26 -27 -28 -29 29 -31
leaf_value=-0.015071507342452281 -0.028571396463958783 0.039981746346299959 0.047920867051007253 -0.012385195868365477 -0.0015639879989428069 0.098765076963861193 -0.013514409829164291 0.043268121243350277 -0.014626685191169359 -0.033176912394015705 0.012381831425727829 0.0035543327887860715 -0.018952647593692279 -0.002534685355227512 0.0040074854265563925 0.019585317468770694 0.042441755521649117 0.029455155694383669 0.0097733901710449159 0.037782822229316143 -0.0003493189031437302 -0.008632731882959644 0.011811519223731217 0.070238076815368547 0.068864182802642934 -0.024600644930545541 -0.012331164910856146 0.016288061245753053 -0.009735847369938393 0.017100851823826587
leaf_weight=172 145 77 48 29 80 48 600 41 24 37 174 29 447 316 74 93 37 54 121 22 241 213 51 83 26 29 80 21 119 27
leaf_count=172 145 77 48 29 80 48 600 41 24 37 174 29 447 316 74 93 37 54 121 22 241 213 51 83 26 29 80 21 119 27
internal_value=1.86358e-11 0.0146943 -0.00899632 0.00126156 0.01065 0.0578202 -0.0115 0.0505411 -0.00727002 -0.0106509 0.0155767 0.0283252 -0.0180878 -0.00904562 -0.0156749 0.0182441 0.0260906 0.0204055 0.00573476 0.0594503 -0.00577972 -0.00878138 -0.00468327 0.0626281 0.0532009 -0.00766862 -0.00448013 0.0349045 -0.0118036 -0.0047729
internal_weight=0 1328 2230 1010 248 318 1982 270 1207 117 333 131 775 1062 630 304 130 83 145 172 677 436 264 150 67 183 154 98 746 146
internal_count=3558 1328 2230 1010 248 318 1982 270 1207 117 333 131 775 1062 630 304 130 83 145 172 677 436 264 150 67 183 154 98 746 146
cat_boundaries=0 1 2
cat_threshold=24 196
is_linear=0
shrinkage=1


Tree=1
num_leaves=31
num_cat=2
split_feature=13 6 6 1 6 8 1 10 4 0 2 0 2 13 12 6 4 0 6 0 4 10 6 11 0 6 2 2 0 4
split_gain=169.716 244.988 39.9062 29.8804 27.5785 20.5443 16.3108 14.4702 14.5182 14.1938 10.6915 10.4257 10.0662 8.02685 7.83714 7.24022 6.81036 6.602 7.89101 6.53269 5.57389 5.52704 7.38155 5.66948 4.85121 4.64076 4.31711 4.22373 4.2173 3.9483
threshold=0 69.400266266477601 409.17462377553232 4.5000000000000009 531.34026273788925 206575.50000000003 5.5000000000000009 3.8133928571428575 3.124550050373788 79.000000000000014 0.27681421224189623 1498.5000000000002 0.26552854938271614 1 54.103191226404057 54.440698055869305 3.5990216639628394 1117.0000000000002 78.5813991657201 1757.2916666666667 3.0592894550966254 4.0980000000000016 218.47869161844588 297.22916666666669 1960.5000000000002 13.852817591135349 0.26887611954345775 0.23613135730482668 218.18750000000003 2.9542537202231967
decision_type=1 2 2 2 2 2 2 2 2 2 2 2 2 1 2 2 2 2 2 2 2 2 2 2 2 2 2 2 2 2
left_child=1 3 6 19 5 7 -3 24 17 -6 11 20 15 -10 -11 -5 29 -9 -19 -1 -8 23 27 -15 -2 -21 -16 -23 -4 -12
right_child=4 2 28 12 9 -7 10 8 13 14 16 -13 -14 21 26 -17 -18 18 -20 25 -22 22 -24 -25 -26 -27 -28 -29 -30 -31
leaf_value=-0.010990507057476862 -0.01814540303958994 0.016386204291781298 0.076013802814072579 0.0047589295048965146 -0.010932955070508316 -0.024248016430571191 0.017234463235529671 -0.015491267520448436 -0.0062576494162885458 0.044322839199944786 0.066148712458433942 0.059685217113570971 0.028953626625666241 0.0078308731063523093 0.027156150639057158 0.029193873993224567 0.081145730217297873 -0.0077554522014461579 0.0084670586507431724 -0.0030110545459385986 0.040534921634455469 0.0088028398202732207 0.026796717555927382 0.036718055350439892 -0.0094608358001303794 0.012033048644758917 0.0045286778643955743 -0.013770348011234472 0.10374590892058154 0.040366982925457484
leaf_weight=256 369 49 29 192 51 230 42 230 101 27 27 47 83 33 35 36 30 584 86 352 66 40 28 35 285 60 53 43 26 33
leaf_count=256 369 49 29 192 51 230 42 230 101 27 27 47 83 33 35 36 30 584 86 352 66 40 28 35 285 60 53 43 26 33
internal_value=0 0.0139596 0.0500332 0.00124246 -0.00854651 -0.0101617 0.0427203 -0.00839518 -0.00508878 0.0110218 0.0479872 0.0400281 0.0140445 0.00485446 0.0207583 0.00861708 0.0616944 -0.00818223 -0.00567316 -0.00471778 0.0314736 0.0108669 0.00459727 0.0226993 -0.0143608 -0.000820166 0.0135282 -0.0028917 0.0891235 0.0519688
internal_weight=0 1328 349 979 2230 2064 294 1834 1180 166 245 155 311 280 115 228 90 900 670 668 108 179 111 68 654 412 88 83 55 60
internal_count=3558 1328 349 979 2230 2064 294 1834 1180 166 245 155 311 280 115 228 90 900 670 668 108 179 111 68 654 412 88 83 55 60
cat_boundaries=0 1 2
cat_threshold=24 35
is_linear=0
shrinkage=0.05


Tree=2
num_leaves=31
num_cat=0
split_feature=3 10 11 9 3 11 11 4 15 15 10 10 10 15 8 15 11 3 8 0 10 10 10 10 7 2 9 2 8 15
split_gain=119.819 48.8386 25.2074 20.7379 19.2362 16.4588 11.1906 12.9883 9.36949 8.86126 8.5366 7.72154 12.4921 7.18623 7.15232 7.45433 6.68029 9.10956 6.64559 5.89933 5.58441 10.7175 5.31792 14.0542 5.1068 6.54959 4.43341 3.93649 3.8908 3.65331
threshold=3.2769667020129059 3.6232142857142859 46.500000000000007 8860000.0000000019 2.0126758453675748 117.50000000000001 1661.0000000000002 4.1159790613037552 409.31803262942827 459.57410206823494 4.3900000000000015 3.8133928571428575 3.8949754901960794 821.61303897428888 178894.00000000003 14.471167519698971 508.48863636363643 4.6959141240107813 312263.00000000006 909.11538461538464 3.7928260869565222 3.7021739130434792 3.9019230769230773 3.998333333333334 0.12534368661453307 0.20580578512396694 4605000.0000000009 0.38700255102040815 85111.500000000015 1529.8233431952544
decision_type=2 2 2 2 2 2 2 2 2 2 2 2 2 2 2 2 2 2 2 2 2 2 2 2 2 2 2 2 2 2
left_child=2 26 9 5 8 -3 7 18 -4 -1 11 20 28 22 -5 -16 -9 -18 24 -12 21 -6 -14 -24 -7 -26 -2 -25 -13 -10
right_child=1 3 4 14 10 6 -8 16 29 -11 19 12 13 -15 15 -17 17 -19 -20 -21 -22 -23 23 27 25 -27 -28 -29 -30 -31
leaf_value=-0.020695890155954712 -0.013209316086038828 -0.0067635169393048646 -0.013489119385797624 0.013404676239264925 -0.005076537444572593 0.034243417272316015 -0.0039992385826605773 0.025591395862209494 -0.0052062665287027432 -0.0087666926207220774 -0.029221802204847339 0.039502398963227416 -0.01107552305223759 0.017858562678208244 0.010883092190138997 -0.024864421614578792 0.037054282367229463 0.070599749845260865 0.0055827349065640554 -0.0042080717783590611 -0.01822585498627562 0.023778893969332179 0.029161668818444016 0.0022716234518244094 0.036148659310868532 0.017177614393992305 -0.040229778103530407 -0.019429254938255661 0.014622874300306041 0.0059551647046667544
leaf_weight=272 63 39 401 72 184 132 28 39 497 364 30 33 66 85 25 35 50 34 43 110 52 39 50 417 61 179 20 22 30 86
leaf_count=272 63 39 401 72 184 132 28 39 497 364 30 33 66 85 25 35 50 34 43 110 52 39 50 417 61 179 20 22 30 86
internal_value=0 0.016641 -0.00514671 0.020736 -0.00250777 0.0246537 0.0268184 0.0284223 -0.00760621 -0.0138685 0.00197958 0.00363263 0.00641133 0.00432016 0.00277999 -0.00996962 0.0426924 0.0506322 0.0241929 -0.00956816 -0.00347073 -3.00719e-05 0.00224671 0.0040448 0.0263441 0.0219994 -0.0197203 0.00118411 0.027655 -0.00355981
internal_weight=0 820 2738 737 2102 605 566 538 984 636 1118 978 703 640 132 60 123 84 415 140 275 223 555 489 372 240 83 439 63 583
internal_count=3558 820 2738 737 2102 605 566 538 984 636 1118 978 703 640 132 60 123 84 415 140 275 223 555 489 372 240 83 439 63 583
is_linear=0
shrinkage=0.05


Tree=3
num_leaves=31
num_cat=3
split_feature=13 3 3 13 3 3 8 15 3 3 3 11 9 3 15 13 10 9 8 5 9 4 3 10 8 9 15 3 15 3
split_gain=152.257 242.184 31.7345 35.0807 31.1679 30.047 19.3973 14.7016 11.79 9.82387 9.76575 8.15084 8.09249 7.35877 7.05862 6.84253 5.55537 5.53163 4.00629 4.38995 3.83747 3.63089 4.56386 3.54014 3.52745 3.38369 3.3034 4.12137 3.90339 3.22484
threshold=0 2.8617925509761908 4.1026092131977068 1 2.0126758453675748 4.2413008733233104 206575.50000000003 251.80583487193618 3.1984648276080736 3.4175922930736511 2.4414009612931857 41.300000000000004 6792500.0000000009 4.983512786670059 1013.8435625835554 2 3.8485294117647064 3315500.0000000005 157431.00000000003 1146.1818910256413 1355000.0000000002 3.1909873171337018 3.2384861814448418 4.0980000000000016 379908.00000000006 3110000.0000000005 1529.8233431952544 1.4978661367769956 459.57410206823494 2.4414009612931857
decision_type=1 2 2 1 2 2 2 2 2 2 2 2 2 2 2 1 2 2 2 2 2 2 2 2 2 2 2 2 2 2
left_child=1 4 6 13 26 8 7 9 25 -2 14 -6 -5 17 -9 -12 -17 -4 20 -20 -10 22 -18 -23 29 -3 27 28 -1 -13
right_child=2 5 3 12 11 -7 -8 10 18 -11 15 24 -14 -15 -16 16 21 -19 19 -21 -22 23 -24 -25 -26 -27 -28 -29 -30 -31
leaf_value=-0.014725865777526163 -0.017528591532435581 0.035909601433396145 0.034807161120292938 -0.0031384811567841103 -0.011457823383910902 0.087831617208818602 -0.024453652513907867 -0.011588174098510972 0.046192244440317158 -0.0024026840897621933 -0.0070652583721636051 0.012750696126883194 -0.031417096456563147 0.05235011570621282 -0.000976128399846519 -0.0071848131750744801 0.00047767686575733048 0.011843307789598334 0.030533497813431655 0.057826387079862457 0.065404599595447671 0.038745659701526165 0.02092114685652539 0.011929792052251288 -0.00062439864767449246 0.013267169467040471 0.0064892159892054732 -0.00030351295558259236 -0.0047366954217530725 0.023564590171062903
leaf_weight=167 524 77 46 80 29 48 214 511 41 135 136 142 37 24 226 54 91 61 34 26 71 20 39 32 28 21 59 215 236 134
leaf_count=167 524 77 46 80 29 48 214 511 41 135 136 142 37 24 226 54 91 61 34 26 71 20 39 32 28 21 59 215 236 134
internal_value=0 0.0132271 -0.00808999 0.00873574 0.00134557 0.0513799 -0.0102361 -0.00851525 0.0448996 -0.01443 -0.00500055 0.0138694 -0.01113 0.0253899 -0.00833401 0.00160364 0.00661821 0.0217156 0.0527862 0.0423604 0.0583715 0.0110773 0.00661072 0.0222436 0.0162854 0.0310577 -0.00481458 -0.00589375 -0.00887613 0.0180009
internal_weight=0 1328 2230 248 1010 318 1982 1768 270 659 1109 333 117 131 737 372 236 107 172 60 112 182 130 52 304 98 677 618 403 276
internal_count=3558 1328 2230 248 1010 318 1982 1768 270 659 1109 333 117 131 737 372 236 107 172 60 112 182 130 52 304 98 677 618 403 276
cat_boundaries=0 1 2 3
cat_threshold=24 196 35
is_linear=0
shrinkage=0.05


Tree=4
num_leaves=31
num_cat=2
split_feature=13 3 3 13 3 3 15 3 3 11 9 14 15 10 11 2 3 1 2 1 2 1 6 10 5 2 11 1 2 14
split_gain=137.434 218.571 28.646 31.6604 28.1291 27.1174 17.1555 10.6405 7.51641 7.35613 7.30347 7.06313 5.93437 5.82669 5.02165 4.56365 4.4393 4.38404 4.11792 10.7551 3.95552 4.60934 4.37956 3.81828 3.33574 3.30312 3.27807 3.20428 4.4325 3.06789
threshold=0 2.8617925509761908 4.1026092131977068 1 2.0126758453675748 4.2413008733233104 251.80583487193618 3.1984648276080736 3.2384861814448418 41.300000000000004 6792500.0000000009 1135830995.1986513 892.24531363538915 3.5292857142857144 318.21428571428578 0.26552854938271614 3.3842466058243152 5.5000000000000009 0.33710761108026616 3.5000000000000004 0.21175577669084164 6.5000000000000009 170.66391203420247 4.0097222222222237 719.36607142857156 0.50029726516052331 210.69444444444449 2.5000000000000004 0.50338368491360974 3746935433.7956424
decision_type=1 2 2 1 2 2 2 2 2 2 2 2 2 2 2 2 2 2 2 2 2 2 2 2 2 2 2 2 2 2
left_child=1 4 6 11 18 7 13 26 12 -6 -5 -4 25 -2 -13 -11 -15 -17 -1 27 -9 22 -22 -10 -16 -8 -3 28 -20 -18
right_child=2 5 3 10 9 -7 8 20 23 15 -12 14 -14 16 24 17 29 -19 19 -21 21 -23 -24 -25 -26 -27 -28 -29 -30 -31
leaf_value=-0.00811536116418843 -0.024568225358099004 0.01144557174295187 0.042011673231091763 -0.0029815571507788262 -0.010884931911553803 0.083440036761264005 -0.010593519794843707 0.036806966133770491 -0.0055490823029166296 0.010175907290032156 -0.029846241244593182 -0.0043849254585802558 -0.0017138164075271264 -0.016137001913674259 0.04011114176193422 0.016767096590195651 -0.0040824308461137725 0.037115795145163666 -0.01543394020065369 0.028690491796567526 0.058569880913604391 0.061660062792006788 0.028258337338383385 0.011115660024231321 0.01626598553054712 0.0058266480904421774 0.034135333095223479 0.003022400923233865 0.0012310317388180747 -0.021810294848320814
leaf_weight=371 145 20 45 80 29 48 714 42 56 174 37 20 316 447 22 93 154 37 88 29 22 82 26 89 44 32 78 116 73 29
leaf_count=371 145 20 45 80 29 48 714 42 56 174 37 20 316 447 22 93 154 37 88 29 22 82 26 89 44 32 78 116 73 29
internal_value=0 0.0125657 -0.00768707 0.00829895 0.00127829 0.0488109 -0.00972612 0.0426546 -0.00599863 0.0131759 -0.0105735 0.0241204 -0.00745658 -0.0155314 0.0175634 0.0154712 -0.0134515 0.0225586 -0.00457385 -0.000280061 0.0501469 0.0544568 0.0421511 0.00467962 0.0242144 -0.00988917 0.0295048 -0.00331308 -0.00787777 -0.00689176
internal_weight=0 1328 2230 248 1010 318 1982 270 1207 333 117 131 1062 775 86 304 630 130 677 306 172 130 48 145 66 746 98 277 161 183
internal_count=3558 1328 2230 248 1010 318 1982 270 1207 333 117 131 1062 775 86 304 630 130 677 306 172 130 48 145 66 746 98 277 161 183
cat_boundaries=0 1 2
cat_threshold=24 196
is_linear=0
shrinkage=0.05


Tree=5
num_leaves=31
num_cat=2
split_feature=13 3 3 13 3 3 8 8 11 8 9 4 7 4 11 3 14 11 2 7 5 6 14 2 11 7 2 1 8 7
split_gain=123.281 197.125 43.5296 22.6785 44.4194 14.6506 10.3589 9.35216 8.56195 6.73858 6.31423 6.73089 5.52945 4.81736 4.72856 4.66275 4.32081 4.28456 4.11969 4.00254 3.96855 3.87582 3.88189 3.8733 3.72022 3.20869 3.1969 9.88621 3.00116 2.89875
threshold=0 3.1567740231385479 2.0126758453675748 1 3.2769667020129059 3.795426061844291 161520.00000000003 206575.50000000003 41.300000000000004 202604.00000000003 4662500.0000000009 2.9925974670471938 0.51433987167168949 3.6440954995237216 647.38888888888903 2.8617925509761908 3746935433.7956424 318.21428571428578 0.23204121537233063 0.26174368432744244 845.56250000000011 427.54439438112917 2781639624.9632707 0.20341435185185189 125.10000000000001 0.12276316632006155 0.33710761108026616 3.5000000000000004 149578.00000000003 0.15331784963523884
decision_type=1 2 2 1 2 2 2 2 2 2 2 2 2 2 2 2 2 2 2 2 2 2 2 2 2 2 2 2 2 2
left_child=1 2 26 4 9 28 14 19 -4 10 11 12 -2 -8 18 23 -9 -7 25 21 -19 -5 -23 -10 -13 -6 -1 -28 -3 -26
right_child=3 5 8 7 6 17 13 16 15 -11 -12 24 -14 -15 -16 -17 -18 20 -20 -21 -22 22 -24 -25 29 -27 27 -29 -30 -31
leaf_value=-0.0076059230404205928 -0.010300173368891871 0.049489531155726685 -0.0095157435043684915 -0.01620109151349761 0.011997634731233121 0.051505671575665483 -0.010218351882855026 -0.020625049013546424 0.00043837265809997921 -0.021648117007730019 -0.027683704486116768 -0.0082864064490422613 0.0019369464880282725 0.0095439262783680208 0.03482298284236874 0.028231941300639718 -0.041395501343204695 0.089913185814331331 0.010316914248440574 -0.0072843218370068951 0.066392785025403855 0.011428364055852097 -0.016208530240692198 0.017082857968326551 -0.0051504121011783999 0.037685219303614674 -0.003703169800927364 0.026054936407073855 0.03271396792316366 0.012798023461818514
leaf_weight=372 603 73 31 406 20 25 51 95 40 88 36 52 109 78 42 84 34 29 106 321 47 27 24 277 31 31 280 31 42 82
leaf_count=372 603 73 31 406 20 25 51 95 40 88 36 52 109 78 42 84 34 29 106 321 47 27 24 277 31 31 280 31 42 82
internal_value=0 0.0117597 0.00337883 -0.00739901 -0.00317774 0.0555662 0.0127672 -0.0134822 0.0158009 -0.00843421 -0.00716058 -0.00631812 -0.00842679 0.00173093 0.0199214 0.017758 -0.0260994 0.0694612 0.015935 -0.0115634 0.0753677 -0.0145691 -0.00157723 0.0149826 0.0027811 0.0276117 -0.00447817 -0.000736928 0.0433628 0.00787412
internal_weight=0 1331 1115 2236 1329 216 328 907 432 1001 913 877 712 129 199 401 129 101 157 778 76 457 51 317 165 51 683 311 115 113
internal_count=3567 1331 1115 2236 1329 216 328 907 432 1001 913 877 712 129 199 401 129 101 157 778 76 457 51 317 165 51 683 311 115 113
cat_boundaries=0 1 2
cat_threshold=24 196
is_linear=0
shrinkage=0.05


Tree=6
num_leaves=31
num_cat=2
split_feature=13 3 3 13 3 3 15 8 8 15 3 4 8 15 0 3 9 3 3 3 0 12 12 8 8 0 5 9 8 8
split_gain=111.261 177.905 39.2855 20.4673 40.2829 13.2221 11.9542 8.64262 8.45301 4.98667 4.82131 4.34093 7.30499 4.40733 4.20363 3.91211 3.76996 3.75484 3.57906 3.55978 3.29268 3.26401 2.80288 2.70854 2.40521 2.39369 2.3583 2.24278 2.19822 2.12789
threshold=0 3.1567740231385479 2.0126758453675748 1 3.4811217321331038 3.795426061844291 283.75163499982506 379908.00000000006 79346.500000000015 372.27832333871896 4.2555875595453383 2.9925974670471938 93791.000000000015 1650.1448992800426 1359.5000000000002 4.6298509007569537 7315000.0000000009 3.2769667020129059 2.8029010331479989 4.8481086751891054 2818.5000000000005 75.197656904626058 12.648911702943238 149578.00000000003 93791.000000000015 600.00000000000011 262.35937500000006 2775000.0000000005 690128.00000000012 202604.00000000003
decision_type=1 2 2 1 2 2 2 2 2 2 2 2 2 2 2 2 2 2 2 2 2 2 2 2 2 2 2 2 2 2
left_child=1 2 14 4 6 23 16 9 -6 19 -10 13 22 -8 -1 -7 17 29 20 26 -4 -12 -13 24 -3 -25 -5 -20 -14 -2
right_child=3 5 18 7 8 15 11 -9 10 -11 21 12 28 -15 -16 -17 -18 -19 27 -21 -22 -23 -24 25 -26 -27 -28 -29 -30 -31
leaf_value=-0.011041745509814786 -0.012569841178155912 0.040264758737163342 0.010234615213303983 -0.030643239848315719 0.026532446438163194 0.061098420817726928 -0.0066463676972800274 -0.029570647259242834 0.001014972140214273 -0.0069898775772344384 0.02655645205184471 0.0084553887943426762 -0.00044444605591706935 0.0089712503887712965 -0.0019873437820933761 0.085791687816381468 -0.029953885938533965 0.0057634375917796909 0.026265397308943034 0.0058383333869278433 0.024430969644648335 0.0048505087559721598 0.029336081262677911 0.019141705749816971 0.059217512836823097 0.043014833002927758 -0.014854290999632147 0.008099571625435991 -0.021263419570667404 -0.024940266552118538
leaf_weight=171 320 47 274 25 92 81 468 72 105 352 43 45 32 50 512 20 34 26 89 20 48 29 25 21 26 21 438 21 21 39
leaf_count=171 320 47 274 25 92 81 468 72 105 352 43 45 32 50 512 20 34 26 89 20 48 29 25 21 26 21 438 21 21 39
internal_value=0 0.0111717 0.00320989 -0.00702906 -0.00301886 0.0527879 -0.00742679 -0.0128081 0.0142385 -0.0115161 0.00784839 -0.00313385 0.00531008 -0.00513888 -0.00425426 0.0659882 -0.0139943 -0.0125849 0.0150108 -0.0148147 0.0123508 0.0178138 0.0159128 0.0411947 0.0470151 0.0310783 -0.0157068 0.0227974 -0.00869347 -0.0139137
internal_weight=0 1331 1115 2236 1329 216 1060 907 269 835 177 641 123 518 683 101 419 385 432 483 322 72 70 115 73 42 463 110 53 359
internal_count=3567 1331 1115 2236 1329 216 1060 907 269 835 177 641 123 518 683 101 419 385 432 483 322 72 70 115 73 42 463 110 53 359
cat_boundaries=0 1 2
cat_threshold=24 196
is_linear=0
shrinkage=0.05


Tree=7
num_leaves=31
num_cat=0
split_feature=3 9 4 3 15 15 8 8 8 8 14 7 4 12 12 15 4 4 8 2 15 3 2 15 8 7 5 15 0 12
split_gain=67.6154 21.2056 13.27 11.6796 10.5956 9.73503 8.81976 5.79855 5.38723 5.13567 5.0413 4.96033 4.01726 3.63328 3.54777 4.11185 3.50673 3.48217 6.16045 3.8734 3.38043 3.36703 6.15874 3.62001 3.25263 3.16038 3.08611 2.84467 2.64532 2.92554
threshold=3.2769667020129059 13200000.000000002 3.528195389060643 2.0126758453675748 841.18923578190299 471.67299841300178 690128.00000000012 161520.00000000003 27404.000000000004 690128.00000000012 651908636.12820458 0.21741356431823436 3.1622914758153824 69.291111812060294 9.9942067394930589 21.264060278817123 3.0474898054833308 2.8146529224064971 193712.00000000003 0.35721303772053492 1013.8435625835554 1.4978661367769956 0.28062500000000007 419.92661845549776 157431.00000000003 0.22125616899685488 753.5288461538463 1529.8233431952544 3401.5000000000005 11.550679565537013
decision_type=2 2 2 2 2 2 2 2 2 2 2 2 2 2 2 2 2 2 2 2 2 2 2 2 2 2 2 2 2 2
left_child=3 2 7 4 21 10 8 13 -4 12 17 24 28 20 -10 -16 -15 -5 19 -19 -2 23 -23 -1 -3 -9 -17 -6 29 -7
right_child=1 11 6 5 27 9 -8 25 14 -11 -12 -13 -14 16 15 26 -18 18 -20 -21 -22 22 -24 -25 -26 -27 -28 -29 -30 -31
leaf_value=-0.016161247264633881 0.0070257353865895841 -0.0031034929960063011 0.044819364310242242 -0.0057676022874930989 -0.0035406596763166241 -0.0036107531578990779 0.0083261017084375714 -0.0076390890789258745 0.0041994136536405201 -0.011206340214703233 -0.019237079335531843 0.0081999636124678414 0.019155458907877645 0.012376127109445375 0.010927130835942734 0.039261957089982785 0.038213854671145485 0.0030529410230828394 -0.0082839092468158498 0.02444691155915675 0.028744128197431565 -0.012004609876465351 0.00097675942335627062 -0.0082337999912469022 -0.023869321056091311 0.013110467500984669 0.024824848707972302 0.0048324694167871454 0.016655453565445812 0.0073441879180095654
leaf_weight=314 172 33 35 425 349 95 88 69 21 40 48 33 63 29 39 51 24 264 132 23 20 213 160 266 44 25 135 143 44 170
leaf_count=314 172 33 35 425 349 95 88 69 21 40 48 33 63 29 39 51 24 264 132 23 20 213 160 266 44 25 135 143 44 170
internal_value=0 0.0124051 0.0155783 -0.00396985 -0.00706586 -0.00053908 0.0221394 0.00843662 0.0264653 0.00581765 -0.00347515 -0.00801879 0.00764818 0.0124871 0.0238539 0.0256883 0.0240762 -0.00257873 0.000655798 0.00476744 0.00928807 -0.0101422 -0.00643619 -0.0125256 -0.0149697 -0.00212059 0.0287834 -0.00110701 0.00530204 0.00341694
internal_weight=0 818 708 2749 1445 1304 369 339 281 412 892 110 372 245 246 225 53 844 419 287 192 953 373 580 77 94 186 492 309 265
internal_count=3567 818 708 2749 1445 1304 369 339 281 412 892 110 372 245 246 225 53 844 419 287 192 953 373 580 77 94 186 492 309 265
is_linear=0
shrinkage=0.05


Tree=8
num_leaves=31
num_cat=2
split_feature=13 3 3 13 3 3 15 11 9 8 7 11 4 8 8 3 15 3 11 5 4 9 3 3 15 3 10 1 15 10
split_gain=101.367 154.241 34.1253 18.4885 33.5078 11.5167 10.2937 7.67595 7.67038 7.13359 4.29343 4.18665 5.53978 6.65462 4.04131 4.11919 4.15345 3.9206 3.67523 3.3015 3.29227 3.2472 3.16391 2.98452 2.96134 3.03153 2.54982 2.49736 2.31414 2.27649
threshold=0 3.1567740231385479 2.0126758453675748 1 3.4811217321331038 3.795426061844291 283.75163499982506 41.300000000000004 7475000.0000000009 79346.500000000015 0.22507471465880463 126.08333333333336 2.4585055960317947 106460.00000000001 379908.00000000006 4.7140145363037149 607.27604125627647 2.8617925509761908 318.21428571428578 845.56250000000011 3.1909873171337018 7315000.0000000009 3.2769667020129059 4.4942230200312032 772.49768841215052 1.4978661367769956 3.5530487804878055 6.5000000000000009 925.34490454755871 3.7021739130434792
decision_type=1 2 2 1 2 2 2 2 2 2 2 2 2 2 2 2 2 2 2 2 2 2 2 2 2 2 2 2 2 2
left_child=1 2 24 4 6 27 21 -4 14 -6 -11 28 -13 20 15 16 26 29 -7 -20 -14 22 -2 -12 25 -1 -5 -3 -8 -9
right_child=3 5 7 8 9 18 11 17 -10 10 23 12 13 -15 -16 -17 -18 -19 19 -21 -22 -23 -24 -25 -26 -27 -28 -29 -30 -31
leaf_value=-0.0096873335487998712 -0.012913147725513814 0.027234279583482179 -0.0097085867077112212 -0.019157167026311046 0.024146248936227969 0.045116470359265803 -0.01058435704369147 0.0037791334446519616 -0.027983267858831418 0.0020960344247314641 0.0094189161776254571 -0.004781107829884901 0.010512929224015144 -0.0049220158276148144 -0.024472443262885252 0.012321618050336838 -0.0048880740800926184 0.025719762057304342 0.080483549730531109 0.05903071364823808 0.031565022339614543 -0.02781322273795548 0.0051493868766836108 0.03435434718383476 0.00054583363099103429 -0.0010741955225410708 -0.011104226824627361 0.043380734656598238 -0.0013909963092322802 0.015404116490346551
leaf_weight=256 359 34 31 129 92 25 190 50 72 127 30 193 65 60 52 20 221 84 29 47 26 34 26 20 257 170 413 81 107 267
leaf_count=256 359 34 31 129 92 25 190 50 72 127 30 193 65 60 52 20 221 84 29 47 26 34 26 20 257 170 413 81 107 267
internal_value=0 0.010675 0.00326373 -0.00669755 -0.00288588 0.0494268 -0.00690707 0.0142624 -0.0121903 0.0128524 0.00698221 -0.00292341 0.000831268 0.0080047 -0.0109745 -0.0100781 -0.0106652 0.0161155 0.0617463 0.0672167 0.0165278 -0.0130014 -0.0116933 0.0193931 -0.00369296 -0.00625017 -0.0130209 0.038607 -0.00727227 0.0135705
internal_weight=0 1331 1115 2236 1329 216 1060 432 907 269 177 641 344 151 835 783 763 401 101 76 91 419 385 50 683 426 542 115 297 317
internal_count=3567 1331 1115 2236 1329 216 1060 432 907 269 177 641 344 151 835 783 763 401 101 76 91 419 385 50 683 426 542 115 297 317
cat_boundaries=0 1 2
cat_threshold=24 196
is_linear=0
shrinkage=0.05


Tree=9
num_leaves=31
num_cat=2
split_feature=13 3 3 13 3 3 15 8 8 2 3 14 15 0 4 8 15 3 3 8 2 1 6 12 4 6 7 12 14 8
split_gain=91.4835 139.202 30.7981 16.6859 30.2408 10.3938 9.29011 7.06768 6.43806 4.28101 3.96236 3.66163 3.45925 3.41143 3.39733 5.93011 3.36413 3.26521 3.12259 3.41859 2.92098 3.20906 3.58733 2.81502 2.66609 2.50523 2.88203 2.4685 2.43363 2.26949
threshold=0 3.1567740231385479 2.0126758453675748 1 3.4811217321331038 3.795426061844291 283.75163499982506 198955.00000000003 79346.500000000015 0.32598719961357331 4.2555875595453383 3746935433.7956424 985.6968388894885 1359.5000000000002 3.1909873171337018 328935.00000000006 1650.1448992800426 4.6298509007569537 2.4414009612931857 690128.00000000012 0.20341435185185189 5.5000000000000009 48.431775533911186 75.197656904626058 2.2578278393901718 59.587745350311515 0.19239997212270779 10.769146911150047 182590283.29758996 149578.00000000003
decision_type=1 2 2 1 2 2 2 2 2 2 2 2 2 2 2 2 2 2 2 2 2 2 2 2 2 2 2 2 2 2
left_child=1 2 13 4 6 29 9 12 -6 25 -10 -9 -5 -1 16 -16 -8 -7 20 24 -4 22 27 -12 -20 -2 28 -22 -27 -3
right_child=3 5 18 7 8 17 14 11 10 -11 23 -13 -14 -15 15 -17 -18 -19 19 -21 21 -23 -24 -25 -26 26 -28 -29 -30 -31
leaf_value=-0.0096228661553454942 -0.014627691018766873 0.04200446133897321 -0.0091494425683603855 -0.011177220625496215 0.022938936402351829 0.054191785928919725 -0.0052777101293059693 -0.017480790956566732 0.00043823118543341052 -0.020058312080430962 0.023786400674387469 -0.036427641477819316 -0.0013730977285236945 -0.0014661458945511186 0.016130625152573835 -0.015822233186336236 0.0083032510310877116 0.076751232072711006 0.0071498409049903476 -0.0018507252023978668 0.00036747999256476761 0.023105002228075114 -0.0098230894827373485 0.0036285772405821705 0.021164126523893309 -0.0052377809465367683 0.0034352584199364026 0.017892700773491352 -0.021405002023234514 0.027416407046396109
leaf_weight=171 119 73 21 667 92 81 518 102 105 126 43 34 104 512 53 20 50 20 41 22 32 39 26 29 197 79 62 54 33 42
leaf_count=171 119 73 21 667 92 81 518 102 105 126 43 34 104 512 53 20 50 20 41 22 32 39 26 29 197 79 62 54 33 42
internal_value=0 0.0101413 0.00310054 -0.00636267 -0.00274158 0.0469554 -0.00656172 -0.0115808 0.0122098 -0.0123513 0.0066331 -0.0222175 -0.00985474 -0.00350831 -0.00277724 0.00737642 -0.0040822 0.058659 0.0135493 0.0170068 0.0083228 0.0107527 0.00645147 0.0156673 0.0187499 -0.00903706 -0.00521358 0.0113717 -0.0100013 0.0366767
internal_weight=0 1331 1115 2236 1329 216 1060 907 269 419 177 136 771 683 641 73 568 101 432 260 172 151 112 72 238 293 174 86 112 115
internal_count=3567 1331 1115 2236 1329 216 1060 907 269 419 177 136 771 683 641 73 568 101 432 260 172 151 112 72 238 293 174 86 112 115
cat_boundaries=0 1 2
cat_threshold=24 196
is_linear=0
shrinkage=0.05


Tree=10
num_leaves=31
num_cat=0
split_feature=3 10 11 11 14 3 4 10 15 10 15 8 4 3 11 10 10 15 4 2 11 15 6 6 3 11 10 10 2 3
split_gain=54.7782 28.2816 18.1101 11.7614 11.955 11.2092 9.05819 7.5513 6.07896 6.06115 6.05543 5.91502 6.88418 5.32503 4.99844 4.86301 5.76086 4.69417 4.60776 4.24274 3.88135 3.64753 3.89061 3.64324 4.88936 3.25854 3.53061 4.54846 4.93967 3.1823
threshold=3.2769667020129059 3.6100000000000008 46.500000000000007 117.50000000000001 11793111639.846874 2.0126758453675748 4.1159790613037552 4.3900000000000015 398.4878553827387 3.6100000000000008 409.31803262942827 821641.50000000012 4.5982617409288968 4.6150714996361826 848.00000000000011 3.6995145631067969 3.7021739130434792 446.48544929695584 3.802478364935062 0.38700255102040815 475.62500000000006 104.71373052397566 262.47387408975334 130.0797182761718 4.1026092131977068 162.30000000000004 3.998333333333334 3.8133928571428575 0.30524238227146816 4.2835627800822236
decision_type=2 2 2 2 2 2 2 2 2 2 2 2 2 2 2 2 2 2 2 2 2 2 2 2 2 2 2 2 2 2
left_child=2 29 8 -3 6 10 14 9 -1 -7 -4 12 13 21 19 -11 -17 18 25 23 -9 -8 -23 -5 -25 -18 27 -27 -29 -2
right_child=1 3 5 4 -6 7 11 20 -10 15 -12 -13 -14 -15 -16 16 17 -19 -20 -21 -22 22 -24 24 -26 26 -28 28 -30 -31
leaf_value=-0.016648160334538319 -0.022570734242132556 -0.011276499978044913 -0.0096204203032100449 0.0273603362342692 -0.0076368779211770741 -0.0073003882391466978 0.047253186237953965 -0.0027138606673993526 -0.0066403990544113001 0.029178657147678588 -0.0015844630780055752 0.0065201127585688872 0.013008798472583294 0.053067597212564002 0.0016779436812023906 -0.011646621752530338 -0.005503753905876878 0.011112001518961362 0.022147977158116797 0.00055316563707609207 -0.02026504280252589 0.036151142146438359 0.0079672430098677686 0.011048647445112296 0.024537672607976041 -0.0020282667172789345 0.00025508871563573139 0.0098772048694081606 0.035339550599455836 0.00045930894091725352
leaf_weight=246 60 42 393 80 50 105 21 105 396 21 581 28 37 38 68 50 113 278 30 39 45 25 24 209 99 53 236 80 25 20
leaf_count=246 60 42 393 80 50 105 21 105 396 21 581 28 37 38 68 50 113 278 30 39 45 25 24 209 99 53 236 80 25 20
internal_value=0 0.0114645 -0.00311985 0.0144411 0.0159454 -0.000887178 0.0177106 0.00247591 -0.0104751 0.00405843 -0.0048269 0.0275593 0.0316221 0.0379989 0.0142685 0.00540456 0.00482739 0.00583806 0.00310779 0.0162735 -0.00797922 0.0298187 0.0223468 0.0178537 0.0153844 0.00198115 0.00412784 0.00991245 0.0159397 -0.0168132
internal_weight=0 840 2757 760 718 2115 668 1141 642 991 974 173 145 108 495 886 865 815 537 427 150 70 49 388 308 507 394 158 105 80
internal_count=3597 840 2757 760 718 2115 668 1141 642 991 974 173 145 108 495 886 865 815 537 427 150 70 49 388 308 507 394 158 105 80
is_linear=0
shrinkage=0.05


Tree=11
num_leaves=31
num_cat=3
split_feature=13 3 3 3 13 3 13 3 11 10 0 9 3 8 8 3 2 9 9 7 8 4 11 8 7 2 2 1 3 7
split_gain=86.2973 125.113 20.7206 15.5166 15.4318 22.9568 9.49656 8.39544 8.00798 7.57882 6.17927 4.83392 4.93238 4.56427 3.65513 3.60983 6.47229 3.58359 3.57302 3.50429 3.44553 3.40398 3.3103 3.73883 3.16907 3.13028 3.12403 5.71039 4.35445 2.63038
threshold=0 2.9700856263602158 2.0126758453675748 3.795426061844291 1 3.2769667020129059 2 4.8242976514536702 41.300000000000004 3.7180645161290329 1165.5000000000002 8095000.0000000009 4.4829865921051741 88182.500000000015 141068.00000000003 1.4978661367769956 0.28260030864197533 5917500.0000000009 8860000.0000000019 0.22376483484075702 690128.00000000012 2.9925974670471938 81.333333333333357 93791.000000000015 0.42102181926117604 0.27681421224189623 0.27351875000000009 5.5000000000000009 2.524928003624769 0.2688336944134283
decision_type=1 2 2 2 1 2 1 2 2 2 2 2 2 2 2 2 2 2 2 2 2 2 2 2 2 2 2 2 2 2
left_child=1 2 15 17 14 10 7 9 -4 -7 -6 12 -5 -11 29 24 -17 -3 25 -12 21 -21 -23 -24 -1 -8 28 -28 -10 -2
right_child=4 3 8 11 5 6 18 -9 26 13 19 -13 -14 -15 -16 16 -18 -19 -20 20 -22 22 23 -25 -26 -27 27 -29 -30 -31
leaf_value=-0.0083800764634079112 -0.014404256970240871 0.033923173208836636 -0.011541284741285969 0.053690293434335561 -0.012055373961673908 -0.013784998707921693 0.0071098494725217957 0.04483047153800726 0.0025750719487904481 0.024797295396873618 -0.0086742377741422291 0.034781726482121841 0.082303116768598569 0.0082005552424750522 -0.021062367797769127 -0.0056267821216947761 0.011684902873591032 0.015023754534001153 -0.015136667709846639 -0.0029501814238204506 -0.019260842858680658 -0.0089107220992445946 0.025069318220074122 -0.00011831994455021162 0.0003726551504798269 -0.0057718179364711414 0.013033720700641967 0.034790221677529952 0.017046624247450383 -0.0058748230231315673
leaf_weight=303 240 153 34 61 396 27 111 20 102 68 326 23 20 106 124 116 101 30 38 455 28 21 34 26 157 82 101 43 106 145
leaf_count=303 240 153 34 61 396 27 111 20 102 68 326 23 20 106 124 116 101 30 38 455 28 21 34 26 157 82 101 43 106 145
internal_value=0 0.0102195 0.00238607 0.0395892 -0.00572495 -0.00343284 0.00624027 0.0133329 0.011631 0.0108621 -0.00685942 0.0550111 0.0607552 0.0146866 -0.0133345 -0.00288506 0.00243073 0.0308249 -0.00107589 -0.00454751 -0.0021622 -0.00126899 0.00817476 0.0141547 -0.00539273 0.00163681 0.0138693 0.0195305 0.00995 -0.0111919
internal_weight=0 1350 1063 287 2247 1738 452 221 386 201 1286 104 81 174 509 677 217 183 231 890 564 536 81 60 460 193 352 144 208 385
internal_count=3597 1350 1063 287 2247 1738 452 221 386 201 1286 104 81 174 509 677 217 183 231 890 564 536 81 60 460 193 352 144 208 385
cat_boundaries=0 1 2 3
cat_threshold=24 33 192
is_linear=0
shrinkage=0.05


Tree=12
num_leaves=31
num_cat=3
split_feature=13 6 6 13 6 2 11 6 15 13 1 6 11 15 2 0 10 11 4 8 15 2 15 15 2 2 15 6 1 15
split_gain=77.8833 99.3071 23.4959 13.9272 12.0757 11.1755 9.56028 9.52811 8.11486 7.88788 6.51689 6.11471 5.87303 5.26514 5.5011 4.93503 4.76664 4.70086 5.35754 5.06903 4.67694 4.65849 4.53935 4.0377 3.66138 3.53919 3.47728 3.46337 3.28096 3.24938
threshold=0 54.440698055869305 247.06208985876188 1 205.81937172798771 0.24271875730044387 103.16666666666667 12.95248478863725 286.84959200154196 2 5.5000000000000009 553.69802627128013 70.250000000000014 437.86043193369102 0.26552854938271614 1566.0000000000002 3.8392307692307694 130.25000000000003 2.5207034763815055 198955.00000000003 136.27072830036442 0.22856827916351721 487.13593007225705 128.54466995632851 0.36144943212547337 0.3319773175542407 19.15109141212125 79.381662122991017 4.5000000000000009 40.59545093116224
decision_type=1 2 2 1 2 2 2 2 2 1 2 2 2 2 2 2 2 2 2 2 2 2 2 2 2 2 2 2 2 2
left_child=1 7 6 20 8 -4 -3 22 25 11 -8 16 -9 -14 -15 24 -6 -10 -19 -20 -2 -17 -1 -18 -12 27 -7 -5 -16 -13
right_child=3 2 5 4 9 26 10 12 17 -11 15 29 13 14 28 21 23 18 19 -21 -22 -23 -24 -25 -26 -27 -28 -29 -30 -31
leaf_value=-0.010658378579120869 -0.020261857282112994 -0.0093236170309994905 0.025304639511206563 -0.011618411634316365 -0.01113459276104415 0.04480636470505725 0.0094484449714632227 -0.0048658109667073747 -0.0062234557623550091 -0.0025228208020472761 0.022071946669680376 0.017931922296843223 0.0038848565767984839 0.0079725234795616755 0.015924928211156399 0.028170913813466376 0.0032552797595659893 -0.0034427748737426837 0.011046194281344388 -0.0099031938160104426 -0.0097892775705752041 0.055394503846764566 -0.00054188455251137104 0.025898675194808415 0.044846819005906584 -0.016689637409177116 0.06815463710361376 -0.0024219162430829154 0.038748552952893082 0.043781871777027852
leaf_weight=167 152 21 31 234 27 23 51 95 394 159 150 31 200 84 31 33 45 267 165 35 357 30 330 35 20 144 52 182 32 20
leaf_count=167 152 21 31 234 27 23 51 95 394 159 150 31 200 84 31 33 45 267 165 35 357 30 330 35 20 144 52 182 32 20
internal_value=0 0.00970851 0.0302781 -0.0054387 -0.0032612 0.0505569 0.0232304 0.000808591 -0.00524846 0.00554409 0.0256376 0.012999 0.00614941 0.0091651 0.0163491 0.0291811 0.00703091 -0.00220122 0.00119227 0.00738005 -0.0126678 0.0411345 -0.00394119 0.0131618 0.0247513 -0.00993358 0.0609945 -0.00759494 0.0275179 0.0280692
internal_weight=0 1350 411 2247 1738 106 305 939 1421 317 284 158 442 347 147 233 107 861 467 200 509 63 497 80 170 560 75 416 63 51
internal_count=3597 1350 411 2247 1738 106 305 939 1421 317 284 158 442 347 147 233 107 861 467 200 509 63 497 80 170 560 75 416 63 51
cat_boundaries=0 1 2 3
cat_threshold=24 33 192
is_linear=0
shrinkage=0.05


Tree=13
num_leaves=31
num_cat=3
split_feature=13 3 3 13 3 3 15 10 3 2 13 10 9 3 3 3 9 9 3 2 15 8 14 2 1 3 15 10 8 9
split_gain=70.2952 102.444 17.034 12.7275 20.4948 12.597 7.0143 6.65372 5.5131 5.27482 5.09544 4.33695 4.21359 4.24726 3.51843 3.38698 3.24282 3.08253 2.99722 5.75278 4.5478 2.96191 2.95144 2.8274 4.6641 4.32156 2.4931 3.97855 2.43986 2.156
threshold=0 2.9700856263602158 2.0126758453675748 1 3.2769667020129059 3.795426061844291 431.92620017773066 3.7180645161290329 5.0106130713801926 0.23204121537233063 2 3.6100000000000008 8095000.0000000009 4.4829865921051741 3.6242520361853052 3.7726948748059121 5917500.0000000009 4570000.0000000009 1.4978661367769956 0.28260030864197533 492.84452271505774 206575.50000000003 209186683.52296674 0.27351875000000009 5.5000000000000009 2.6735537653587347 482.00234658063772 3.9483333333333337 70821.500000000015 3303000.0000000005
decision_type=1 2 2 1 2 2 2 2 2 2 1 2 2 2 2 2 2 2 2 2 2 2 2 2 2 2 2 2 2 2
left_child=1 2 18 4 6 16 21 -6 9 14 -5 -4 13 28 -9 -11 29 -12 20 -20 -1 -2 -16 25 26 -13 27 -25 -7 -3
right_child=3 5 11 10 7 12 -8 8 -10 15 17 23 -14 -15 22 -17 -18 -19 19 -21 -22 -23 -24 24 -26 -27 -28 -29 -30 -31
leaf_value=-0.011102085221476482 -0.0085105737650622276 0.028547859116842756 -0.0029151026558023522 -0.0077932565486546132 -0.010145175155429613 0.062302409183411372 -0.001392352623833042 0.034774459225053976 0.035807999281123992 -0.0051587044085818733 -0.016370714734512151 0.0040881801493001897 0.030807690678731254 0.075052849054336554 0.026708514576118132 0.0091222158067214964 0.012871124451824777 -0.035897681505108879 -0.0053973566580429308 0.010923725067831503 -0.00092535678346935114 -0.021214691936221049 0.0044231854701557985 0.022560522781684994 0.032528289505280555 0.02020464296200139 0.02464489705910507 -0.0027465718525757151 0.041256001768633727 0.046155439317226411
leaf_weight=181 457 133 52 756 42 21 488 26 21 61 128 141 23 20 24 130 30 24 116 101 279 51 39 25 40 59 28 41 40 20
leaf_count=181 457 133 52 756 42 21 488 26 21 61 128 141 23 20 24 130 30 24 116 101 279 51 39 25 40 59 28 41 40 20
internal_value=0 0.00922309 0.00213459 -0.00516733 -0.00202819 0.0357991 -0.00567344 0.00849773 0.0110991 0.0092459 -0.009724 0.0105169 0.0496945 0.0550574 0.0192994 0.00456129 0.0279022 -0.0182531 -0.00264468 0.00219909 -0.00492968 -0.00978599 0.0129128 0.0126081 0.0182283 0.00884254 0.0121432 0.00683945 0.0485015 0.0308495
internal_weight=0 1350 1063 2247 1339 287 996 343 301 280 908 386 104 81 89 191 183 152 677 217 460 508 63 334 134 200 94 66 61 153
internal_count=3597 1350 1063 2247 1339 287 996 343 301 280 908 386 104 81 89 191 183 152 677 217 460 508 63 334 134 200 94 66 61 153
cat_boundaries=0 1 2 3
cat_threshold=24 196 3
is_linear=0
shrinkage=0.05


Tree=14
num_leaves=31
num_cat=3
split_feature=13 6 6 13 10 2 6 6 11 13 11 15 6 4 8 2 15 15 15 0 6 14 15 0 0 6 15 11 14 12
split_gain=63.4574 80.9647 17.1451 11.5083 10.8066 9.74209 9.63105 9.42994 7.93572 6.47412 5.95358 5.51423 5.17428 4.77056 4.74647 4.26936 4.24112 4.06256 3.70009 3.45847 3.51439 3.39416 3.38972 3.38596 3.29958 3.18992 2.94759 2.86325 2.68843 2.6868
threshold=0 63.3583807843589 247.06208985876188 1 3.7021739130434792 0.24271875730044387 12.95248478863725 194.72178151750958 117.50000000000001 2 70.250000000000014 286.84959200154196 496.85452688003943 3.1909873171337018 241238.00000000003 0.28062500000000007 659.14600753222226 201.84680859081411 487.13593007225705 1065.7857142857147 29.498525073746315 2937305104.9822288 437.86043193369102 1742.0000000000002 140.50000000000003 78.5813991657201 19.15109141212125 439.62946428571433 744537115.02545154 28.630055205445952
decision_type=1 2 2 1 2 2 2 2 2 1 2 2 2 2 2 2 2 2 2 2 2 2 2 2 2 2 2 2 2 2
left_child=1 6 8 16 23 -4 18 11 -3 12 -8 28 21 25 27 19 -2 -10 -1 -12 -21 -9 29 -5 -14 -13 -7 -15 -6 -17
right_child=3 2 5 4 7 26 10 9 17 -11 15 13 24 14 -16 22 -18 -19 -20 20 -22 -23 -24 -25 -26 -27 -28 -29 -30 -31
leaf_value=-0.0096135761867650969 -0.014158960288074427 -0.007494445453353581 0.022247440866645304 -0.013910075536965674 -0.0064929698738890387 0.040665668977991398 -0.00473244263791748 0.01353269127414447 0.019292988693923693 -0.00072511736000419264 -0.0074059987916274272 -0.0030211031686114042 0.013250794394740037 0.010097507046758318 -0.010001900304286254 0.0050854403858206108 -0.0032113767114264704 0.032595381109338059 -0.00048003603272125917 0.00046665285083958332 0.014496348940388379 -0.0092775036979998865 0.024728362009433721 -0.0051730149013780834 0.039274895422417549 0.010139173281255782 0.062162209993514878 0.032028790148483081 -0.024477033146302514 0.023675211039013589
leaf_weight=167 395 21 31 229 375 23 97 73 145 139 47 474 21 46 21 77 114 95 330 85 94 21 60 215 29 51 52 22 22 26
leaf_count=167 395 21 31 229 375 23 97 73 145 139 47 474 21 46 21 77 114 95 330 85 94 21 60 215 29 51 52 22 22 26
internal_value=0 0.00876193 0.0288667 -0.00491069 -0.00293166 0.0458247 0.00134502 -0.000639049 0.0219795 0.00742846 0.00634986 -0.00289731 0.0143526 7.19442e-05 0.0107762 0.00911331 -0.0114815 0.0245585 -0.00354905 0.00466478 0.0078342 0.0084368 0.0152812 -0.00967929 0.0283448 -0.00174268 0.0555699 0.0171929 -0.00748957 0.009778
internal_weight=0 1350 367 2247 1738 106 983 1294 261 283 486 1011 144 614 89 389 509 240 497 226 179 94 163 444 50 525 75 68 397 103
internal_count=3597 1350 367 2247 1738 106 983 1294 261 283 486 1011 144 614 89 389 509 240 497 226 179 94 163 444 50 525 75 68 397 103
cat_boundaries=0 1 2 3
cat_threshold=24 33 192
is_linear=0
shrinkage=0.05


Tree=15
num_leaves=31
num_cat=3
split_feature=13 3 3 3 13 6 15 11 15 14 12 2 14 3 9 10 2 3 15 2 15 6 11 13 10 2 2 4 6 5
split_gain=57.9249 81.3986 12.6541 12.0306 10.7289 10.7229 8.1249 7.02608 5.78363 5.52993 6.32263 5.17311 4.87407 4.64972 4.63946 4.21611 3.78209 3.04309 3.72369 3.3191 2.85988 3.62839 3.4452 2.53193 2.26602 2.24443 2.21007 2.19394 2.91305 1.90069
threshold=0 2.9700856263602158 3.9796379800581989 2.1383330595080281 1 449.82635312122903 286.84959200154196 60.250000000000007 43.512039359073206 3359491003.4518094 36.618477318763205 0.30228418621209241 669846023.97636247 4.8242976514536702 8860000.0000000019 3.8007936507936511 0.56944444444444453 1.4978661367769956 1529.8233431952544 0.28260030864197533 878.30225331157146 29.081849639467226 104.16666666666667 2 3.9019230769230773 0.25476995531940588 0.29818594104308388 3.7331942207210482 96.428760683815639 1151.5000000000002
decision_type=1 2 2 2 1 2 2 2 2 2 2 2 2 2 2 2 2 2 2 2 2 2 2 1 2 2 2 2 2 2
left_child=1 3 6 16 13 9 14 -5 -7 10 24 29 -6 -4 15 -2 17 18 -1 -19 21 -8 -23 26 -3 -14 -17 28 -26 -12
right_child=2 5 4 7 12 8 20 -9 -10 -11 11 -13 25 -15 -16 23 -18 19 -20 -21 -22 22 -24 -25 27 -27 -28 -29 -30 -31
leaf_value=-0.0066257876614035545 -0.013921117563330108 0.012766428978035324 0.012276366677902202 -0.01120695184916258 0.0085641174000643562 0.036943761095404627 -0.0086522697967884605 0.012526560360419246 0.071685929661211761 0.0025051453942433002 0.023425564010228432 0.060837373396624699 0.0017286945134401322 0.037198292238948244 -0.022505681399530398 -0.00041269214706066739 0.019272407135438353 -0.0030027599118420769 0.0072892480539369659 0.0078712008856236925 0.00019512139166787774 -0.0093309317092114888 0.001139029939026593 -0.010959692038557086 0.036112084789891488 -0.01256143749235899 -0.0095435495371930315 0.041931452248245481 0.01524966950951652 0.041017062562134339
leaf_weight=382 281 38 85 35 63 25 400 286 23 20 28 23 39 24 70 214 21 160 55 125 336 110 275 171 27 93 96 20 44 34
leaf_count=382 281 38 85 35 63 25 400 286 23 20 28 23 39 24 70 214 21 160 55 125 336 110 275 171 27 93 96 20 44 34
internal_value=0 0.00811975 -0.0049444 0.00184999 0.00452301 0.0320638 -0.00644339 0.00993879 0.0535911 0.027648 0.0299978 0.0405854 -0.00273783 0.016271 -0.0101868 -0.00905516 -0.00164463 -0.00225302 -0.00487447 0.00176652 -0.00366505 -0.0053173 -0.00185239 -0.00621248 0.0230214 -0.00833935 -0.00313905 0.0273037 0.0231833 0.0330725
internal_weight=0 1346 2257 1064 304 282 1953 321 48 234 214 85 195 109 832 762 743 722 437 285 1121 785 385 481 129 132 310 91 71 62
internal_count=3603 1346 2257 1064 304 282 1953 321 48 234 214 85 195 109 832 762 743 722 437 285 1121 785 385 481 129 132 310 91 71 62
cat_boundaries=0 1 2 3
cat_threshold=24 192 70
is_linear=0
shrinkage=0.05


Tree=16
num_leaves=31
num_cat=3
split_feature=13 3 3 1 13 6 15 2 1 2 10 10 15 14 3 9 8 13 3 2 3 15 3 3 10 2 10 15 15 14
split_gain=52.2976 73.4622 11.4265 10.9836 9.68283 9.67739 7.54422 7.25037 7.10622 8.87781 5.45932 5.45423 5.21973 4.39885 4.19637 3.82164 3.78115 3.38707 3.45575 4.36379 3.3578 3.23367 3.00644 3.00174 2.85899 3.75152 2.76666 2.54157 2.53548 2.45984
threshold=0 2.9700856263602158 3.9796379800581989 4.5000000000000009 1 449.82635312122903 57.987118035137122 0.26552854938271614 5.5000000000000009 0.30185710305036967 3.8007936507936511 3.8949754901960794 43.512039359073206 669846023.97636247 4.8242976514536702 4627500.0000000009 690128.00000000012 2 2.524928003624769 0.21946745562130179 3.1132683346437333 117.35613546476996 3.5114340430413216 2.524928003624769 4.1930952380952382 0.32598719961357331 3.0500000000000003 1013.8435625835554 372.27832333871896 163138505.59750065
decision_type=1 2 2 2 1 2 2 2 2 2 2 2 2 2 2 2 2 1 2 2 2 2 2 2 2 2 2 2 2 2
left_child=1 3 6 26 14 8 29 23 -3 15 16 -12 -7 -6 -4 22 28 18 -13 20 -20 -11 -10 -5 25 -9 -1 -19 -8 -2
right_child=2 5 4 7 13 12 10 24 9 21 11 17 -14 -15 -16 -17 -18 27 19 -21 -22 -23 -24 -25 -26 -27 -28 -29 -30 -31
leaf_value=-0.007779343075360632 -0.010430934127177589 -0.0022363050654530528 0.011662548274068874 -8.6754735870261119e-05 0.0081359114941386961 0.035096573188900949 -0.011553780567454054 0.01519713418930769 0.021028929125491737 0.063506572768092157 0.01551165322247797 -0.0039158570006745117 0.06810163285421289 -0.0079223853844627174 0.035338377720715172 0.0077470574445361569 -0.026681860559619963 -0.0077343909826095699 0.0052365186267221975 -0.0010802172167821097 0.026621919323600109 0.03676448836922646 0.036095683040496498 0.011132534579472974 0.0061439377736420405 0.036724400046445865 -0.00024748895584809693 0.0021829610397786992 -0.0049498763077192448 -0.020869520197764203
leaf_weight=158 146 20 85 163 63 25 261 50 81 20 39 310 23 132 24 31 28 466 45 132 31 26 56 94 31 34 534 75 328 92
leaf_count=158 146 20 85 163 63 25 261 50 81 20 39 310 23 132 24 31 28 466 45 132 31 26 56 94 31 34 534 75 328 92
internal_value=0 0.00771376 -0.0046996 0.00175749 0.00429686 0.0304606 -0.00612403 0.0086862 0.0262656 0.0289293 -0.00496637 -0.00285167 0.0509115 -0.00260094 0.0154575 0.0236004 -0.00872964 -0.00352794 -0.000559813 0.00441507 0.0139595 0.0483915 0.0271876 0.0040168 0.0191213 0.0239106 -0.00196719 -0.00624411 -0.00787622 -0.014466
internal_weight=0 1346 2257 1064 304 282 1953 372 234 214 1715 1098 48 195 109 168 617 1059 518 208 76 46 137 257 115 84 692 541 589 238
internal_count=3603 1346 2257 1064 304 282 1953 372 234 214 1715 1098 48 195 109 168 617 1059 518 208 76 46 137 257 115 84 692 541 589 238
cat_boundaries=0 1 2 3
cat_threshold=24 192 68
is_linear=0
shrinkage=0.05


Tree=17
num_leaves=31
num_cat=3
split_feature=13 1 2 13 4 11 4 1 8 15 11 4 8 2 2 8 8 0 13 12 0 10 8 1 11 2 1 15 2 10
split_gain=47.1986 64.9024 23.2358 10.2544 9.33942 8.51319 7.23229 6.07078 5.78304 4.39751 4.21578 3.67532 3.70328 3.59175 3.51154 3.50454 3.3583 3.163 3.14628 4.05865 4.27286 3.3599 2.49883 2.27396 2.17323 2.097 3.07051 2.41399 2.38437 2.17283
threshold=0 5.5000000000000009 0.25659013605442177 1 3.6997563778276574 104.16666666666667 2.9925974670471938 7.5000000000000009 222943.50000000003 459.57410206823494 46.500000000000007 3.8918170442474778 821641.50000000012 0.34708049886621312 0.21084065082644629 312263.00000000006 222943.50000000003 3284.5000000000005 2 8.7835141501564333 1506.0000000000002 4.073214285714287 144846.00000000003 7.5000000000000009 135.75000000000003 0.25423856119493982 3.5000000000000004 391.02725176206565 0.34036011080332412 3.9483333333333337
decision_type=1 2 2 1 2 2 2 2 2 2 2 2 2 2 2 2 2 2 1 2 2 2 2 2 2 2 2 2 2 2
left_child=1 10 7 16 13 9 17 14 18 22 -1 -10 -13 -4 24 -16 -2 -7 19 -8 23 -22 -5 -21 -3 -12 -27 29 -29 -28
right_child=3 2 4 5 -6 6 8 -9 11 -11 25 12 -14 -15 15 -17 -18 -19 -20 20 21 -23 -24 -25 -26 26 27 28 -30 -31
leaf_value=-0.0062315515094552142 -0.013952306216219214 -0.010961296143276351 0.023286252029550574 -0.010368773087018465 0.051872983050270709 -0.0054705120202892558 -0.0053845770457493407 0.029507853516510557 -0.012480061177519106 -0.0040250044929986892 -0.0037687823610516114 0.0078982141825434445 -0.013054193039424717 0.043791436430599011 0.019522609948538817 -0.0033315273607149721 -0.032366681483484087 0.0057325454465909928 -0.0002475862029700004 0.0038442755900039019 0.032980958233298122 0.011837511193672462 -0.022661490645259619 0.017336955698343311 0.0070007670250625403 -0.0010313985892668929 0.0093179480894140798 0.0083541465798870045 0.025756968944691695 -0.0025003415916851441
leaf_weight=238 123 21 90 298 64 725 42 49 84 333 144 71 30 28 104 20 31 69 155 131 34 42 48 41 85 239 71 81 26 86
leaf_count=238 123 21 90 298 64 725 42 49 84 333 144 71 30 28 104 20 31 69 155 131 34 42 48 41 85 239 71 81 26 86
internal_value=0 0.00732808 0.022595 -0.00446462 0.0364934 -0.00350298 -0.0013229 0.0135286 0.0026774 -0.00812662 -0.000541702 -0.00475231 0.00167473 0.0281519 0.0101243 0.0158365 -0.0165823 -0.00449695 0.00576616 0.0086893 0.0114232 0.0212964 -0.0120741 0.00706055 0.00344225 0.00155132 0.00307437 0.00679133 0.0125829 0.00284424
internal_weight=0 1346 461 2257 182 2103 1424 279 630 679 885 185 101 118 230 124 154 794 445 290 248 76 346 172 106 647 503 264 107 157
internal_count=3603 1346 461 2257 182 2103 1424 279 630 679 885 185 101 118 230 124 154 794 445 290 248 76 346 172 106 647 503 264 107 157
cat_boundaries=0 1 2 3
cat_threshold=24 32 196
is_linear=0
shrinkage=0.05


Tree=18
num_leaves=31
num_cat=3
split_feature=13 3 3 3 13 6 15 11 15 14 12 2 14 3 15 11 3 0 14 2 3 2 13 2 2 2 10 2 10 4
split_gain=42.5971 60.4414 9.71348 8.87185 8.26858 8.08208 6.67421 5.82579 4.7563 4.44241 5.05328 4.11636 3.93835 3.81288 3.59271 4.19379 3.89127 3.38152 3.21087 2.50798 2.50938 3.75223 2.43552 2.39583 2.27145 2.20354 2.15813 1.92123 1.86239 1.77642
threshold=0 2.9700856263602158 3.9796379800581989 2.1383330595080281 1 449.82635312122903 117.35613546476996 60.250000000000007 43.512039359073206 3359491003.4518094 36.618477318763205 0.30228418621209241 669846023.97636247 4.8242976514536702 878.30225331157146 104.16666666666667 2.3502401828962087 834.50000000000011 158532327.31497881 0.25587695133149679 1.2424533248940004 0.40271214030665831 2 0.22122524005486968 0.5151020408163266 0.2957355019320545 3.6232142857142859 0.25476995531940588 3.9019230769230773 3.7331942207210482
decision_type=1 2 2 2 1 2 2 2 2 2 2 2 2 2 2 2 2 2 2 2 2 2 1 2 2 2 2 2 2 2
left_child=1 3 6 17 13 9 18 -5 -7 10 28 -12 -6 -4 15 -8 -17 -1 25 -19 24 -22 23 -18 -21 -2 -20 -14 -3 -30
right_child=2 5 4 7 12 8 14 -9 -10 -11 11 -13 27 -15 -16 16 22 19 26 20 21 -23 -24 -25 -26 -27 -28 -29 29 -31
leaf_value=-0.0089424279488623144 -0.0039675480990101477 0.010332752332875603 0.010713890517020928 -0.010750073684113367 0.0078387286336649032 0.031186927338596432 -0.0092930253422899359 0.010861323079642991 0.062692785392636841 0.0012251212133560332 0.028630136193767669 0.053397292676179313 0.0019591821635213612 0.033281973338065048 0.0004866394695324873 -0.0074837968988296921 0.0087947486336158575 -0.0048170958284374692 -0.027785269885852532 -0.0054520686645992099 0.0027886527649561405 0.019607323843520139 -0.0047230620094220891 -0.00070981623151296163 0.0061757268011569978 -0.013518763460272637 -0.013742352605220817 -0.011262090966826486 0.019804190658032895 0.036674377191811804
leaf_weight=125 144 38 85 35 63 25 435 286 23 20 62 23 39 24 336 316 101 184 37 140 194 40 182 193 60 104 105 93 71 20
leaf_count=125 144 38 85 35 63 25 435 286 23 20 62 23 39 24 336 316 101 184 37 140 194 40 182 193 60 104 105 93 71 20
internal_value=0 0.00696167 -0.00424144 0.00155872 0.00405369 0.0275941 -0.00555436 0.00850494 0.0462835 0.0237604 0.0258665 0.0353318 -0.00232745 0.0143651 -0.0040943 -0.00534874 -0.00318236 -0.00144227 -0.0114058 7.47572e-05 0.00214872 0.00566364 -0.000326792 0.0024713 -0.00196373 -0.0079729 -0.0174014 -0.00735581 0.0196297 0.0235119
internal_weight=0 1346 2257 1064 304 282 1953 321 48 234 214 85 195 109 1563 1227 792 743 390 618 434 234 476 294 200 248 142 132 129 91
internal_count=3603 1346 2257 1064 304 282 1953 321 48 234 214 85 195 109 1563 1227 792 743 390 618 434 234 476 294 200 248 142 132 129 91
cat_boundaries=0 1 2 3
cat_threshold=24 192 196
is_linear=0
shrinkage=0.05


Tree=19
num_leaves=31
num_cat=3
split_feature=13 3 1 13 3 13 15 3 11 10 9 12 6 15 9 0 8 8 3 10 9 6 8 11 15 10 8 6 3 12
split_gain=38.4514 54.5926 11.4761 9.11817 12.8027 6.44201 5.9698 5.622 5.28608 4.85543 4.06692 4.07171 3.74544 4.06784 3.55163 3.23931 3.11769 3.0407 3.03887 2.58324 2.41392 1.96899 1.84107 1.83995 1.81667 1.75457 1.70463 2.42651 2.10668 2.52329
threshold=0 3.1567740231385479 4.5000000000000009 1 3.4811217321331038 2 372.27832333871896 4.5798392285869785 50.750000000000007 3.7180645161290329 16270000.000000002 36.618477318763205 496.85452688003943 54.415267362218806 7475000.0000000009 1726.5000000000002 690128.00000000012 178894.00000000003 2.1383330595080281 3.8133928571428575 1015000.0000000001 79.381662122991017 88182.500000000015 75.166666666666671 1977.1837169338257 4.0870879120879131 73307.500000000015 90.968236682708437 2.8617925509761908 22.781550555363822
decision_type=1 2 2 1 2 1 2 2 2 2 2 2 2 2 2 2 2 2 2 2 2 2 2 2 2 2 2 2 2 2
left_child=1 2 15 17 6 9 14 10 -4 -6 11 25 22 -14 19 23 18 -2 -10 -5 -7 24 -11 -1 -8 -3 27 -20 29 -28
right_child=3 7 8 4 5 20 21 -9 16 12 -12 -13 13 -15 -16 -17 -18 -19 26 -21 -22 -23 -24 -25 -26 -27 28 -29 -30 -31
leaf_value=-0.011350480724221972 -0.012221781517362503 0.015317810180724837 -0.009762040339410305 -0.011486021585955795 -0.0087578814763289228 0.0059926347753525462 -0.0033305357287996538 0.054775767591781911 0.0034614369227913104 0.018127929696225023 0.0055821241321973511 0.035982374452275805 0.014974766898699777 0.043098938241600993 -0.021365002833306793 0.00095982782008077825 -0.0058450172156361601 -0.028117702265338204 0.01326262724522332 -0.0052504202797276425 -0.0040230149262322065 0.0099595281595904993 0.0045883112062379159 -0.0028371448343282933 0.0090042574751761657 0.031080715147847379 0.0064223512094637655 -0.003725828979164362 0.028021719133576907 0.023798021424964472
leaf_weight=102 113 51 36 265 26 87 805 20 90 38 20 101 36 20 50 422 28 41 132 445 195 31 74 168 31 27 48 25 39 37
leaf_count=102 113 51 36 265 26 87 805 20 90 38 20 101 36 20 50 422 28 41 132 445 195 31 74 168 31 27 48 25 39 37
internal_value=0 0.00661359 0.00222383 -0.00403041 -0.00312497 0.00407276 -0.00524996 0.0295058 0.00858759 0.010793 0.0269661 0.0293553 0.0144611 0.0250191 -0.00848485 -0.00177651 0.0102432 -0.0154505 0.0114574 -0.00757779 -0.000901126 -0.00241431 0.00918211 -0.00605329 -0.00287315 0.0207742 0.0140184 0.0105575 0.0184004 0.0139859
internal_weight=0 1346 1127 2257 2103 476 1627 219 435 194 199 179 168 56 760 692 399 154 371 710 282 867 112 270 836 78 281 157 124 85
internal_count=3603 1346 1127 2257 2103 476 1627 219 435 194 199 179 168 56 760 692 399 154 371 710 282 867 112 270 836 78 281 157 124 85
cat_boundaries=0 1 2 3
cat_threshold=24 32 192
is_linear=0
shrinkage=0.05


Tree=20
num_leaves=31
num_cat=2
split_feature=13 6 6 13 0 2 9 1 2 6 15 15 12 10 15 7 8 11 2 0 2 1 2 6 6 10 1 8 9 9
split_gain=32.0489 44.4849 10.5562 9.27664 8.52724 7.84253 7.14829 7.05661 5.9084 4.93646 5.06819 4.00929 3.87693 3.41293 3.15644 3.13868 3.13182 3.18641 3.12678 2.94806 2.87518 3.8231 2.84722 2.78652 2.50133 2.9338 2.47623 2.47322 2.20137 2.13028
threshold=0 82.665106444429426 365.21221144801103 1 1235.0000000000002 0.27719099276791587 7315000.0000000009 4.5000000000000009 0.32764274691358031 297.583174466515 878.30225331157146 22.98980501520942 36.136838967165765 3.9341666666666675 1529.8233431952544 0.2380620806577177 206575.50000000003 174.45000000000002 0.18118686868686867 1030.0000000000002 0.28062500000000007 3.5000000000000004 0.33396345305608066 42.097444651490086 30.252268326942794 3.6100000000000008 6.5000000000000009 37926.500000000007 3360000.0000000005 2620000.0000000005
decision_type=1 2 2 1 2 2 2 2 2 2 2 2 2 2 2 2 2 2 2 2 2 2 2 2 2 2 2 2 2 2
left_child=1 7 3 5 22 28 9 14 18 10 16 -4 -7 -6 20 -13 17 -2 -9 -11 -1 -22 -5 -23 -19 -26 29 -15 -3 -20
right_child=6 2 11 4 13 12 -8 8 -10 19 -12 15 -14 27 -16 -17 -18 24 26 -21 21 23 -24 -25 25 -27 -28 -29 -30 -31
leaf_value=-0.0079442568206427363 -0.0080511417041798025 0.022935015598445067 0.020939934156327087 0.0052195665137770107 0.0064071006017911714 0.026103815281142792 -0.015564853950165847 -0.014390394010115416 0.022154401909146044 0.0020039988140558344 0.0016013060906505878 0.032192583784863754 0.054312998750086487 0.04189066602425142 0.006941518047824502 0.056394347264653158 -0.013675941368488626 -0.0076726753715522641 0.0036269602086955407 0.022573439162224533 -0.0041850340060667198 0.0080184739270706233 -0.0099062407661865415 -0.0088396860472857962 -0.012652440183592262 0.0010352790176304399 0.011705241392195311 0.019488167337008887 0.00369149467340954 -0.0088905917750181345
leaf_weight=248 523 42 44 129 24 21 141 24 45 135 261 37 29 22 80 21 122 173 322 20 384 134 41 30 44 355 87 28 23 38
leaf_count=248 523 42 44 129 24 21 141 24 45 135 261 37 29 22 80 21 122 173 322 20 384 134 41 30 44 355 87 28 23 38
internal_value=0 0.00463969 0.0181267 0.0140937 0.00743387 0.0253715 -0.00473681 0.00020643 0.00484491 -0.00383087 -0.00472113 0.0323212 0.0424651 0.0219059 -0.00252582 0.0409553 -0.00607705 -0.00523041 0.00319114 0.00465812 -0.00347732 -0.00145578 0.00157158 0.00493466 -0.00265132 -0.000474144 0.00413511 0.0293453 0.0161258 0.00230566
internal_weight=0 1853 461 359 244 115 1774 1392 516 1633 1478 102 50 74 876 58 1217 1095 471 155 796 548 170 164 572 399 447 50 65 360
internal_count=3627 1853 461 359 244 115 1774 1392 516 1633 1478 102 50 74 876 58 1217 1095 471 155 796 548 170 164 572 399 447 50 65 360
cat_boundaries=0 1 2
cat_threshold=88 8
is_linear=0
shrinkage=0.05


Tree=21
num_leaves=31
num_cat=2
split_feature=13 3 13 3 9 3 11 3 0 15 4 15 12 9 12 8 4 7 15 8 4 4 4 8 15 15 3 15 5 9
split_gain=28.9241 48.2058 9.73149 9.00655 6.45133 6.50345 6.08407 5.40591 4.92747 4.82046 4.57358 4.06038 3.90468 3.8558 6.91321 3.23552 3.44255 2.85187 2.77717 2.51949 3.30429 2.43909 2.39138 2.34995 2.33811 2.31431 2.24083 2.15007 2.00133 1.93905
threshold=0 2.9700856263602158 1 3.8815106545092593 7315000.0000000009 4.1026092131977068 46.500000000000007 2.4414009612931857 1235.0000000000002 878.30225331157146 4.3573094273624093 431.92620017773066 12.16360070692029 7882500.0000000009 35.861575476109522 379908.00000000006 3.388609697668707 0.22946391333148866 257.90722463394684 690128.00000000012 2.3211426592885105 3.6935547926573764 2.8295232904074052 93791.000000000015 305.14032129346191 1223.6445424844485 2.249904835165133 196.38640047003659 386.87500000000006 4690000.0000000009
decision_type=1 2 1 2 2 2 2 2 2 2 2 2 2 2 2 2 2 2 2 2 2 2 2 2 2 2 2 2 2 2
left_child=1 6 13 8 5 9 25 11 17 15 23 29 -13 14 27 16 -2 21 -18 20 -9 -4 -10 -5 -7 -1 -11 -3 -6 -8
right_child=4 2 3 10 28 24 7 19 22 26 -12 12 -14 -15 -16 -17 18 -19 -20 -21 -22 -23 -24 -25 -26 -27 -28 -29 -30 -31
leaf_value=-0.007878324692954122 -0.0064534797570665872 0.037026435810895195 -0.010934083216230978 0.030486686791603764 -0.024959930974162287 0.0038148028165535678 -0.0029379561507671646 -0.00087681853593884237 0.029336292177438741 -0.00098258637489478961 0.039870224082294632 0.00062253008565878393 0.012294468995336818 0.013468649132515899 0.049397881807021378 -0.017704537778419245 -0.0034731266933694946 0.010424034105257151 0.01059141685805199 -0.0073265269903155673 0.013077287175651042 0.0081693028720716647 0.010737994862055142 0.011390032887230723 0.022169191837310795 0.0029495083280683806 0.010093665934341439 0.016895109942803781 -0.011298615840101516 -0.0170616457095513
leaf_weight=278 1013 21 55 24 36 131 372 56 25 202 34 324 92 22 53 56 97 47 55 24 175 24 56 49 20 60 59 36 105 26
leaf_count=278 1013 21 55 24 36 131 372 56 25 202 34 324 92 22 53 56 97 47 55 24 175 24 56 49 20 60 59 36 105 26
internal_value=0 0.00440771 0.0187554 0.0125455 -0.00449997 -0.00363933 -0.00010899 0.00173981 0.00685678 -0.00464653 0.0247232 -0.000250284 0.00320382 0.0302829 0.0363988 -0.00596494 -0.00540064 0.000671574 0.00161602 0.0080925 0.00969447 -0.00513052 0.0164782 0.0176684 0.00624585 -0.00595622 0.00152124 0.0243119 -0.0147866 -0.00386061
internal_weight=0 1853 446 314 1774 1633 1407 1069 207 1482 107 814 416 132 110 1221 1165 126 152 255 231 79 81 73 151 338 261 57 141 398
internal_count=3627 1853 446 314 1774 1633 1407 1069 207 1482 107 814 416 132 110 1221 1165 126 152 255 231 79 81 73 151 338 261 57 141 398
cat_boundaries=0 1 2
cat_threshold=88 8
is_linear=0
shrinkage=0.05


Tree=22
num_leaves=31
num_cat=3
split_feature=13 6 6 10 8 6 4 13 13 2 0 11 6 9 0 12 7 0 11 6 12 9 10 4 6 2 10 0 7 5
split_gain=26.7108 36.0341 8.00786 6.33312 6.35177 9.10674 5.30236 5.15837 4.58732 9.3532 6.43311 4.1491 4.13555 3.68397 3.44555 3.70581 3.39946 3.28408 2.97294 2.79597 2.78589 2.57757 2.42938 2.37681 2.36026 2.22162 2.20508 2.16827 1.9633 1.85778
threshold=0 67.23227321311505 449.82635312122903 3.6100000000000008 379908.00000000006 1185.7616942732614 2.9925974670471938 1 2 0.27681421224189623 638.00000000000011 46.500000000000007 14.117009019580335 8310000.0000000009 1058.0000000000002 24.084979604338084 0.56769622301911438 1478.0000000000002 148.25000000000003 213.16990508091234 32.184078129624154 12825000.000000002 3.9341666666666675 4.0152556245588444 189.47663217576999 0.2854352678571429 4.3900000000000015 3006.0000000000005 0.26687646175394591 645.11607142857156
decision_type=1 2 2 2 2 2 2 1 1 2 2 2 2 2 2 2 2 2 2 2 2 2 2 2 2 2 2 2 2 2
left_child=1 11 8 17 5 6 16 19 9 -3 24 -1 27 18 25 -16 21 -2 -9 28 -11 -5 -12 -6 -10 -14 -20 -13 -8 -15
right_child=3 2 -4 4 23 -7 7 13 10 20 22 12 14 29 15 -17 -18 -19 26 -21 -22 -23 -24 -25 -26 -27 -28 -29 -30 -31
leaf_value=-0.0046866810662725298 -0.012640327138199479 0.013604570217767216 0.04004094689818366 -0.0040373020237541996 -0.01916508930417794 0.030987642180513253 0.0014536194750689902 -0.007026311255589163 -0.011957592342847162 0.027582045170831782 0.0063041623089123856 -0.0037055868565701588 -0.0078775004311999099 -0.018414372830394363 0.0057052466541113438 0.018628777746328037 0.0060559074909958457 -0.0046998006302542937 0.0051646202033378812 0.021028802074336758 0.048538087973637241 -0.021357417936352166 0.023050756643097553 -0.0054150193650275473 0.0081574627682566639 0.0067674076117368214 -0.010643261348983895 0.0053681085888149863 0.018222675573391221 -0.0014409933963439212
leaf_weight=253 224 83 42 910 66 22 64 79 35 29 33 253 61 38 231 73 84 311 273 48 35 22 63 60 25 45 24 89 24 28
leaf_count=253 224 83 42 910 66 22 64 79 35 29 33 253 61 38 231 73 84 311 273 48 35 22 63 60 25 45 24 89 24 28
internal_value=0 0.00559677 0.0195805 -0.00325193 -0.00180487 -0.000961816 -0.00140277 0.00242057 0.0167444 0.0231076 0.00870877 0.000852076 0.00271551 -0.000311216 0.006102 0.00880859 -0.00357787 -0.00802443 0.00159421 0.0105463 0.0390424 -0.00444615 0.0172941 -0.0126174 -0.00357632 -0.00166032 0.00388722 -0.0013443 0.006027 -0.0112135
internal_weight=0 1350 345 2277 1742 1616 1594 578 303 147 156 1005 752 442 410 304 1016 535 376 136 64 932 96 126 60 106 297 342 88 66
internal_count=3627 1350 345 2277 1742 1616 1594 578 303 147 156 1005 752 442 410 304 1016 535 376 136 64 932 96 126 60 106 297 342 88 66
cat_boundaries=0 1 2 3
cat_threshold=24 64 8
is_linear=0
shrinkage=0.05


Tree=23
num_leaves=31
num_cat=2
split_feature=13 3 3 8 3 13 3 9 6 15 2 2 3 10 2 11 6 3 15 3 15 2 15 15 11 2 10 5 11 2
split_gain=24.1065 38.3935 8.54147 6.97962 5.65207 5.87235 5.61688 5.5561 6.12975 4.84692 3.74732 3.47947 3.54247 3.01902 2.90785 3.07641 3.24195 3.08739 2.66933 2.63251 2.64172 2.58274 2.58166 2.29396 2.478 2.21376 2.21315 2.10406 2.1537 2.09185
threshold=0 2.9700856263602158 4.983512786670059 206575.50000000003 3.4811217321331038 1 1.7005986908310777 16270000.000000002 268.75374370320532 245.61059285616236 0.18442932728647007 0.38700255102040815 3.1984648276080736 3.8171568627450978 0.27787858260350645 177.81250000000003 33.003357846586461 2.249904835165133 1529.8233431952544 2.4414009612931857 1343.4475939110032 0.50338368491360974 811.47583969159302 14.471167519698971 638.1724137931036 0.3319773175542407 3.7180645161290329 345.58750000000003 77.166666666666671 0.23443194444444443
decision_type=1 2 2 2 2 1 2 2 2 2 2 2 2 2 2 2 2 2 2 2 2 2 2 2 2 2 2 2 2 2
left_child=1 6 3 4 9 -6 18 8 11 25 -8 12 -3 -12 -15 16 -16 -17 21 20 -11 -1 -21 -10 -25 -2 -7 -5 -29 -14
right_child=2 7 -4 27 5 26 10 -9 23 19 13 -13 29 14 15 17 -18 -19 -20 22 -22 -23 -24 24 -26 -27 -28 28 -30 -31
leaf_value=-0.0052781725459175909 -0.0056093095702954808 0.011376758388606675 0.018223901259024507 -0.021911249451927448 -0.0064916752005830932 -0.0054335019985834766 -0.011912372929145931 -0.0030168459487391547 0.021287677958607674 -0.0047797488989917009 -0.00024413925633337853 -0.00083922401769086729 0.018831808550748976 0.0042454108307185606 0.012669611476700416 0.01024720004759729 -0.011608897261321546 0.028873578377533706 0.0072651088012565604 2.6223147375825441e-05 0.0032461303363391391 0.0055885727707636621 0.012310646179442605 0.03272097410551985 0.054565995286351865 -0.012710408081811576 0.0090128053525021599 -0.022010096881924006 -0.0074695984496507776 0.032835784121125471
leaf_weight=414 382 59 46 38 106 30 32 21 20 616 148 20 48 196 44 45 20 44 61 265 123 63 51 34 21 154 228 29 209 60
leaf_count=414 382 59 46 38 106 30 32 21 20 616 148 20 48 196 44 45 20 44 61 265 123 63 51 34 21 154 228 29 209 60
internal_value=0 0.00531693 -0.00308933 -0.00354263 -0.00249184 0.00312879 0.00101378 0.021729 0.0237125 -0.00377776 0.00467225 0.0188691 0.0212294 0.00574007 0.00827778 0.0134434 0.00508258 0.0194557 -0.00258348 -0.00181067 -0.00344391 -0.00384294 0.00200884 0.0357887 0.0410618 -0.00764955 0.00705938 -0.0109857 -0.00924134 0.0266118
internal_weight=0 1350 2277 2231 1955 364 1067 283 262 1591 529 187 167 497 349 153 64 89 538 1055 739 477 316 75 55 536 258 276 238 108
internal_count=3627 1350 2277 2231 1955 364 1067 283 262 1591 529 187 167 497 349 153 64 89 538 1055 739 477 316 75 55 536 258 276 238 108
cat_boundaries=0 1 2
cat_threshold=24 33
is_linear=0
shrinkage=0.05


Tree=24
num_leaves=31
num_cat=3
split_feature=13 1 11 1 8 6 2 11 13 2 10 6 2 11 5 8 2 7 14 7 0 6 10 6 0 9 11 6 13 6
split_gain=21.8561 31.8508 7.00072 5.92229 5.38139 5.28698 4.1666 4.96573 4.0642 9.27626 3.64349 3.47672 3.26652 3.13038 2.91981 2.83248 3.11618 2.81479 2.7723 2.97635 2.55687 2.39518 3.33143 2.37378 2.1941 2.12067 2.08609 1.95391 1.94962 2.89315
threshold=0 6.5000000000000009 103.16666666666667 4.5000000000000009 198955.00000000003 449.82635312122903 0.27494331065759636 166.25000000000003 1 0.27079339360192728 3.8133928571428575 37.579721710852667 0.19372537925062902 166.25000000000003 209.68750000000003 379908.00000000006 0.20341435185185189 0.51433987167168949 8970286885.245903 0.1955731708592531 230.50000000000003 171.78822870019278 3.8171568627450978 476.15758084600253 650.96428571428589 6690000.0000000009 77.166666666666671 82.665106444429426 2 79.381662122991017
decision_type=1 2 2 2 2 2 2 2 1 2 2 2 2 2 2 2 2 2 2 2 2 2 2 2 2 2 2 2 1 2
left_child=1 3 -3 20 13 8 15 11 9 12 -10 -8 -4 17 -6 16 -5 -2 19 -7 -1 22 -9 25 -12 28 -16 -26 29 -15
right_child=4 2 5 6 14 18 7 21 10 -11 24 -13 -14 23 26 -17 -18 -19 -20 -21 -22 -23 -24 -25 27 -27 -28 -29 -30 -31
leaf_value=-0.012401482384047357 -0.0064904830828028254 -0.0093399845808744431 0.00063585913181304942 -0.0073106526438778026 -0.028817952298559248 0.026413340713066471 0.012868810445070267 0.0025742438584566117 -0.0038810931076295671 0.047204073422560194 0.0030803545718876332 -0.014044309327534091 0.022771307894494386 -0.0020687828718039853 -0.020676361046957248 -0.01294100353261456 0.0049432513916403582 0.0031361463067560709 0.014734021254948208 0.05079274372685523 -0.0014532738430725351 0.0036014796420931819 0.023337810834568432 0.0073855130743340413 0.0075919065834023055 -0.011524124362971636 -0.0071830092519435881 0.021244491362564365 -0.0049651386297317043 0.0058636479159039296
leaf_weight=57 597 25 25 64 20 31 20 25 40 33 41 30 50 312 33 32 274 87 21 21 828 35 85 82 40 50 217 76 194 182
leaf_count=57 597 25 25 64 20 31 20 25 40 33 41 30 50 312 33 32 274 87 21 21 828 35 85 82 40 50 217 76 194 182
internal_value=0 0.00383001 0.0162851 0.00039478 -0.00391319 0.0179798 0.00439403 0.0103086 0.0150869 0.0229847 0.00912709 -0.00327906 0.0153928 -0.00276844 -0.0104348 0.00127691 0.00262299 -0.00526604 0.0300668 0.0362589 -0.00215841 0.0149939 0.0186188 -0.000685072 0.0130226 -0.0015818 -0.00896413 0.0165367 -0.000859251 0.000836753
internal_weight=0 1853 403 1450 1774 378 565 195 305 108 197 50 75 1504 270 370 338 684 73 52 885 145 110 820 157 738 250 116 688 494
internal_count=3627 1853 403 1450 1774 378 565 195 305 108 197 50 75 1504 270 370 338 684 73 52 885 145 110 820 157 738 250 116 688 494
cat_boundaries=0 1 2 3
cat_threshold=88 8 134
is_linear=0
shrinkage=0.05


Tree=25
num_leaves=31
num_cat=2
split_feature=13 1 4 8 1 13 11 2 11 15 2 6 8 6 15 6 15 8 4 6 2 11 6 15 2 15 7 7 15 15
split_gain=23.1599 30.7557 9.71308 5.93902 5.46299 5.34345 4.62081 4.84738 3.75798 3.45145 2.70146 2.51917 2.51732 2.71376 2.76951 2.51092 3.73829 3.15573 2.44357 2.34342 2.19423 2.09632 2.09465 1.99941 1.9866 2.34815 1.97243 1.95937 1.89705 1.88512
threshold=0 5.5000000000000009 3.0474898054833308 379908.00000000006 7.5000000000000009 1 50.750000000000007 0.27494331065759636 160.42553191489364 459.57410206823494 0.20696159122085048 11.550725797843954 195146.00000000003 26.68709659040038 296.48039265333603 841.90121123013375 57.987118035137122 821641.50000000012 3.5782954716099016 159.41841593693712 0.30072964610345682 130.25000000000003 427.54439438112917 851.00919690892113 0.31398199645535957 21.264060278817123 0.26378436485122153 0.080266392588358965 133.75411249726292 126.40153430272348
decision_type=1 2 2 2 2 1 2 2 2 2 2 2 2 2 2 2 2 2 2 2 2 2 2 2 2 2 2 2 2 2
left_child=1 9 6 4 8 29 -3 12 -4 11 -10 -1 13 -8 -15 16 22 18 23 -9 -6 -11 -7 -18 25 -17 -12 -24 -5 -2
right_child=5 2 3 28 20 15 7 19 10 21 26 -13 -14 14 -16 24 17 -19 -20 -21 -22 -23 27 -25 -26 -27 -28 -29 -30 -31
leaf_value=-0.009596865416811028 -0.021548143767242164 -0.017660346776247025 -0.00042393777262547926 0.012002405588929024 0.026133487392561855 -0.012435140466947235 -0.0060065262495878746 0.023881674997392112 0.0080791097631057098 -0.001327536347109523 0.018408561942440997 -0.0021543424470859729 -0.012379205801888653 0.0017766820482278092 0.014665847101423424 0.0017800947874784469 -0.0043249344932319361 -0.017444806640398585 0.0036303191522982121 0.0074194876540049515 0.044303546814868852 0.0047316575849260141 0.0098349856561981142 0.00078593719572680023 -0.0066284799453569581 0.024765611616312529 0.030950843881477008 -0.0086550519605608361 -0.0045944481920521486 -0.0099041777238766168
leaf_weight=161 53 20 29 36 54 176 44 52 45 346 109 387 23 87 80 25 887 36 147 37 24 243 23 244 21 20 44 38 33 101
leaf_count=161 53 20 29 36 54 176 44 52 45 346 109 387 23 87 80 25 887 36 147 37 24 243 23 244 21 20 44 38 33 101
internal_value=0 0.00360957 0.0117386 0.0173118 0.0203086 -0.00436375 0.00566178 0.00710588 0.0163861 -0.00148493 0.0188481 -0.00434092 0.00332833 0.00504053 0.00795113 -0.00346002 -0.00388786 -0.00284536 -0.00243411 0.0170378 0.0317243 0.00117227 -0.00966781 -0.00322232 0.00606995 0.0119959 0.0220155 -0.0016834 0.00406478 -0.0130633
internal_weight=0 1854 717 374 305 1771 343 323 227 1137 198 548 234 211 167 1617 1551 1314 1278 89 78 589 237 1131 66 45 153 61 69 154
internal_count=3625 1854 717 374 305 1771 343 323 227 1137 198 548 234 211 167 1617 1551 1314 1278 89 78 589 237 1131 66 45 153 61 69 154
cat_boundaries=0 1 2
cat_threshold=88 32
is_linear=0
shrinkage=0.05


Tree=26
num_leaves=31
num_cat=0
split_feature=3 10 9 11 8 11 0 4 14 14 12 12 4 10 2 0 10 8 0 12 11 14 7 3 2 1 9 7 14 4
split_gain=14.7447 7.36802 6.30474 5.25331 4.81064 5.23273 3.5376 3.53745 3.50599 3.50509 3.44938 3.29241 4.17707 3.26041 2.93522 2.70627 2.42602 2.38152 2.2958 2.96181 2.21232 2.10509 2.06889 2.04408 1.9987 1.83709 1.80125 1.61456 1.60799 2.60383
threshold=3.2769667020129059 3.6100000000000008 27050000.000000004 46.500000000000007 379908.00000000006 101.45000000000002 3371.5000000000005 2.8146529224064971 610540510.36571324 163138505.59750065 33.005196220580792 38.387731644458718 3.216369553956429 3.9118055555555564 0.40682870370370378 1506.0000000000002 3.998333333333334 198184.00000000003 766.00000000000011 13.955269781866752 122.18750000000001 825035480.11292112 0.47962308252579305 3.6505739029280164 0.28401901439759242 4.5000000000000009 2286666.666666667 0.32233744405758374 172296516.99317113 3.0081357412157774
decision_type=2 2 2 2 2 2 2 2 2 2 2 2 2 2 2 2 2 2 2 2 2 2 2 2 2 2 2 2 2 2
left_child=3 15 4 9 5 -3 7 8 18 22 13 12 -12 -7 17 -2 -16 20 -5 -20 -9 26 -1 -13 -6 -22 -15 -21 -27 -30
right_child=1 2 -4 6 24 10 -8 14 -10 -11 11 23 -14 21 16 -17 -18 -19 19 27 25 -23 -24 -25 -26 28 -28 -29 29 -31
leaf_value=-0.0066015008894959003 -0.015846414058743156 -0.011584206976528679 -0.015889948779909773 -0.007504068805355194 0.0027290049989364649 -0.0033802211565141906 0.0064469184680098317 -0.0055265115483457018 -0.02184667808081334 -0.022339726234936425 0.010157706565223634 0.022680763699310394 0.040030326947569854 0.0083141190776632734 0.024303056508302692 0.0027031726494897157 0.00093952491879463202 -0.0046651044253244881 -0.0037448298042521903 2.6293428434821017e-05 -0.0030456245040703517 -0.0043506550464978014 0.00039591903167554359 0.010286472965038838 -0.01185556162860902 0.0077956875195327336 0.020154094374315305 0.0076147363999900354 -0.016070483727380635 0.0049466816774968595
leaf_weight=499 51 28 29 198 76 67 155 72 24 31 22 38 25 119 25 32 20 155 655 330 74 24 134 267 34 232 44 89 20 56
leaf_count=499 51 28 29 198 76 67 155 72 24 31 22 38 25 119 25 32 20 155 655 330 74 24 134 267 34 232 44 89 20 56
internal_value=0 0.00546184 0.00698189 -0.0020465 0.0078734 0.0095481 -0.000823342 -0.00140123 -0.00291404 -0.00592414 0.0105245 0.0137289 0.0260474 0.00608374 0.00159663 -0.00869477 0.0139193 0.000686088 -0.00255682 -0.00164476 0.00251304 0.00947457 -0.00512021 0.0118307 -0.00177895 0.00402835 0.0115102 0.00163816 0.00572794 -0.000584151
internal_weight=0 856 773 2769 744 634 2105 1950 1296 664 606 352 47 254 654 83 45 609 1272 1074 454 187 633 305 110 382 163 419 308 76
internal_count=3625 856 773 2769 744 634 2105 1950 1296 664 606 352 47 254 654 83 45 609 1272 1074 454 187 633 305 110 382 163 419 308 76
is_linear=0
shrinkage=0.05


Tree=27
num_leaves=31
num_cat=3
split_feature=13 3 13 3 13 3 15 3 1 3 2 2 2 15 8 1 6 2 15 3 3 15 14 0 0 11 8 2 12 5
split_gain=20.8592 29.3378 5.90763 7.24514 6.80269 4.87792 4.38302 3.96573 3.94494 3.89836 4.97169 3.17427 3.06645 4.43074 2.78939 2.76094 3.29909 2.63341 2.61561 2.27431 1.88288 1.79895 1.77366 1.75302 2.1283 1.74887 1.65868 1.63086 1.50714 1.50614
threshold=0 2.8617925509761908 1 3.2769667020129059 2 4.3372693810700085 409.31803262942827 4.8713658868283671 5.5000000000000009 1.4978661367769956 0.28459274673008322 0.20043827611395185 0.25750708911799897 40.59545093116224 88182.500000000015 5.5000000000000009 32.219955263711562 0.50338368491360974 487.13593007225705 3.1984648276080736 2.524928003624769 128.54466995632851 150608315.08199933 1506.0000000000002 577.50000000000011 192.16666666666669 379908.00000000006 0.24570934256055368 13.537359646008239 1200.9375000000002
decision_type=1 2 1 2 1 2 2 2 2 2 2 2 2 2 2 2 2 2 2 2 2 2 2 2 2 2 2 2 2 2
left_child=1 9 22 6 7 8 26 14 -3 17 20 -6 13 -10 21 16 -12 18 -1 -14 -11 -5 -2 24 -21 -19 -4 -23 -8 -30
right_child=2 5 3 4 11 -7 28 -9 12 10 15 -13 19 -15 -16 -17 -18 25 -20 23 -22 27 -24 -25 -26 -27 -28 -29 29 -31
leaf_value=-0.0099361037791612147 -0.0090403321515960793 -0.0038516778650734087 -0.0064111548855714743 0.0058758943962554135 0.010908084160764702 0.03688783283690892 -0.002763422829145525 0.029096182588149201 -0.0064392838217318064 -0.0024968909202391434 0.011508147082882138 -0.0040722629443177439 0.013062048084228426 0.016841072939236517 0.0025336849028842396 0.02160469898702325 -0.0023489938935998718 -0.00014640252399993571 -0.00136053169661609 0.032504701630345412 0.0061017296188289214 0.029775321064516903 -0.020153612118998642 0.040851976908743384 0.014663898543221877 0.016881362930405885 -0.019020457979705599 0.010695720756692548 0.0093791666152802378 -0.00056200738643735445
leaf_weight=138 97 23 766 36 40 31 573 22 25 263 123 305 37 112 139 37 66 38 250 35 84 24 57 20 32 25 27 21 55 124
leaf_count=138 97 23 766 36 40 31 573 22 25 263 123 305 37 112 139 37 66 38 250 35 84 24 57 20 32 25 27 21 55 124
internal_value=0 0.00467625 -0.00315771 -0.00243905 0.00227825 0.0180552 -0.0042471 0.00850416 0.0159996 0.000606309 0.00334329 -0.00226962 0.0177489 0.0125928 0.00683151 0.00911435 0.00666915 -0.00287105 -0.00441061 0.0234455 -0.00041538 0.0142068 -0.0123516 0.0278615 0.0239837 0.00661065 -0.00684048 0.0208715 -0.00151234 0.00249254
internal_weight=0 1339 2286 2132 587 315 1545 242 284 1024 573 345 261 137 220 226 189 451 388 124 347 81 154 87 67 63 793 45 752 179
internal_count=3625 1339 2286 2132 587 315 1545 242 284 1024 573 345 261 137 220 226 189 451 388 124 347 81 154 87 67 63 793 45 752 179
cat_boundaries=0 1 2 3
cat_threshold=24 32 192
is_linear=0
shrinkage=0.05


Tree=28
num_leaves=31
num_cat=3
split_feature=13 3 3 8 3 13 13 2 15 3 0 2 7 2 3 15 6 8 15 3 8 7 9 6 2 1 14 8 2 4
split_gain=18.8982 28.0372 5.66158 4.4301 4.55207 4.30071 3.57142 4.15771 3.48172 3.42057 3.16554 2.77569 2.6236 2.5302 2.06259 2.37191 1.99896 1.92803 2.20141 1.73124 1.69725 1.69708 1.63567 2.17937 2.8655 1.71911 1.59772 1.57898 1.47302 1.46564
threshold=0 3.2384861814448418 2.4414009612931857 379908.00000000006 4.7229433450037179 1 2 0.32981994459833797 431.92620017773066 4.983512786670059 1611.5000000000002 0.39154308378509278 0.39841715667866923 0.35569048556061539 3.4811217321331038 57.987118035137122 79.381662122991017 157431.00000000003 19.15109141212125 1.8688348091416842 222943.50000000003 0.21741356431823436 5165000.0000000009 11.550725797843954 0.37614142742347872 3.5000000000000004 22269564.529960867 202604.00000000003 0.30524238227146816 2.9925974670471938
decision_type=1 2 2 2 2 1 1 2 2 2 2 2 2 2 2 2 2 2 2 2 2 2 2 2 2 2 2 2 2 2
left_child=1 2 8 4 11 20 7 -4 22 10 14 28 13 27 15 -7 26 18 -16 -10 -2 -21 23 -1 -25 -26 29 -8 -3 -12
right_child=5 3 6 -5 -6 9 12 -9 19 -11 16 -13 -14 -15 17 -17 -18 -19 -20 21 -22 -23 -24 24 25 -27 -28 -29 -30 -31
leaf_value=-0.0088282962121632638 -0.0097547653646036132 0.016857895003013067 0.0090458798957823786 0.0030260839606993475 0.041902498938143254 -0.013501152697164322 0.0041138230125967656 0.033778432775288823 -0.00031117024186605116 0.012795457352926446 -0.0019040742760454013 0.00094821306605202469 0.018062867502347851 -0.01374515432066151 -0.0097643203807599617 -0.0056161025375339848 0.005232385521148384 -0.0069172333174368789 0.0048177338888247814 0.019152117289957547 -0.022547215189446104 0.0036737526643328962 -0.015870995881656805 -0.0037378156555336432 0.0018368764004359644 0.019577681730416688 -0.0074363164785732436 -0.0073465607116102345 0.026824634703908765 0.0066455343624901228
leaf_weight=148 121 191 113 52 20 122 182 20 492 33 478 24 23 28 33 437 106 114 120 21 33 113 30 257 36 22 118 36 46 56
leaf_count=148 121 191 113 52 20 122 182 20 492 33 478 24 23 28 33 437 106 114 120 21 33 113 30 257 36 22 118 36 46 56
internal_value=0 0.00327375 0.000414403 0.0164323 0.0189132 -0.0039287 0.00550392 0.0118724 -0.001414 -0.00311779 -0.00346899 0.0171515 0.00184524 0.000403965 -0.00561021 -0.00733699 -0.00113569 -0.00199498 0.00167258 0.00106107 -0.0117341 0.00609947 -0.00455679 -0.00382369 -0.00147232 0.00856615 -0.00217099 0.00222128 0.0187924 -0.00100749
internal_weight=0 1854 1521 333 281 1771 402 133 1119 1617 1584 261 269 246 826 559 758 267 153 626 154 134 493 463 315 58 652 218 237 534
internal_count=3625 1854 1521 333 281 1771 402 133 1119 1617 1584 261 269 246 826 559 758 267 153 626 154 134 493 463 315 58 652 218 237 534
cat_boundaries=0 1 2 3
cat_threshold=88 32 8
is_linear=0
shrinkage=0.05


Tree=29
num_leaves=31
num_cat=3
split_feature=13 3 13 3 13 3 15 1 3 3 2 2 15 6 1 6 2 2 10 15 3 9 9 11 9 9 14 6 7 2
split_gain=17.5552 24.443 4.75949 5.84405 5.64035 4.22722 3.75783 3.35988 3.35824 3.24942 4.38746 2.84915 2.78157 3.67612 2.54537 2.90701 2.40455 2.37887 2.2162 2.1761 1.6978 1.62196 1.6161 1.58525 1.49639 1.67921 2.22733 1.57079 1.41871 1.3161
threshold=0 2.8617925509761908 1 3.2769667020129059 2 4.3372693810700085 523.49307152937035 5.5000000000000009 4.8713658868283671 1.4978661367769956 0.28062500000000007 0.20043827611395185 40.59545093116224 247.06208985876188 5.5000000000000009 32.219955263711562 0.30228418621209241 0.50338368491360974 3.7180645161290329 487.13593007225705 2.524928003624769 3332500.0000000005 1205000.0000000002 192.16666666666669 13200000.000000002 2225000.0000000005 912282193.98211932 476.15758084600253 0.26687646175394591 0.23130157040191648
decision_type=1 2 1 2 1 2 2 2 2 2 2 2 2 2 2 2 2 2 2 2 2 2 2 2 2 2 2 2 2 2
left_child=1 9 21 6 8 7 22 -3 18 17 20 -6 13 -9 15 -12 -14 19 -5 -1 -11 -2 -4 -19 25 -20 -27 -28 -13 -22
right_child=2 5 3 4 11 -7 -8 12 -10 10 14 28 16 -15 -16 -17 -18 23 24 -21 29 -23 -24 -25 -26 26 27 -29 -30 -31
leaf_value=-0.0090989073913922344 -0.0093472600146572316 -0.0037278180192832065 -0.0044908152413589766 -0.0062777828485254322 0.010336216097930447 0.034037524107242784 -0.00078957010485088239 -0.010801073242910207 0.02660192419901829 -0.0027348152599833775 0.010335342829013385 -0.00582074929586933 0.016270072732914947 0.015682211901845509 0.019893877055997461 -0.0022112336947622017 0.029950871757464484 -1.7109105216437266e-05 0.0052951586743195857 -0.0012769466137862765 -0.0002590275845593876 -0.022303507815425595 -0.0090128357531271668 0.016194554621353746 -0.0032491589859128 0.026268209221548051 -0.0010527723818086088 0.017635090689620245 0.0020631624238663599 0.012378307178273406
leaf_weight=138 124 23 660 31 40 31 603 20 22 248 132 229 163 38 39 71 40 38 90 250 45 30 282 25 25 29 22 23 76 38
leaf_count=138 124 23 660 31 40 31 603 20 22 248 132 229 163 38 39 71 40 38 90 250 45 30 282 25 25 29 22 23 76 38
internal_value=0 0.00429379 -0.00289301 -0.00224752 0.00198891 0.016506 -0.00387163 0.0145923 0.00765949 0.000579045 0.00307786 -0.00214846 0.0162067 0.00655004 0.00819475 0.00594713 0.0189658 -0.00259573 0.0061134 -0.00405898 -0.000663187 -0.0111474 -0.00584454 0.00641609 0.00814582 0.00988286 0.0154625 0.0084988 -0.00385623 0.00552674
internal_weight=0 1339 2286 2132 587 315 1545 284 242 1024 573 345 261 58 242 203 203 451 220 388 331 154 942 63 189 164 74 45 305 83
internal_count=3625 1339 2286 2132 587 315 1545 284 242 1024 573 345 261 58 242 203 203 451 220 388 331 154 942 63 189 164 74 45 305 83
cat_boundaries=0 1 2 3
cat_threshold=24 32 192
is_linear=0
shrinkage=0.05


Tree=30
num_leaves=31
num_cat=2
split_feature=13 3 8 3 2 3 13 1 2 1 3 3 11 1 7 11 2 2 2 15 7 10 7 10 10 2 3 8 2 3
split_gain=14.0315 20.1891 5.00981 6.13284 3.39828 4.55221 4.35161 3.23191 5.05103 2.77156 2.69834 2.31016 2.57783 2.70904 2.23943 2.23695 2.14219 1.99907 1.75813 1.75521 2.04796 1.72123 1.60544 1.59412 1.97594 1.5678 1.79418 1.53887 1.53697 1.33906
threshold=0 2.9174053685313028 379908.00000000006 4.983512786670059 0.23463088939279417 2.9700856263602158 1 2.5000000000000004 0.37558244069312824 7.5000000000000009 1.8688348091416842 1.4978661367769956 153.16666666666671 3.5000000000000004 0.22507471465880463 162.30000000000004 0.24509070294784582 0.28401901439759242 0.18914563070407223 437.86043193369102 0.19335492882362756 4.1145833333333348 0.54883126926700976 4.3291666666666675 3.9206382978723409 0.39955426078301387 3.1984648276080736 75727.500000000015 0.20341435185185189 4.1971736807086968
decision_type=1 2 2 2 2 2 1 2 2 2 2 2 2 2 2 2 2 2 2 2 2 2 2 2 2 2 2 2 2 2
left_child=1 7 3 4 5 22 23 -1 10 15 -9 -10 -13 -14 29 -3 -17 -4 -8 28 -21 -22 -2 24 -7 26 -18 -28 -12 -6
right_child=2 9 17 -5 14 6 18 8 11 -11 19 12 13 -15 -16 16 25 -19 -20 20 21 -23 -24 -25 -26 -27 27 -29 -30 -31
leaf_value=-0.003852305812849672 -0.0032714770499132672 -0.0033773419447243216 -0.0074496958236515273 0.018984087457481241 -0.0062325385610601637 0.0050043099977569111 0.011309152140858628 -0.0027060191281114906 0.025382939495008302 0.023127060722750191 -0.0082854165646590698 -0.0060608521802350884 0.00088050650559704413 0.023822080085594808 -0.0015010612154335171 0.0063077102796624193 0.011759717127087673 -0.019821294303983453 -0.0048098697290948501 0.022699731457978489 0.00087443778407759977 0.012364690540866419 0.0082294177630859791 8.1204317532302376e-05 0.019420240671650945 0.0051286914688535041 0.036976678781211379 0.020363643298775932 0.0026796661000681433 0.00079087204603159713
leaf_weight=273 377 20 119 35 634 34 21 294 27 88 38 22 22 31 704 58 38 45 87 20 80 55 33 21 79 20 20 46 201 76
leaf_count=273 377 20 119 35 634 34 21 294 27 88 38 22 22 31 704 58 38 45 87 20 80 55 33 21 79 20 20 46 201 76
internal_value=0 0.00399822 -0.00241705 -0.00177074 -0.00212234 0.00086397 0.006302 0.000837612 0.00245831 0.0157213 0.000918903 0.0128417 0.00832689 0.0142992 -0.00349934 0.0124951 0.0142393 -0.0108443 -0.00153361 0.00362379 0.00776779 0.00555565 -0.0023458 0.0118476 0.0150827 0.0179492 0.0204147 0.0253979 0.000936264 -0.00548074
internal_weight=0 1353 2265 2101 2066 652 242 1063 790 290 688 102 75 53 1414 202 182 164 108 394 155 135 410 134 113 124 104 66 239 710
internal_count=3618 1353 2265 2101 2066 652 242 1063 790 290 688 102 75 53 1414 202 182 164 108 394 155 135 410 134 113 124 104 66 239 710
cat_boundaries=0 1 2
cat_threshold=24 196
is_linear=0
shrinkage=0.05


Tree=31
num_leaves=31
num_cat=3
split_feature=13 3 13 3 2 3 8 13 4 1 1 2 3 3 15 2 3 11 1 15 3 8 2 6 12 2 10 8 1 8
split_gain=12.6634 18.2206 4.55392 5.2303 3.96044 3.91553 3.56184 3.50849 3.077 3.28659 2.9168 4.55855 2.43525 2.4205 2.71771 2.16105 2.08492 2.32649 2.44491 1.89614 1.72349 2.33022 1.92052 1.70824 1.62097 1.61761 1.82228 2.25307 2.22633 1.53702
threshold=0 2.9174053685313028 1 4.983512786670059 0.23420877659574468 2.249904835165133 379908.00000000006 2 3.7884329408569211 7.5000000000000009 2.5000000000000004 0.37558244069312824 1.8688348091416842 4.1971736807086968 114.61384242678297 0.22274233437355764 1.4978661367769956 153.16666666666671 3.5000000000000004 56.17008186441732 2.9700856263602158 106460.00000000001 0.21009013627237388 89.236501775005493 33.005196220580792 0.20341435185185189 3.7333333333333338 379908.00000000006 5.5000000000000009 222943.50000000003
decision_type=1 2 1 2 2 2 2 1 2 2 2 2 2 2 2 2 2 2 2 2 2 2 2 2 2 2 2 2 2 2
left_child=1 10 29 4 5 -4 13 20 9 23 -1 12 -12 14 -6 -10 -13 -18 -19 -5 -7 -22 -23 -3 -25 -14 -27 28 -28 -2
right_child=2 8 3 19 6 7 -8 -9 15 -11 11 16 25 -15 -16 -17 17 18 -20 -21 21 22 -24 24 -26 26 27 -29 -30 -31
leaf_value=-0.003659690551578337 -0.0090298426436441672 0.016550358660065403 -0.0043124097447965947 0.0039873860264196996 -0.0078508106514045325 0.0040200304743981492 -0.013021604001076652 -0.00020052011188936934 0.0077056359765785079 0.023319641227812271 -0.0025707181759218878 0.024113792456962446 -0.0040428225806013489 0.0043990537548384999 -0.0022319887798257065 0.025727851912379265 -0.0057578095361929052 0.00083648118359798743 0.022630976398866024 0.024832823934654396 0.020490881532487834 0.016510349716104211 -0.0040002792850136757 -0.0020023208317490153 0.010310767985541713 -0.0019303779867659143 0.0045824279089562497 -0.0071089514764025811 0.014726238468683315 -0.022512971029545255
leaf_weight=273 113 39 211 20 276 82 92 235 21 43 294 27 61 106 977 80 22 22 31 24 57 21 25 52 55 77 143 26 87 26
leaf_count=273 113 39 211 20 276 82 92 235 21 43 294 27 61 106 977 80 22 22 31 24 57 21 25 52 55 77 143 26 87 26
internal_value=0 0.0037983 -0.0022962 -0.00169389 -0.00206238 0.00124451 -0.00350046 0.0040362 0.0149353 0.0111703 0.000795732 0.00233539 0.000872958 -0.00285591 -0.00346965 0.0219807 0.0121996 0.00791055 0.0135842 0.0153576 0.0089453 0.0137349 0.00536327 0.00759202 0.00432684 0.0034426 0.00481381 0.00684233 0.00841943 -0.0107766
internal_weight=0 1353 2265 2126 2082 631 1451 420 290 189 1063 790 688 1359 1253 101 102 75 53 44 185 103 46 146 107 394 333 256 230 139
internal_count=3618 1353 2265 2126 2082 631 1451 420 290 189 1063 790 688 1359 1253 101 102 75 53 44 185 103 46 146 107 394 333 256 230 139
cat_boundaries=0 1 2 3
cat_threshold=24 32 68
is_linear=0
shrinkage=0.05


Tree=32
num_leaves=31
num_cat=4
split_feature=13 1 2 4 8 6 11 8 8 13 2 6 13 6 10 10 9 6 13 14 2 1 2 6 2 15 2 6 15 6
split_gain=11.4289 14.8065 7.41563 4.75047 4.16554 3.97156 3.29146 3.17372 3.06717 3.02112 2.40356 3.52865 2.73532 2.76251 2.27968 1.91459 1.85153 1.97861 2.66549 1.80953 1.7101 1.6945 2.15229 5.67376 1.7359 1.63941 1.61664 1.5681 1.4985 1.44283
threshold=0 5.5000000000000009 0.21009013627237388 3.6440954995237216 379908.00000000006 1185.7616942732614 30.500000000000004 379908.00000000006 379908.00000000006 1 0.23204121537233063 31.706888424370014 2 171.78822870019278 3.6522727272727278 3.9377976190476196 13200000.000000002 126.38774738105489 3 49384782.663666032 0.28401901439759242 2.5000000000000004 0.37614142742347872 33.703132247285673 0.44189349112426035 372.27832333871896 0.35721303772053492 46.409713751921529 1327.024566560209 704.72329273408832
decision_type=1 2 2 2 2 2 2 2 2 1 2 2 1 2 2 2 2 2 1 2 2 2 2 2 2 2 2 2 2 2
left_child=1 21 -3 8 5 6 19 -5 14 -8 11 28 13 15 -4 -13 17 25 -19 -2 29 -1 -23 24 -24 -12 -16 -14 -11 -6
right_child=4 2 3 7 20 -7 9 -9 -10 10 16 12 27 -15 26 -17 -18 18 -20 -21 -22 22 23 -25 -26 -27 -28 -29 -30 -31
leaf_value=-0.0034767059781251734 -0.0048230240572494192 0.00058457587711298125 -0.0035603328980505465 0.029752233905204831 -0.0095653592187792385 0.018217860445380211 -0.0088508966049195923 0.010701330381562003 -0.0074498967605731679 -0.0052939372365168914 -0.0052771595699640447 -0.0031146854597834811 0.013074399223146233 0.025034615078142714 0.012455340764369542 0.011233496264509497 -0.011371952481320169 -0.0041800226791339932 0.0052101187042828886 -0.015201373983706749 -0.018168603609729973 -8.8729980214780936e-05 0.010705924219144708 -0.0085833655803331313 0.027723480303856459 -0.000617837306246336 0.026038336481899023 -0.0009525804221005049 0.0079674952272325763 0.0039496969375759361
leaf_weight=273 294 130 20 69 94 25 103 32 21 144 329 31 23 28 177 93 47 107 211 49 45 502 47 35 22 443 25 149 25 25
leaf_count=273 294 130 20 69 94 25 103 32 21 144 329 31 23 28 177 93 47 107 211 49 45 502 47 35 22 443 25 149 25 25
internal_value=0 0.00360839 0.0107579 0.0146025 -0.00218143 -0.00159199 -0.00183055 0.0237163 0.0108144 -0.000944824 -0.000388554 0.00252488 0.00557996 0.0101798 0.0125421 0.00764645 -0.00165523 -0.00123625 0.00208294 -0.00630565 -0.00986578 -0.000205923 0.00126755 0.0078142 0.0161318 -0.00260348 0.0141364 0.000872399 -0.00333219 -0.00672606
internal_weight=0 1353 474 344 2265 2101 2076 101 243 1733 1630 493 324 152 222 124 1137 1090 318 343 164 879 606 104 69 772 202 172 169 119
internal_count=3618 1353 474 344 2265 2101 2076 101 243 1733 1630 493 324 152 222 124 1137 1090 318 343 164 879 606 104 69 772 202 172 169 119
cat_boundaries=0 1 2 3 4
cat_threshold=24 32 68 5
is_linear=0
shrinkage=0.05


Tree=33
num_leaves=31
num_cat=0
split_feature=11 3 8 8 10 10 3 15 15 6 14 12 0 12 12 7 11 8 0 5 11 14 12 15 7 3 15 6 0 5
split_gain=8.99408 5.291 4.61757 4.07445 4.04999 4.51152 3.20937 3.18552 2.73738 2.67746 2.32272 3.04009 1.87467 1.87736 1.8365 1.60493 1.92504 1.97608 1.76511 1.46666 1.33021 1.6575 1.20451 1.15033 1.13128 1.21659 1.12086 1.1195 1.28392 1.1072
threshold=110.06521739130436 2.3502401828962087 379908.00000000006 149578.00000000003 3.7021739130434792 4.3900000000000015 4.983512786670059 751.44623889963088 530.26476808084487 118.25638663873958 11793111639.846874 41.320966418894749 834.50000000000011 18.941359874596458 7.354754860737474 0.11128490777844581 160.42553191489364 222943.50000000003 1914.5000000000002 503.68303571428572 30.500000000000004 80861687.066130802 17.647807338355609 1529.8233431952544 0.16513824459128071 3.4175922930736511 80.458536173645015 31.706888424370014 3025.5000000000005 1700.7500000000002
decision_type=2 2 2 2 2 2 2 2 2 2 2 2 2 2 2 2 2 2 2 2 2 2 2 2 2 2 2 2 2 2
left_child=3 12 4 7 -3 6 8 20 10 -7 11 15 -2 27 -5 18 22 24 26 -4 21 -1 -17 -9 25 -18 -6 28 -14 -22
right_child=1 2 19 14 5 9 -8 23 -10 -11 -12 -13 13 -15 -16 16 17 -19 -20 -21 29 -23 -24 -25 -26 -27 -28 -29 -30 -31
leaf_value=-0.0054531804745866011 -0.0059607512447983034 -0.0022200541833479015 -0.015925245283340866 -0.0061244204476037451 -0.0016493457823849493 0.00085226693889126179 0.021890053864229809 -0.00044038079374508819 0.0119129917305172 -0.017651142610301231 -0.010415416703714681 0.0099583572570173563 -0.002939496003877076 0.0058859513800901681 -0.017878267850297003 -0.011188326859181481 0.0073019285125795891 -0.0035535772806627956 0.0072251658994964387 -0.0022007195106790176 -0.0007634218297122668 -0.015882314089685681 0.0037570220185443762 0.0060089588720400478 0.0056640934487641702 0.018979339862830544 -0.013595144944136134 0.009833651036024094 0.0024240801008703302 -0.0071170645986273085
leaf_weight=284 175 191 22 68 72 60 33 254 167 29 24 252 463 108 65 28 54 47 43 169 261 44 26 95 257 38 27 22 147 93
leaf_count=284 175 191 22 68 72 60 33 254 167 29 24 252 463 108 65 28 54 47 43 169 261 44 26 95 257 38 27 22 147 93
internal_value=0 0.00170416 0.00349432 -0.00363249 0.00452525 0.00563878 0.00654009 -0.00257 0.00605067 -0.00517693 0.00492279 0.00535894 -0.00130684 -0.000206248 -0.0118688 0.00340109 0.00486352 0.00607114 -0.00123338 -0.00378155 -0.00455816 -0.00685221 -0.00399242 0.00131517 0.00736731 0.0121252 -0.00490729 -0.00124732 -0.00164696 -0.0024326
internal_weight=0 2454 1539 1164 1348 1157 1068 1031 1035 89 868 844 915 740 133 592 450 396 142 191 682 328 54 349 349 92 99 632 610 354
internal_count=3618 2454 1539 1164 1348 1157 1068 1031 1035 89 868 844 915 740 133 592 450 396 142 191 682 328 54 349 349 92 99 632 610 354
is_linear=0
shrinkage=0.05


Tree=34
num_leaves=31
num_cat=3
split_feature=13 1 2 4 13 11 8 8 4 15 8 2 10 10 13 14 14 2 15 1 2 4 2 8 10 10 10 10 11 9
split_gain=10.2294 12.7805 6.63462 4.24395 3.76273 3.14525 2.65792 2.46379 3.30611 2.34971 2.30682 2.08355 2.05045 1.99415 1.98465 2.12535 1.78705 1.74903 1.54386 1.69224 2.07899 1.7443 1.54288 1.83934 1.82896 2.16949 1.67359 3.46129 1.92165 1.43211
threshold=0 5.5000000000000009 0.21009013627237388 3.6309799934492868 1 30.500000000000004 379908.00000000006 379908.00000000006 3.5782954716099016 827.86231238286121 312263.00000000006 0.28401901439759242 4.3900000000000015 3.6522727272727278 2 573363427.47499406 50466581.509259053 0.34708049886621312 8.6861107762354433 2.5000000000000004 0.37614142742347872 2.8798943022507486 0.3319773175542407 144846.00000000003 4.2937500000000011 4.2118055555555562 4.1930952380952382 4.0171568627450993 521.16666666666686 955000.00000000012
decision_type=1 2 2 2 1 2 2 2 2 2 2 2 2 2 1 2 2 2 2 2 2 2 2 2 2 2 2 2 2 2
left_child=1 18 -3 10 -2 16 -5 8 9 22 13 -9 14 -4 -10 -16 -6 -15 -1 -20 -21 -22 23 24 25 26 27 -7 29 -29
right_child=4 2 3 6 5 7 -8 11 12 -11 -12 -13 -14 17 15 -17 -18 -19 19 20 21 -23 -24 -25 -26 -27 -28 28 -30 -31
leaf_value=-0.011089662083935354 -0.009772172644062457 0.00043344474075218811 -0.0032067914400249718 0.027699923161999325 -0.00444731960954257 -0.00091148526673742497 0.010659956040463466 -0.0030894164370961095 0.010792355223742056 0.0030443463421754597 -0.0034516264751021358 -0.01657555645229522 -0.0085760924642762325 0.011536958299488009 0.0079615027517346403 -0.0042737746986353563 -0.014771157180847677 0.025717450000345712 -0.0030152279511789113 0.00043912360587648091 0.013289798454479751 -0.00072428034002180487 -0.0053513165123417585 -0.0066370526088460812 -0.0045575857267317462 0.016083728881009545 -0.0073694920477767782 0.011342071454661588 0.020558236007179535 -0.0014679125300608577
leaf_weight=31 139 130 20 70 290 325 34 95 112 267 28 41 26 167 70 72 49 25 268 482 64 34 285 126 171 24 57 48 28 40
leaf_count=31 139 130 20 70 290 325 34 95 112 267 28 41 26 167 70 72 49 25 268 482 64 34 285 126 171 24 57 48 28 40
internal_value=0 0.0034133 0.0100561 0.0136926 -0.00206427 -0.00151693 0.0221292 -0.000686436 -0.000153585 -0.00116473 0.0100368 -0.00715509 0.00479744 0.0118183 0.00616638 0.00164206 -0.00593956 0.0133834 -0.000130013 0.000270635 0.00178893 0.00842777 -0.00218269 -0.00108006 -6.96939e-05 0.00140048 0.000692851 0.00173492 0.00914943 0.00551935
internal_weight=0 1353 474 344 2265 2126 104 1787 1651 1371 240 136 280 212 254 142 339 192 879 848 580 98 1104 819 693 522 498 441 116 88
internal_count=3618 1353 474 344 2265 2126 104 1787 1651 1371 240 136 280 212 254 142 339 192 879 848 580 98 1104 819 693 522 498 441 116 88
cat_boundaries=0 1 2 3
cat_threshold=24 32 192
is_linear=0
shrinkage=0.05


Tree=35
num_leaves=31
num_cat=0
