tree
version=v4
num_class=1
num_tree_per_iteration=1
label_index=0
max_feature_idx=27
objective=regression
feature_names=population pop_working pop_adult pop_elderly households single_households young_single working_ratio elderly_ratio single_ratio young_single_ratio genre_diversity genre_hhi other_genre_count commercial_density_rank neighbor_avg_restaurants neighbor_avg_population saturation_index nearest_station_distance nearest_station_passengers station_accessibility land_price google_avg_rating reviews_per_shop google_density genre_encoded price_x_saturation pop_x_station_dist
feature_infos=[0:4854] [0:3432] [0:3619] [0:834] [0:2243] [0:1575] [0:516] [0:0.95061728395061718] [0:0.87096774193548387] [0:0.97777777777777763] [0:0.64444444444444449] [1:8] [0:0.70247933884297531] [0:5.978885764901122] [0.029867256637168101:1] [0:4.8903491282217537] [0:2344.5] [0:3096.6767371601209] [0.0039847203108185:1.0443184338284852] [0:1044356] [0:16.065037894449745] [0:17.606495257588726] [0:5] [0:17901] [0:1078.125] -1:5:4:3:7:1:0:8:6 [0:52440.8768702202] [0:2675.8561845033933]
tree_sizes=3853 3985 4114 4093 4052 3954 4077 4008 4034 4040 4072 4022 3972 4013 4127 4059 4038 4105 4061 4091 4137 4003 4031 4084 4045 3994 4050 4123 4126 4001 4022 4041 3995 4021 4014 4099 4090 3997 4111 4028 4088 4096 4113 3994 4055 3978 3965 4033 4111 4031 4080 4048 4134 4039 4114 4062 4103 4021 4105 4038 3995 3959 4159 3989 4021 4125 3981 4135 3993 4026 3917 3923 4099 4005 3905 4053 3985 4130 4021 3933 4150 4006 4001 3960 3892 3987 4020 4016 3885 3944 3935 3965 3971 3939 4084 3958 3925 4019 4091 3929 3956 4086 3769 3873 3878 4046 3958 4003 4028 3948 4057 3961 4020 3941 3983 3875 3982 4039 3867 3956 3868 4062 3847 3885 3972 3804 3967 3812 4112 3974 3977 3996 3834 4039 3999 3872 3868 3924 3963 3962 3933 3896 3969 3923 3847 4033 4023 3830 3969 3885 3857 3944 3906 3941 3879 3888 3936 3938 3991 4052 3981 3928 3985 3900 3916 3924 3880 3909 3860 3957 3941 4004 3892 3812 3935 3870 3861 3938 3851 3878 3961 3917 3996 4076 3919 3826 3842 3834 4052 3971 3884 3913 3844 3901 3837 3768 3763 3798 3842 3929 3795 3900 3879 3803 3927 3874 3737 3877 3764 3859 3817 3816 3830 3884 3847 3847 3832 3957 3919 3820 3902 3913 3752 3836 3777 3779 3844 3838 3667 3827 3955 3814 3716 3755 3750 3809 3852 3878 3877 3880 3766 3862 3851 3752 3859 3885 3861 3898 3768 3954 3708 3862 3839 3819 3762 3766 3705 3916 3755 3719 3887 3746 3938 3740 3745 4010 3760 3748 3823 3841 3803 3690 3864 3774 3725 3776 3854 3880 3884 3775 3733 3798 3729 3811 3751 3783 3847 3775 3881 3853 3766 3806 3787 3715 3844 3896 3821 3686 3918 3886

Tree=0
num_leaves=45
num_cat=6
split_feature=14 25 14 25 25 17 14 14 14 12 14 12 17 25 12 12 12 12 12 15 14 12 15 15 25 27 12 4 6 24 12 6 24 27 15 25 12 12 12 12 15 27 10 8
split_gain=549.331 334.408 124.569 180.918 68.553 36.2325 35.5231 26.2334 12.0032 11.8853 11.6358 11.1604 10.6614 10.1218 8.75892 7.6624 6.76404 6.33949 5.2059 5.04204 5.00778 4.80842 4.57015 4.42052 4.24673 4.1456 4.1328 4.01644 3.53612 3.40134 3.22191 3.05989 3.03871 2.93846 2.88378 2.69831 2.67823 3.70821 9.94382 3.12675 2.02663 1.86005 1.79949 2.11248
threshold=0.76731194690265492 0 0.40116150442477877 1 2 413.08839356914621 0.91183628318584076 0.52405973451327437 0.25774336283185839 0.28062500000000007 0.96515486725663713 0.42965761511216055 78.527985683711606 3 0.23463088939279417 0.62731481481481499 0.56944444444444453 0.2246709334621422 0.21569132012694098 1.5177768838703316 0.95713495575221252 0.18914563070407223 3.3366489838838276 2.9925974670471938 4 389.78272780263927 0.21884245562130178 791.32142857142867 29.500000000000004 16.596364614590438 0.29452110062131848 4.5000000000000009 19.440850286135532 561.22660133035617 2.840512743766793 5 0.35984693877551027 0.4966666666666667 0.38700255102040815 0.50338368491360974 2.9211377481749516 28.977777124863245 0.12144086504284056 0.18604124476070752
decision_type=2 1 2 1 1 2 2 2 2 2 2 2 2 1 2 2 2 2 2 2 2 2 2 2 1 2 2 2 2 2 2 2 2 2 2 1 2 2 2 2 2 2 2 2
left_child=2 5 8 7 6 11 14 26 16 -10 21 -2 19 33 -3 23 36 -14 -7 -9 40 -6 -20 -5 30 28 -4 -21 34 -28 -25 -31 -16 -11 -19 42 -1 38 -38 -39 -8 -33 -23 -44
right_child=1 4 3 15 10 18 20 12 9 13 -12 -13 17 -15 32 -17 -18 25 22 27 -22 35 -24 24 -26 -27 29 -29 -30 31 -32 41 -34 -35 -36 -37 37 39 -40 -41 -42 -43 43 -45
leaf_value=1.2058878443717018 1.3468087495239782 1.2867193070670275 1.23445580756984 1.2211948197852274 1.2673252848239891 1.3430973831206308 1.2623020404659671 1.2275924158000908 1.2150628480564039 1.2574157463275777 1.2688526734857466 1.256289376744568 1.2767672581851934 1.2222749715191259 1.2388775422485834 1.3029069232282464 1.2444671151031699 1.2634062733354188 1.3373898596300755 1.2524136643349508 1.3273766890184377 1.231210581198197 1.4179129539414304 1.2481996493372625 1.2246111980636509 1.2430905296475487 1.246461658522694 1.2860209701055694 1.3226408914733121 1.2371507497399348 1.226137360892481 1.3014872121001435 1.2624062522980755 1.2317793212311485 1.3042909804374432 1.2256972593416522 1.2161092945765386 1.2041580667117555 1.262499587061209 1.2209503426741075 1.3025285707322674 1.2677769705270374 1.2391257442134698 1.2662935935245603
leaf_weight=611 132 93 34 703 21 17 13.999999999999998 10.999999999999998 369 103 66 9.9999999999999982 60 130 35 5.9999999999999991 29 19 10.999999999999998 34 85 50 85 116 190 5.9999999999999991 64 79 89 11.999999999999998 53 13.999999999999998 131 30 54 162 157 240 29 118 73 98 33 26
leaf_count=611 132 93 34 703 21 17 14 11 369 103 66 10 60 130 35 6 29 19 11 34 85 50 85 116 190 6 64 79 89 12 53 14 131 30 54 162 157 240 29 118 73 98 33 26
internal_value=1.24309 1.29075 1.2287 1.24363 1.26521 1.36364 1.28511 1.27725 1.21516 1.22379 1.24089 1.34096 1.29064 1.2363 1.26806 1.22545 1.21063 1.30055 1.40135 1.27168 1.31265 1.23423 1.41015 1.22475 1.2319 1.3085 1.25721 1.27656 1.31076 1.26165 1.24166 1.26895 1.2571 1.2506 1.29478 1.23139 1.20973 1.21419 1.22371 1.20947 1.29696 1.2729 1.24212 1.25026
internal_weight=0 1044 3458 1642 789 255 431 574 1816 632 358 142 352 263 259 1068 1184 228 113 124 172 292 96 1062 359 168 222 113 162 188 169 124 166 133 73 271 1155 544 186 358 87 112 109 59
internal_count=4502 1044 3458 1642 789 255 431 574 1816 632 358 142 352 263 259 1068 1184 228 113 124 172 292 96 1062 359 168 222 113 162 188 169 124 166 133 73 271 1155 544 186 358 87 112 109 59
cat_boundaries=0 1 2 3 4 5 6
cat_threshold=48 48 392 48 136 2
is_linear=0
shrinkage=1


Tree=1
num_leaves=45
num_cat=5
split_feature=13 25 13 25 25 13 13 23 13 11 13 13 12 25 12 23 12 11 15 12 12 12 15 13 15 25 13 12 23 12 23 12 23 23 18 12 13 15 11 12 15 7 18 7
split_gain=471.115 287.046 106.893 155.345 58.91 30.4734 28.7816 25.3872 17.9764 14.2255 10.181 10.0805 10.0776 8.72829 7.48673 7.36878 7.21567 7.89729 6.96207 9.79167 6.35642 6.0034 4.36215 4.20514 4.02436 3.70759 3.39088 3.04324 2.94933 2.84703 2.84412 2.52669 2.41444 2.28148 2.12341 1.97887 1.91118 1.8567 1.75541 3.62488 1.73805 1.71411 1.648 1.63424
threshold=3.2769667020129059 0 2.0126758453675748 1 2 4.1026092131977068 4.2555875595453383 81.333333333333357 2.8617925509761908 5.5000000000000009 1.4978661367769956 4.7492611597348082 0.28062500000000007 3 0.23463088939279417 46.500000000000007 0.24350082644628093 5.5000000000000009 2.9925974670471938 0.4768518518518518 0.23443194444444443 0.62731481481481499 3.3433009666970088 4.983512786670059 3.7331942207210482 4 2.3502401828962087 0.50338368491360974 174.45000000000002 0.26534360300594068 41.300000000000004 0.25951244212962965 150.09090909090912 98.40000000000002 0.17646218892688148 0.19172839506172837 3.5114340430413216 4.1598548861496001 3.5000000000000004 0.35259259259259262 2.6611237466990372 0.74610660530228368 0.14797986688637429 0.58140466441160765
decision_type=2 1 2 1 1 2 2 2 2 2 2 2 2 1 2 2 2 2 2 2 2 2 2 2 2 1 2 2 2 2 2 2 2 2 2 2 2 2 2 2 2 2 2 2
left_child=2 6 10 7 5 14 9 30 16 -2 21 24 -12 33 -3 -5 26 -18 -17 25 -11 27 -22 29 32 -20 -9 -1 -10 -7 41 -30 -6 -14 -13 -26 -16 -31 -35 -40 -15 -4 -25 -33
right_child=1 4 3 15 11 23 -8 8 28 20 12 34 13 40 36 18 17 -19 19 -21 22 -23 -24 42 35 -27 -28 -29 31 37 -32 43 -34 38 -36 -37 -38 -39 39 -41 -42 -43 -44 -45
leaf_value=-0.031983471668698166 0.014357263480801347 0.040384386949054649 -0.029152509098848405 -0.03148348244590523 -0.030777135199448226 0.075044017225468482 0.16380914096001206 0 0.027416271527494828 0.082638605166050011 -0.02593013171944444 0.042874387061107438 -0.0059913466491535658 -0.027412758892412212 0 -0.018336286383466748 0.027191051834782157 0.059530545189757506 0.0023177954076381846 0.084380527613372086 0.094537474483574357 0.032727842492406463 0.13632542394256811 0.049457914937769264 0.028709109580719851 -0.01402285118653598 0.023853242839388871 -0.018831137361348331 0.052640726841372533 0.034780045050302015 0.0090256796749785557 0.019242681781944524 -0.0092199109071937398 0 0.0099409419116625181 -0.00017419556017160708 0.018269871364571321 0.062451457094482923 0.0086229568911844745 0.053916243339798435 -0.0069207052947918048 0 0.11094003636852139 0.087344303654684083
leaf_weight=1037 11.999999999999998 93 31 162 42 48 60 50 19 70 369 26 42 85 51 608 143 71 142 5.9999999999999991 51 6.9999999999999991 62 10.000000000000002 13.999999999999998 150 99 140 62 56 31 4.9999999999999991 147 36 30 99 115 38 40 14.999999999999998 45 14.999999999999998 20 48
leaf_count=1037 12 93 31 162 42 48 60 50 19 70 369 26 42 85 51 608 143 71 142 6 51 7 62 10 14 150 99 140 62 56 31 5 147 36 30 99 115 38 40 15 45 15 20 48
internal_value=0 0.0441501 -0.0133179 0.000515483 0.0204835 0.038932 0.111688 0.0316716 0.0384421 0.100454 -0.0258531 -0.00205657 -0.0178924 -0.00634751 0.0231108 -0.016329 0.0293532 0.0383758 -0.0137091 -0.0040473 0.105692 -0.0300377 0.118777 0.0644514 -0.00769944 -0.00629011 0.015866 -0.0304829 0.0623074 0.0572704 -0.00714592 0.0673349 -0.01443 0.00691534 0.026656 0.00306202 0.0129335 0.0470187 0.0142681 0.0226252 -0.0193741 -0.019272 0.0941683 0.0823952
internal_weight=0 1044 3458 1642 789 431 255 574 497 195 1816 358 632 263 259 1068 363 214 906 298 183 1184 113 172 302 292 149 1177 134 142 77 115 189 133 56 113 166 94 91 55 130 46 30 53
internal_count=4502 1044 3458 1642 789 431 255 574 497 195 1816 358 632 263 259 1068 363 214 906 298 183 1184 113 172 302 292 149 1177 134 142 77 115 189 133 56 113 166 94 91 55 130 46 30 53
cat_boundaries=0 1 2 3 4 5
cat_threshold=48 48 392 48 136
is_linear=0
shrinkage=0.075


Tree=2
num_leaves=45
num_cat=4
split_feature=14 25 14 25 25 24 14 25 14 23 14 14 14 11 23 15 24 15 15 23 15 21 15 18 23 10 23 15 5 7 14 24 15 23 23 18 14 15 18 7 14 26 24 7
split_gain=404.518 246.153 91.8017 125.074 50.701 26.4508 26.2595 19.4406 19.6588 17.0876 9.51045 8.73781 8.66615 6.97122 6.44679 5.64354 5.48122 3.77761 3.1017 2.86312 2.72717 2.68261 2.6691 2.95238 2.54084 2.4946 2.4676 2.41209 2.39221 7.75057 2.33877 2.27534 2.2088 2.13466 2.07777 2.02574 1.86578 1.83527 1.78423 1.72678 1.67109 1.7212 1.53497 1.50943
threshold=0.76731194690265492 0 0.47051991150442485 1 2 55.542844215240414 0.91183628318584076 3 0.25774336283185839 135.75000000000003 0.6501106194690266 0.96515486725663713 0.85896017699115057 5.5000000000000009 110.06521739130436 2.9925974670471938 17.805483121844514 2.9211377481749516 3.7331942207210482 41.300000000000004 1.6461793008140024 14.710577540286538 1.3704200119626007 0.24092144514943803 49.250000000000007 0.20658156220768267 185.80000000000004 2.3087963529933249 461.27777777777783 0.60670593403312134 0.98617256637168149 5.9189155859989198 2.4035450504253375 122.18750000000001 150.09090909090912 0.17330489568470722 0.25774336283185839 3.3366489838838276 0.25252860964558127 0.49907063197026025 0.40116150442477877 1030.5034863986721 47.148985395086385 0.59025626981360702
decision_type=2 1 2 1 1 2 2 1 2 2 2 2 2 2 2 2 2 2 2 2 2 2 2 2 2 2 2 2 2 2 2 2 2 2 2 2 2 2 2 2 2 2 2 2
left_child=2 5 7 9 6 13 21 8 20 19 22 18 -7 -2 -5 43 27 -8 34 31 -1 33 -11 -24 -18 -23 -22 -10 42 -30 -19 -4 -25 -3 -6 -13 -9 -14 -34 -12 -26 -42 -17 -16
right_child=1 4 3 14 11 12 17 36 16 10 39 35 37 -15 15 28 24 30 -20 -21 26 25 23 32 40 -27 -28 -29 29 -31 -32 -33 38 -35 -36 -37 -38 -39 -40 -41 41 -43 -44 -45
leaf_value=-0.028229830357802615 0.01334745265906208 -0.010439906818890416 0.017151742084297161 -0.023923722864411402 -0.028943691088115037 0.097542040533894245 0.015379992681226881 -0.032126505157119283 -0.018097081042826469 -0.00066353406646072529 0.0026691002921658265 0.037107386459586902 0.08436456513065288 0.081803756605748137 -0.0033923266616613787 -8.0641372408040199e-05 -0.017394237951392392 0.056657414687599369 0.0020922437721271852 0.013969376069523573 -0.022332301227126237 0.036682111784913138 0.042739278570055987 -0.0054918284337138103 0.0039216966013849077 0 -0.0063608481902228684 -0.0020195399036004335 0.094245386716001509 0.0030820122694580269 0.087560175056675113 -0.029573884902864091 0 0.017433696306741273 -0.0086315084162008684 0.007864631646913034 -0.024986299051914216 0.1486879568068592 0.031381844764364591 0.062259191699682546 0.024405398501943565 -0.0056153579609352208 -0.016444856476666207 -0.016809750450819061
leaf_weight=294 11.999999999999998 13.999999999999998 6.0000000000000027 238 41 58 13.999999999999998 619 100 8.9999999999999982 4.9999999999999991 30 10.999999999999998 85 69 113 18 128 106 54 173 84 134 9.9999999999999982 105 14.999999999999998 98 130 4.9999999999999991 77 30 19 10.999999999999998 146 145 36 529 89 71 121 62 8.9999999999999982 49 330
leaf_count=294 12 14 6 238 41 58 14 619 100 9 5 30 11 85 69 113 18 128 106 54 173 84 134 10 105 15 98 130 5 77 30 19 11 146 145 36 529 89 71 121 62 9 49 330
internal_value=0 0.0409412 -0.0123102 0.00319283 0.0190166 0.103489 0.0361321 -0.0219187 -0.0135931 0.0353806 0.0431013 -0.00188364 0.127206 0.0741153 -0.0130862 -0.00916186 -0.00136936 0.0598348 -0.00766652 0.00371678 -0.0228875 0.0214201 0.0334085 0.0350229 0.00773405 0.0316658 -0.0168091 -0.0093035 0 0.0102054 0.0633058 -0.0158913 0.0228783 0.0145885 -0.0135288 0.0223231 -0.0286577 0.142919 0.0270696 0.060391 0.0107042 0.0197588 -0.00544863 -0.0146483
internal_weight=0 1044 3458 1321 789 255 431 2137 989 440 361 358 158 97 881 643 424 172 292 79 565 259 235 226 194 99 271 230 244 82 158 25 92 160 186 66 1148 100 82 126 176 71 162 399
internal_count=4502 1044 3458 1321 789 255 431 2137 989 440 361 358 158 97 881 643 424 172 292 79 565 259 235 226 194 99 271 230 244 82 158 25 92 160 186 66 1148 100 82 126 176 71 162 399
cat_boundaries=0 1 2 3 4
cat_threshold=48 48 392 48
is_linear=0
shrinkage=0.075


Tree=3
num_leaves=45
num_cat=5
split_feature=13 25 17 25 25 17 13 13 23 17 25 17 23 13 22 22 23 7 23 22 23 25 22 19 19 7 22 5 18 13 23 9 24 13 9 24 13 23 13 24 18 13 18 3
split_gain=344.957 208.113 79.5824 104.22 43.4187 25.3301 23.2919 22.4865 12.0274 8.60922 7.44228 9.39417 5.99464 5.49874 4.8879 3.90194 3.8716 3.70949 3.29146 3.15144 3.04825 2.82645 2.5713 2.90671 2.53505 2.51542 2.49928 2.45084 2.41397 2.40977 2.32656 2.26015 2.20661 2.08131 2.03649 1.90942 1.8892 1.83715 1.76413 1.75333 1.61409 1.52664 1.51054 1.58226
threshold=3.2769667020129059 0 34.378208055500203 1 2 413.08839356914621 2.4414009612931857 4.1026092131977068 86.250000000000014 468.98535873979034 3 17.021304335308113 46.500000000000007 2.9700856263602158 3.8007936507936511 3.7180645161290329 151.25000000000003 0.74954985183773692 20.100000000000005 3.6100000000000008 30.500000000000004 4 4.2937500000000011 22143.500000000004 88182.500000000015 0.6174391847468772 3.6232142857142859 870.00000000000011 0.17330489568470722 2.524928003624769 222.83333333333334 0.46337346436061444 36.227295396083797 4.0342014792848504 0.81254738049869901 33.35660646251219 3.795426061844291 632.42857142857156 5.2806591939842535 14.999062617172855 0.4066961504278031 4.983512786670059 0.48964907187696888 309.50000000000006
decision_type=2 1 2 1 1 2 2 2 2 2 1 2 2 2 2 2 2 2 2 2 2 1 2 2 2 2 2 2 2 2 2 2 2 2 2 2 2 2 2 2 2 2 2 2
left_child=2 5 10 6 7 27 20 14 -8 26 11 -1 -5 19 -3 30 -17 36 -13 -10 -4 29 23 -16 -15 -20 -6 -2 33 -14 -9 -22 42 -11 -23 -27 -7 -36 -30 -25 -31 -18 43 -21
right_child=1 4 3 12 9 17 8 15 13 28 -12 18 21 24 22 16 41 -19 25 32 31 34 -24 39 -26 35 -28 -29 38 40 -32 -33 -34 -35 37 -37 -38 -39 -40 -41 -42 -43 -44 -45
leaf_value=-0.021954423803666381 0.079334768609798906 0 -0.011972986768187291 -0.0270859977528678 -0.028709130097295157 0.090437771696371627 -0.010165365852830316 0.045598103963264559 0.00073639697173508644 -0.0018093070551605879 -0.027238299560266525 -0.024388491476724311 -0.013420472117117952 0.045056720082727215 -0.014692278733896884 0.0069230492179505956 0.056368493678078294 0.053943362897122225 -0.020795885350200511 0.03606646159872548 -0.0076421450688986831 -0.016858392428087725 0.0019475026940791069 0.0028532627784558545 0.077130840861822286 -0.00095612974216448558 -0.0072262085652779733 0.029171121297811568 -0.0026204272455519744 -0.0034486825577675706 0 0.014023234794497743 0.048016708618594348 0.02559621211608552 -0.0048626928420955557 0.017944443998892678 0.13901884049785748 0.04174891841862019 0.032834185967869842 0.033561495983658041 0.017256590544557776 0.084807572712160814 -0.0012526943294358423 0.011861731914748624
leaf_weight=551 132 59 34 170 42 20 25 9.0000000000000018 18 14.999999999999998 958 39 160 63 5.9999999999999991 9.9999999999999982 113 7.9999999999999991 30 93 27 454 28 15.999999999999998 35 161 159 10.999999999999998 68 233 10.999999999999998 203 82 68 20.000000000000004 35 85 4.9999999999999991 7.9999999999999991 148 22 29 4.9999999999999991 29
leaf_count=551 132 59 34 170 42 20 25 9 18 15 958 39 160 63 6 10 113 8 30 93 27 454 28 16 35 161 159 11 68 233 11 203 82 68 20 35 85 5 8 148 22 29 5 29
internal_value=0 0.037812 -0.0113548 0.00032062 0.0176132 0.0951953 0.0247096 0.0335323 0.0378241 -0.00162201 -0.0224268 -0.0161535 -0.0138084 0.0417123 0.0198074 0.0554535 0.0597796 0.126546 -0.00444816 0.0344009 0.00797197 -0.0113502 0.0254377 0.0289345 0.0576376 -0.000673684 -0.0121028 0.0760688 0.0111512 -0.00603779 0.0187111 0.0112069 0.0370055 0.0199698 -0.0153661 0.00217835 0.131073 0.00317499 0.000645666 0.0309515 -0.00138375 0.0630297 0.0291798 0.0309071
internal_weight=0 1045 3452 1678 789 256 614 429 350 360 1774 816 1064 325 257 172 152 113 265 227 264 894 198 170 98 226 201 143 159 415 20 230 209 83 479 196 105 25 76 164 255 142 127 122
internal_count=4497 1045 3452 1678 789 256 614 429 350 360 1774 816 1064 325 257 172 152 113 265 227 264 894 198 170 98 226 201 143 159 415 20 230 209 83 479 196 105 25 76 164 255 142 127 122
cat_boundaries=0 1 2 3 4 5
cat_threshold=48 48 392 48 136
is_linear=0
shrinkage=0.075


Tree=4
num_leaves=45
num_cat=0
split_feature=13 13 15 22 22 22 15 22 22 12 13 15 22 22 18 21 22 13 12 11 21 26 13 13 7 20 15 22 26 22 22 17 21 13 22 26 12 26 15 22 22 12 11 12
split_gain=296.151 68.6951 41.093 20.567 18.073 16.3036 13.6511 11.4898 13.2842 8.3697 14.4475 6.85489 6.26261 6.05964 5.48521 4.95834 4.60563 4.60012 4.57335 3.77297 3.58281 3.14548 3.11757 3.10849 8.2183 5.35615 6.06375 3.09825 3.72081 3.18819 3.70227 2.87735 2.91344 2.77288 2.68502 3.28615 2.69099 2.84737 2.67757 2.57658 3.08996 2.30653 4.29464 5.25205
threshold=3.2769667020129059 2.0126758453675748 3.5990216639628394 3.5021739130434786 3.6100000000000008 4.2937500000000011 2.8146529224064971 3.7021739130434792 4.2937500000000011 0.42191406250000002 2.4414009612931857 2.550409359077118 4.2118055555555562 4.2937500000000011 0.46876933097947843 14.633083321856185 4.1930952380952382 4.2696729980286863 0.28062500000000007 5.5000000000000009 15.001799595732574 1558.6510341474359 4.3757372435704527 3.7256208424938388 0.71787352555701189 12.993571049730305 3.0709514939757807 4.0133928571428585 2693.1451451585003 3.998333333333334 3.917619047619048 71.789211430713223 14.022931878935173 1.4978661367769956 3.917619047619048 4633.476345817634 0.23204121537233063 2738.9252315905856 3.1622914758153824 4.0980000000000016 4.1145833333333348 0.25853813543929499 3.5000000000000004 0.41303901152297656
decision_type=2 2 2 2 2 2 2 2 2 2 2 2 2 2 2 2 2 2 2 2 2 2 2 2 2 2 2 2 2 2 2 2 2 2 2 2 2 2 2 2 2 2 2 2
left_child=1 11 4 -3 -2 6 12 17 14 20 -11 41 16 15 19 34 27 -4 -13 -9 21 31 -19 24 -17 26 -25 28 29 30 -5 32 -8 -20 35 -6 37 -36 -7 -29 -41 -1 -43 -44
right_child=2 3 7 5 13 38 9 8 -10 10 -12 18 -14 -15 -16 23 -18 22 33 -21 -22 -23 -24 25 -26 -27 -28 39 -30 -31 -32 -33 -34 -35 36 -37 -38 -39 -40 40 -42 42 43 -45
leaf_value=-0.027479170886355014 -0.016025244556786104 -0.020534288421428102 -0.010932374346825613 -0.0034374992612866951 0 -0.01425277160561344 -0.0025670482501929746 0.0027253436891338492 0.009212125807131679 0 0.13674662077410646 -0.021095264441291086 0.03163156574414526 -0.00029650901184227703 0.0036196394076462319 0.088372013836242422 -0.02129141743598233 0.085842274070773258 -0.012683784242457525 0.059440440835780733 0.03196480097578841 -0.0021319928914037599 0.017302697944913223 0.0095331221615191798 0.029306966546117585 0.013689211186275889 0.063757204291826422 0.024355846265162493 0.055957832266856175 -0.01986550795272839 0.026890136464194709 0.019704963119731897 0.022403178582685149 0.0051225298361039931 0.049604778344457347 0.054394937579625845 0.016740385405046156 0 0.00036284908098748061 -0.010739702612346453 0.017628273595184766 -0.023459725828852401 -0.013671887767803955 0.047456296819671721
leaf_weight=482 67 223 21 250 58 252 81 8.9999999999999982 39 7.9999999999999991 7.9999999999999991 133 33 43 12.999999999999998 23 59 5.0000000000000027 87 423 67 63 24 21 44 73 38 48 4.9999999999999991 59 24 256 36 106 36 5.9999999999999991 96 5.9999999999999991 87 45 39 740 254 6.9999999999999991
leaf_count=482 67 223 21 250 58 252 81 9 39 8 8 133 33 43 13 23 59 5 87 423 67 63 24 21 44 73 38 48 5 59 24 256 36 106 36 6 96 6 87 45 39 740 254 7
internal_value=0 -0.0105109 0.0350452 0.000556798 0.0196039 0.00392013 0.00844974 0.04966 0.0532404 0.0172121 0.0703878 -0.0205914 0.000240152 0.0251319 0.0569434 0.0280006 -0.00165142 0.0135502 -0.0103703 0.0584023 0.0152951 0.0125449 0.0330759 0.0367528 0.0512521 0.0286862 0.0458268 0.000720647 -0.00295145 -0.00414391 -0.000496344 0.0151808 0.00471513 -0.00261909 0.0189773 0.00500554 0.0249664 0.0417301 -0.0103363 0.0105287 0.00177779 -0.0227917 -0.0204557 -0.011668
internal_weight=0 3452 1045 1643 511 1420 1081 534 484 519 16 1809 562 444 445 401 529 50 326 432 503 436 29 199 67 132 59 470 338 333 274 373 117 193 202 64 138 42 339 132 84 1483 1001 261
internal_count=4497 3452 1045 1643 511 1420 1081 534 484 519 16 1809 562 444 445 401 529 50 326 432 503 436 29 199 67 132 59 470 338 333 274 373 117 193 202 64 138 42 339 132 84 1483 1001 261
is_linear=0
shrinkage=0.075


Tree=5
num_leaves=45
num_cat=4
split_feature=13 25 25 13 25 13 13 23 13 13 13 13 23 13 23 15 13 7 15 18 10 25 23 6 23 7 23 7 20 18 19 19 19 15 16 23 5 15 16 15 18 18 1 23
split_gain=254.116 172.811 59.1932 91.9829 36.1754 17.9299 17.1653 13.1309 12.9547 8.9845 8.73392 5.92373 4.57162 4.30735 3.09034 2.80379 2.80138 2.79648 2.56775 2.69994 2.37091 2.2661 2.13441 2.04389 2.01228 1.99259 1.86234 2.89765 2.0162 1.69541 1.69057 2.40038 4.3105 1.65617 1.59274 1.53273 1.50979 1.50357 1.4922 1.43682 1.38052 1.6737 1.35548 1.22965
threshold=3.2769667020129059 0 1 2.1383330595080281 2 4.3372693810700085 4.1026092131977068 110.06521739130436 2.3502401828962087 1.4978661367769956 2.9174053685313028 4.7492611597348082 103.16666666666667 3.4498615536424366 207.86458333333334 2.4796709998543531 4.5271940351011493 0.71844211435046146 1.5177768838703316 0.22727549920707157 0.049638614631784608 3 185.80000000000004 1.5000000000000002 65.500000000000014 0.73223456779467189 128.25000000000003 0.75034965090253036 11.945146517483522 0.15725515502985388 79346.500000000015 70821.500000000015 73307.500000000015 1.6461793008140024 396.75000000000006 475.62500000000006 549.50000000000011 2.9925974670471938 1578.5625000000002 4.0386459529934742 0.17646218892688148 0.082885236103886969 643.00000000000011 271.91666666666669
decision_type=2 1 1 2 1 2 2 2 2 2 2 2 2 2 2 2 2 2 2 2 2 1 2 2 2 2 2 2 2 2 2 2 2 2 2 2 2 2 2 2 2 2 2 2
left_child=2 5 3 9 6 13 26 17 37 22 18 21 -10 -2 -11 -14 -8 24 -9 23 -12 -6 -1 -20 -5 -15 -3 28 -28 35 31 42 -33 -24 -21 -17 -16 -4 -25 -23 41 -13 -31 -44
right_child=1 4 8 7 11 -7 16 10 12 14 20 40 15 25 36 29 -18 -19 19 34 -22 39 33 38 -26 -27 27 -29 -30 30 -32 32 -34 -35 -36 -37 -38 -39 -40 -41 -42 -43 43 -45
leaf_value=-0.021127406876786839 0.050440769494399837 0 -0.023916883387759758 -0.025488555524752866 0.00022864947725977091 0.13168419713572954 0.035828163896703361 0.0029112948922297237 -0.020123636797998879 -0.0085294174047388753 0.011541507994449253 0 -0.013951177512555164 0.08881963443337719 0.012074218433885436 -0.0019621815373609642 0.058930317164207283 0.016888216248606862 -0.0018772941776869453 0 0.054798592928346095 -0.01684301701547241 -0.019413211924901145 0.039400194765639773 0.0030880935084632603 0.056313964077429376 -0.00023631936889679234 0.039643518568572005 0.018264175449789154 -0.0042001553107889325 -0.0054804463656988782 0.085789161303522168 0 -0.0030701165740340528 0.022497594232421151 -0.020498896009662093 -0.0027048760233787557 -0.013317431161856998 0.0082384192311905635 0 0.0045556822240268918 0.044885765226811876 0.025126985054422814 0
leaf_weight=401 43 30 1096 27 121 48 87 31 213 210 11.999999999999998 10.000000000000002 215 135 85 66 85 30 4.9999999999999991 22 103 143 65 136 21 30 34 35 158 68 138 4.9999999999999991 10.999999999999998 98 108 50 61 113 14.999999999999998 39 30 17 21 26
leaf_count=401 43 30 1096 27 121 48 87 31 213 210 12 10 215 135 85 66 85 30 5 22 103 143 65 136 21 30 34 35 158 68 138 5 11 98 108 50 61 113 15 39 30 17 21 26
internal_value=0 0.0324802 -0.00971909 0.0019656 0.0141304 0.0847359 0.0286523 0.0275385 -0.0179305 -0.0121369 0.0326452 -0.00334614 -0.0105477 0.077217 -0.00260428 -0.00702803 0.047805 -4.03865e-05 0.0257248 0.0279771 0.0509043 -0.00775587 -0.0180374 0.0351351 -0.0119318 0.0835638 0.0166089 0.0189254 0.0146948 -0.00298825 7.21791e-05 0.00636656 0.033108 -0.0100099 0.0187753 -0.0105421 0.00551663 -0.0229843 0.0367524 -0.0126833 0.0182801 0.0308416 0.00193492 0.0119667
internal_weight=0 1045 3452 1430 789 256 429 510 2022 920 432 360 813 208 356 600 172 78 317 286 115 303 564 156 48 165 257 227 192 385 269 131 16 163 130 116 146 1209 151 182 57 27 115 47
internal_count=4497 1045 3452 1430 789 256 429 510 2022 920 432 360 813 208 356 600 172 78 317 286 115 303 564 156 48 165 257 227 192 385 269 131 16 163 130 116 146 1209 151 182 57 27 115 47
cat_boundaries=0 1 2 3 4
cat_threshold=48 48 392 2
is_linear=0
shrinkage=0.075


Tree=6
num_leaves=45
num_cat=0
split_feature=13 13 22 22 22 13 13 22 12 7 22 13 22 22 12 9 12 13 22 22 12 22 22 22 22 22 18 22 22 22 22 22 22 22 22 22 5 22 3 19 22 22 9 12
split_gain=220.209 50.4014 29.9919 16.0752 12.5793 11.787 9.04717 8.47031 5.82421 5.38028 5.56855 4.82675 4.76912 8.68437 6.62223 8.68088 4.6197 4.43696 3.92376 11.2712 6.94501 6.30056 16.1348 7.12051 9.55893 3.87189 4.19843 3.7752 5.11085 4.07178 4.29701 5.10408 6.18591 5.71906 7.82811 3.74244 3.65173 3.36343 3.10316 3.06377 4.19746 3.20744 2.79601 3.43772
threshold=3.2769667020129059 2.249904835165133 3.6100000000000008 4.2937500000000011 3.5021739130434786 4.4829865921051741 1.4978661367769956 4.2937500000000011 0.2854352678571429 0.54389580111514602 3.8007936507936511 4.2835627800822236 4.2006849315068502 4.1930952380952382 0.36144943212547337 0.72879432892658558 0.62731481481481499 4.3630783395783075 3.8949754901960794 3.9019230769230773 0.38455357142857149 3.998333333333334 4.0012500000000015 4.0980000000000016 4.1021739130434796 3.7021739130434792 0.19150999309890113 3.7928260869565222 3.8133928571428575 3.8949754901960794 3.9080128205128211 3.998333333333334 4.0012500000000015 4.0980000000000016 4.1069047619047625 3.7928260869565222 273.46634615384625 3.2900000000000005 13.500000000000002 52684.500000000007 3.8133928571428575 3.998333333333334 0.89083510261854226 0.31398199645535957
decision_type=2 2 2 2 2 2 2 2 2 2 2 2 2 2 2 2 2 2 2 2 2 2 2 2 2 2 2 2 2 2 2 2 2 2 2 2 2 2 2 2 2 2 2 2
left_child=1 6 11 5 -3 9 16 12 -8 17 35 -2 13 14 25 39 -1 38 36 -20 21 -21 -23 -24 -25 26 -6 -27 -29 -30 -31 -32 -33 -34 -35 -11 -12 -10 -4 -16 -41 -42 43 -7
right_child=2 4 3 -5 7 42 8 -9 37 10 18 -13 -14 -15 15 -17 -18 -19 19 20 -22 22 23 24 -26 27 -28 28 29 30 31 32 33 34 -36 -37 -38 -39 -40 40 41 -43 -44 -45
leaf_value=-0.020988773626191348 -0.017933133445959839 -0.016646569193263277 0.03464291948004606 0.0016409095780133048 0.0078685306342213962 0.065324727073545794 -0.015217066431629348 -0.0066282976914869051 -0.018014479510096701 0.023283195733524765 0.071918088504721589 0.019454202311965926 0.029544895286636303 -0.014612380928779752 -0.0084640220945883318 0.081872765324060806 0.034556387569000313 0.0097978362620796261 -0.0048838669386196054 0.057161685511493254 -0.00025951944926207957 -0.010849374291664703 0.059961040352937513 -0.0029538621262767753 0.038749959638616167 0.034951679008838825 -0.019874746030133388 -0.013335855898033641 0.03071961709045367 -0.0082438771675165442 0.031894403621860891 -0.01002467625539157 0.032622062138180016 -0.010121263568840695 0.024433837522251697 -0.0072465084247455526 0.031713279690172742 0.0003191129563088653 0.070856875515524526 -0.0023804687448480411 0.07150511894581385 0.013876627118884008 0.015042359073286073 0.037389153857714436
leaf_weight=1176 76 167 34 81 64 120 586 255 67 54 30 24 59 89 15.999999999999998 14.999999999999998 6.9999999999999991 17 45 73 28 42 67 37 130 33 55 52 53 70 59 80 65 79 66 34 40 298 48 13.999999999999998 13.000000000000002 14.999999999999998 13.999999999999998 52
leaf_count=1176 76 167 34 81 64 120 586 255 67 54 30 24 59 89 16 15 7 17 45 73 28 42 67 37 130 33 55 52 53 70 59 80 65 79 66 34 40 298 48 14 13 15 14 52
internal_value=0 -0.0090286 0.0302388 0.0343777 0.00245758 0.0373708 -0.0161539 0.00528773 -0.0105645 0.0324967 0.0294026 -0.00829256 0.00874377 0.00718232 0.00986346 0.0314591 -0.0205873 0.0496536 0.0325758 0.0293919 0.0336409 0.0365236 0.0307033 0.0384241 0.0291887 0.00741003 -0.00450877 0.0100649 0.00833463 0.0108652 0.00815984 0.0116298 0.00722824 0.0140935 0.00525046 0.0108645 0.0503915 -0.00291695 0.0570307 0.0164866 0.0273497 0.0439169 0.0546341 0.0574314
internal_weight=0 3453 1046 946 1319 865 2134 1152 951 679 580 100 897 838 749 73 1183 99 492 422 377 349 276 234 167 676 119 557 524 472 419 349 290 210 145 88 70 365 82 58 42 28 186 172
internal_count=4499 3453 1046 946 1319 865 2134 1152 951 679 580 100 897 838 749 73 1183 99 492 422 377 349 276 234 167 676 119 557 524 472 419 349 290 210 145 88 70 365 82 58 42 28 186 172
is_linear=0
shrinkage=0.075


Tree=7
num_leaves=45
num_cat=5
split_feature=13 25 25 13 25 24 13 23 13 13 25 13 23 23 20 9 24 10 23 24 15 20 15 26 15 15 20 2 24 23 24 16 15 15 15 16 23 24 24 25 18 9 13 10
split_gain=188.974 143.58 49.6022 70.0828 30.4539 17.5107 16.6402 11.9828 9.2277 8.90184 7.61139 4.69705 4.66371 3.47725 3.10953 3.10485 3.05782 3.11041 2.59682 2.48332 2.4242 2.42171 2.37968 2.36886 2.25301 2.00027 1.92802 2.57756 2.10462 2.53584 1.89662 1.8805 1.81606 1.78484 1.58206 1.4981 1.83865 1.45296 1.77587 1.36634 1.35967 1.31055 1.24125 1.17684
threshold=3.2769667020129059 0 1 2.0126758453675748 2 55.542844215240414 4.4248287033199567 81.333333333333357 2.3502401828962087 2.8617925509761908 3 3.795426061844291 121.45833333333336 110.06521739130436 12.620281025509952 0.62509968102073377 36.227295396083797 0.016591251885369453 265.05263157894746 19.30968010156808 3.5677690262223862 11.802033844711801 3.1909873171337018 476.57176181850224 2.3806861657742102 3.5990216639628394 12.787310630085639 707.16666666666686 19.853094197551886 376.20000000000005 14.064895458416903 1824.4375000000002 3.3366489838838276 4.0710498309767447 1.1975251603330699 377.50000000000006 41.300000000000004 35.021177259384636 43.02005406331768 4 0.068998626346385108 0.45536096807831289 3.8393944990995772 0.18629171696081948
decision_type=2 1 1 2 1 2 2 2 2 2 1 2 2 2 2 2 2 2 2 2 2 2 2 2 2 2 2 2 2 2 2 2 2 2 2 2 2 2 2 1 2 2 2 2
left_child=2 5 3 12 6 21 19 35 -4 16 15 -7 37 -10 24 33 23 -18 -17 42 30 -2 39 31 -11 -12 27 -24 -29 -30 -14 -9 -13 -6 -19 -5 -37 -1 -39 -15 -21 -36 -3 -20
right_child=1 4 8 7 10 11 -8 9 13 14 25 32 20 22 -16 18 17 34 43 40 -22 -23 26 -25 -26 -27 -28 28 29 -31 -32 -33 -34 -35 41 36 -38 38 -40 -41 -42 -43 -44 -45
leaf_value=-0.017582730897186562 0.016449673218234231 -0.0024229177948299533 -0.020120490720810996 0.030656535096667072 -0.012054322108978518 0.071645012569827707 0.064714238696792797 0.0068790362561548636 -0.017784581955289976 0 -0.017860036009742359 0.058381733230643253 -0.010641498391715208 -0.0025487040450153913 0.059386296733872058 2.2624403344863296e-05 -0.0023781065564765567 0 0.022244604113523036 0.042816756013177727 0.03073130175102428 0.056851317583991798 0 0.025651483464193388 0.036900081346115714 -0.0026295874593720791 -0.0079098687896268643 0.006206551629918817 0.0084246811104805551 0.08868471684539786 0 0.049246114120545144 0.11142854736476925 0.012262741860741666 0 -0.018049185499084078 0.0049115372327902607 0.031135008804091049 -0.01168994352306897 -0.012591137096417791 0.021157101390845336 0.038923228624438665 0.026999204210414511 0.0023759345256026553
leaf_weight=422 14.999999999999998 33 1213 4.9999999999999991 54 58 66 154 220 9.9999999999999982 112 11.999999999999998 229 155 54 68 10.999999999999998 6.9999999999999991 113 27 8.9999999999999982 83 63 84 69 104 73 20 6.9999999999999982 5 170 5.9999999999999991 89 22 4.9999999999999991 42 30 7.0000000000000027 17 269 153 97 8.9999999999999982 28
leaf_count=422 15 33 1213 5 54 58 66 154 220 10 112 12 229 155 54 68 11 7 113 27 9 83 63 84 69 104 73 20 7 5 170 6 89 22 5 42 30 7 17 269 153 97 9 28
internal_value=0 0.0280285 -0.00834748 0.00235359 0.0113233 0.0755235 0.0303457 0.0226533 -0.0158541 0.0269299 0 0.0943905 -0.0112024 -0.00958994 0.0439229 0.00790489 0.020477 0.0307826 0.0129613 0.0210307 -0.00518008 0.0514464 -0.0064254 0.0150843 0.0321272 -0.0103576 0.000809046 0.00813427 0.0252063 0.0499098 -0.00619713 0.00907034 0.106211 -0.00419341 0.034659 -0.0041852 -0.00772333 -0.0165606 0 -0.00942679 0.0249063 0.0370083 0.00288927 0.0187503
internal_weight=0 1046 3453 1428 789 257 288 574 2025 497 501 159 854 812 133 285 364 120 209 222 408 98 592 244 79 216 168 95 32 12 399 160 101 76 109 77 72 446 24 424 180 102 42 141
internal_count=4499 1046 3453 1428 789 257 288 574 2025 497 501 159 854 812 133 285 364 120 209 222 408 98 592 244 79 216 168 95 32 12 399 160 101 76 109 77 72 446 24 424 180 102 42 141
cat_boundaries=0 1 2 3 4 5
cat_threshold=48 48 384 10 10
is_linear=0
shrinkage=0.075


Tree=8
num_leaves=45
num_cat=0
split_feature=17 23 15 17 23 24 15 22 22 6 22 22 23 22 23 6 17 22 23 17 15 13 15 27 13 22 15 22 23 15 17 26 9 24 4 24 22 22 22 22 13 13 26 15
split_gain=163.72 36.7107 27.9814 24.7404 10.9461 8.9942 8.93428 5.64387 4.72313 4.2452 3.70558 3.44353 3.13911 3.05923 2.96114 2.83229 2.83483 2.78627 2.7854 3.72988 5.35515 3.81014 2.44728 2.38731 2.27118 2.24823 2.24369 2.16498 2.15089 2.61607 2.2645 2.08775 2.08669 2.07851 2.03558 2.01969 4.92535 2.41774 2.82886 2.04561 2.00082 1.80117 1.79994 1.78403
threshold=124.29394400580166 110.06521739130436 3.9439943256836312 25.325644885713256 110.06521739130436 80.65973301339271 1.9895486855462337 3.7021739130434792 4.2937500000000011 43.500000000000007 4.2937500000000011 3.7021739130434792 46.500000000000007 3.6522727272727278 265.05263157894746 64.500000000000014 85.35624678405712 3.6100000000000008 1661.0000000000002 802.7396177699917 4.5982617409288968 4.6298509007569537 3.0295250894487267 111.30344759975263 2.602003343538398 4.3900000000000015 2.9736093646190871 3.8949754901960794 808.50000000000011 2.7286611583730016 965.84382521353052 505.5794916358463 0.69985422740524783 180.55869025503918 372.50000000000006 55.067147958391551 3.998333333333334 3.9019230769230773 3.998333333333334 4.0171568627450993 4.7957563937576522 4.7405652883788738 256.48470572338999 4.2000065494765346
decision_type=2 2 2 2 2 2 2 2 2 2 2 2 2 2 2 2 2 2 2 2 2 2 2 2 2 2 2 2 2 2 2 2 2 2 2 2 2 2 2 2 2 2 2 2
left_child=3 43 5 12 -5 9 -6 32 13 25 11 23 -1 -7 41 16 -13 -11 19 -16 -21 33 -18 -8 27 -3 -14 -17 29 -15 -31 -29 -4 -22 -12 37 -37 -19 -39 -40 -20 -9 -28 -2
right_child=1 2 7 4 6 8 10 14 -10 17 34 15 26 28 18 24 22 35 40 20 21 -23 -24 -25 -26 -27 42 31 -30 30 -32 -33 -34 -35 -36 36 -38 38 39 -41 -42 -43 -44 -45
leaf_value=-0.02155092602329135 -0.015984771337972284 0.0091834742007642269 0.027318479008743062 -0.012971750328329016 -0.010352911416983137 0.00030307557205323717 0.011886778014751388 0.030933251793197176 -0.0078275796548137287 -0.0038648728086219438 -0.018852235691654902 -0.0028523677568415644 -0.014831365761713712 0.023736979503933102 0.041547406470881287 0.040633258365604552 0.0017815738415716471 0.0042581162775710245 0.034907588482454073 0.071705793588209985 0.085440715850978219 0 0.032279368519321436 -0.011368328810520776 0.0087262076107032221 -0.013467092438660904 0.0064724884056958625 0.007714388364190675 0.010768168125374313 0.052505525427061245 0.023624251588229089 0.033462436665894817 -0.0078666915688044344 0.0091496834704644734 0 0.051249805927055365 0.0035396922648392301 0.043007059177345347 -0.0044542992945361083 0.020319260736773558 -0.0035724941430178864 -0.007531526391674025 -0.025064073332066311 0.0058699965332965256
leaf_weight=519 138 320 19 448 292 18 33 44 13.999999999999998 22 43 145 911 62 131 31 40 65 19.000000000000004 94 6.0000000000000018 11.999999999999998 28 81 206 24 49 73 24 92 31 28 13.999999999999998 6 121 38 22 34 17 140 7.9999999999999991 4.9999999999999991 11.999999999999998 20
leaf_count=519 138 320 19 448 292 18 33 44 14 22 43 145 911 62 131 31 40 65 19 94 6 12 28 81 206 24 49 73 24 92 31 28 14 6 121 38 22 34 17 140 8 5 12 20
internal_value=0 0.0209792 0.0252008 -0.00968821 -0.0030654 0.0181597 0.000847451 0.0431094 0.0308019 0.0135752 0.00486976 0.00739471 -0.0166126 0.0334622 0.0461733 0.00987961 0.00274249 0.019649 0.0494987 0.0522084 0.0631899 0.0262276 0.0154246 -0.00408732 0.0141863 0.00740479 -0.0138997 0.0221599 0.036025 0.0389241 0.0459014 0.0156374 0.0108134 0.0548442 -0.00499717 0.0214778 0.0350011 0.01798 0.0223053 0.0172543 0.0216095 0.0257668 0 -0.0128316
internal_weight=0 1439 1281 3060 1569 923 1121 358 241 682 829 665 1491 227 325 551 213 338 276 249 118 24 68 114 338 344 972 132 209 185 123 101 33 12 164 316 60 256 191 157 27 49 61 158
internal_count=4499 1439 1281 3060 1569 923 1121 358 241 682 829 665 1491 227 325 551 213 338 276 249 118 24 68 114 338 344 972 132 209 185 123 101 33 12 164 316 60 256 191 157 27 49 61 158
is_linear=0
shrinkage=0.075


Tree=9
num_leaves=45
num_cat=0
split_feature=17 23 17 17 23 23 6 24 12 13 20 12 13 24 13 12 13 9 9 16 16 12 23 17 10 17 23 8 16 9 1 17 16 13 12 6 13 12 13 20 12 13 24 17
split_gain=138.75 30.4524 21.5638 18.9921 10.5024 5.34174 5.07378 4.53391 4.1646 5.78409 3.98872 3.55552 3.41401 4.80371 3.10971 3.03447 2.69625 3.26953 3.4411 2.9185 2.68563 2.52792 2.51012 2.39007 2.62141 2.30767 2.22845 2.46832 2.64437 2.2214 2.19513 2.67191 3.63762 2.38203 2.81003 7.46805 2.14517 7.0577 3.21407 2.14142 2.07526 1.97925 1.93574 1.91067
threshold=124.29394400580166 110.06521739130436 20.729018835990459 468.98535873979034 110.06521739130436 480.33333333333343 36.500000000000007 127.78802747791954 0.28459274673008322 2.524928003624769 9.7854629418221535 0.50338368491360974 4.3107766033702406 55.067147958391551 0.89587973461402759 0.32981994459833797 3.8393944990995772 0.66644227236460807 0.71490215287010483 1616.0000000000002 572.86931818181836 0.18914563070407223 1106.0000000000002 1621.2604985266025 0.12848804891606444 137.13166363509166 1576.0666666666668 0.14224856942900663 156.80715811965814 0.77528281313888525 107.50000000000001 102.5210238034408 994.75000000000011 2.8029010331479989 0.50029726516052331 107.50000000000001 0.89587973461402759 0.38700255102040815 1.4978661367769956 12.246088783378642 0.33679120752984387 4.7957563937576522 80.65973301339271 386.10534594776391
decision_type=2 2 2 2 2 2 2 2 2 2 2 2 2 2 2 2 2 2 2 2 2 2 2 2 2 2 2 2 2 2 2 2 2 2 2 2 2 2 2 2 2 2 2 2
left_child=2 -2 11 6 -4 23 7 25 9 21 -8 36 13 15 -13 43 19 -18 -19 20 -15 -6 -11 24 42 -3 27 -7 -29 -20 -10 33 -33 34 -32 -36 -1 -38 -39 -22 -27 -28 -5 -12
right_child=1 3 4 5 8 26 10 -9 30 22 12 14 -14 16 -16 -17 17 18 29 -21 39 -23 -24 -25 -26 40 41 28 -30 -31 31 32 -34 -35 35 -37 37 38 -40 -41 -42 -43 -44 -45
leaf_value=-0.021464641858077872 -0.011384591857117694 0.030346391403007798 -0.01227705554148094 0.019970926883605702 -0.020406083293662971 0.020554239127035908 -0.019260382531390789 0.04499242580696191 -0.0087323800065056533 0.0066846896846632807 0.023043041937684895 0.0065096586337231657 -0.0094284459655157807 0.015074449208736532 -0.015247514343883637 0 0 0.058605537818937167 -0.0037294453639908705 0.0036679625775648738 0.032418553430316355 -0.0053224895982749753 -0.015299944701076042 0 0.013403348228707385 0.0081211072434432766 0.035330343488977206 0.00043095038621845195 0.052670528184262176 0.03631595643822403 0.0072009105334485566 0.05863908438206962 0 -0.0098766598671382634 0 0.10895314441210981 -0.016882900163441288 0.026029264291211569 -0.006262308826648225 0.07855385834337468 -0.0075853952585520929 0 0.044588541127561748 0
leaf_weight=501 159 23 519 43 80 26 10.999999999999998 19 41 321 266 69 14.999999999999998 11.999999999999998 73 41 22 20 14.000000000000002 9.9999999999999982 15.999999999999998 387 30 19 57 268 23 7.9999999999999991 172 11.999999999999998 272 13.000000000000002 8.9999999999999982 38 10.999999999999998 4.9999999999999991 632 31 33 28 53 12.999999999999998 66 23
leaf_count=501 159 23 519 43 80 26 11 19 41 321 266 69 15 12 73 41 22 20 14 10 16 387 30 19 57 268 23 8 172 12 272 13 9 38 11 5 632 31 33 28 53 13 66 23
internal_value=0 0.0192779 -0.00894683 0.0231375 -0.00336002 0.0361641 0.0165199 0.00947399 0.000430981 -0.00255472 0.0215956 -0.0160981 0.0226871 0.0238665 -0.00428519 0.0185516 0.0363314 0.0235842 0.0347953 0.0481448 0.0548865 -0.00806275 0.00460773 0.0255799 0.0284512 0.00724191 0.0439022 0.0472626 0.0506869 0.0130829 0.00685302 0.00887397 0.0344004 0.00689135 0.00932904 0.0399417 -0.0174464 -0.0144482 0.00859676 0.0639675 0.00533228 0.0224648 0.0356291 0.0212545
internal_weight=0 1439 3065 1280 1726 427 853 363 1207 818 490 1339 479 464 142 330 134 68 46 66 56 467 351 185 166 344 242 206 180 26 389 348 22 326 288 16 1197 696 64 44 321 36 109 289
internal_count=4504 1439 3065 1280 1726 427 853 363 1207 818 490 1339 479 464 142 330 134 68 46 66 56 467 351 185 166 344 242 206 180 26 389 348 22 326 288 16 1197 696 64 44 321 36 109 289
is_linear=0
shrinkage=0.075


Tree=10
num_leaves=45
num_cat=4
split_feature=13 25 25 13 24 25 23 15 13 13 13 13 22 22 22 25 15 24 24 10 18 24 15 24 15 22 22 20 15 13 18 15 19 23 23 13 24 24 20 18 23 22 23 24
split_gain=118.664 115.272 41.3037 50.6396 15.449 11.4768 8.80945 7.91986 7.03234 6.76884 4.87773 3.60859 3.5506 2.25867 3.77164 2.87991 2.2037 2.18492 2.0568 2.4899 1.95945 1.91654 1.79015 2.24039 1.72495 1.65675 1.61439 1.6122 1.58064 1.56209 1.69638 1.40538 1.39289 1.3369 1.25849 1.06379 1.01706 1.05793 1.01306 0.988729 0.930004 0.892752 0.863493 1.27009
threshold=3.2769667020129059 0 1 2.0126758453675748 50.141065941551332 2 41.300000000000004 3.3366489838838276 4.1026092131977068 2.8617925509761908 2.3502401828962087 1.2424533248940004 4.3900000000000015 3.8133928571428575 3.8949754901960794 3 4.3788955132950145 4.5156977849120841 36.227295396083797 0.016591251885369453 0.37575391987645063 19.563865313035244 3.9439943256836312 14.640397960186121 1.1190232859282376 3.6366666666666672 3.6100000000000008 12.620281025509952 2.2836367978984713 4.983512786670059 0.12098652028730061 2.6435018033238822 85111.500000000015 287.28125000000006 135.75000000000003 4.9522934739897151 26.662865000568733 16.596364614590438 14.553285098907244 0.26784966233822077 106.25000000000001 3.7180645161290329 464.50000000000006 19.853094197551886
decision_type=2 1 1 2 2 1 2 2 2 2 2 2 2 2 2 1 2 2 2 2 2 2 2 2 2 2 2 2 2 2 2 2 2 2 2 2 2 2 2 2 2 2 2 2
left_child=2 4 3 11 22 8 17 26 25 18 -4 33 27 -12 32 -16 20 -5 31 -20 -9 28 23 -2 -21 -3 -6 -11 -13 38 -31 36 -15 -1 -33 -7 37 -8 40 -17 -10 -36 -41 -44
right_child=1 5 10 6 7 35 9 16 29 12 13 21 -14 14 15 39 -18 -19 19 24 -22 -23 -24 -25 -26 -27 -28 -29 -30 30 -32 34 -34 -35 41 -37 -38 -39 -40 42 -42 -43 43 -45
leaf_value=-0.015439513446022316 0 -0.014446314011959029 -0.016605418156991101 0.011581746798344046 0 -0.013765898601138379 0.0013235077108701124 0.069531737024932802 -0.0080753301024215213 0.03079688061880341 -0.014600168892667935 -0.011273321538172188 -0.01421113241980658 0.045256051437898077 -0.00077426692562678498 -0.016001573981328652 0.092781303401842527 -0.021450192940326542 -0.0025231307109852218 0 0.017252561335908034 0.004039293469492714 0.05207965754185051 0.03186904979108772 0.031508036465588189 0.0036856853011624628 0.046351335785012597 0.052521571902979389 0 0 0.048610450282031391 0 0.0026675121627584859 -0.0039084980747172938 0 0.0023301784332655706 -0.0037346285039338506 0.019138417424443058 0.031912022168329758 -0.0096741046576836204 0.014821859186167593 0.023174057445433088 -0.012029756589361942 0.022178875904764674
leaf_weight=343 12.999999999999998 31 1214 13.999999999999998 5.9999999999999991 198 46 114 6.9999999999999991 76 271 174 4.9999999999999991 9.0000000000000018 244 189 54 32 11.999999999999998 9.9999999999999982 7.9999999999999991 129 33 102 115 225 70 54 124 7.0000000000000027 22 14.999999999999998 13.999999999999998 86 9.9999999999999982 19 31 44 26 64 111 112 8.0000000000000018 12.999999999999998
leaf_count=343 13 31 1214 14 6 198 46 114 7 76 271 174 5 9 244 189 54 32 12 10 8 129 33 102 115 225 70 54 124 7 22 15 14 86 10 19 31 44 26 64 111 112 8 13
internal_value=0 0.0222066 -0.0066138 0.00312021 0.0531824 0.00203982 0.0203503 0.0660957 0.00916385 0.0231164 -0.0134704 -0.00837677 0.0380032 -0.00886497 -0.00586604 -0.00728397 0.0754297 -0.0101113 0.0178133 0.0257448 0.0667177 -0.00330064 0.0341369 0.0281564 0.0289259 0.00122248 0.0431549 0.0405364 -0.00667758 0.0210439 0.0385693 0.0133076 0.0227663 -0.0132766 0.018756 -0.0115521 0.00657257 0.0107737 0.0169147 -0.0123691 0.0129223 0.0212699 -0.00497316 0.00647899
internal_weight=0 1046 3458 1432 400 646 576 252 429 530 2026 856 135 812 541 518 176 46 395 137 122 427 148 115 125 256 76 130 298 173 29 258 23 429 137 217 121 90 144 274 118 122 85 21
internal_count=4504 1046 3458 1432 400 646 576 252 429 530 2026 856 135 812 541 518 176 46 395 137 122 427 148 115 125 256 76 130 298 173 29 258 23 429 137 217 121 90 144 274 118 122 85 21
cat_boundaries=0 1 2 3 4
cat_threshold=176 48 266 136
is_linear=0
shrinkage=0.075


Tree=11
num_leaves=45
num_cat=0
split_feature=15 23 23 15 15 20 26 23 21 23 23 8 27 23 16 23 26 7 20 26 16 23 23 20 19 9 23 23 26 12 6 20 15 26 19 26 26 26 23 21 21 12 6 21
split_gain=92.6004 24.8274 19.9562 18.5566 11.5027 4.44914 4.39694 4.12037 3.02639 2.77784 2.72112 2.32784 2.16377 1.95294 1.91433 1.90713 2.75724 2.45955 1.98104 1.95182 1.77059 1.61789 1.66752 1.60155 2.85275 1.54299 1.44361 2.36595 2.72284 2.10832 1.43636 1.42868 1.66598 1.97916 1.39376 1.36572 1.46139 1.33107 1.29392 1.26413 1.24694 2.73611 2.55778 1.74823
threshold=3.3366489838838276 110.06521739130436 160.42553191489364 2.3087963529933249 4.0152556245588444 12.700774737111173 1799.8307898039814 869.50000000000011 14.585576373884207 30.500000000000004 1661.0000000000002 0.16673906747755571 13.429503191784589 1106.0000000000002 494.50961538461542 508.48863636363643 25789.968611618304 0.6492307039659434 14.291403996220007 13305.44715799402 156.80715811965814 415.50000000000006 185.80000000000004 12.219178593566268 222943.50000000003 0.46008498279775184 334.14090909090913 479.25000000000006 7887.3151573250079 0.27719099276791587 121.50000000000001 12.887946045547261 3.0767319051763184 4956.6218031837952 241238.00000000003 5011.2685317627647 2086.7987980213616 2125.3935554108725 207.86458333333334 15.27295624765064 14.244036285351713 0.28260030864197533 109.50000000000001 13.466651161729434
decision_type=2 2 2 2 2 2 2 2 2 2 2 2 2 2 2 2 2 2 2 2 2 2 2 2 2 2 2 2 2 2 2 2 2 2 2 2 2 2 2 2 2 2 2 2
left_child=1 9 11 5 8 -3 14 25 12 -1 15 -2 -4 -14 -5 16 19 20 34 21 -17 22 -6 38 -25 -8 31 28 29 -28 -13 37 33 -33 -19 36 -26 -27 -10 -29 43 -42 -43 -16
right_child=2 3 4 6 10 -7 7 -9 23 -11 -12 30 13 -15 40 17 -18 18 -20 -21 -22 -23 -24 24 35 26 27 39 -30 -31 -32 32 -34 -35 -36 -37 -38 -39 -40 -41 41 42 -44 -45
leaf_value=-0.017583790602238431 -0.010466581727178691 -0.010471782396344524 -0.0063785541128109323 -0.0033420711203860894 0 0.0030273007693584941 -0.0020109635107403174 -0.0096050449967673319 0.037339922678015246 -0.010305172938636958 0.011821827275880934 0.00097123565424242345 0.016646525548908706 -0.00051456535752797481 0.0050644960768076713 0.00013400229895098198 0 0.02287889408844446 0 0.059647800038015904 0.053014090610918489 0.0073790904088389016 0.038157533913979365 0.035080823888484054 0 0.022264019175111022 0.031998233618800768 0.0052026589139290589 0 0.081311033668342289 0.025268169100862943 0.041085416759832717 -0.0026567763668595749 0.007090957101301058 0.067904235938159682 0 0.043584547035532537 -0.0045078072080904936 0.0031336758524273581 0.030582932861542261 0.0012576725654741261 0.041584281942590673 0.0062407837612603193 -0.0065729711624190291
leaf_weight=650 93 844 27 194 6.9999999999999991 156 14.999999999999998 32 7.9999999999999991 664 32 87 251 36 475 5.9999999999999991 19 30 9.9999999999999982 18 113 24 59 116 8.0000000000000018 12.999999999999998 28 41 6.9999999999999991 9.9999999999999982 17 25 9.9999999999999982 24 6.9999999999999991 31 10.999999999999998 37 41 20 72 26 29 81
leaf_count=650 93 844 27 194 7 156 15 32 8 664 32 87 251 36 475 6 19 30 10 18 113 24 59 116 8 13 28 41 7 10 17 25 10 24 7 31 11 37 41 20 72 26 29 81
internal_value=0 -0.00584547 0.0195716 -0.000830393 0.0245359 -0.00830629 0.00568267 0.0142559 0.0174497 -0.013959 0.0358183 -0.00166273 0.0123172 0.0142936 0.0030437 0.0381993 0.0293808 0.0444201 0.0263095 0.034008 0.0508586 0.0277528 0.0341026 0.0245992 0.0283645 0.0178527 0.0195141 0.0262963 0.0401125 0.0478968 0.00566713 0.0122387 0.020185 0.0259984 0.0342076 0.0113167 0.026771 0.00153215 0.0104098 0.0147648 0.00494551 0.0118133 0.02436 0.00325626
internal_weight=0 3453 1051 2139 854 1000 1139 262 529 1314 325 197 314 287 877 293 127 166 47 108 119 90 66 215 166 230 215 106 45 38 104 109 59 49 37 50 19 50 49 61 683 127 55 556
internal_count=4504 3453 1051 2139 854 1000 1139 262 529 1314 325 197 314 287 877 293 127 166 47 108 119 90 66 215 166 230 215 106 45 38 104 109 59 49 37 50 19 50 49 61 683 127 55 556
is_linear=0
shrinkage=0.075


Tree=12
num_leaves=45
num_cat=0
split_feature=17 15 17 23 23 15 22 22 22 23 17 17 6 22 22 22 22 23 22 22 27 11 22 22 22 23 19 27 23 15 27 6 23 13 16 23 9 22 22 22 22 9 26 26
split_gain=91.0552 21.0349 14.5555 14.0798 7.08438 5.35657 5.27691 5.37032 4.57359 3.82073 2.77231 2.68652 2.52271 2.48929 5.44828 3.68546 4.69988 2.48788 2.48518 3.58759 2.38882 2.94022 2.26411 2.24823 4.3684 2.11965 3.38853 2.93667 2.02943 2.29457 1.97532 1.83725 2.41936 2.32727 1.70374 1.63492 1.61546 1.60557 7.93696 1.90356 4.41584 1.5547 1.54953 1.52037
threshold=124.29394400580166 3.9354946161907423 20.729018835990459 101.45000000000002 46.500000000000007 3.0173667726356448 4.3900000000000015 3.6100000000000008 3.7021739130434792 265.05263157894746 468.98535873979034 965.84382521353052 37.430555555555557 4.2937500000000011 4.2148351648351658 4.1930952380952382 4.1145833333333348 130.25000000000003 3.6100000000000008 3.6995145631067969 109.64455829458466 6.5000000000000009 4.2937500000000011 3.8133928571428575 3.8949754901960794 215.25000000000003 27404.000000000004 348.03693305339573 1397.9055555555558 3.4812326928312802 8.6326825972398371 72.500000000000014 597.18181818181836 3.8815106545092593 505.56250000000006 2012.0000000000002 0.73555697546531207 4.0980000000000016 4.0097222222222237 3.998333333333334 3.917619047619048 0.69985422740524783 3030.3465261010392 960.00795849160102
decision_type=2 2 2 2 2 2 2 2 2 2 2 2 2 2 2 2 2 2 2 2 2 2 2 2 2 2 2 2 2 2 2 2 2 2 2 2 2 2 2 2 2 2 2 2
left_child=2 3 -1 -2 -4 13 7 34 41 36 12 20 35 14 15 16 18 43 -6 -20 21 -12 -11 -21 -25 27 -27 -14 29 -23 -13 33 -33 -28 -5 -9 -10 38 39 40 -26 -3 -36 -7
right_child=1 8 4 6 5 17 -8 10 9 22 11 30 25 -15 -16 -17 -18 -19 19 23 -22 28 -24 24 37 26 31 -29 -30 -31 -32 32 -34 -35 42 -37 -38 -39 -40 -41 -42 -43 -44 -45
leaf_value=-0.013061649813156783 -0.01339710367426708 0.017432706148197141 -0.013570790950829496 0.012477862115891155 -0.011496808175093765 0.0018680542962369886 -0.0083129429560648178 0.010174798812602179 0.022209096198833739 0.038422360735013032 0.0051974853864809713 -0.018004183510600572 -0.0020728960111983867 -0.009525553080582309 0.023201279785184502 -0.0168148685173556 0.021946910582390747 0.010390730155947225 0.029746956806366687 -0.0095197442554450958 0 0.028109320815107027 0 0.025478782472216535 -0.008802825830014625 -0.0048510362743335944 0.038046592090317646 0.030895290081892641 0 0.06117117425263794 0.017211292340246046 0.022224726832229022 -0.00056351620525397735 0.011898685039585863 -0.023172403022451299 -0.0096590732513863343 -0.001698873088452073 -0.010319563088099738 0.025743545538784319 -0.014011079388278915 0.024554370644581193 -0.010791153260370284 0 -0.022023218392452082
leaf_weight=1339 124 25 277 23 133 36 56 262 48 277 18 8.9999999999999982 54 258 48 90 47 295 21 138 13.999999999999998 34 7.9999999999999991 38 73 21 89 19 6.9999999999999991 38 44 97 29 35 28 22 17 80 59 83 31 15.999999999999998 28 21
leaf_count=1339 124 25 277 23 133 36 56 262 48 277 18 9 54 258 48 90 47 295 21 138 14 34 8 38 73 21 89 19 7 38 44 97 29 35 28 22 17 80 59 83 31 16 28 21
internal_value=0 0.0156625 -0.00718347 0.0100401 -0.00259054 -0.000447481 0.0132475 0.0147076 0.0305738 0.0333819 0.0165795 0.0257295 0.0140666 -0.00306498 -0.00100586 -0.00256717 -0.000642429 0.00754616 -0.00237526 0 0.0326085 0.0367822 0.037288 -0.00133295 0.00162324 0.0185366 0.0216829 0.00594974 0.0431163 0.0468465 0.00995758 0.0241551 0.0165443 0.0312615 -0.00329744 0.00840868 0.0151154 -0.00103237 0.00177254 -0.00555366 0.000688647 0.00501234 -0.0108986 -0.00609612
internal_weight=0 1442 3067 1051 1728 1451 927 871 391 350 792 164 628 1099 841 793 703 352 656 523 111 97 285 502 364 344 271 73 79 72 53 250 126 124 79 284 65 326 246 187 104 41 56 57
internal_count=4509 1442 3067 1051 1728 1451 927 871 391 350 792 164 628 1099 841 793 703 352 656 523 111 97 285 502 364 344 271 73 79 72 53 250 126 124 79 284 65 326 246 187 104 41 56 57
is_linear=0
shrinkage=0.075


Tree=13
num_leaves=45
num_cat=4
split_feature=17 25 25 14 17 25 14 26 17 15 14 14 15 7 25 17 7 15 2 7 5 7 15 18 5 26 5 2 0 15 5 18 3 16 18 8 1 8 15 8 18 15 8 8
split_gain=78.0706 113.854 22.1253 22.7498 20.8149 14.5608 13.8059 4.05176 3.25848 3.12625 3 2.83734 2.55637 2.38648 2.23807 1.89025 2.19957 1.83118 1.99384 1.7748 1.61427 5.38029 1.56388 1.48673 1.47815 1.43948 1.42465 1.4066 1.46397 1.27185 1.22761 1.19814 1.1922 1.0199 1.01882 1.00513 0.996343 0.991789 0.978221 0.854879 0.82589 0.810289 0.806854 1.00921
threshold=124.29394400580166 0 1 0.40116150442477877 413.08839356914621 2 0.8978429203539825 2475.4834809353424 17.021304335308113 2.9925974670471938 0.52405973451327437 0.76731194690265492 1.3704200119626007 0.74954985183773692 3 1117.0805840664714 0.50481498506090572 4.0386459529934742 904.50000000000011 0.53510302775441565 456.50000000000006 0.60670593403312134 3.5677690262223862 0.23571897260635041 807.50000000000011 165.69765893530391 556.50000000000011 1295.5000000000002 332.00000000000006 4.2652860220531688 545.50000000000011 0.3799360772910681 168.34615384615387 102.48437500000001 0.27945108780669886 0.14881671759960377 1121.5000000000002 0.21167580382278853 2.4035450504253375 0.085395353493639664 0.21517915720714942 2.6255637418725395 0.17675455128923481 0.14535365205700476
decision_type=2 1 1 2 2 1 2 2 2 2 2 2 2 2 1 2 2 2 2 2 2 2 2 2 2 2 2 2 2 2 2 2 2 2 2 2 2 2 2 2 2 2 2 2
left_child=2 4 3 8 7 6 11 17 25 -4 40 31 -12 -6 15 -7 -17 18 26 -16 -11 -22 34 39 -23 -1 33 28 -9 -8 38 -3 -13 -2 36 -36 -10 -38 -25 -14 -5 -34 43 -41
right_child=1 5 9 10 13 14 29 27 22 20 12 32 23 -15 19 16 -18 -19 -20 -21 21 24 -24 30 -26 -27 -28 -29 -30 -31 -32 -33 41 -35 35 -37 37 -39 -40 42 -42 -43 -44 -45
leaf_value=-0.010707579752008754 0 -0.0078229239326910206 -0.013499922072497851 0.012687209260990229 0.08102383184096669 -0.0049588952869277034 0.020094687519749646 0.02863862261341556 -0.00012914265280192908 -0.010252567751232879 -0.013716540904696642 0.0030838275659861554 0 0.023087970918301101 0 -0.013867228168548828 0.029402520977319647 0.055708995267107507 0.048067711228467237 -0.015919868622901002 0.071953570037524894 0.0028480515348271087 0.03109791493919992 -0.020538492570507865 -0.014296317330309231 0.004827032238269204 0 0 0.060449707222963348 0.035837604412365866 0.02273095801453304 0.013999498635800498 0 0.025853449782669416 0.0022106276037670968 -0.011053083241625525 0.022265146640499726 0 0.0087967289031993679 0.020446171693997955 0.0025685157471137697 0.021903751578205111 0.015286786580894348 0.042409705414767386
leaf_weight=522 4.9999999999999991 164 1497 105 104 163 135 21 131 134 8.9999999999999982 162 5.9999999999999991 7.9999999999999991 41 7.0000000000000027 20 19 26 229 4.9999999999999991 94 7.9999999999999991 5.9999999999999991 38 30 9.9999999999999982 4.9999999999999991 69 62 45 12.999999999999998 15.999999999999998 122 41 84 24 13.999999999999998 41 37 112 41 33 51
leaf_count=522 5 164 1497 105 104 163 135 21 131 134 9 162 6 8 41 7 20 19 26 229 5 94 8 6 38 30 10 5 69 62 45 13 16 122 41 84 24 14 41 37 112 41 33 51
internal_value=0 0.0145088 -0.00664549 0.000781641 0.048544 0.00137871 0.00912295 0.0381422 -0.0063282 -0.0120698 0.0145629 0.00103646 0.0207267 0.0776003 -0.00845968 -0.00153838 0.0159878 0.0305102 0.0269566 -0.0128739 -0.00438074 0.000960745 0 0.0224549 -0.00169964 -0.00975093 0.0222677 0.051773 0.0539925 0.0254716 0.013676 -0.00583309 0.00685778 0.0244409 -0.000992495 -0.00624751 0.00255824 0.0131547 0.00353876 0.0282284 0.0077638 0.0163736 0.0295902 0.034105
internal_weight=0 1442 3067 1299 389 1053 593 277 854 1768 445 396 228 112 460 190 27 182 163 270 271 137 302 219 132 552 137 95 90 197 92 177 219 127 294 125 169 38 47 127 217 57 121 88
internal_count=4509 1442 3067 1299 389 1053 593 277 854 1768 445 396 228 112 460 190 27 182 163 270 271 137 302 219 132 552 137 95 90 197 92 177 219 127 294 125 169 38 47 127 217 57 121 88
cat_boundaries=0 1 2 3 4
cat_threshold=48 48 392 2
is_linear=0
shrinkage=0.075


Tree=14
num_leaves=45
num_cat=0
split_feature=13 13 22 23 23 15 15 12 13 12 13 12 22 15 23 22 16 12 22 23 26 16 13 9 13 9 23 7 23 12 26 12 12 12 12 12 12 16 16 12 13 22 10 10
split_gain=65.6037 16.5007 12.6348 7.8765 7.62956 6.75627 5.39518 5.00442 7.86542 3.38118 3.4664 5.83068 3.26059 2.70304 2.65226 2.61076 2.21389 2.19862 2.04044 1.93587 2.51532 2.03022 3.67202 1.99631 2.80459 3.12977 1.92307 1.91775 2.29587 1.89779 1.86697 1.7422 2.8519 2.50997 1.92094 2.17684 1.99341 1.57728 2.69498 1.63823 3.13011 1.99947 2.21734 1.6313
threshold=3.2769667020129059 2.0126758453675748 3.6100000000000008 141.50000000000003 46.500000000000007 4.1159790613037552 2.8146529224064971 0.42191406250000002 2.4414009612931857 0.25853813543929499 1.2424533248940004 0.61154875148632593 4.1930952380952382 4.2000065494765346 1661.0000000000002 4.3900000000000015 786.62500000000011 0.39154308378509278 4.3183333333333342 508.48863636363643 25789.968611618304 758.43750000000011 3.9019216517693867 0.58534557547715449 4.1971736807086968 0.66644227236460807 30.500000000000004 0.68355384775768335 696.62378640776717 0.38278659611992955 1558.6510341474359 0.37934911242603558 0.37403388822829969 0.28062500000000007 0.4966666666666667 0.44189349112426035 0.4391615157215803 1144.9375000000002 1355.4791666666667 0.31398199645535957 3.8393944990995772 3.9144009216589866 0.16416601770932479 0.21032282469907712
decision_type=2 2 2 2 2 2 2 2 2 2 2 2 2 2 2 2 2 2 2 2 2 2 2 2 2 2 2 2 2 2 2 2 2 2 2 2 2 2 2 2 2 2 2 2
left_child=1 9 13 -4 -3 12 -6 15 -9 -1 11 -11 17 -2 18 16 -8 37 19 20 23 22 -21 -7 25 -25 -12 -24 -29 -14 -18 32 33 -28 35 36 -33 39 -39 41 -41 42 -5 -43
right_child=2 4 3 5 6 14 7 8 -10 10 26 -13 29 -15 -16 -17 30 -19 -20 21 -22 -23 27 24 -26 -27 31 28 -30 -31 -32 34 -34 -35 -36 -37 -38 38 -40 40 -42 43 -44 -45
leaf_value=-0.014779671254646 -0.014507615386049782 -0.012683503125862495 -0.0013835862208475362 -0.0050745175520667462 -0.0016649774439618009 0.064643476045476198 0.012756171464249455 0 0.097571422255218129 -0.013048133553024456 -0.011638156745252476 0.028556799535663566 0.0080656522371002418 0.015991009045396239 0.0047188114377129586 -0.0063223031630417204 0.0059754902510730469 0.0036847000338116891 -0.0033121567412316174 0.0061857335935652695 0 0.021745395393679347 0.058700135073971184 0.0018155405920557298 0.0037202761581852472 0.051936972287658263 -0.0067981702225708195 0.051380132475897497 0 -0.023008409843591562 -0.0099936123162521848 0.012175879926296427 -0.018642968479857153 0.0061489963127129149 -0.0086939766036705311 0.039137331727025049 -0.017399616329194276 0.040116686485926381 0.014688724666080177 0.066915797846181471 0.019945908168622 0.021467421792776855 0.019221985914509319 -0.0031941882741648299
leaf_weight=554 82 211 89 50 768 9.9999999999999982 292 7.9999999999999991 7.9999999999999991 586 135 18 97 18 24 75 235 54 4.9999999999999991 13.999999999999998 17 35 75 12.999999999999998 29 26 191 6.9999999999999991 8.9999999999999982 10.999999999999998 47 63 62 147 31 13.999999999999998 13.999999999999998 66 53 10.999999999999998 57 153 33 11.999999999999998
leaf_count=554 82 211 89 50 768 10 292 8 8 586 135 18 97 18 24 75 235 54 5 14 17 35 75 13 29 26 191 7 9 11 47 63 62 147 31 14 14 66 53 11 57 153 33 12
internal_value=0 -0.00485155 0.0165453 0.0192326 0.000557719 0.0214314 0.00255448 0.00751218 0.0484927 -0.00978175 -0.00753133 -0.0116748 0.016761 -0.00835009 0.0316881 0.00635298 0.00811818 0.0194004 0.0341157 0.0351706 0.024837 0.0415839 0.0474262 0.0304881 0.0239185 0.0370816 -0.00362295 0.05302 0.0213647 0.00421368 0.00308488 -0.00142273 -0.00390665 -0.000992086 0.00621372 0.0119657 0.00591776 0.0212058 0.0294566 0.0178464 0.0290872 0.0144441 0.00397288 0.0193116
internal_weight=0 3459 1050 950 1644 861 1433 665 16 1815 1261 604 597 100 264 649 574 489 240 235 95 140 105 78 68 39 657 91 16 108 282 522 400 338 122 91 77 435 119 316 68 248 83 165
internal_count=4509 3459 1050 950 1644 861 1433 665 16 1815 1261 604 597 100 264 649 574 489 240 235 95 140 105 78 68 39 657 91 16 108 282 522 400 338 122 91 77 435 119 316 68 248 83 165
is_linear=0
shrinkage=0.075


Tree=15
num_leaves=45
num_cat=0
split_feature=17 15 15 22 22 12 22 22 22 22 22 22 22 22 22 22 17 14 18 19 18 12 11 1 22 14 22 22 22 22 6 7 14 18 5 7 15 22 15 18 12 11 14 15
split_gain=57.8596 13.7957 10.1564 7.28693 6.46546 4.45541 3.99197 3.61308 3.31433 2.60818 2.78281 3.84239 3.23602 5.07785 2.53239 2.20043 2.33697 2.16802 2.72447 2.24262 2.1374 2.55291 4.01735 2.51274 2.06531 2.15681 2.12353 2.95608 3.23303 2.33243 1.81308 1.65862 1.73399 1.65547 1.55679 1.52893 1.36432 1.2914 1.25446 1.13731 1.11116 1.87335 1.14753 1.07603
threshold=124.29394400580166 4.0152556245588444 2.2446691852314853 3.6100000000000008 4.3900000000000015 0.63103934384211213 3.5021739130434786 4.2937500000000011 3.7021739130434792 4.2183333333333346 4.1930952380952382 4.1069047619047625 4.0980000000000016 4.0012500000000015 4.2937500000000011 3.6100000000000008 37.769107266784808 0.76731194690265492 0.15512111137269693 312263.00000000006 0.26449034790378662 0.29452110062131848 3.5000000000000004 1479.5000000000002 3.9144009216589866 0.79457964601769915 3.998333333333334 4.0133928571428585 4.0980000000000016 4.1021739130434796 161.50000000000003 0.70911386334142079 0.72505530973451349 0.44121309904027239 441.50000000000006 0.72227375798804383 3.0995250997531216 4.1490740740740746 3.1622914758153824 0.43630782323967948 0.25853813543929499 3.5000000000000004 0.25774336283185839 1.3704200119626007
decision_type=2 2 2 2 2 2 2 2 2 2 2 2 2 2 2 2 2 2 2 2 2 2 2 2 2 2 2 2 2 2 2 2 2 2 2 2 2 2 2 2 2 2 2 2
left_child=2 3 15 -2 17 6 -4 9 -3 10 11 12 13 20 33 -1 40 31 19 30 21 -8 -23 34 -20 -26 -27 -28 -29 -30 -19 32 -5 -10 -24 -33 -22 -31 -9 -6 -17 -42 -43 -18
right_child=1 8 5 4 39 -7 7 38 14 -11 -12 -13 -14 -15 -16 16 43 18 24 -21 36 22 23 -25 25 26 27 28 29 37 -32 35 -34 -35 -36 -37 -38 -39 -40 -41 41 42 -44 -45
leaf_value=-0.013813531780534972 -0.0073970053723818319 0.0027630174490474823 -0.0090603470840391175 0.0078751695014883244 -0.014324092626387364 0.064626077505495733 0.0004113887024371944 -0.0095872136297718274 0.030419722431123754 0.019095196893820238 -0.010507239130486059 0.021172655451593206 -0.010070791511694835 0.026297520057859361 -0.002504267842183884 -0.013358134805079479 -0.0090232963742120208 0.024701433411070863 -0.00094456691747330174 0 -0.010006958440006928 -0.0017898667789621131 0.047140521807554826 -0.0018841456925354229 0.031522596654391687 0.030892203447648026 -0.022145375428282967 0.032783266228319057 -0.017306473114774363 0.027184192700242967 0 0.037185385046474895 -0.0063591210232560079 0 0.0125402682370269 0.009931224603745268 0.003256341383969939 0.003371489225451722 0.0011786689336661352 0.0079118075576780009 -0.010041562596591865 0.016088019557572733 -0.0029370151932973034 0.0015642344424086332
leaf_weight=512 140 38 284 138 63 4.9999999999999991 186 200 293 56 83 65 102 53 10.999999999999998 309 72 239 68 29 107 37 29 8.9999999999999982 33 23 17 27 22 18 20 15.999999999999998 69 9.9999999999999982 18 88 64 68 74 11.999999999999998 426 19 159 190
leaf_count=512 140 38 284 138 63 5 186 200 293 56 83 65 102 53 11 309 72 239 68 29 107 37 29 9 33 23 17 27 22 18 20 16 69 10 18 88 64 68 74 12 426 19 159 190
internal_value=0 0.0125584 -0.00566035 0.00829812 0.0106773 -0.000820153 -0.0011401 0.000887598 0.0255351 0.00345629 0.0021961 0.00386827 0.00188644 0.00444026 0.0280897 -0.00955961 -0.00764776 0.0125195 0.0153879 0.0206795 0.0016933 0.00582941 0.0159415 0.0285557 0.00960975 0.013333 0.00944041 0.00566458 0.00970996 0.00320215 0.0228896 0.00710262 0.00284053 0.0293981 0.0355523 0.0149373 -0.00470769 0.00923832 -0.00647012 -0.00994288 -0.00944827 -0.0073356 -0.000513965 -0.00113952
internal_weight=0 1442 3059 1090 950 1372 1367 1083 352 809 753 670 605 503 314 1687 1175 875 564 288 450 279 93 56 276 208 175 152 135 108 259 311 207 303 47 104 171 86 274 75 913 604 178 262
internal_count=4501 1442 3059 1090 950 1372 1367 1083 352 809 753 670 605 503 314 1687 1175 875 564 288 450 279 93 56 276 208 175 152 135 108 259 311 207 303 47 104 171 86 274 75 913 604 178 262
is_linear=0
shrinkage=0.075


Tree=16
num_leaves=45
num_cat=5
split_feature=25 17 17 13 25 13 25 13 6 23 17 13 7 25 13 23 25 21 18 21 7 19 21 17 2 18 13 19 6 6 23 21 27 7 2 23 7 27 18 9 3 23 7 17
split_gain=58.516 96.9339 18.1175 16.0921 13.963 11.8212 4.36899 5.04055 3.75255 2.95525 2.28942 2.21358 1.88725 1.65232 1.61075 1.57113 1.54393 1.42688 1.39851 1.36195 1.21389 1.21295 1.06379 2.48029 1.03036 1.02898 0.975947 0.945052 0.891499 1.49337 0.891048 0.88901 0.834612 1.13049 1.02588 0.757195 0.744492 0.704278 0.686171 0.680228 0.67228 0.669538 0.664174 0.643233
threshold=0 100.33966907689337 413.08839356914621 3.9796379800581989 1 2.0126758453675748 2 3.2769667020129059 32.187500000000007 41.300000000000004 17.021304335308113 4.5379471377116305 0.74954985183773692 3 2.249904835165133 114.62500000000001 4 14.214264827077315 0.21633950556535284 16.677646185656354 0.50481498506090572 193712.00000000003 14.710577540286538 248.91101903138329 467.84615384615387 0.37575391987645063 4.6727851606181448 136809.00000000003 83.038461538461561 29.500000000000004 20.100000000000005 14.888792231120545 364.79625636044995 0.59747626703822088 1671.5000000000002 415.50000000000006 0.6473131087147177 13.429503191784589 0.28328195631475167 0.46337346436061444 104.37500000000001 46.500000000000007 0.77911976160059948 54.363975872862348
decision_type=1 2 2 2 1 2 1 2 2 2 2 2 2 1 2 2 1 2 2 2 2 2 2 2 2 2 2 2 2 2 2 2 2 2 2 2 2 2 2 2 2 2 2 2
left_child=1 5 8 6 11 10 7 14 15 -7 41 37 26 20 -2 -3 -6 39 -10 31 -8 32 28 -24 35 -23 -4 -20 29 -9 -12 -18 42 -34 -35 -19 -32 -5 -31 -11 -33 -1 -16 -22
right_child=3 2 12 4 16 9 13 22 18 17 30 -13 -14 -15 21 -17 19 24 27 -21 43 25 23 -25 -26 -27 -28 -29 -30 38 36 40 33 34 -36 -37 -38 -39 -40 -41 -42 -43 -44 -45
leaf_value=-0.011170238642873037 -0.010283467492447922 0 0.063176073706639205 0.032757908388847609 0.002036842774310424 -0.0077061712166502129 0.004113847664376581 -0.0050128192186276446 0.044468631175525915 -0.0044962226779845333 -0.0083932515323715384 0.040953603924338909 0.018467871004164138 -0.021261041147567824 -0.0033602324685427314 0.023498440539899062 -0.0049611807013016556 -0.0081906504186060759 0.01965341693213787 0.0079159822138099457 -0.01386467526812901 -0.016467026233711123 0.032182217402884399 0.0018255710076095603 0.025437900495438922 0 0.095706103999217113 0.041408300783336641 -0.007323029645418414 0.01741712118456621 -0.0022860639746785567 -0.028863442003831473 0.030327655669261606 0.0057761087471549484 -0.010091973852290373 0.024696068305283106 0.005743170531118124 0.012500987306539738 0 0.011017537387951045 -0.0036652947101759948 -0.0051060888356939393 -0.017025491624744857 -0.0088612547394175296
leaf_weight=198 697 14.999999999999998 84 20 130 37 23 41 127 10.999999999999998 49 54 7.9999999999999991 143 303 112 47 9.9999999999999982 55 14.999999999999998 411 76 22 60 79 29 20 29 54 43 96 30 6.9999999999999991 69 33 4.9999999999999991 159 60 9.9999999999999982 241 14.999999999999998 352 24 398
leaf_count=198 697 15 84 20 130 37 23 41 127 11 49 54 8 143 303 112 47 10 55 15 411 76 22 60 79 29 20 29 54 43 96 30 7 69 33 5 159 60 10 241 15 352 24 398
internal_value=0 0.0111758 0.041017 -0.0064417 0.00799419 0.000343311 -0.00868634 -0.00587946 0.0318882 0.0113219 -0.00451734 0.0262662 0.0676241 -0.0126539 -0.0078297 0.0204502 -0.00311579 0.0135397 0.0383916 -0.00948937 -0.0108512 -0.0045491 0.00409853 0.0109131 0.0219899 -0.0119216 0.0706738 0.0281774 0 0.00467987 0.000526921 -0.0140286 -0.00262016 0.00271882 3.04578e-05 0 0.00249224 0.0185677 0.013237 0.0100951 -0.021961 -0.0074092 -0.00458193 -0.0114871
internal_weight=0 1687 450 2814 371 1237 2443 1468 338 383 854 134 112 975 1238 127 237 346 211 107 832 541 230 82 94 105 104 84 148 94 304 92 436 109 102 15 255 80 53 252 45 550 327 809
internal_count=4501 1687 450 2814 371 1237 2443 1468 338 383 854 134 112 975 1238 127 237 346 211 107 832 541 230 82 94 105 104 84 148 94 304 92 436 109 102 15 255 80 53 252 45 550 327 809
cat_boundaries=0 1 2 3 4 5
cat_threshold=48 384 392 3 10
is_linear=0
shrinkage=0.075


Tree=17
num_leaves=45
num_cat=5
split_feature=25 17 17 17 25 17 12 17 12 11 12 11 12 25 12 11 22 12 17 12 12 17 23 22 12 16 25 12 11 12 3 17 10 11 23 2 10 22 12 9 23 25 21 9
split_gain=50.2204 83.3942 15.6017 12.8006 11.5779 10.181 5.53983 4.49758 3.94232 3.76368 3.38356 4.86761 3.1472 2.6465 2.55108 2.51979 2.34465 2.4352 2.45614 2.3598 2.34347 2.26799 3.36839 2.23155 2.00516 1.63056 1.57729 1.61148 1.40497 6.17571 1.37002 1.49329 1.5871 1.34739 1.32372 1.24023 1.11682 0.981464 0.980007 0.978843 1.14056 0.949009 1.06059 1.27346
threshold=0 100.33966907689337 378.60319149513788 300.84093010158 1 20.729018835990459 0.24271875730044387 802.7396177699917 0.63103934384211213 5.5000000000000009 0.28459274673008322 4.5000000000000009 0.21100508217993083 2 0.19047798782624389 4.5000000000000009 3.8133928571428575 0.32423405654174886 47.423986798048368 0.21946745562130179 0.20145975056689344 56.724181849870632 224.83333333333334 3.8400000000000007 0.50338368491360974 1020.1875000000001 3 0.29818594104308388 2.5000000000000004 0.38700255102040815 190.50000000000003 64.495982686293658 0.043461049611951706 5.5000000000000009 126.08333333333336 811.50000000000011 0.16891522973563236 3.7408333333333337 0.50029726516052331 0.46008498279775184 119.80000000000001 4 15.149124924796885 0.80547672392332592
decision_type=1 2 2 2 1 2 2 2 2 2 2 2 2 1 2 2 2 2 2 2 2 2 2 2 2 2 1 2 2 2 2 2 2 2 2 2 2 2 2 2 2 1 2 2
left_child=1 5 9 8 7 24 -4 23 13 38 15 30 -11 16 -6 -7 -2 18 -18 34 -17 -13 -23 -5 28 -24 27 -16 -1 -30 31 32 -12 -22 -20 -14 -34 -9 39 -3 -41 -15 43 -43
right_child=3 2 6 4 14 10 -8 37 -10 12 11 21 35 41 26 20 17 -19 19 -21 33 22 25 -25 -26 -27 -28 -29 29 -31 -32 -33 36 -35 -36 -37 -38 -39 -40 40 -42 42 -44 -45
leaf_value=-0.012377901379270714 -0.011102994237447582 -0.0059765279111071426 0.030820023539752155 -0.0057397002865508208 0.019442347062980113 -0.010127644871272908 0.071238214701421387 0.0016588894603945079 0.043529760805825934 0.015196606338975731 -0.0043355653903866444 0.045875498247687253 0.032808990707040034 -0.018877900453019621 0.0044544465323488117 -0.0053334501123755238 -0.0068844391753290022 -0.0096036404364478762 -0.00061851046703271162 -0.000631938392763736 0.0030361348461473438 -0.0093967004712396541 0.045931069154998214 0.015252300735733318 0.0039584395901866949 0.0011030216716166421 -0.011606041135482593 -0.0094358851622821024 -0.0085195890068942379 0.022908134114784293 -0.0015455618401663447 -0.0044056604492203454 0.027381670480886248 0.015676838154482273 0.017390377045550579 0.051031025513691035 0.004413385462074499 0.036067525951191885 -0.0061152177048131419 0 0.02462528570844735 -0.011323493111871474 -0.00040217396750489372 0.0011800125760614332
leaf_weight=242 314 5.9999999999999991 34 35 22 68 91 8.9999999999999982 6.9999999999999991 56 12.999999999999998 33 154 123 114 74 185 222 23 190 109 14.999999999999998 17.000000000000004 96 85 9.9999999999999982 145 77 268 39 61 20 49 109 84 49 25 69 9.9999999999999982 8.9999999999999982 41 989 71 39
leaf_count=242 314 6 34 35 22 68 91 9 7 56 13 33 154 123 114 74 185 222 23 190 109 15 17 96 85 10 145 77 268 39 61 20 49 109 84 49 25 69 10 9 41 989 71 39
internal_value=0 0.0103552 0.0380339 -0.00596572 0.0040081 0.000304218 0.0609777 0.0175775 -0.00853577 0.0289011 0.00732139 0.0141991 0.0331062 -0.00874019 -0.00414521 0.00249448 -0.00559045 -0.00311765 0 0.00410162 0.00565475 0.0302157 0.0159096 0.00919568 -0.00627779 0.0319559 -0.00603005 -0.000811569 -0.00797329 -0.0042867 0.00659081 0.0117533 0.0161457 0.00965996 0.0129965 0.0376788 0.0205398 0.0329023 0.0113188 0.015512 0.0193044 -0.0111735 -0.0100828 -0.0107913
internal_weight=0 1687 450 2814 567 1237 125 209 2247 325 603 243 259 2240 358 360 1018 704 482 297 292 75 42 131 634 27 336 191 549 307 168 107 87 218 107 203 74 78 66 56 50 1222 1099 1028
internal_count=4501 1687 450 2814 567 1237 125 209 2247 325 603 243 259 2240 358 360 1018 704 482 297 292 75 42 131 634 27 336 191 549 307 168 107 87 218 107 203 74 78 66 56 50 1222 1099 1028
cat_boundaries=0 1 2 3 4 5
cat_threshold=48 384 136 10 64
is_linear=0
shrinkage=0.075


Tree=18
num_leaves=45
num_cat=0
split_feature=17 23 15 15 23 22 22 22 22 22 22 22 22 22 22 22 22 22 18 22 23 27 23 27 22 10 18 17 3 26 17 18 20 17 15 23 17 13 27 27 20 10 15 5
split_gain=36.7423 10.3367 7.15596 6.87567 4.58101 3.03852 2.91384 2.47329 3.94953 4.04073 3.64238 3.5824 3.3481 6.24155 4.89579 5.8368 3.66404 2.89316 2.0074 1.97897 1.8311 1.82068 1.71446 1.57885 1.57406 1.30911 1.30207 1.28664 1.25734 1.25218 5.01042 5.85327 2.81457 4.215 1.91873 2.27338 1.72085 1.21178 1.20385 1.18074 1.09244 1.05441 1.03698 1.02084
threshold=124.29394400580166 110.06521739130436 3.9439943256836312 2.2446691852314853 166.25000000000003 4.3900000000000015 4.1930952380952382 3.8007936507936511 3.8949754901960794 3.9019230769230773 3.7928260869565222 3.7021739130434792 3.998333333333334 4.0012500000000015 4.0980000000000016 4.1021739130434796 4.1930952380952382 4.2006849315068502 0.23112495366472388 3.7021739130434792 303.41666666666669 12.882783068215412 46.500000000000007 104.94056880681033 3.7021739130434792 0.043461049611951706 0.38273220621422616 165.8787985515701 155.50000000000003 25789.968611618304 802.7396177699917 0.10295387789039941 12.141679006193245 2027.712248322543 4.4248421497828652 1242.3333333333337 359.89839361238506 4.3757372435704527 286.61464882195003 46.147761294802287 12.860097460931952 0.062924208144796365 3.0592894550966254 181.12500000000003
decision_type=2 2 2 2 2 2 2 2 2 2 2 2 2 2 2 2 2 2 2 2 2 2 2 2 2 2 2 2 2 2 2 2 2 2 2 2 2 2 2 2 2 2 2 2
left_child=3 -2 5 22 -5 7 18 10 28 -10 11 23 37 -14 21 -16 -17 -18 20 -4 25 -15 -1 -3 -20 -6 29 -7 -9 30 36 -32 -33 -34 35 -31 -21 40 -8 -24 -11 -22 -40 -26
right_child=1 2 19 4 6 27 38 8 9 12 -12 -13 13 14 15 16 17 -19 24 26 41 -23 39 -25 43 -27 -28 -29 -30 34 31 32 33 -35 -36 -37 -38 -39 42 -41 -42 -43 -44 -45
leaf_value=-0.011700497730078575 -0.0078999908604001062 0.0055982592778726437 0.0016881023158754366 -0.005545861067263176 -0.005195059534281744 0.008954042606267228 -0.0087650651263703732 0.033424351924389951 -0.0090259981710042875 0.013269845766501009 -0.017535549959462146 0.026045478022283377 -0.012697828346887914 0 -0.013935814560669441 0.027433187978561854 -0.0096749655242501387 0.012738767459237759 -0.0093357752342319873 0.030458022533949514 0.025145235905062718 0.030924018513257635 0.002021222871294802 -0.013871796232199286 -0.006242801319450559 0.02208417823560991 0 -0.015076798020740113 0.0059007509668577872 0.031677166604386416 0.0085189355260317286 0.014910594816106473 0.083216485022250264 0.020770901437032478 -0.0025582318701905791 -0.0072327153917305462 0.012737788444888693 0 -0.002272051495917918 -0.0068055509156631066 0.034236140073309128 0.0029537885016282803 0.012261171466004254 0.0070712181505337892
leaf_weight=484 158 94 33 601 6.9999999999999991 13.999999999999998 120 61 55 36 40 42 63 7.9999999999999991 56 67 44 101 54 57 13.999999999999998 83 81 30 34 91 14.999999999999998 41 18 32 23 10.999999999999998 29 11.999999999999998 23 7.9999999999999991 117 9.9999999999999982 98 1129 56 137 36 184
leaf_count=484 158 94 33 601 7 14 120 61 55 36 40 42 63 8 56 67 44 101 54 57 14 83 81 30 34 91 15 41 18 32 23 11 29 12 23 8 117 10 98 1129 56 137 36 184
internal_value=0 0.00994197 0.0121957 -0.00458535 -0.00059981 0.00856361 0.00316154 0.00968372 0.0119486 0.00961956 0.00214612 0.00730317 0.0116997 0.00850445 0.0124089 0.00696725 0.0127973 0.00551734 0.00640816 0.0212647 0.0113083 0.0275933 -0.00778614 0.000356957 0.00168641 0.0195128 0.0230516 -0.00786285 0.0280133 0.0240889 0.0267397 0.0435479 0.0575628 0.0670938 0.0124849 0.0224609 0.0189922 0.0241775 -0.00326572 -0.00616504 0.0268514 0.00552069 0.00124442 0.00471013
internal_weight=0 1437 1279 3070 1376 919 775 864 658 579 206 166 524 422 359 268 212 145 521 360 249 91 1694 124 272 98 327 55 79 312 249 75 52 41 63 40 174 102 254 1210 92 151 134 218
internal_count=4507 1437 1279 3070 1376 919 775 864 658 579 206 166 524 422 359 268 212 145 521 360 249 91 1694 124 272 98 327 55 79 312 249 75 52 41 63 40 174 102 254 1210 92 151 134 218
is_linear=0
shrinkage=0.075


Tree=19
num_leaves=45
num_cat=0
split_feature=13 15 22 22 22 22 22 22 24 24 22 22 13 22 22 24 15 13 22 5 24 24 15 22 11 19 15 21 24 13 16 5 22 22 22 13 24 27 13 13 16 16 20 22
split_gain=31.4449 9.1729 4.9845 4.69922 4.12155 8.63256 4.03587 3.75897 3.35244 3.26577 3.29672 6.81805 1.91418 1.73912 2.00508 1.68814 1.9626 1.57662 1.53161 1.43697 1.44469 1.41103 1.29317 1.28593 1.23228 1.15724 1.63006 1.75197 3.53667 1.16306 1.09701 1.44481 1.10456 2.41562 1.53971 1.18936 2.06689 1.09231 1.10944 1.07023 1.04362 1.03391 1.50471 1.08651
threshold=3.4811217321331038 2.3087963529933249 3.7021739130434792 3.5021739130434786 3.998333333333334 4.0012500000000015 4.2763888888888895 4.3900000000000015 19.440850286135532 194.18731117824777 3.9019230769230773 3.8949754901960794 4.2696729980286863 3.5021739130434786 4.2937500000000011 19.853094197551886 2.7919243451485314 2.3502401828962087 3.8780934343434348 378.04545454545456 13.863219226568182 114.20983785364545 3.1986601019710323 4.2568322981366462 6.5000000000000009 26408.000000000004 3.9354946161907423 14.79945856526475 58.499025812459934 3.1567740231385479 354.41071428571433 69.500000000000014 3.9019230769230773 3.998333333333334 4.0012500000000015 2.9174053685313028 25.623445479970446 4.1121606741099228 4.3372693810700085 3.3140206880897671 786.62500000000011 1282.4375000000002 12.96491362983828 4.0133928571428585
decision_type=2 2 2 2 2 2 2 2 2 2 2 2 2 2 2 2 2 2 2 2 2 2 2 2 2 2 2 2 2 2 2 2 2 2 2 2 2 2 2 2 2 2 2 2
left_child=1 8 12 -3 9 -6 15 17 -1 10 11 18 -2 -10 23 -7 -17 19 -4 -5 22 -14 -21 41 -12 29 27 30 39 -19 -27 -32 35 -34 -35 36 -33 38 -18 40 -29 -15 43 -43
right_child=2 3 4 7 5 6 -8 -9 13 -11 24 -13 21 14 -16 16 37 25 -20 20 -22 -23 -24 -25 -26 26 -28 28 -30 -31 31 32 33 34 -36 -37 -38 -39 -40 -41 -42 42 -44 -45
leaf_value=-0.0091559612549216747 -0.0090785019413198911 -0.0074248162851660313 0.017322725730192244 -0.0044829602832588073 -0.015892581482566719 0 -0.0018224676197152573 -0.0064636108752080196 -0.012211359477940971 0.05072458025854415 0.0090303986624722787 -0.013499085393825458 0.024858579037746492 -0.00035546475041418527 -0.0079220831033307015 0.0039056432873834633 0.021832173328721428 0.002748369939555061 0.052319514667771218 -0.0032989381175974014 0.011634231009286228 -0.00048355668462357165 0.019466957660740022 0.030703540740974276 0.034269937819132679 -0.0030963566298569788 0.026052331722638017 0.020714680803841021 0.05938888128106086 -0.015587366906342728 0.021828564650381816 -4.6911103367978279e-05 0.025306797669068473 -0.0083917584624815366 0.0068922786809781306 -0.0066628242640864232 0.027875334590437201 0.024084362374466435 -0.010244979317032846 -0.0035667357057751511 0.0025045386905629247 -0.0034281796417183741 0.044356719938146855 0.015054762213677075
leaf_weight=1184 73 321 147 188 60 29 66 216 86 22 21 41 20 326 156 47 10.000000000000002 101 8.9999999999999982 118 91 20 14.999999999999998 7.9999999999999991 87 82 26 53 8.9999999999999982 23 31 53 37 40 238 83 18 214 10.999999999999998 19 39 32 5.9999999999999991 31
leaf_count=1184 73 321 147 188 60 29 66 216 86 22 21 41 20 326 156 47 10 101 9 118 91 20 15 8 87 82 26 53 9 23 31 53 37 40 238 83 18 214 11 19 39 32 6 31
internal_value=0 -0.00302655 0.0127915 0.00074348 0.0149717 0.00992254 0.0142119 0.00255797 -0.00676979 0.021499 0.0190716 0.0126825 -0.00143286 -0.00229243 -0.000645946 0.0177997 0.0195678 0.00414933 0.0199731 0.000189586 0.00437541 0.0109803 -0.000190219 0.0020347 0.0300061 0.00599305 0.00713779 0.00632466 0.01477 -0.000257972 0.00446441 0.00582504 0.00460657 0.0071565 0.00446401 -0.000238358 0.00644146 0.0224265 0.00256471 0.0102278 0.0137181 0.00124454 0.00956644 0.00481693
internal_weight=0 3630 877 1801 764 437 377 1480 1829 327 305 197 113 645 559 311 282 1264 156 412 224 40 133 403 108 852 728 702 120 124 582 500 469 315 278 154 71 235 21 111 92 395 69 63
internal_count=4507 3630 877 1801 764 437 377 1480 1829 327 305 197 113 645 559 311 282 1264 156 412 224 40 133 403 108 852 728 702 120 124 582 500 469 315 278 154 71 235 21 111 92 395 69 63
is_linear=0
shrinkage=0.075


Tree=20
num_leaves=45
num_cat=0
split_feature=17 23 15 15 23 24 17 26 17 19 17 5 23 24 27 24 13 24 5 15 13 15 23 13 7 27 7 5 26 21 26 24 3 17 19 9 23 9 26 17 17 15 15 27
split_gain=27.0499 8.1517 5.47845 5.12841 4.51479 1.96574 1.89176 1.8354 4.72381 5.32242 3.94762 1.78331 1.76414 1.66091 1.64123 1.59274 1.52005 2.74046 2.24982 3.1823 1.46397 1.36182 1.46867 1.32726 1.57209 1.39278 1.31077 1.46389 1.3586 1.18477 1.12238 1.10799 2.02307 1.57463 1.09265 1.07423 1.19431 1.0696 1.93533 1.03764 0.991523 0.973571 0.962329 0.946237
threshold=124.29394400580166 110.06521739130436 4.1159790613037552 1.9895486855462337 166.25000000000003 80.65973301339271 137.13166363509166 25789.968611618304 965.84382521353052 72355.000000000015 2027.712248322543 188.50000000000003 553.29185520362 35.021177259384636 103.92669314569322 15.790185221455982 3.6505739029280164 127.78802747791954 83.750000000000014 2.7286611583730016 2.4414009612931857 4.4248421497828652 1242.3333333333337 4.3241107269113215 0.78328389024970202 96.006655719494077 0.6179848527020495 128.18750000000003 22327.400497517559 14.585576373884207 2738.9252315905856 67.949549948821854 101.12500000000001 359.89839361238506 202604.00000000003 0.73606938769883656 218.35714285714286 0.63881617219313569 30589.959007996851 761.82158592152166 52.004853579584797 4.8553684001258182 3.216369553956429 97.638021524618935
decision_type=2 2 2 2 2 2 2 2 2 2 2 2 2 2 2 2 2 2 2 2 2 2 2 2 2 2 2 2 2 2 2 2 2 2 2 2 2 2 2 2 2 2 2 2
left_child=3 -2 5 13 -5 6 15 8 14 -10 41 42 20 -1 31 -3 17 43 -18 -20 -6 22 37 24 -21 26 -25 -28 -29 30 35 33 -33 -4 -35 36 -13 -9 -39 -34 -15 -11 -8 -7
right_child=1 2 7 4 12 16 11 21 9 10 -12 29 -14 40 -16 -17 18 -19 19 23 -22 -23 -24 25 -26 -27 27 28 -30 -31 -32 32 39 34 -36 -37 -38 38 -40 -41 -42 -43 -44 -45
leaf_value=-0.008196036199173206 -0.0072776740410488757 0 0.040091013304305582 -0.0053311309552772851 0.0010335762856085061 0.0033436738543033417 -0.0051867500428551165 0.03683640467403651 0.0041374193678993358 0.079861029696634722 0.017304876023607748 -0.0018601751257825735 -0.0024946176742857624 0.0036758673503421843 0.0070920062033099874 0.026515100402691345 -0.0009182681188715725 0.044545625515972048 -0.0024697712711675623 0.044616564319917153 0.0085422418140325852 -0.0045998087594003858 -0.0077627949147278099 -0.00050606935541784993 0 -0.013852973049698401 0 0.036480051953859415 0 0.011780824005606046 -0.0094111822190627251 0.082500495852644101 0.034533399263225115 0.021057811598256888 -0.0021808827031180827 -0.0021242030719677688 0.013685345238137957 0.027688136759724761 -0.017014607751048277 0 -0.0063478319540391367 0.018548757127750334 0.0039066015025267112 0.036992578464546504
leaf_weight=1246 158 12.999999999999998 10.999999999999998 730 319 36 126 17 19 24.000000000000004 14.999999999999998 30 253 115 83 41 66 24 36 25 305 25 7.9999999999999991 10.999999999999998 6.9999999999999991 5.9999999999999991 10.999999999999998 32 6.9999999999999991 195 30 5.0000000000000027 13.000000000000002 15.999999999999998 24 57 96 11.000000000000002 7.9999999999999991 7.9999999999999991 102 4.9999999999999991 132 5.9999999999999991
leaf_count=1246 158 13 11 730 319 36 126 17 19 24 15 30 253 115 83 41 66 24 36 25 305 25 8 11 7 6 11 32 7 195 30 5 13 16 24 57 96 11 8 8 102 5 132 6
internal_value=0 0.00854649 0.0105507 -0.00391822 -0.000950012 0.00777035 0.00557932 0.0197006 0.0231534 0.041066 0.0553396 0.00435615 0.00263113 -0.00713601 0.0155654 0.0193069 0.0134245 0.023907 0.00960962 0.0151659 0.00480424 0.00755991 0.0157438 0.0221381 0.0360016 0.0143023 0.0181684 0.0233808 0.0300779 0.00744514 0.00317103 0.0237752 0.0379961 0.0149147 0.0058991 0.00558625 0.00953067 0.0226245 0.00596074 0.0220692 -0.000771047 0.0720463 -0.000308846 0.0101268
internal_weight=0 1437 1279 3070 1607 987 720 292 223 63 44 666 877 1463 160 54 267 66 201 135 624 69 44 99 32 67 61 50 39 408 213 77 26 51 40 183 126 36 19 21 217 29 258 42
internal_count=4507 1437 1279 3070 1607 987 720 292 223 63 44 666 877 1463 160 54 267 66 201 135 624 69 44 99 32 67 61 50 39 408 213 77 26 51 40 183 126 36 19 21 217 29 258 42
is_linear=0
shrinkage=0.075


Tree=21
num_leaves=45
num_cat=5
split_feature=25 17 17 17 25 17 25 12 12 17 12 21 25 12 4 12 12 17 6 22 12 10 12 17 25 20 12 20 12 12 24 17 20 15 3 3 12 22 22 12 6 12 12 12
split_gain=40.5367 54.5939 10.0205 6.92777 6.38547 8.7307 5.14067 4.03923 3.13969 3.12404 2.90522 2.47127 2.46526 5.1572 3.71888 2.81362 1.96768 1.66828 1.96611 1.65645 1.63762 1.59008 1.53888 1.76736 1.64904 1.38482 1.37923 1.29583 1.18167 1.43379 1.17939 1.17473 1.30556 1.28757 1.52914 1.18627 1.14802 1.06293 0.970092 0.96833 1.01292 0.957756 0.920846 4.43397
threshold=0 100.33966907689337 378.60319149513788 20.729018835990459 1 300.84093010158 2 0.21829832460188694 0.63103934384211213 802.7396177699917 0.28459274673008322 14.178415235018059 3 0.2534709540621703 703.50000000000011 0.45568063570144735 0.29276133894011297 40.546020473027774 93.500000000000014 3.8400000000000007 0.50338368491360974 0.061049008092662511 0.3319773175542407 54.363975872862348 4 12.018869991580237 0.31305473372781073 12.811153048558774 0.21884245562130178 0.2854352678571429 55.542844215240414 50.607745722318043 13.670036610246457 2.8798943022507486 169.50000000000003 121.50000000000001 0.31452163185805843 2.8500000000000001 4.2477272727272739 0.32764274691358031 32.187500000000007 0.22797501643655488 0.4966666666666667 0.38700255102040815
decision_type=1 2 2 2 1 2 1 2 2 2 2 2 1 2 2 2 2 2 2 2 2 2 2 2 1 2 2 2 2 2 2 2 2 2 2 2 2 2 2 2 2 2 2 2
left_child=1 3 12 20 -2 8 9 -4 22 19 17 31 13 21 36 25 38 -5 -19 -7 42 -3 23 26 27 -15 -6 28 -25 -30 -9 33 -33 35 -35 -12 -14 -37 41 40 -27 -8 43 -1
right_child=4 2 7 10 5 6 16 30 -10 -11 11 -13 14 15 -16 -17 -18 18 -20 -21 -22 -23 -24 24 -26 39 -28 -29 29 -31 -32 32 -34 34 -36 37 -38 -39 -40 -41 -42 -43 -44 -45
leaf_value=-0.0063952304200587395 -0.018757001854235539 0 0.016979661353042352 -0.0035355070965092791 -0.0087901511287444573 -0.0068400334241481885 0.013717530548509329 0.017502257933101638 0.03997775967753258 0.025858756202807039 0 0.026910065609848051 0.011572269717118047 0.020440976903301766 0.034511694066844685 0 -0.009544943121261102 0.00052924405676563614 0.015648676362859548 0.011263918475820365 0.0050363753865055655 0.023648801996712699 -0.0098367705189326277 0.017169236927123719 -0.0047171506159769724 0.025150559735427996 0.019268655569621679 -0.0047384591141955102 -0.0044871022379094783 0.01686981218698325 0.059653438093998923 -0.0066363385228304242 0.023511238099087645 0.014546344611918435 -0.014950148968149319 0 -0.0042574307234842157 0.024527332129652638 -0.012978751190755308 0.078416868715457236 0.058359309925891091 0.00045372097014300143 -0.012022595181291661 0.020550017535606712
leaf_weight=401 182 14.999999999999998 23 144 621 35 48 8.9999999999999982 6.9999999999999991 77 21 60 98 13.999999999999998 41 4.9999999999999991 119 133 84 98 85 61 654 47 643 20 7.9999999999999991 68 56 24 94 43 8.9999999999999982 20 18 6.9999999999999991 28 65 17 18 24 110 115 36
leaf_count=401 182 15 23 144 621 35 48 9 7 77 21 60 98 14 41 5 119 133 84 98 85 61 654 47 643 20 8 68 56 24 94 43 9 20 18 7 28 65 17 18 24 110 115 36
internal_value=0 0.00925639 0.0316701 0.0011409 -0.00539612 -0.00437707 0.00440754 0.0500671 -0.00650676 0.0130423 0.00692838 0.0133123 0.0242291 0.0318685 0.0138538 0.047507 -0.00195486 0.00244842 0.0066884 0.00604677 -0.00425612 0.0182637 -0.0067029 -0.00526106 -0.0028922 0.0510876 -0.00831578 0.00291132 0.00770036 0.00129344 0.0567007 0.00843601 -2.61193e-05 0.0122222 0 0.0169445 0.00758499 0.0214851 0.00277971 0.0567223 0.0452955 0.00490303 -0.00579886 -0.0040075
internal_weight=0 1691 450 1241 2814 2632 504 126 2128 210 604 243 324 157 167 81 294 361 217 133 637 76 2121 1467 838 76 629 195 127 80 103 183 52 131 38 93 126 72 175 62 44 158 552 437
internal_count=4505 1691 450 1241 2814 2632 504 126 2128 210 604 243 324 157 167 81 294 361 217 133 637 76 2121 1467 838 76 629 195 127 80 103 183 52 131 38 93 126 72 175 62 44 158 552 437
cat_boundaries=0 1 2 3 4 5
cat_threshold=48 64 384 16 128
is_linear=0
shrinkage=0.075


Tree=22
num_leaves=45
num_cat=3
split_feature=25 17 17 17 25 17 11 25 23 15 15 3 23 4 23 17 11 3 11 4 15 8 17 3 27 15 8 23 8 9 9 23 17 23 17 2 23 17 27 27 23 5 27 27
split_gain=34.9061 47.0231 8.54244 5.94314 5.72754 8.36375 2.48412 2.46245 2.21343 1.97911 1.41305 2.5123 1.34413 1.25795 1.25431 1.19237 1.14336 1.14787 1.10026 1.06535 1.04223 0.931414 0.860296 1.4172 0.851393 1.17306 0.806245 0.74143 0.882288 0.730493 0.845905 0.730476 0.711883 0.69676 0.696691 0.659863 0.646914 0.641081 0.631508 0.665079 0.608741 0.604552 0.579372 0.578111
threshold=0 100.33966907689337 378.60319149513788 20.729018835990459 1 300.84093010158 5.5000000000000009 2 46.500000000000007 4.2652860220531688 3.1909873171337018 136.50000000000003 363.60000000000008 745.95833333333337 132.83333333333334 468.98535873979034 4.5000000000000009 431.50000000000006 6.5000000000000009 703.50000000000011 1.3704200119626007 0.13529006036185942 118.2867451278657 127.50000000000001 5.0947842012621676 3.3366489838838276 0.33190148911798401 1491.0000000000002 0.14576665998493152 0.77229492915734543 0.46008498279775184 119.80000000000001 40.546020473027774 451.72807017543863 1117.0805840664714 890.50000000000011 20.100000000000005 149.03823794613081 433.71015503564399 295.35592437784703 325.16666666666669 1017.5000000000001 402.29354648080317 577.50355592935341
decision_type=1 2 2 2 1 2 2 1 2 2 2 2 2 2 2 2 2 2 2 2 2 2 2 2 2 2 2 2 2 2 2 2 2 2 2 2 2 2 2 2 2 2 2 2
left_child=1 3 6 20 5 10 29 15 -5 13 22 -12 18 -7 -13 -6 -10 32 -4 21 -1 -8 41 37 -14 -26 34 28 -11 30 -3 -32 38 -28 -17 -16 -22 -24 39 -18 -20 -2 -21 -38
right_child=4 2 12 8 7 9 19 -9 16 27 11 14 24 -15 35 26 17 -19 40 42 36 -23 23 -25 25 -27 33 -29 -30 -31 31 -33 -34 -35 -36 -37 43 -39 -40 -41 -42 -43 -44 -45
leaf_value=-0.0076967933480412681 -0.0070954887847685848 -0.0058971844078548651 0 -0.0041667117401072394 -0.0083413092154365903 0.0031889253234858037 0.006841202899635565 -0.017429001846767884 0.0029285902135121437 0.0049587611641579024 -0.0054781151958186143 -0.0038592386757551902 0.027083845040180035 0.0228967639317493 0.028630951437124352 -0.0015663026979342463 0.00020088450983400712 0.031152696813822836 0.0394708484786137 0.039174262100179137 -0.0066781111295788924 0.02440846928707267 0.0027916220385302876 0.0067786903013174688 0.013245151254834426 0.060839922643872335 0 0 0.029075075719177973 -0.0015683039892798066 0 0.022632632285756588 0.011950841965073355 -0.023028397204302289 0.010753145159478155 0.0088066152764046616 0.0031893118583446174 -0.010324536102122058 -0.004394357757433613 0.017866006718367994 0 0.0012320693735067346 0.011063904180032792 -0.0036033095110923124
leaf_weight=254 911 5.9999999999999991 5.9999999999999991 87 846 218 31 182 176 19 145 20 17 21 19 63 39 17 25.000000000000004 59 94 157 20 75 6.9999999999999991 66 7.0000000000000027 8.9999999999999982 44 20 6.9999999999999991 32 231 13.999999999999998 37 51 175 74 31 23 4.9999999999999991 39 11.999999999999998 114
leaf_count=254 911 6 6 87 846 218 31 182 176 19 145 20 17 21 19 63 39 17 25 59 94 157 20 75 7 66 7 9 44 20 7 32 231 14 37 51 175 74 31 23 5 39 12 114
internal_value=0 0.00860049 0.0294026 0.0010652 -0.00499629 -0.00210465 0.0225033 -0.00907711 0.00642829 0.00889425 -0.00469377 0.000360616 0.0464261 0.00523667 0.0103823 -0.00726982 0.00832871 0.0109301 0.0288262 0.0259048 -0.00392931 0.021865 -0.00580739 -0.00048577 0.0525024 0.057267 0 0.0200356 0.0228786 0.00790413 0.0133554 0.0178574 0.00961378 -0.013423 0.00245597 0.0152816 -0.00126639 -0.00691199 0.00312818 0.00783623 0.0345516 -0.00669087 0.0354196 0.000303913
internal_weight=0 1691 450 1241 2814 1665 324 1149 604 311 1354 235 126 239 90 967 517 341 36 259 637 188 1119 169 90 73 121 72 63 65 45 39 324 21 100 70 383 94 93 62 30 950 71 289
internal_count=4505 1691 450 1241 2814 1665 324 1149 604 311 1354 235 126 239 90 967 517 341 36 259 637 188 1119 169 90 73 121 72 63 65 45 39 324 21 100 70 383 94 93 62 30 950 71 289
cat_boundaries=0 1 2 3
cat_threshold=48 392 3
is_linear=0
shrinkage=0.075


Tree=23
num_leaves=45
num_cat=0
split_feature=13 23 15 22 22 22 22 12 15 13 15 27 22 22 18 23 9 18 22 22 22 22 23 22 22 13 22 22 22 9 13 22 23 23 22 23 27 23 18 22 13 19 18 13
split_gain=17.6437 6.64661 3.98513 3.26782 2.75011 6.26555 2.72566 2.30301 1.89979 1.89747 1.87505 2.26695 1.58111 2.74932 1.76825 1.40667 1.34707 1.84292 1.4636 1.42046 1.27197 3.17524 1.26496 1.24824 1.73096 1.23821 1.21715 1.2139 4.27126 1.16665 1.14032 1.56762 1.13294 1.46173 1.12818 1.11794 1.10475 1.07731 1.06684 1.02682 0.954107 0.885165 1.70643 1.31721
threshold=3.4811217321331038 132.83333333333334 2.9988475484293091 3.7021739130434792 3.998333333333334 4.0012500000000015 4.2763888888888895 0.63103934384211213 1.3381507513938151 3.7012257604091228 3.5782954716099016 267.57190386696681 4.1930952380952382 4.1145833333333348 0.26449034790378662 439.62946428571433 0.62689265536723171 0.18519429356894765 4.0980000000000016 4.2006849315068502 3.9080128205128211 3.8949754901960794 389.60000000000008 4.1930952380952382 4.1113247863247873 4.2696729980286863 3.8007936507936511 4.2118055555555562 4.2937500000000011 0.65188404657016996 3.1984648276080736 3.8171568627450978 356.13636363636368 632.42857142857156 3.8949754901960794 46.500000000000007 96.006655719494077 213.16666666666669 0.27360100244883784 3.7928260869565222 4.6150714996361826 67914.000000000015 0.13743806924263749 2.3502401828962087
decision_type=2 2 2 2 2 2 2 2 2 2 2 2 2 2 2 2 2 2 2 2 2 2 2 2 2 2 2 2 2 2 2 2 2 2 2 2 2 2 2 2 2 2 2 2
left_child=1 35 8 25 9 -6 16 -4 -3 38 -11 20 13 14 15 30 -7 22 -19 23 21 26 -18 24 -20 -2 39 -14 -29 -22 31 -10 -27 -34 -33 -1 -28 -32 -5 40 -12 -36 -43 -44
right_child=3 2 7 4 5 6 -8 -9 12 10 11 -13 27 -15 -16 -17 17 18 19 -21 29 -23 -24 -25 -26 32 36 28 -30 -31 37 34 33 -35 41 -37 -38 -39 -40 -41 -42 42 43 -45
leaf_value=-0.0079005570396432322 -0.0079951196413013577 -0.0069738449208006951 0.0050594636051905671 0.035714299627985904 -0.014680869064961823 0.0027651247370524693 -0.0021184782187009176 0.053792166663622999 -0.0015654823765182146 0.0042089612282992551 0 0.068263937631625804 -0.011061573392311078 0.018509213520567173 -0.0041846454676152233 -0.0024419624139617149 0.010508908278841853 0.023605721211220714 -0.010933674660372128 0.016342000396346573 0 -0.014958086996287982 0.030121670422240905 -0.018418008284169608 0.016693801085296736 0.022474748843028611 0.030412984449501114 0.018992381379980536 -0.0052874522231320014 0.032112622632283476 0 0.024695375406040044 -0.017428448998342078 0.020624050033999173 0.00035107995930531402 -0.0036170201594619461 0.00034477380626864889 0.034859051636064432 0 -0.0037464507238079495 0.029561204626999151 0.029793230008911119 0.018573473899708606 -0.0058626577099116367
leaf_weight=817 73 291 611 43 60 62 66 4.9999999999999991 114 92 15.000000000000002 4.9999999999999991 103 51 271 142 41 33 20 36 8.9999999999999982 19 74 18 28 17 43 47 263 43 5.0000000000000027 25 14.000000000000002 7.9999999999999991 84 717 12.999999999999998 13.999999999999998 7.9999999999999991 22 13.999999999999998 22 19 28
leaf_count=817 73 291 611 43 60 62 66 5 114 92 15 5 103 51 271 142 41 33 20 36 9 19 74 18 28 17 43 47 263 43 5 25 14 8 84 717 13 14 8 22 14 22 19 28
internal_value=0 -0.00218686 0.000534149 0.00966704 0.0114312 0.00728586 0.0109518 0.00561951 -0.00154594 0.016789 0.0138529 0.0183412 -0.000163007 0.00178199 0.000503329 0.00344016 0.0139035 0.0164132 0.00961923 0.00437297 0.0163115 0.0112773 0.0237587 -0.00139001 0.00398369 -0.00184013 0.0165588 -0.0039517 -0.00137743 0.0270395 0.00631433 0.00486372 0.00812892 -0.000768213 0.00929964 -0.00593973 0.0245734 0.0245381 0.0310266 0.00637788 0.0159318 0.0062859 0.0125799 0.00292722
internal_weight=0 3629 2095 876 764 438 378 616 1479 326 275 183 1188 775 724 453 312 250 135 102 178 126 115 66 48 112 107 413 310 52 311 292 39 22 178 1534 56 19 51 51 29 153 69 47
internal_count=4505 3629 2095 876 764 438 378 616 1479 326 275 183 1188 775 724 453 312 250 135 102 178 126 115 66 48 112 107 413 310 52 311 292 39 22 178 1534 56 19 51 51 29 153 69 47
is_linear=0
shrinkage=0.075


Tree=24
num_leaves=45
num_cat=4
split_feature=25 13 13 25 13 25 11 12 12 11 12 12 11 13 12 25 11 12 12 24 12 23 12 13 12 13 19 12 23 24 26 27 9 9 13 19 27 12 13 20 23 23 19 27
